-2.561168112264984309e-01 -3.192360347474638704e-01 -3.202313545952757967e-01 1.681572933797107761e-01 2.848704185767107488e-01 -9.625747068828148789e-01 1.266252298047619573e-01 8.744952794438536070e-02 7.319501181054467454e-01 -4.366371540756304737e-01 7.005963461024479477e-03 -4.191701793035372825e-01 -1.847480753834422007e+00 -4.146509048214537807e-01 3.831029001074270357e-01 -1.421795771452430690e-01 -7.973034663045770742e-02 2.349275656822194525e-01 4.009497008879809310e-01 -5.264660958943336855e-01 -5.143247593648184735e-01 1.580404301001502088e+00 4.669046322438869523e-01 6.871530786028013926e-01 -1.128627009671016035e-01 -1.693456321846536494e-01 -5.560331944856955477e-01 -4.667168491249226170e-01 4.820252336040332236e-02 -1.405958234383041905e+00 1.094545263911875232e-01 7.779095825385690111e-01 -7.048349847308980898e-02 -3.384510168760138105e-01 -1.035389463002292398e+00 -1.312396899606094736e-01 6.674748496334850234e-01 -4.029764909631322056e-01 2.488551460111529945e-01 -2.721338368348920622e-01 -6.741655283635044071e-01 4.006244981231711355e-01 -5.145705182551363333e-01 -1.765008069612952479e-01 4.090232353964187717e-01 2.350352836757459152e-01 -5.581238549848308583e-01 -4.305053514205764431e-01 -9.931949756080982183e-02 -3.738637043830142503e-01 -3.421100293435642148e-01 -4.698573300094396332e-01 1.175218761525818334e-01 -6.694308079114014154e-02 -2.991740438648350375e-01 1.080871182584947215e-01 -4.184665252792099666e-01 3.168784669555636535e-01 4.074494781395782139e-01 1.702723813589280544e-01 -4.573697944058014442e-01 -1.167934500057362102e-01 4.671673220368118828e-01 -6.851744619675542713e-01 -3.067250475667297471e-01 -3.022411431782596192e-01 -3.885999885797551401e-01 3.595773473244595064e-01 2.188100605851945601e-01 1.475232152044100853e-01 -6.037094032633225638e-01 -3.992523742006280907e-01 -4.628911816478861740e-01 -1.656823946151308735e-01 -8.107928884102503231e-01 -8.352538838979828295e-02 1.767790819200589225e-01 1.560235425501634889e-02 -4.549760999125705974e-01 -1.099437896173076079e-01 -4.683496101994792382e-01 1.964818906689670408e-01 3.632914575575599964e-02 1.813150846273709205e-01 -4.039224206374061321e-01 -1.956343263192664508e-02 1.655081882257938952e+00 -1.795006592631927245e-01 -2.386850164763586538e-02 7.587348648701122689e-02 -1.504185091919796324e-01 -8.220261660361785627e-02 4.421979757879201944e-01 5.014926090222635580e-01 -1.213786541058002461e-01 -3.167818447941310733e-01 -1.451195637656601256e-01 -2.175953280349611774e-01 3.575186983481041247e-01 1.081391442242404244e+00 -4.563874976434083297e-02 3.408349481274080550e-01 2.561109944037939234e-01 3.538988422816089496e-01 -2.284032845301596226e-01 -4.883563220069377375e-01 7.862227898895556288e-01 -2.655116686077813037e-02 -7.260212978725685828e-03 -5.002085234024521432e-01 -7.339871527409533858e-01 -4.051299482683817788e-01 -2.723893180502716116e-01 -4.473063941331372750e-01 2.768566842789595972e-01 -3.928299904148716548e-01 -2.716866092383369846e-01 1.203327482696070205e-01 3.720378120143774670e-01 4.794682146154670595e-03 7.723975783738477874e-02 -5.124988634479178407e-01 7.058130640058577487e-01 6.267406694359795027e-02 8.135886369945656733e-04 -2.480157885342861301e-01 4.128442553508037127e-01 4.459460186957101557e-01 3.603106194595809830e-01 3.565585081581268412e-01 3.138618979770525785e-02 -5.110936601282027869e-01 2.294699560897349722e-01 -3.048907133066185993e-01 5.894528255657492943e-01 1.281813233956938358e+00 -3.167878975784680917e-01 -4.471541857543481213e-01 -2.447112875093672701e-01 -2.541410242964166621e-01 -3.338604791948405759e-01 -2.439724088823241321e-01 3.186109307370461607e-01 -1.195939735743178911e-01 2.512140258497483902e-01 3.417571218383597675e-01 -1.833694515212422882e-01 -7.426237350391531322e-01 -3.605145484012245993e-01 -4.127740503535452521e-01 7.452725229530161588e-01 9.854203805013267425e-02 -1.266711271309502729e-01 4.568578633279413714e-01 5.018347735137249632e-01 -4.980927170900056877e-01 3.423453450330637970e-01 -2.030455038158251457e-01 -3.035776490179638576e-01 -2.269327744720002760e-01 -5.156168473478716513e-02 -3.721038909077869494e-01 -6.113343383977710710e-01 4.695623240678407917e-02 -8.694231726157557877e-03 -3.581814881285665941e-01 -2.861414416820609041e-01 3.702885283934197469e-01 -3.414290239752110212e-01 2.973319239630027311e-01 -2.180646811891932824e-01 -4.863020231638500723e-01 3.482396887373442329e-01 -6.561327448518665673e-01 3.351924403995065194e-01 9.875694695129615397e-01 -8.070735227565342118e-01 4.150226077442547429e-02 4.872376528039454313e-02 -1.236953192146030911e-03 3.927673280932684197e-01 -4.789924847359052218e-01 -6.493322589608778728e-01 -3.417031365686507560e-01 -2.486487384905022302e-01 -4.479983644455802216e-01 7.940077024793891214e-01 -5.155309531330780348e-02 2.711191664737901408e-01 3.828729292229660075e-01 -2.133478459750956513e-01 -4.496841179827658075e-01 2.644293649650833467e-01 3.683245537452992796e-02 1.493785426540840955e-01 -6.090405642155773819e-02 4.931966992792809479e-01 -2.475557442685400733e-01 3.472370743963386630e-01 3.352050875551330217e-02 8.746554733784009383e-03 3.715564736555267977e-01 5.275938153448573448e-02 3.015526628985588098e-01 -6.885695875838708790e-01 3.481747620349163741e-01 7.423437300240116610e-01 -6.118650743659844737e-01 -3.879034211542274346e-01 4.059243618260039432e-01 -3.986961493170841919e-01 4.278827682213608430e-01 -7.425445100684062438e-02 -1.846980535146507951e-01 4.819555345949821934e-02 -1.274238772393413710e-01 -1.093264511186562982e-01 -2.640807354715499211e-01 2.258509911002341275e-01 -4.188994339757149410e-01 -6.495413737742878890e-01 1.044257946115494801e-01 -1.940967831833484980e-01 -5.633867378769701756e-02 -4.869099426962379962e-01 7.467023563384463103e-02 -3.253184746442258635e-02 -5.309970342452376979e-01 1.603225950742487027e-01 -4.453727556339178162e-01 -5.549224502281673299e-01 -7.511764115333265102e-02 -3.767495175171048372e-01 6.112602440727100683e-01 -8.056701391970496617e-01 -5.768374468416724854e-01 -2.940151703502137392e-01 2.991102338658408466e-01 3.175726651414351176e-01 -5.398644756136665723e-01 -1.034603073564577952e-01 5.017173872747840990e-01 -2.895463283807729327e-01 1.165591534771007604e-01 -3.160192666749216395e-01 -1.558911346794253694e+00 -1.152516566401610154e+00 -4.350489924513776252e-01 -4.518570083051874353e-01 4.640078454475440872e-01 -5.875673321895519274e-01 1.013594803685026191e+00 6.729888426525443279e-01 -1.862025439054859621e-01 3.696136092419894520e-02 -1.585831684124456298e-01
3.445529939158173960e-01 -3.479695632420484186e-01 4.480435518711312071e-01 1.327911278530757300e-01 -1.954102236791892822e-01 6.353664661006253045e-01 2.256473376608773840e-01 3.217427814363053584e-01 2.415205546280718152e-01 -4.059250694365271195e-01 8.569498772867559788e-01 5.266151989521631327e-01 -1.612862682501863709e+00 6.884545418849715714e-01 5.089319158660949860e-01 -3.114390922187655342e-01 -1.716034205082663244e-01 -4.057474590785493107e-01 -1.306063235878652910e-02 1.015247187433460513e-01 -3.746405738520789952e-01 1.151883730240332415e+00 5.071751154131682870e-01 -8.110204833303739924e-02 5.973087633216176418e-01 -3.557960740390818111e-01 -3.634343581306513915e-01 -3.145469894463260863e-01 3.436187264689332665e-01 -1.836689375520836220e+00 3.638991065602789066e-01 6.098858946738616726e-02 -2.368460571451520280e-01 -9.921356067409813073e-02 2.380500150824639560e-01 -3.271087764998779068e-01 -1.528433178919824664e-01 1.438066345440545402e-01 -1.804700589448933745e-01 -2.769790317977562921e-01 9.375040211339455420e-02 -3.741747639060743480e-01 -1.156365197724583682e-01 2.870029470397353899e-01 -4.085475629542993925e-01 2.542322991354820094e-01 1.698243347884760279e-01 -4.017817253145034018e-01 -6.370296658755482122e-01 -3.019729210401815300e-01 -2.406377228288678408e-02 3.925480974149449243e-02 1.427682901543479432e-01 4.507065321490268395e-01 1.813185443649955875e-01 -4.583334197554058131e-01 -4.660577421600845538e-01 -4.070677570513784316e-01 -2.835316053996522756e-01 4.017286056690982377e-01 3.567087807910307440e-01 3.936990736358529919e-01 3.609355635760318481e-01 -2.238448941547639681e-01 -7.227788571594454536e-01 -2.961889130135533788e-01 3.590039762746585761e-02 2.049840457068662358e-01 -2.011540815810025987e-02 -2.698053529507535853e-01 -3.783520437869190012e-01 -2.325787283668416527e-01 -4.160618839715949369e-01 -3.479212642334536532e-01 -8.180465599740103233e-01 3.524402918228343728e-01 1.927330019434422836e-01 2.831521936055759747e-01 -2.529608790364746285e-01 -6.150360988925788197e-01 -1.935069208195064894e-01 -4.581332630818173435e-01 3.659722019028817663e-01 -3.529111058348968211e-01 -3.600921187677043056e-01 -4.261888011160276934e-01 1.124450291146563030e+00 -3.420872494433889188e-01 4.134900854664732561e-01 -2.664175432293182100e-01 -1.396257494883200723e-01 2.636412034297339613e-01 4.103869585915719820e-01 4.333661406440033614e-01 -3.552400196562062740e-01 -3.662955258571293227e-02 3.886091042296617726e-01 -6.515926617332679083e-01 4.014078107248092997e-01 -2.888657388844834834e-02 -1.280777854219951606e-01 -2.051547454670545334e-01 3.907796744947300005e-01 -3.706154712755779235e-01 4.101554617891722820e-02 -5.317270038011878697e-02 4.348806145025508330e-01 -3.839928572492511960e-01 -1.830624264712317484e-01 1.671320097350542308e-02 -2.684499604560767194e-01 1.657641688681609285e-02 -2.020103193604310399e-01 6.776387627742422315e-02 -2.485730349388776683e-01 -2.335535317994163196e-01 7.515082777096077082e-02 -4.325775827415956898e-01 3.237043795849681160e-01 -5.111029138541866024e-01 2.552388865531257656e-01 1.978701571536220782e-01 -5.587109377892204298e-01 -2.204602643540122531e-01 -1.117472658526727614e+00 -2.809624609569958409e-01 3.066216495446652535e-01 1.737165493527206284e-01 6.152920299154946981e-01 -1.537849641440369453e-01 4.277784002862892176e-01 -5.916759250531447023e-01 3.630476898993902357e-01 -3.142612113180342504e-01 1.760503711115597447e-01 1.846955228365145141e+00 6.745033656746427519e-01 -4.893281312328803812e-01 -4.267882338137515275e-01 -5.159983028969173935e-01 8.271648424514356501e-02 2.713084046538738470e-01 6.252253632373079573e-02 -1.438880088140599145e-01 3.503024421270027333e-01 -4.459314358099595310e-01 -8.648726090377255316e-02 -1.164010213085721057e-01 7.637522865001808436e-02 -1.446261051791231100e-01 -6.110581676900118664e-01 1.200998699944773179e-01 1.426605160848135601e-01 -1.753965674036661593e-01 -2.560003573680963984e-01 4.403550677481075093e-01 -4.077339559789089352e-01 -1.296410370596591533e-01 -1.222645653781741087e-01 4.516836004934269289e-01 -1.130741402570911713e+00 1.207534821564372890e-01 4.963120151400078339e-01 -1.257339100712212554e-03 -1.643309231730087361e-01 3.293482862683120849e-01 -4.549933898436792079e-01 5.222264019442712790e-01 -4.661523524960814457e-01 1.960952692627914717e-01 -6.335053453588913586e-01 1.861859242657169511e-01 1.391751970336764788e-01 8.159595633876584042e-01 4.072777703485262468e-01 4.971199253980350119e-01 1.180110028361942121e+00 7.476472933119933106e-01 7.163200831772909005e-02 1.520620867624449847e-02 -3.001077552865905607e-01 -2.732936362388441176e-01 4.608535491981747834e-01 3.175688214241438878e-01 -2.127459740823945122e-01 2.214619877801302650e-01 -1.496970302040935563e-01 -1.200800111025934064e-01 2.537561062637576706e-02 -4.312518050869028063e-01 -1.757124832656085101e-01 -2.169774797527282417e-01 8.001600885954254228e-01 2.860839940808728166e-01 -2.394491697837130423e-02 5.461744455281722921e-01 -5.543174663109101674e-01 1.380396922159896067e-01 5.544442071516078041e-01 1.522599734557372186e-01 3.711495624261191284e-01 6.097777109773391824e-02 1.536067824309098329e-01 -1.580062755377491523e-01 -7.016065289669543015e-01 -5.076186220609846256e-01 1.375733436825647971e+00 4.005885398905013606e-01 -3.287587497418126281e-01 -7.357509612916099950e-01 -4.588119358999621089e-01 5.472175877006295319e-02 -2.514789795832450547e-01 2.906740335593125391e-01 -1.719783316949384609e-03 -3.559749129110513499e-02 -5.312588768492634284e-01 2.982152021726253710e-01 1.742071869115223437e-01 2.016716301920417620e-01 6.266659024446669113e-01 4.477285886553777905e-01 3.397879935184819900e-01 2.078505156452222502e-01 3.888889866691699337e-01 -4.264796765277089063e-01 2.289366580432952158e-01 -5.119016451321007910e-01 7.259381216637715573e-02 -3.825356123343891523e-01 1.867826759813129012e-01 -4.093299595026818061e-01 -3.877869306239320468e-01 1.230206319697875056e-01 -1.410526499797814248e-01 1.585097517217140262e-01 -7.883820723207124459e-01 1.010996205814478216e-01 -4.907735985614886665e-01 4.337098846471248992e-01 -2.223616894365732996e-02 -2.926041488604744778e-01 4.917706640091801806e-01 4.456914850524281158e-01 7.393497499515262750e-02 -1.052960727451426548e+00 5.867201978597271772e-01 -1.618192528315768874e-01 -5.043597490142540662e-01 -3.333429213791527235e-01 3.006304406329356471e-01 5.386701143533297875e-01 -3.151316473614553249e-01 2.839855742666903549e-01 -1.173108039433398558e-01 3.682540111966741692e-01
1.836695103739185153e-01 -1.777864209255494710e-01 2.771152470531684231e-01 -4.334427520457966865e-01 5.493491788920460417e-01 -5.956766949308118786e-01 -9.373375373403537714e-02 3.508802531225270471e-02 4.598720184367206809e-02 -1.034453461115265871e-01 3.003983976372106013e-01 -1.403766671454981796e-01 -2.771071739946206147e+00 6.041148630297421551e-02 -8.959769020275371032e-02 1.429027051413587213e-01 -4.619848453237961894e-01 4.537296359808447033e-01 4.372169387779837324e-01 3.132431109440433209e-02 8.850236797890849438e-02 2.118011747495399444e+00 -5.074930485434290262e-01 7.502374475240679574e-01 -6.121542246201874260e-01 -5.682600361867371497e-01 3.231684846265518440e-01 2.004169142911375323e-01 3.127029543770488695e-01 -1.371058226711129979e+00 -3.777596635267330694e-01 -3.655273767657228334e-01 1.960007189207111922e-01 3.175826615941499398e-01 5.217116338854140695e-02 -1.014143654866023064e-01 6.900311115154269537e-01 2.810038668597317768e-01 2.436490182880511057e-01 -3.382137600195124771e-01 1.684317247060345968e-01 2.567501958820179175e-01 1.444927069456422852e-01 8.098242006397325665e-02 4.872018389421789997e-01 1.691427278746687746e-01 -4.333425146155562846e-01 -4.504526839247205983e-01 4.627593724081981996e-01 -7.356459329502147426e-01 2.818575825898224640e-01 4.399268010584519439e-01 -4.352840119058769552e-01 -5.924180383358559343e-01 -2.078912473047051512e-01 -3.400478201444457338e-01 5.769382705164621816e-01 -3.418080413564713038e-01 -3.270400875109326089e-01 -4.450052361121223932e-01 4.416210880916365267e-01 2.212369581083586390e-01 4.116247805500569124e-01 -1.535478828636104853e-01 -5.191068678689757521e-01 4.007811845779604143e-01 4.274175206264078097e-01 9.363088400610931894e-02 -1.812211617146947673e-01 -3.014336459759260345e-01 1.958119162097809174e-01 3.943967109856913456e-01 -3.561130326006661795e-01 2.289020695092314484e-01 -6.060885190519592625e-01 -4.897504679354899304e-01 -4.768457167418712478e-02 1.252439910546746249e-01 -1.905888263745987021e-01 -7.198269613440667625e-01 -2.759630524675996122e-01 -2.451023652355784066e-03 -1.702834859381356647e-02 -2.140381067296525108e-01 -5.629741332212245819e-01 5.334676662661466118e-01 3.644735458683360241e-01 1.072884786891008801e-01 -4.402749282775750839e-01 3.049411334427019060e-01 2.753816789886868177e-01 -4.039706388087702105e-01 2.071163512851025360e-02 -4.091331826484183032e-01 -4.252452453844431934e-01 5.163036521248038913e-01 -2.800979158725915852e-01 -6.631779681567206985e-01 -6.075417495065109641e-01 8.303910368208399229e-01 -1.771256245208812641e-01 3.260764088321245757e-01 -7.530753058994489324e-01 -2.208311510313685222e-01 3.178258369485777446e-01 -1.020747598269762690e+00 3.420134370589737460e-01 2.135001526458614463e-01 7.431758840222325857e-02 -1.226691001149843585e-01 1.310003939678353047e-01 -1.658997997908809308e-01 -1.560615591679324621e-01 -4.044638260449325839e-01 -5.042938617730359230e-01 -1.086870120743497481e-01 -5.626056127191293027e-02 -5.302538611404224861e-02 -3.569935697648997097e-01 -2.468046892684429283e-01 -1.046492033205392996e-01 -2.650544783459865550e-01 -6.259690154176907884e-01 4.020699500037913654e-02 -5.619632676723523845e-01 3.772553332073343979e-01 -7.449309900859693578e-04 1.588009998118381505e-01 3.747500358178492696e-01 1.288256382347028994e+00 4.317089928750910688e-01 -1.641046303264737105e-01 -2.307752919475619946e-01 1.428673126769685608e-01 4.768175192696942344e-01 -1.985027443244460066e-01 1.857992097666918141e-01 -1.452668390394508124e-01 -2.122791302760474452e-01 3.578202937594585631e-01 1.609845409023598350e-01 -1.796434956847492159e-01 2.177927456685678220e-01 3.929764797464499471e-01 5.126596340191857948e-01 2.853922251096104312e-01 2.796776256382643155e-01 2.397716623246003709e-01 3.748559419321101371e-02 2.201313801736773101e-01 7.969176428293427428e-01 4.377801230535182109e-01 -4.108840509422744675e-02 1.737882910700947262e-02 -2.736456450567210652e-01 1.413742101247043581e-01 6.082148017897298642e-02 1.090429391675311194e-01 6.549914400343526122e-01 -4.201087994378566171e-01 -1.245512530214395314e-01 -8.967057242473132073e-01 6.963651216735461391e-01 -3.903879510285846420e-03 -3.707881143488200859e-01 -2.781386415374735854e-01 -3.728523395904263515e-01 -7.920487350313227815e-01 -2.610615486125569262e-01 -1.180911089881132997e-01 1.592705161904231614e+00 -1.294758345936566635e-01 4.184601961281068649e-01 5.517103051733117658e-01 3.896637294521876904e-01 7.826740430543480675e-01 4.901083351609200611e-01 -4.531873619499098282e-01 5.040427931697125663e-01 -3.010419642958141462e-01 -1.701034582056091815e-01 -1.360477812649616390e-02 1.970354280580390582e-01 -2.335766617164172776e-01 3.537484146430355247e-01 4.170544042638824611e-01 3.905639222364412633e-01 4.710088111860775695e-01 2.801704435527604346e-03 -7.296255263030275440e-02 -2.851731861570795321e-02 5.645997822214742223e-01 2.310830424045414722e-01 5.329974128066680694e-02 5.627260507219700170e-01 1.082205129858468118e-01 -1.564548721943798126e-02 -1.886881566125009901e-01 -3.453708360948406497e-01 3.493519323360739226e-01 -1.335008711563596406e-01 1.074463567582660956e-01 -3.724800484715198867e-01 -1.130146311518092223e-01 -6.603470786502034784e-01 3.267533408938809170e-01 1.236505263748627792e+00 5.804827130387030937e-02 -3.734790632964035129e-01 2.080752335320237290e-01 2.766611026572262100e-01 -1.590735105138906258e-01 7.256932488127283420e-01 2.830505479914205424e-01 3.497493409160343236e-01 -3.442367567050394483e-01 1.339971165299214950e-01 3.966249354862072529e-01 2.508735111198784895e-01 1.210881264736067275e-01 7.952631061465327555e-02 6.195688295666137435e-01 -7.182836643775043495e-01 2.999332226280020108e-02 7.147226109876303468e-01 3.066925733461181580e-01 4.796775478933682502e-01 -3.352216328841120530e-01 7.996761268450610638e-01 1.216106409661949980e-02 -1.875287525761619445e-01 -1.194501215478415701e-01 5.656036932874853457e-02 4.593762846223231611e-01 9.310444320047342459e-02 -2.656279331013196576e-01 3.897650035451878936e-01 4.812176672848678671e-01 2.278069888714985836e-01 1.560110491292353019e-01 2.554773634644627589e-01 -3.575316918608570371e-01 1.087043645435681744e-01 -5.300196604006707224e-01 7.317013506466403250e-01 -1.214801580023245453e+00 -3.483728187220354044e-01 -6.504055927905081358e-01 5.484442360211340128e-01 -2.956849369635994318e-01 2.420332989844477603e-02 2.637648879003062774e-01 -5.692933481488488684e-02 1.492343649563494801e-01 -1.848182512590685889e-01 2.646271667166272823e-01
-1.399192689569739301e-01 4.111032374913272669e-01 8.227824218519872237e-03 -2.128496553530877800e-01 -5.037456333968891309e-02 4.302260697387250699e-01 2.338257622891606602e-01 1.350484668155739476e-01 -3.209635086997607023e-01 2.279472104347154415e-01 -8.146640421610623628e-01 -2.327203538061679011e-01 -1.822888945845152708e+00 9.032097160109164857e-01 1.492965729803194530e-01 9.611718526255960682e-02 1.984310709785082061e-01 -3.663045668579081870e-01 -9.293549446583175555e-02 4.296243515504916122e-01 1.806513091244428826e-01 1.413230715238914526e+00 -4.083976087338477834e-01 2.490317548672242309e-01 -4.995050373129987231e-01 -5.153326647548502892e-01 -3.896527474629036258e-01 3.859421301853646624e-02 -4.837464806826349273e-01 -5.774371190453663205e-01 2.347205813118258821e-01 6.021623670395572780e-01 4.047451443605020183e-01 -5.325177039597124296e-01 3.420563807055643779e-01 -1.421306692015651962e-01 6.282227706662493194e-01 2.179470372157952252e-01 3.927085595712063726e-01 -4.001850105605004870e-01 2.845594847210776157e-01 -1.930900338811420702e-01 1.803199690080963258e-01 -2.917163014507349605e-01 2.430595034231353424e-01 -7.817706996641863304e-01 1.569156531500181528e-01 -2.982583372047484804e-01 4.758697858995581953e-01 -5.576550546035508038e-01 4.948350330877882564e-01 -1.813957478324062511e-01 4.537101297986948500e-01 -4.878541513620083814e-01 4.056722180954535628e-01 -4.337601227035741691e-01 -3.007744737821531622e-01 5.768267677796633519e-01 4.370688247921930558e-01 2.111514822384595036e-01 4.196722615400225731e-01 2.226362919469761226e-02 3.554680849615799998e-01 4.878707915108257964e-01 -1.359523541769871002e+00 -7.608533562565250596e-01 -4.239434710304774145e-01 4.744343560452070063e-01 8.510634516588433396e-01 -1.958695554716259057e-01 -5.775175316905207801e-01 2.328204070529227010e-01 -1.399670536834197732e-01 -2.178159174489465721e-01 3.238694189189784273e-02 -4.581945821105778971e-01 3.783992256804249998e-01 4.491093780325923768e-01 -3.607246660819363182e-01 9.033315655653983978e-02 3.693665187111432324e-01 2.954964302422252720e-01 4.021350148652275136e-02 -5.287113369201146273e-01 -5.671292099210739623e-01 -1.605831336878329740e-01 7.365725054782469305e-01 7.910049744788519854e-01 -4.247673735994436095e-01 -5.477480668751502080e-01 -4.373171530245891780e-01 6.075470428758520530e-02 -1.609736459712309553e-01 1.662610800567661806e-01 1.003537565041927454e-01 -7.797107261945966927e-01 -1.537956993715764234e-02 -1.274774545774339796e-01 -4.301573411106209277e-01 3.546654878840155845e-01 -1.451766211080945945e-01 3.407465281637359622e-01 3.253231212726662158e-01 -2.355404811616924332e-01 -1.751073979287481597e-01 -3.667030376028502237e-01 6.199310807074911445e-01 7.622847514681542203e-01 -2.816778209970726699e-01 3.032143997409109670e-01 -4.081731862500811298e-02 -3.173650784820789550e-01 1.467129090243292078e-01 2.631798720686319704e-01 -1.378174041072354264e-02 -1.693989485692676267e-01 4.971858438614321085e-01 -4.649242903107484448e-01 2.832583906355237453e-03 -7.136301935739106095e-02 2.775086949644916534e-01 -4.732021561360950646e-01 1.231049157307470970e-01 3.134821189351832960e-02 -1.001405829360581423e+00 -5.369962632756126730e-01 -3.657346540394361689e-01 -3.095747073777507241e-01 2.559759765294996603e-01 7.696989725681216976e-01 -1.659269171596967907e-01 -2.744470668219151088e-01 -3.801561658843118918e-01 3.289233543464010201e-01 -7.491239686914639984e-02 5.518116466336812909e-03 -4.254178498260816621e-01 -4.833675882300147442e-01 -2.831030331381306081e-02 -6.171768708020660688e-01 -2.408016969411836128e-01 -3.918016259162965809e-01 -6.269712306010348790e-01 -9.141988542278814411e-02 -2.755759120616254609e-01 3.891514935194418934e-01 -1.888770323552941555e-01 -1.614571087679752756e-02 -5.260828172307056017e-01 2.755947313358478312e-01 -2.865900889782023175e-01 2.024909237084211028e-02 2.977300233266281793e-01 4.794675644032735939e-01 3.687146121701062040e-01 -1.831651622759297715e-01 2.503469054660166226e-01 3.596214893315773931e-01 -8.992924746924337853e-01 -3.600181668826386572e-01 3.503171041548644449e-01 5.688306077729953225e-01 -3.811925814499274590e-01 -3.289322272419109017e-01 -8.140684719699995409e-01 2.279346416151829813e-02 -3.765491880781835499e-01 5.861739474470009648e-02 3.909104438941735093e-01 3.314169344524466737e-02 -4.492320002715929905e-01 3.976619700925622669e-01 -1.974239881155721299e-01 1.839357334954901113e-01 5.843775794648533584e-01 -7.310339398063622207e-01 4.033757462403759764e-01 8.390741808409403479e-02 -2.021582857505618835e-01 6.014013441764416712e-02 -4.463681896097101420e-01 1.204114346277412734e-01 -5.054947529362576741e-01 -3.110564692389539143e-01 8.004989470737683410e-02 2.179439356084114932e-01 2.792723591523424420e-01 -7.936566631458152887e-01 -1.367825888564332404e-01 3.581369983812928148e-01 -1.150435881357671636e-01 -5.020508895369655278e-01 -5.604698271290414757e-01 -3.059025194287101068e-01 -5.124663274125312862e-01 6.129980062439384543e-03 -2.656941728034165062e-01 -9.193839425604566351e-02 -3.004133843077216870e-01 -6.271505896364130139e-01 -4.197687013499724062e-01 2.020318706931698294e-01 8.958473374843175380e-03 -4.860162151706587941e-01 -6.915027159126718725e-01 1.026532896743765771e-01 1.082938567467356172e+00 -3.221835504725193561e-02 -6.362979904941784559e-01 8.171890746589710597e-01 -4.672314611860265976e-01 2.880239934972977367e-01 -4.116516247266071571e-01 -1.442611187705742926e-01 -1.734213037867570195e-01 2.987226773981783157e-01 -1.325613952250559446e-01 3.489465950982720277e-01 4.071608045137888876e-01 4.148659156345111954e-01 1.494568405324606941e-01 -3.749120656961090758e-01 -5.684718289159375049e-01 -4.453638671029398477e-01 -5.069095123895505095e-01 -1.725638126222406032e-01 1.186424446445431269e-01 1.198515470788647994e-02 -7.601895833761572741e-01 3.848727511229255716e-01 -2.694456015826688939e-03 -2.828877754050350135e-01 -2.457256332554782485e-01 5.814255884220440596e-01 3.583253434599686926e-01 -3.103617435699884686e-01 2.789667233877490826e-01 -9.665255875406945918e-02 -4.796478363609599782e-01 1.668306383134938731e-01 3.463791440102411134e-01 -1.799728232220853819e-01 2.412601528229879333e-01 -5.463326536032575564e-01 -1.602976958871595303e-01 -1.463939075012805624e+00 3.354570981615258574e-01 3.214337139584370617e-01 2.657450139167630843e-01 -5.414991447221602083e-01 -1.360732756609555616e-01 -8.698490381295761464e-01 8.298848050220403172e-01 -5.249194083300198210e-01 -5.051664089591874074e-01 9.895268268077918317e-02
-9.893135520728055798e-01 -4.237262358103415782e-01 1.153103187364272614e-01 -1.843155503648380780e-02 -5.001833882127583175e-01 1.113692430184672011e+00 -9.559831978562120802e-02 -6.489991512527826245e-02 3.751451753994632377e-01 -2.262041023985196242e-01 3.779377895005380794e-01 -5.684984413894595967e-01 3.464955112619488298e-01 -1.233807457462062329e+00 -2.540633296551876863e-01 4.191323159869865256e-01 -4.297729204521330559e-01 -8.140091846585673085e-02 -1.322412488445358636e-01 -3.877538731488653356e-01 -8.341844394874528557e-02 -9.359371537090738213e-01 2.318926456100297850e-01 -6.097082503400869102e-01 2.226690283676920623e-01 -1.984268824061841130e-02 5.946674188213768586e-01 2.982000679351621275e-01 5.294726837707040001e-01 -4.806488749782755754e-01 2.404178617915880278e-01 1.372418511461341861e-01 4.768298842636849860e-02 -3.722250246284226072e-01 -5.508731948561013808e-02 2.052000871940461435e-01 6.374740691705728379e-02 -2.203912714702801479e-01 -4.163942314674902168e-01 -1.845592563735570235e-01 4.620496391937494590e-02 -3.679774586610191633e-01 2.733335965401059720e-01 2.465557975267662905e-01 5.791951985773143019e-02 -3.193971540265718168e-01 -1.276452793849839340e-01 3.355955205783756751e-02 1.708069117491277655e-01 -1.722717224330060082e-01 4.186074869245697688e-02 3.115333931078353991e-01 -1.574832294717210257e-01 -4.204273986900369797e-01 1.059889398211678602e-01 -2.274548588544907102e-01 2.695182228829355320e-01 -2.698779794431632739e-01 -5.818320785680632934e-01 4.073059817160849527e-01 -3.810412731511892970e-01 -3.125114812160016409e-01 -3.991434732029348065e-01 -7.719471449484021086e-01 2.282218304251517615e-01 5.392961549380109743e-02 3.814403808965778353e-01 2.000537149689928240e-01 -9.960720803080707064e-01 -2.564673093265779080e-01 -5.730379332019595040e-01 3.158408922102661776e-01 1.431491477131150158e-01 3.650547590001123055e-01 -1.706629642464649321e-01 -5.365909554832536399e-01 3.031636452454560260e-01 6.253524818068093571e-01 -2.476207726489925570e-02 3.993968902574147606e-01 -1.808065877434791302e-01 -3.521298963958492401e-01 4.009689751855068374e-01 -7.989226457635908996e-02 3.119062185695499201e-01 2.017133065767152955e-01 8.483874114198028948e-01 -2.079599252735657433e-01 -3.501032647207755200e-01 3.987197461484982552e-01 -6.976105481745099590e-01 2.336759879576350563e-01 -1.319892328562711492e-01 -4.603540125959959539e-01 1.205246371842110323e-02 9.324881185691552554e-02 -6.857414121351679270e-01 -6.116595451053711274e-01 3.543963955935643395e-01 3.278308047824886051e-01 -2.051816169770793175e-01 7.488218351659199634e-02 4.757600908296353848e-01 2.746490317403554871e-01 6.885282318872769369e-02 5.928395321436928933e-01 3.453132118078889312e-01 2.794011128146020040e-01 -2.524112343146252546e-01 -2.016514435036009800e-01 -3.807816385980850038e-01 2.652485268725801038e-01 -1.111233847363616439e-01 3.427156195459550858e-01 1.179289906640430957e-01 -3.075060907646833819e-01 6.349027502592200500e-01 4.481871859417628501e-02 2.413053114279301026e-01 -7.746100741054892658e-02 2.772167137974672693e-02 -2.240061936649750673e-01 -8.405291796466796139e-02 3.576028904562446598e-01 -5.087124066423508451e-01 3.317337711101782660e-01 4.894898857733631647e-01 4.952886996887015392e-01 4.409588346426077110e-02 6.949512045146889472e-01 -1.571325687438540897e-01 6.192587984007851265e-01 3.246167316826059079e-01 -2.726741721944522800e-01 -5.480400944439492994e-01 -9.726169604192311802e-01 -2.127383883911680706e-01 1.378950984418755854e-01 9.713976255184931796e-01 -3.212288730783579571e-01 1.116127017264367111e-01 -1.354913552663773169e-01 -3.246595908723212132e-01 1.310636974495525166e-02 -7.561200462133575717e-02 -3.260886393945096606e-01 4.395041021420734162e-01 -8.330094764849517164e-01 3.086806090868793873e-01 5.599464415660168615e-02 3.449992582739104807e-01 3.641153280607409976e-03 -4.496449507603607620e-01 3.898306964261141205e-01 -2.639318378914253804e-01 8.167976084369134304e-02 -2.092298872467193704e-02 4.164237958564199205e-01 2.214419361881537207e-01 -6.395926648574961071e-01 -3.022009466681108147e-01 2.500205473781216825e-01 -3.084700225656010052e-04 -7.191900460287806718e-01 -1.764374034122656310e-01 3.056261140961427300e-02 6.403477161514935234e-02 -6.532045989655106411e-01 -2.637703799520753623e-01 2.065247778059944028e-01 -5.969828211823819952e-01 1.634564134860917173e-01 -4.579481224186700006e-01 7.098836625829860886e-03 -4.726172344015403537e-01 -6.097815603147391933e-02 -1.433679239729867931e-02 -1.353530756031409189e-02 8.459082003261798877e-02 2.844935558367648817e-02 -1.401686177352485241e-01 -3.152847585244030748e-01 -5.540767600861904452e-01 4.552568768171635916e-02 2.510596998894272791e-01 -1.152116015531668425e-01 2.900527195777972034e-04 3.468004429500992636e-01 2.928878501096405240e-01 -3.073332391506820027e-01 2.516512533652406902e-01 1.771883309463533895e-01 2.124928578373455335e-01 7.053563084864897803e-01 -3.014622340591737726e-01 1.005627934789616595e-01 7.913116590155222507e-02 -3.504541227135452713e-03 5.630861310384907004e-01 -2.317206517272725474e-02 3.864707872436798364e-01 -4.352602798848533849e-01 1.893191148456057349e-01 1.537010332379177002e-01 3.259297155964825665e-02 -1.933908917061372690e-01 -5.713005731230361706e-01 -8.564028711532596649e-02 -6.013391237638031628e-01 3.340861649883155038e-01 2.687739407889208620e-01 1.038346748341042874e-01 -1.200741019980084534e+00 -4.667634711742252307e-01 1.961658222090980064e-01 3.592265221348063253e-01 4.229392600730076945e-01 -1.208987582075636003e-01 -1.705610901816463076e-01 3.587913866388739437e-01 -2.281784793958705759e-01 -1.135661258340299046e-01 2.242865109969252868e-01 3.985192579935498691e-01 5.425973864341051556e-01 2.294682045048298258e-01 -1.788943204222995242e-02 4.007409728340143307e-01 6.042678469177118483e-01 2.598618441562166592e-01 -1.590892473255645645e-01 -1.186134571322054743e-01 3.012533782967735108e-01 1.428905483349858507e-01 8.115124393927465596e-02 -4.781485555889996575e-01 -5.921301351721018902e-01 -5.107377942568113588e-02 -1.345245204219620294e-01 -1.613616967660215229e-01 -4.154538283961336509e-01 1.602720663093363529e-01 2.144090912752954492e-01 4.545959214967369988e-01 -6.590625225297986889e-01 -8.628852872554143572e-01 5.599132400046613611e-01 3.572650794036128508e-01 2.654116469722444527e-01 -2.773695775199048752e-01 2.542338778035311830e-01 -6.965937575294192108e-01 4.098320638572995889e-01 -4.956657506731585450e-01 4.264078761686376229e-01 -1.605100924114840066e-01
-8.575723785600462001e-01 -4.069017405168655066e-01 2.289974289102362226e-01 -9.536662864113694404e-02 2.042250091770558829e-01 -3.831795464480290958e-01 2.243871627120371803e-01 -4.111224523254123353e-01 9.876656485682250297e-02 -3.788424900326127776e-01 7.132233106958095759e-01 1.702066904259403046e-01 -1.023015256644773940e-01 -4.480658248449498893e-01 -3.718940565483439542e-01 4.125553294339581178e-01 4.062954279376925770e-01 -7.424710663892440943e-01 2.783394617500338231e-01 -7.596586578745042617e-01 -4.921450828112337583e-01 8.213129879055034444e-01 3.931858433198910374e-01 -2.094756841994883656e-01 -7.807118838728487054e-02 -1.569028586992550212e-01 -8.362722727656283217e-01 4.214163793746087960e-01 -3.385398908729999601e-01 1.013253250542716533e+00 8.140294411886093151e-01 7.105284076027424955e-01 -4.701589407682091326e-02 -1.773584371450496466e-01 -8.900308732872352913e-01 -4.276017329820804708e-02 6.920666265260574379e-01 1.179833710389664725e-01 -5.619508274664206660e-01 -5.860086248111247981e-02 1.520225091174576826e-01 -1.147480661602404972e-01 5.011042196922053105e-01 -5.329056682326277494e-01 -9.390500710057536615e-03 3.134231365835285499e-01 2.246491035081109033e-01 -1.210445808451592470e-01 -5.394159689399123936e-01 -1.822357495640429259e-01 -1.468852964075175183e-01 -9.956814403435990668e-01 2.514570589235415876e-01 -2.037309273489527894e-01 3.067790765721128410e-01 -3.352320843085983548e-01 -3.680616503700248621e-01 2.987264752008004232e-01 2.807028785830364970e-01 -6.241334676948300658e-02 1.292654848044037241e-01 2.902779946495330776e-01 4.782420932583504314e-01 2.751494289740110122e-01 7.009218825445925338e-01 -2.134315084683987840e-01 6.136048263003066050e-02 -2.962801121338800026e-01 -1.493857513033733042e+00 -3.530659004877060303e-01 -1.031706827430815876e+00 1.520289799237126982e-01 -2.644039575336286640e-01 4.870300619559238958e-02 6.387098704490895562e-01 -3.667772851646848298e-01 -1.456676346643635267e-01 1.199779282412178238e+00 -5.597449191930132795e-01 5.099604811222373246e-02 4.754532644579179124e-02 4.457792476286306371e-01 5.934330490609138892e-02 9.631368545719957985e-02 -5.965699021790409340e-01 -1.787534576975572387e-01 1.259113628426801468e-01 -1.143821333290276770e-01 2.947195363257212319e-01 4.372052729196203025e-01 1.968221429730238892e-01 -6.576045960254599254e-02 -3.129410679020930286e-01 -8.608937694622752212e-02 -3.844889433803828638e-01 3.747791329629117096e-01 -6.917806387350905473e-01 5.772453428097573669e-01 -2.551746205882904350e-01 7.438843006037888506e-01 -3.220938692081680710e-01 6.499735177886796222e-01 5.111153651759289263e-01 -4.070027683489685355e-02 3.240483775725134380e-02 -8.141280663585608313e-01 5.688934888645388183e-02 -1.399842709809831220e-01 -2.169335941885605912e-01 -2.050675253870152814e-01 -5.778966296456271579e-01 4.909723007625428626e-02 3.009074881705894322e-01 1.072444900459848527e-01 2.457854677311752667e-01 2.724140398571885946e-01 4.738281828842429988e-01 -1.619653579259051207e-02 -2.158944032384534084e-01 -1.063679661829119993e-01 -2.511604282623857709e-01 -2.294771426934920644e-01 -8.769669061345161110e-01 -8.634168574541686292e-01 6.618620802348607057e-01 -3.236617384297998945e-01 -1.873763143182119728e-01 -1.451160375471916703e-02 6.390887788590831065e-01 -9.520929653291937411e-01 -3.923923313653694400e-01 5.690107624366110700e-02 4.673679825935568855e-01 -4.026591140403721347e-01 -6.568513519434152625e-01 1.238238960261981880e+00 7.633586624932746645e-01 -1.154765442596160790e-01 -1.476220926554706325e-01 3.272230449819453768e-01 -3.761684281891430892e-01 -7.317473846709064977e-01 4.514793685517654587e-01 5.029543717315491103e-01 1.605407714609573613e-02 3.526651389522005853e-01 5.150247987276467265e-01 2.129182087860199135e-01 2.291499452585091523e-01 6.248812727045596066e-02 6.692385905464608431e-01 -3.937771392742519527e-01 -2.305554715631292217e-01 5.294561663324982570e-01 5.477641490318674311e-01 -8.801956657261984784e-02 -4.750916665444006592e-01 7.739397560821786870e-02 -3.898009637546566708e-01 -4.911137213179931349e-01 -1.005260815536294317e+00 1.892584702594817536e-01 -2.091690487939922571e-01 -7.352846095030557763e-03 -3.291987303086990613e-01 2.859129716772332297e-01 8.072623605197205843e-02 -1.044261479746460830e-01 -4.918184963304875756e-01 7.197635491494406290e-01 -9.292543810407801752e-01 3.033089242236100547e-01 6.621278257478981077e-02 -6.700524876137858854e-01 2.726014955502145121e-01 1.928815121072344207e-01 -1.158778683011411959e+00 7.541732225393418809e-02 2.650572159823601504e-01 3.178263447665095609e-01 1.625483157080073182e-01 -5.713609733384941158e-01 5.449871249621947022e-01 -1.576772998348131560e-01 3.749168679318906072e-01 8.765180899867876241e-02 3.985192260607642867e-01 9.584301396369482307e-01 1.561940300181660357e-01 5.624817592361928131e-01 1.684907424265008336e-01 4.844220319841257005e-01 7.329400815066032804e-01 -4.975830169586006185e-02 -2.950150138022624713e-01 2.921143216616859176e-02 9.247270033819661450e-02 -9.373230256193768040e-02 1.223915405683604629e-01 -6.769254876791161099e-03 -2.161989781820407297e-01 4.322540852556151503e-01 5.430391037014631328e-01 2.569129401682935243e-01 2.176001170670843476e-01 5.109000867685397074e-01 -1.495916427249623093e-01 -4.065868411526417647e-01 -1.017496703239342687e-01 2.640889888560336018e-01 1.550690709312220195e-01 -4.889414238452984285e-01 -3.210278693505117659e-02 -2.158460652250541179e-01 -6.549699749970731844e-02 8.356069167116840501e-02 -1.686295823275491546e-01 4.711214373438483149e-01 -4.120744970771466065e-01 1.636062819389117462e-01 -2.465067797213174039e-01 -1.923009560288535535e-02 1.991661354987983579e-01 2.925213357635733091e-01 -5.544870671051667088e-01 -4.270031620840044062e-01 -3.519899955238021128e-01 -2.138641958277600827e-02 -4.065100084588712526e-01 1.041977386851243997e-01 -4.634158103367423953e-01 4.271928305796748315e-01 -4.246509495289253477e-01 -5.660168836924486246e-01 -8.545069104950631100e-01 2.168276896210045712e-01 -6.744020660706563364e-01 1.138457012666164309e-01 1.903863761123804066e-01 3.223596448236692308e-02 1.937217578913103810e-01 1.841801626820124826e-01 3.047519741695263740e-01 3.251037199844331593e-01 -6.609807852053661836e-01 5.898840103293661041e-01 -1.600802745691108475e+00 -4.150172519593696707e-01 -8.641513216573344369e-01 1.094513303591798659e-01 3.443475705696825151e-01 -2.819878811538065189e-01 1.802891172118660512e-01 4.704424170072039196e-02 -1.190698020106762539e-01 -5.065513633247591407e-01
-2.599010547472264676e-01 -1.564291066199232083e-01 1.508268929211072779e-03 -3.705171408069374284e-01 4.995922537479757786e-02 1.338205974151534416e+00 3.606767826493816886e-01 -3.484612135736657179e-01 -2.325934473725976281e-01 -2.890915590404635194e-01 -6.024733620189074434e-01 -1.207897261244874620e-01 3.033082921684044919e-01 1.832070313164779751e+00 3.358059704858709082e-01 -2.849191541439846098e-01 2.884501184603933122e-01 -2.095217105275819502e-01 1.788820220016926477e-01 -1.784096775971424631e-01 1.609582966100176482e-01 -6.848317014995836116e-01 -2.269749467173337865e-01 8.277478936582034486e-01 9.972187634574010417e-02 -2.379673131067515102e-01 7.814500940131056950e-02 4.935499653258466624e-01 -1.777573649495186037e-01 -1.253624521781216694e-01 -2.074103670962539059e-01 -7.857897405515549272e-01 -2.275316902294544363e-01 2.502273381246590822e-01 8.875653534752103724e-01 -4.363785697351903470e-01 -2.834045424496164367e-01 -1.505289899308812629e-01 -2.324958212154136505e-01 3.191691921757324746e-01 -1.616296750454036257e-01 -3.711073409355344355e-01 -6.078869762479638394e-02 -1.957094115318032401e-01 3.723674309667776017e-01 -6.788810670250161605e-01 3.211871651741046163e-01 -2.830400006102419819e-01 4.081599328769863200e-01 -1.688468533184651343e-01 3.940205239286310723e-01 -2.862393422192359704e-01 3.867151881036260397e-01 5.107161058860825165e-01 -2.250731176426913616e-01 -3.695614591885040268e-01 5.978132337739847646e-01 -3.119158791018933896e-01 5.974268044989218263e-01 -3.119957974730849237e-01 3.036282941228401477e-01 -5.451786616854197021e-02 -1.686575764501727775e-02 3.592175092356499899e-01 1.184096359159223476e-02 -6.411892866765245280e-01 -1.419185250265462238e-02 5.493888163190795426e-01 -1.268981844288134431e+00 -3.480180503944779735e-02 4.141144348061873148e-02 -3.522034108416738918e-01 -3.327754018285868365e-01 4.693289638578430623e-01 2.182828538105108240e-01 1.142807726595149453e-01 1.397293735440687523e-01 -1.173817333891025827e+00 2.374933640531592116e-01 -3.078744197474972411e-01 5.752354392539622135e-02 8.470013759664042630e-02 -2.014648629656798917e-01 -3.917234222903721585e-01 -4.872558539828196755e-01 -3.173718310588249381e-01 1.957223550208719853e-01 5.044831793231445705e-01 -5.013078902652013530e-02 -1.200226206958882186e-01 3.303002576314410799e-02 -1.170311324974840916e-01 5.581342210496164497e-02 1.585131128563579961e-01 -5.193012659282034704e-01 2.258318186518150361e-01 3.793701199709102467e-01 4.994635171034964016e-01 -2.027946943070132735e-01 3.130341848730575083e-01 -1.762196505279631231e-01 -1.437854551634072664e-01 -5.533741335550159679e-01 1.904123507835333851e-01 1.925010059531385986e-01 -1.936166344009226270e+00 5.994645260626269706e-02 1.713434507519986938e-01 1.220713585249987715e-01 -5.665246222644829827e-02 -3.701439121847161506e-01 -6.378134209490937678e-01 -4.354836883540812442e-01 -1.888541170672946024e-01 9.686214217681304861e-02 -2.859241342118181151e-01 -1.362417585152458366e-01 -1.993780973765650055e-01 -5.053150570068939973e-02 -1.182772575845210811e-01 -2.079883218499733732e-01 5.322042579746898844e-02 2.703247077923225383e-01 -1.967806660381479222e-01 -1.017652326170791710e+00 4.655865353168991971e-01 4.129902357028217841e-01 2.774616373416254889e-01 -3.089728533544918720e-01 2.153314080148216458e+00 5.500683255764753365e-01 -1.377809864655219485e+00 -2.199271525987200049e-01 -3.162777817672850489e-01 1.206502350806060386e+00 -1.403245622484918131e+00 -7.801656780103073396e-01 5.636034363957401899e-02 5.377002499260556956e-01 -9.294972973259983950e-01 3.408417127506537803e-01 -4.539395763443067056e-01 9.892117171583261759e-02 4.597907727968177927e-01 -1.407676858960446586e-01 4.171856549862738572e-01 5.150874679454980898e-01 7.951417812959454823e-01 -3.897568891718379835e-01 9.114818332607894924e-02 -8.768066392406904663e-01 -1.558549653888846587e-01 -2.502658708415070876e-01 -3.253300915915818270e-01 1.272121010990816259e-01 4.183028225018627366e-01 2.958954204987910841e-01 -4.591114003498858454e-01 2.176317040699928540e-01 6.754040314803887446e-01 5.166089892387493165e-01 -3.826375646626558047e-01 -3.970753184700870908e-01 -3.152525768278899299e-01 6.601412181251010702e-01 -3.461407391230791331e-01 1.629080736442904132e-01 -5.586208689033901331e-01 1.334177824780433674e-01 -2.892717790855725904e-02 1.207499027375227296e+00 -2.533127481668865921e-01 6.741517791520230951e-02 5.327464652191352679e-01 4.299762670406300780e-01 -1.051710979296135884e+00 2.315489031432083067e-01 1.258968666367324407e-01 3.597416693656400044e-01 4.981370645583040324e-01 -3.672813775554902294e-01 -4.076260706992533289e-01 -6.463999898278811884e-02 -2.187312916302737442e-01 -4.786414224139905194e-02 -2.392973896150633051e-01 -1.967663940120922272e-01 -1.462770391507181245e+00 -2.173647360069115297e-01 -1.806297457335277468e-01 4.444880089018498071e-01 4.161887352161411542e-03 -7.574624242334624391e-01 5.443997038777824704e-01 -3.649621297838003819e-01 -3.261820158776271850e-01 -3.386025266061744032e-01 -8.209365706019192133e-02 -3.276028868493746082e-01 2.149651266422440421e-01 -3.805916082262469358e-01 -7.795953782518648401e-02 6.696730930070228516e-02 -2.445753067834032790e-01 3.442517968423998709e-01 1.973642431551822507e-01 -2.267798337225531702e-01 7.437252706505760591e-02 -1.340657114975174480e-01 1.848047204918386588e-01 2.721753129873061283e-01 -4.344048458949023028e-01 3.163997631511732411e-01 4.796557558943912447e-01 -4.169246468701460762e-01 3.331903141647488686e-01 2.384062297429240807e-01 3.649818715735939079e-01 -8.939456349744209773e-02 -2.795801938214110272e-01 -7.833572984459978850e-01 3.594775227666209272e-01 -6.932655176759257021e-01 -3.361734555746078573e-02 -9.722526814919386917e-02 5.863033283914088623e-01 1.069886108211383080e+00 -4.398311331171994021e-01 1.305791790656958495e+00 2.777610085056714806e-01 -2.007943987794333363e-01 3.349892318166344252e-01 7.091045002595464108e-02 1.123869578397256042e-01 -1.737579993227167108e-01 -5.204700940663457009e-01 -4.383937078655401193e-02 -4.364025230228085750e-02 3.151946752060244550e-01 -2.448178804850190474e-02 -3.249467068350700982e-01 3.459358129639115709e-01 1.707853638880718894e-01 4.285820120767498964e-01 7.360966261191791149e-02 4.610399486504068167e-01 7.743665930998882008e-01 -8.566726917638526340e-01 -1.037105302050495836e-01 4.140426087322773285e-01 5.515603013349944933e-02 -3.743576722126858991e-01 8.404462722305975353e-01 7.157261538917114585e-02 2.337321124702883834e-01 -1.567388875179484553e-01
-5.636397387835605510e-01 6.853368857121087954e-02 1.574550364677511083e-01 -4.452348841431894577e-01 4.535402936455120576e-02 9.400570483220290763e-01 1.036168008354361736e-01 4.224051706195521283e-01 1.994971962009884914e-01 -2.828836853190130896e-01 2.179321352036906259e-02 3.112600207469417013e-01 5.029009032624198738e-01 -5.478608128684268053e-01 -2.480968000463331102e-01 -4.340416356909070766e-02 -4.410903705269651580e-03 -2.439485438184112731e-01 3.180750114837533893e-01 3.383703085127031662e-01 -3.462091064597899170e-01 -3.285160137734690622e-01 -9.909160915969719707e-02 -3.961856926632126852e-01 2.018429545450580176e-01 -2.171595369766285699e-01 -2.311093808916921122e-01 4.949400814646335856e-01 -3.352669843118857851e-01 -2.221718748880512906e-01 -8.273964771069487745e-02 -1.273981727988941076e-02 -5.969265346715830756e-01 -7.082688920151361534e-02 6.189065788978900251e-01 4.455012951580999969e-01 4.287191691938088134e-01 -1.693549336334000399e-01 3.241386773939361476e-02 -1.105843085205404225e-01 -9.196154883339170694e-02 -5.438343988465720313e-01 4.565875123495876098e-01 -1.757237545556868119e-01 2.409763289123762753e-01 3.025567030120786538e-01 -3.994205947736257367e-01 -8.731927150745441568e-02 3.460897322681217303e-01 2.933489869754964396e-01 3.250530444016317411e-01 -2.736813666869547523e-01 -1.543804233620910960e-01 3.333236144391107936e-01 -1.344885916173249422e-02 1.528202409977425791e-01 6.518780864545201115e-02 -2.771825791137515482e-01 1.119850749616168734e-01 -1.328974413922602398e-02 4.033152368203805072e-01 1.359035036017358922e-01 -2.112621199259739624e-01 5.923211185957923952e-01 -2.578590151885788440e-01 -4.314880010057820514e-01 -9.895502505017739203e-02 3.621920293151077025e-02 -1.075927051621164088e+00 -3.883525309585227347e-01 -7.361622295703939001e-01 -1.773584566687435859e-01 1.039922635731170275e-01 9.280765088359442527e-02 6.151416175276219755e-01 -2.538341973775842253e-01 2.319435777008258329e-02 1.033491068414932990e+00 -7.925194277397731857e-02 -7.824774636526955762e-02 6.862636740298454219e-02 -2.046092701775554523e-01 2.460040214225467717e-02 -3.988914998820805580e-01 4.935630894616178099e-01 -1.725777347490954072e-01 2.687108818667514609e-01 1.872836114576129918e-01 -4.017867274288952073e-01 -2.069412632876386215e-01 1.346314274500959307e-02 -2.380644393724942187e-01 3.088560799351139363e-01 -3.093300001250712250e-01 4.636161405622680198e-01 2.512241794581001608e-01 -2.376036973765163485e-01 3.075148553473894819e-01 4.859127221358814364e-01 2.898005297280943637e-02 -5.094676864238646408e-01 3.291998380034801275e-01 5.939064854555922146e-01 1.260625047806058496e-01 3.082228013317850346e-01 5.887227616067518543e-01 -2.208690878087491982e-01 3.214326341510285734e-01 -5.591922078305566757e-01 3.948368787627995480e-01 5.734310926727705926e-01 -1.783827694481804338e-01 5.008426481236333272e-01 -1.194663023809885150e-01 4.063677929216527041e-01 4.197839999861516236e-01 5.734566574547802498e-01 -4.044566488619117939e-01 -2.360667677785876772e-01 3.697511841771080610e-01 -5.538797056029890614e-02 1.837518612665894890e-01 9.296861543877991130e-01 -2.654579507623571755e-01 -1.005904742532475860e+00 -4.254196018734402590e-02 1.545408208355001922e-01 -3.950464128263391217e-01 1.790963269842313910e-01 8.165704555110467888e-01 2.407111797934974595e-01 3.387228041438415660e-02 9.975966034764924273e-02 2.453082339414034974e-01 -6.194789128297292224e-01 -3.793677339280810412e-01 5.636578661392501743e-01 -1.619390692878063254e-01 2.570486122648242278e-01 -4.786154859418929597e-01 3.715642540574760067e-01 -4.268069031743064179e-01 -5.496513759862197562e-02 2.051028833576577781e-01 -1.197849219851300079e-01 -4.233281838629271432e-01 2.464751006531062383e-01 5.812419805108344217e-01 4.880334288878319104e-01 -3.807754910936867465e-01 -1.315091810675974859e-01 3.262621192411842286e-02 5.062357567524339297e-01 -4.155201116474352974e-01 9.704624324727044449e-02 1.799396198096740451e-01 -3.193957490385500031e-01 1.436968142985687313e-01 -4.927848144240064010e-01 -1.955347008958565336e-01 -4.002842675174314298e-04 3.625711185833959127e-01 1.093592736664229792e-01 1.533972176682130151e-01 -4.889751121649510979e-01 -1.998566281531199695e-01 8.560463785638398881e-02 -2.735081721668009003e-01 1.522708072951700908e-01 -3.977901770883738308e-01 -7.914097804585934481e-02 4.382385974122883776e-01 -1.651747142234316623e-01 -2.764829666959762178e-01 2.721721646436228159e-01 -3.910403058465015125e-01 1.548485456377298175e-01 -2.452140208666784282e-01 -4.081292187443762431e-01 -2.461299198053487347e-01 2.717830838652940395e-01 -3.784177646979400844e-01 2.871368384733281043e-01 -3.913878676903650988e-01 -5.434128897621239851e-01 -5.003307865310644420e-01 8.742710660725512561e-02 7.672187790184458178e-01 2.703945265921368080e-01 -3.291105848334889648e-03 -5.584937079973602975e-02 1.083717334878528948e-01 3.336584837862522357e-01 5.009592719952724593e-01 -3.734338982265451024e-01 -3.859560928694073523e-01 -4.947275954040781798e-01 -2.146809058252508937e-02 -1.833062754603108357e-01 4.119241295709497597e-01 -3.670596818129985284e-01 3.395446733373783665e-01 -1.631048970841591228e-01 -4.174258401321456757e-01 -1.939511245195739420e-02 -3.466186756951953329e-01 5.601360181822970796e-01 -3.074799960705713042e-01 3.994494440259604984e-01 8.506093056452901369e-02 -4.059184412762075755e-01 2.740563216719377193e-01 -7.655309968489698580e-01 -3.225357860835145751e-01 5.406697981229380279e-01 3.678126115845121169e-01 1.025317187772364358e-01 4.108397606698722671e-01 1.745355453017320702e-02 2.621408682839063142e-01 1.680634405358917560e-01 -1.700044764363308480e-01 7.555687593418475290e-02 -1.030502775467595673e-02 -6.934847297002351141e-01 -3.467975337018706222e-02 2.739808999640752640e-01 7.625029524915080681e-02 7.541886789678153846e-01 -2.289641396595035461e-01 -2.524556546527222944e-01 3.590056416145904761e-01 2.250679196688309125e-01 4.345167863138350572e-01 1.886423962604199395e-02 2.674983395041508616e-01 6.027786649487167914e-01 -4.562866231380059423e-01 -4.205364531171265630e-01 -3.723746527846808485e-01 1.138902494153467976e-01 3.728903953518908909e-01 5.491471725180543384e-01 6.027533464270758978e-01 -5.175579689128436689e-01 -6.620882039091758875e-01 6.129113667109063052e-02 -8.183118646609838231e-03 9.722357514282632673e-02 7.175039180689427032e-02 6.075898907223949846e-02 -6.452629113087351431e-01 1.147486602047494281e-01 2.367617082454198663e-01 3.729352066696152712e-01 4.433238093649276013e-01
-3.166693607297996205e-01 5.598508425524830606e-02 4.614213609262822757e-01 -2.741909413162331721e-01 -7.228595653300770238e-03 1.486122057492430815e-01 -4.632337893029786491e-01 -1.898451375371107072e-02 -8.387967119516429593e-01 6.840427374336691124e-02 -3.786266999680663603e-01 -3.765498604923410708e-01 5.116387020678531128e-01 -2.713023303438856781e-01 1.121565761887934193e-01 -8.928606781826609051e-02 2.386465618276215409e-02 2.294750755603287284e-01 -3.499111352737591663e-01 -2.971902606542402570e-01 -4.294606319990416643e-01 -9.349157286348356299e-01 -1.408916409193141650e-01 -8.086460151682758335e-01 4.092925108006938428e-01 1.965903104652032551e-01 -4.334788550114942463e-01 2.163128022653084959e-01 3.595902806258545747e-01 -2.097037399126189250e-01 5.693179195168891760e-02 1.049465616783466643e-01 -1.594615521179062190e-01 -1.118325559086618404e-01 -1.553114255478549310e+00 -4.809091672884938107e-01 -3.837559957525872312e-01 4.229073871146754593e-01 1.011968205841238255e-01 3.694569998338496641e-01 -3.721540922382142180e-01 -7.956743692555293679e-01 1.205317686655172915e-01 -4.332595951942306844e-01 8.140643548075897351e-02 1.898312951625859626e-02 3.526535632730991021e-01 -2.240666481311478775e-01 -2.332114236638054561e-01 -3.412841947865070669e-01 -3.168409178441906199e-02 1.030751693344398312e-01 3.323520406765237412e-01 3.889543280132513603e-01 -4.769649393037627694e-01 -3.221437431767986692e-01 -1.208843896566116072e-01 5.288137475282069788e-01 2.309647113583912781e-01 -2.696054636222148804e-01 4.309808472827322268e-01 5.164320979240770437e-02 1.167807681433772615e-01 -8.096844021952174231e-01 2.877700110982788773e-01 1.208661367284968424e+00 3.074123441080908736e-01 1.519899171949793404e-01 -1.197283652136426513e+00 -2.539844537567517158e-01 -9.628048195299671042e-02 -2.685779517632108648e-01 2.023540929334633198e-01 -4.740295858535103490e-01 -9.030079503239001326e-01 3.692105114668654542e-01 3.218631411434916267e-01 -8.315068854807341481e-01 1.986943220950878608e-01 4.192231008227577105e-01 -5.009770555319235097e-01 -1.309366104671744191e-01 -4.223588059140019335e-01 2.804609650574230173e-01 4.661537041701690476e-01 1.765987466895367342e-01 -1.265279728282638461e+00 3.394762768596029656e-01 1.080612723360383637e-01 -9.136275395082398346e-03 -2.811428020146893303e-01 2.056212400042610744e-01 -4.217084015964497890e-01 2.918343511619248543e-01 4.085317259674819401e-01 -5.816198706926154482e-01 1.600080461426680867e-01 -5.528115800906057142e-01 -1.882462687992499661e-01 -5.142353156736613196e-01 -5.763315589933508676e-01 -5.076522026508898527e-02 -1.924146270475928233e-01 2.130202234469466549e-01 -9.292886981261911988e-04 -9.814878240443613774e-03 9.927901785461940021e-02 -2.488338966681955811e-01 5.162083934449621658e-01 2.205074289557761025e-01 1.819036425633800136e-01 -3.609772988364675639e-01 -1.190688395601910976e-01 6.474097522835420282e-02 3.302857906275805111e-01 -5.548887270195276278e-01 -2.951904117316403800e-02 -5.758753597213259745e-01 -4.613000735855990464e-01 3.552490248829042185e-01 -7.001641470569401893e-01 -1.098418021350121287e-01 -6.589620051752600460e-01 -6.158962083374976137e-02 -8.806343703271742387e-03 -2.080667779418368113e-01 2.444915176400899171e-01 -3.552686003242770396e-01 8.961183698775100626e-02 -1.592236537284028364e+00 -1.683202816493930831e-01 -4.503415666807647488e-01 -2.402117459140279965e-01 -2.218195749700608288e-01 -3.503034725576189556e-01 7.905459405644407744e-02 -1.733740868550181780e-01 -3.521279030554199663e-01 -7.176799088512952896e-01 -5.897780427961230032e-01 -1.950290707040298888e-01 5.184038332264977456e-01 2.762985381896843062e-02 6.502626197323062573e-01 -2.786603322008213146e-01 -2.802026141759151878e-01 2.609049768788744839e-01 -8.101839033816997659e-01 1.233191889802171259e-01 1.952550279703305081e-01 -9.759850987267932876e-01 5.070293057502502920e-01 5.041632329581189342e-01 2.283661864837000788e-01 -6.359628561008717762e-01 1.010724031786250920e+00 -3.856790530232909187e-01 -5.900899993241607439e-02 -8.208410208360636395e-02 -3.542974847963797913e-01 -1.405412988100155636e-01 -7.280593183144914438e-01 1.381858635901045684e-01 3.678696032674850791e-01 6.337323884621474113e-01 9.103415451306330619e-02 -1.940047595102541156e-01 1.228473577897731955e-01 2.103727819317893211e-01 -1.010582527453561141e+00 1.208454870551936289e-01 -3.254589900668909408e-01 2.068921300397625895e-01 -7.753909688413166412e-01 -5.534819429642795496e-01 -1.473784929265215815e-01 -5.054160992863470092e-01 4.057548917644020481e-01 -4.145338053686202229e-01 3.419008897465520280e-01 8.632887740098665885e-02 -2.875201761200053552e-01 -3.548713482584919254e-01 1.087910128887029787e-01 2.370243547636393007e-03 9.628873239279828189e-02 1.398539684573776032e-01 1.948915855435010835e-01 1.608395947556042482e-01 -1.995826884604575968e-01 1.482583325997513524e-02 -4.265636855595884847e-02 -2.750010862576362028e-02 3.036529606085576205e-01 -4.043258212370413190e-02 4.222213198008426538e-01 9.639845893555435558e-03 -2.073336536312854195e-01 3.125487888085164423e-01 -2.608721786730569536e-02 2.705790120571689994e-01 3.198363242693732511e-01 4.709271157725230528e-01 2.390740790859687548e-01 5.185933184448994204e-01 -9.649886179065136904e-01 -5.001680543933194611e-01 4.502401666100142030e-01 -4.056916184130445746e-01 -1.122285189609207645e+00 -7.569349134014935476e-02 -3.716599853165899470e-01 5.187701691421764405e-01 3.528868319970795420e-01 -3.959027737985931772e-02 -1.317314999883702487e-01 1.287714750580599699e-01 -6.498450542024118981e-01 -2.679488628723843968e-01 -2.367977461557029817e-01 -1.828069079886333326e-01 -3.880544491371946680e-01 -5.201713630518749465e-01 1.680704349330650049e-02 -3.226281298443839374e-01 -2.185093733915007830e-01 -4.275744322787985441e-01 2.725452464192921198e-01 3.285404082621689037e-01 -5.085623705294068930e-01 -7.443897797839567343e-02 6.232258495211469990e-02 -1.029249942564959830e-01 4.491257642557425211e-02 -2.363106011418334151e-01 3.191387617476306726e-01 7.459520597428695443e-02 1.967239785087615545e-01 2.494927324047838402e-01 -1.675488690144718018e-01 -1.595165857703581547e-01 6.006390664624670084e-01 1.956559420823784368e-01 -1.442116514759705648e-01 2.130114646206520412e-01 -1.283624197809220269e-01 9.630197060748987292e-01 -4.324403392272155311e-01 -8.816840316312685513e-03 -2.926260099676218918e-01 -9.659736738311416882e-02 -5.705632336295732854e-01 -3.795432145716716721e-01 1.736620248431050562e-01 3.243523656463644378e-01 4.407240801316888446e-01
8.536245517047023057e-01 3.870780269611173718e-01 4.350145779765182685e-01 -4.290794212685143660e-02 -6.415447685614402706e-01 5.481287806569218324e-01 -3.657923923819832446e-01 1.102504666418257194e-03 -1.504466755028706748e+00 1.182113001681467379e-02 1.018300649211965947e+00 -5.612459390888381583e-02 9.462899665440807073e-01 1.062610536233054459e+00 -1.440900030766398277e-01 -8.485170892619355032e-02 -3.712222599335601170e-01 -2.272541225688445576e-01 2.957869188368519309e-01 -4.867557631037900956e-01 3.540580711801228353e-01 -3.635123773623009091e-01 -1.317172897636408602e-01 5.611377271439341730e-01 6.087273419796066648e-02 -1.114932153697886091e-01 2.984196696223269663e-01 5.735907423592666587e-01 2.100559601960460543e-01 1.147053960166039221e+00 2.096123588129397697e-01 6.445276005218312232e-01 -5.262946289133927369e-01 -6.637094764068478259e-02 -6.000259004588998080e-02 3.307631728509852209e-01 -4.848618435004644622e-01 3.001757165231492275e-01 -1.314777035959656670e-01 1.620317837362167390e-01 -1.853692503074637621e-01 -7.191920120980646036e-01 -4.942753037622365543e-03 -3.034253764900620154e-01 -3.845109343599851792e-01 -3.414403394468484843e-01 -2.558857869424783216e-01 2.083167475343796204e-01 -9.541447944729763986e-01 8.977311529252590683e-02 6.419005885127949951e-02 -1.290631673540475699e+00 -1.568700554289911564e-01 8.838468823686790321e-02 -2.749239688537640641e-02 2.506197340160873366e-01 -3.279653454262935752e-01 7.251871936713789601e-01 -4.731616267318097258e-01 3.845857723846457521e-01 1.133540333613519968e-01 -2.086582109202341634e-02 -5.287156434418445183e-01 4.035241417763447136e-01 3.804695709631206180e-01 1.407137197145406970e+00 -3.718554913114810456e-01 -2.254279721943907300e-01 2.995032884883936375e-01 5.271933580253580498e-01 -4.926055779906139964e-01 -4.090614822841720510e-01 3.878393536711871037e-01 1.580050686455647391e-01 -4.475333616695229000e-01 -2.957705568413294128e-01 5.645916693779564483e-02 1.857536292390165045e+00 -6.596892335570982979e-01 -3.445826972198554605e-01 7.038477968651968286e-02 -5.160062290442124500e-01 -7.009850513954347939e-02 -3.214171716903785891e-01 -5.295676729362729374e-01 1.547981160055112437e-01 -1.789230507157923533e+00 7.554510463197132708e-01 -5.563299789073437029e-01 2.465375457881462673e-01 -6.000230515261720798e-01 2.203015685369298215e-03 -6.405456517815943940e-02 3.013016512647870848e-01 3.167560753909638982e-01 4.957462448150972700e-01 -1.991345430767288427e-01 -3.147452415708583695e-01 4.821559919978417597e-01 -7.921959427528229014e-01 -5.553356934681673573e-01 -1.223807185600032932e-01 -2.586412324557482625e-03 -5.184780618498751048e-01 -6.773407456842284180e-02 -4.295465473918761434e-01 1.547867603625105448e-01 -5.710273889570744998e-01 -7.850896278410851234e-03 2.257262432131880714e-01 3.141998886179240280e-01 1.526703336402711157e-02 3.348094272917135905e-01 2.002256492319930414e-01 4.231950411879432106e-01 3.618822071884597036e-01 5.892956032378027231e-02 -2.177324192979602502e-01 -1.071013601666175041e-01 -3.819510011791649173e-01 2.694698068359631105e-01 4.478774580434179489e-03 -2.762614425071892588e-01 -4.074525108579027943e-01 -6.910046580217488188e-01 -1.822054644029981463e-01 -1.636136975307383168e-01 1.190078482893835304e-01 -4.244357807858445963e-01 -1.396859489206370153e+00 -2.678036065825859513e-01 6.443233212003801613e-01 4.821754757107348799e-01 1.181857649946586597e-01 6.096729623232495232e-01 1.508174090129905665e+00 8.137658197638927282e-01 5.803623102284501123e-02 -5.757291849037322884e-02 -9.456929301789712694e-01 3.530761431968397757e-01 1.344301755097299655e-01 2.224358299295682573e-01 -4.063382519929081282e-01 5.012458764979427217e-02 1.699320783783148658e-01 3.165682833385384254e-01 2.085120749843309140e-01 1.681457166576639239e-01 -3.631451525299530525e-01 -1.112006973046955727e+00 -7.182037253188139347e-02 -9.363716536176119876e-02 -3.568530832871297243e-01 -1.986368390722342558e-01 1.002868646649753837e+00 1.296709902408600956e-01 -1.723348645011180680e-01 4.846911190966320948e-01 3.460507666264905913e-02 -1.567983597283507002e+00 -5.168554331112109601e-01 -2.075060619562625330e-01 -1.126219513723436885e-02 5.279085837246669799e-01 3.894140446267241873e-01 2.289245168207837411e-01 -3.421381967653786688e-02 -3.403856303232066782e-01 -1.346066720946590856e+00 -6.704251670641143690e-01 1.441067313385686888e-01 1.287977539838089033e-02 7.502445734699832169e-02 1.257659427130996266e-01 -4.436820249986658804e-01 1.491624287206103072e-01 4.013236070317885429e-01 -2.156509321332812645e-01 -2.327175363545128384e-01 2.423784447208627429e-02 4.327108905108749681e-01 -1.880407280327843211e-01 -8.860105620348010524e-02 3.439838741214996665e-01 -4.073277474705979534e-02 -3.220411817269669963e-01 -1.016690232784030368e+00 1.237730515250761859e-01 3.846807700485370685e-01 5.232341882570765851e-02 2.754893622753656207e-02 8.639299013420400630e-01 5.005819541459541888e-01 2.682276536291821212e-03 -4.212908775068101297e-02 -1.206986937327406695e-01 -2.093477154485479941e-01 -3.423208050690134119e-01 3.131328730317305409e-01 1.922204781931781126e-01 2.996777328059551659e-01 5.702459794693804929e-01 -2.130507144388740781e-02 5.927859494319845934e-01 -1.140900934616488449e+00 -5.642901153586236118e-01 5.249121333851169968e-02 -2.977820215720441421e-01 -5.887446659193134035e-01 -1.104775398301345232e-02 -4.442646591816899471e-01 7.416968985494659661e-01 4.855962217352990246e-02 9.372082662238874484e-02 -3.879227464610056353e-02 -1.326513096010772941e-01 -3.326778085717905786e-01 -1.698559327222996448e-02 4.663355265937255828e-02 7.380712120999715076e-01 7.243510272971132556e-03 -3.286202537031507331e-01 9.793517230103937488e-02 -4.770067304630676297e-01 7.624059744740156741e-02 -1.197819659100993972e+00 3.753942516948292063e-01 -5.330528204320619245e-01 -1.636619661885852506e-01 5.206932804784181884e-02 7.923136392862574484e-02 -2.819005337006164069e-01 2.761659854317045082e-01 2.424822176716619482e-01 -2.963926701596985569e-01 -2.063551230059505193e-01 1.173483279327857016e-02 -4.251749347630925380e-01 -4.785163564987598428e-01 -2.783345554835946478e-01 3.467818905191533685e-01 3.764001630955659539e-01 4.428335186954267533e-01 1.659495510549771902e-01 3.015948254928663697e-01 9.965254061358751470e-01 -3.905133034457800578e-01 -7.778182637174457792e-01 3.418039068898509059e-01 -3.726406718224453685e-01 5.376354680737911451e-01 2.911065495546870108e-01 3.843767103746137392e-01 -1.552975610844194165e-01 2.405937040520037262e-01
1.414954878315650977e-01 -3.129097936473332897e-01 2.324893425244301537e-01 -3.120938542518245096e-01 -4.895299866350575901e-01 -4.268003958528143182e-01 -5.559082583290341217e-01 -5.790747588506243299e-02 -1.218748590725492020e+00 -2.810814077003643274e-01 -6.573055772188349799e-01 2.268247393123528910e-01 1.218154823538885712e+00 -1.016632192712430882e+00 -4.833472076961123354e-01 -1.912287829426105035e-01 1.682152162970017573e-01 2.809220855997521804e-01 -2.703456616389263156e-01 3.644114656561751042e-01 -2.970419306894409583e-01 3.015050705726897706e-01 -2.229157265388880260e-01 -1.980259822129937577e-02 1.982976108321141129e-01 4.418294223955709366e-01 -2.737564904005095889e-01 -7.945854691495056119e-03 -2.390421930415924101e-01 1.723746042725907424e-01 -8.754202513680636732e-01 -8.560184616363434307e-01 1.722621318289458692e-01 2.357179043728794277e-01 -1.728146025588634060e+00 -6.792126194976212394e-01 1.856777591037636899e-01 -3.209356724656472482e-01 -2.702234998407591626e-01 -3.332626908492383744e-01 4.187622177642116306e-01 -7.847338364177919301e-01 3.403153589487394881e-01 5.192901668642101454e-01 -1.258886218592049633e-01 -2.348451475012908740e-01 9.696352069634765758e-02 -4.436190761084510270e-01 -5.293758592364236071e-01 -2.518964534563117863e-01 -2.044268744392497006e-01 9.140086082409618617e-01 -4.631660370340807686e-01 -4.873837620365498724e-01 -8.975545342314075747e-02 -1.375706645112700216e-02 4.065778903497318519e-01 1.140869653966986252e+00 6.178104459654121250e-01 -5.930144158763218654e-01 2.411664509585495220e-01 3.652556987489859464e-01 2.776114175163727285e-02 -3.044710338809069050e-01 7.514088318667910826e-01 4.823351273033241737e-01 2.081846651230540579e-01 -4.130643861023109431e-01 1.009607661452434524e+00 1.756802479543760342e-01 9.176245276848596921e-01 2.669047691463720673e-01 3.626881366338805535e-01 -3.903570905204358232e-01 -1.404739560116934627e-01 2.634582450977054902e-01 4.897815991691819026e-01 -5.550699447679174892e-01 2.755047849448438169e-01 1.450597625444993155e-01 -1.378113082552132919e-03 -2.536880502348058952e-01 -3.707721698680702671e-01 -9.256684863918177020e-02 -7.268940779346812209e-02 -2.825283050998105838e-01 -1.851079861440284802e+00 8.504518640918654060e-02 3.764719355815838719e-01 -2.382247061624478690e-01 -4.662721929266110815e-02 2.025442510588494893e-01 2.190711534291293894e-01 -1.701672631166457061e-01 -7.070504979324532258e-02 -4.494771366211575692e-01 3.114029422677682124e-01 3.446284929160960825e-02 -5.126511421178380212e-01 1.107594836355719758e+00 1.227572986911148745e-01 -3.683335571996246283e-01 -9.519438226590037910e-01 -3.517290610258175937e-02 6.003252373711505108e-01 -9.394320868181893491e-01 3.224985136561129284e-01 -4.075664739674825787e-01 7.152008878777377232e-02 -4.126646751749260544e-01 2.634086454824196566e-01 3.423667644438037616e-01 -2.520098863144558665e-01 -1.368095186965163634e-01 -4.691271523136584243e-01 2.318574783867974609e-01 -3.187563322344720840e-01 1.851027208081370071e-02 -3.926004265910204571e-01 -5.140575165481723330e-01 -2.900880677258283954e-02 -5.034882896307409927e-01 7.014329615949282948e-01 2.814262069493536633e-01 1.316246413212821764e+00 4.881798545367796449e-01 -2.722774787790046558e-01 -3.852063517726731640e-02 2.417533558889164158e-01 -2.520805702988898833e+00 6.158146402584198098e-01 -6.924867179070774981e-01 3.418248100312819560e-01 1.107234628145701144e-01 -8.672434756079560048e-01 3.138209456639715622e-01 -7.254534112621016106e-01 4.334428187552502032e-01 -3.420029126515874984e-01 7.474715801947134919e-02 -1.341180354117478546e-01 -4.114759178136677131e-01 -1.450089878693270051e-01 -4.122425759926861000e-01 -3.916531469746945548e-01 -3.652521853942148899e-01 -1.003808336497052089e-01 -1.012265715369799757e-01 -3.731551727103628591e-01 -2.907962137551193260e-01 -6.035119010322059774e-01 -2.157568795566141839e-01 -4.851227683105304722e-01 6.466739936042160686e-01 -7.150858394087997727e-01 -4.940299821278935910e-02 -5.929467088692815663e-02 -2.351580881257419320e-01 6.270100039965027516e-01 -3.262581243157000044e-01 -5.894751218353725536e-02 9.673279913974743016e-02 -9.776140091541418720e-02 1.682454080142599118e-01 -4.908053715507282866e-01 3.444910986592907842e-01 9.584432568010047004e-02 8.791392787649246476e-02 1.507483377905429189e-01 4.991312668282222448e-02 1.236372288898534677e+00 -5.603357657495841027e-01 3.615803183215886563e-01 -9.175224043927935336e-01 -4.606507218620110589e-01 6.886339432100594404e-01 -1.344417532080241173e+00 -3.978345554111419324e-01 1.206861829845735784e-01 2.452995478588935185e-01 2.673188538384844160e-01 -1.929174367262387890e-01 4.604925893167320927e-01 -2.597556894828306762e-01 1.888982020225745129e-01 -4.594675658910224447e-01 7.168342437437414949e-01 1.112892697273817344e-01 -4.789768320704547722e-01 6.407658858142268876e-01 -4.514922637250691762e-01 3.042642156250466856e-01 -8.348040810521423216e-01 2.155803818167960698e-02 4.800116601134769567e-01 3.612737816191797235e-01 4.608375263277003087e-01 -1.358791076888313243e-01 4.442445900830351846e-01 2.888380819734258642e-01 3.065467247618923752e-01 3.764284817535910044e-01 -1.991051873485132628e-01 1.215325168923289539e-01 -8.011861836766380474e-02 -1.125841499583767780e+00 -2.137966854860746391e-01 -5.557185846306561539e-01 5.540006145656722891e-01 -5.288567546144664622e-01 -1.270527789866294499e-01 -2.229499606252454691e-01 -2.444092170547740583e-01 2.722092880813469784e-01 -2.653883034988999134e-01 -2.213410100220498666e-01 -4.396263208351082752e-01 -3.150571517024555734e-01 -3.440993895507954425e-01 -1.593114534106618851e-01 5.954012035789613133e-01 6.078027802864228724e-01 -8.823319273700612753e-01 -1.848255978684075207e-01 -3.715786620481709712e-01 6.896440460963780550e-02 1.001052702477667200e+00 3.651648306493419233e-02 -6.079196767891299064e-02 5.000218311858080356e-02 2.669541600516880386e-01 -3.097538968361436829e-01 5.337684434070888440e-01 -5.735955316579677277e-01 -5.362129264424821962e-01 2.671081253304376235e-02 -1.527801273312103525e-01 1.943812749132436957e-01 6.334490801788779102e-01 -1.049444595526810575e-01 -1.877714527613041084e-01 -1.370587875322163696e-01 -3.589337517001772726e-01 -3.459043991697610121e-01 6.709576867408940659e-01 8.276889909837134018e-01 -1.850450082281014819e+00 -4.508050331658438603e-01 5.939828512568985364e-01 3.500993290726074902e-01 4.819072878433333651e-01 6.069436838576117710e-01 -1.391680314842315760e-02 -3.616537599836925909e-01 5.043980255782040123e-01 -2.776541344999646221e-01
6.709583644228667154e-01 3.465444207258200904e-01 4.630058478756673285e-02 2.104666098305205957e-01 -3.902678886611234410e-01 -9.298324144181320250e-01 3.658783723180135672e-01 -8.076475092796056576e-02 -1.076730110367044801e+00 3.848877037290073053e-03 -7.866878013161499039e-02 9.182447472411169043e-02 8.901027119642637153e-01 1.729236081161664162e-01 -2.081120840409114714e-01 2.814074874853713659e-01 3.521554894121290968e-01 -5.694361379220697073e-01 -2.205482794226972659e-02 -1.463782836405138621e-01 7.507307108476581059e-02 -1.116864013254629473e+00 4.656972544949851411e-02 1.521553170128045196e-01 1.248429357847915255e-01 2.718282512827214781e-01 4.222579882055821909e-01 -4.667394151850687845e-01 3.202113336728505955e-01 7.162311496149326162e-01 2.148810863657824866e-01 -5.935903958289896476e-01 -5.478275763453162028e-01 -4.871798626558020984e-01 -5.257970681918102684e-01 4.570763344529420458e-01 3.554450217107910648e-01 -4.666080804368042956e-01 -2.129136206637145534e-01 -2.030620915385305258e-01 2.889900316109962619e-02 -4.465939002810875857e-01 -2.210769124907181471e-01 5.687415061526260862e-01 -2.081578457673156357e-01 4.215173162876950652e-01 -5.414763040183023096e-02 -1.309981902554360755e-01 -3.421090084084613733e-03 5.259463728016453565e-01 3.361086126823099041e-01 9.375074417838867857e-01 1.115611411607448644e-01 2.894108932017558367e-01 3.152603120306181617e-01 1.084887504343849535e-01 1.563932120354405431e-01 5.132869738471561583e-01 3.602087101306181149e-01 4.477152289515398675e-01 -8.206595681805960163e-02 -2.034237370607132889e-01 4.584028034188376149e-02 -4.974114555039727548e-01 -9.176820508226251061e-01 1.974001089894855676e+00 2.305879483236441818e-01 3.643543384287395437e-01 4.716146896906459052e-01 -2.416696153383554035e-01 -3.977136024113667179e-01 -1.389671334158662230e-01 4.175605129497443890e-01 -1.954169296661558558e-02 -4.426685582417587139e-01 -4.254611455833199329e-01 1.222960681292923346e-01 -8.577263994395121216e-01 4.667310305498480472e-01 -3.391546948521607097e-01 -8.393611435213056693e-02 3.161878746633517978e-01 -3.381012754125352626e-01 2.435391565244031109e-01 5.075744085668804084e-02 1.141646676012830069e-01 -1.573309176288328892e+00 -2.870975111592209417e-01 1.271941974133775632e-01 4.608933170393866297e-01 -4.125539232920966137e-01 4.222690725065913857e-03 1.042941751723200777e-01 -9.246171133742625559e-03 1.016244113300874274e-01 3.241248383460211269e-01 -1.821920048738751297e-01 -3.285272959448334862e-01 -2.170841440856885463e-01 -8.004298772430101794e-01 2.331344373486594623e-01 -4.373400743288325954e-01 5.235597871013840665e-01 -4.291791192143690759e-01 -9.774756712594738495e-02 2.363037507460766240e-01 2.357439064699292652e-01 6.110068386390168360e-01 -2.642095810928133948e-01 4.532322838500803530e-01 7.072373787190529282e-02 -3.644992588548728873e-02 -3.251381158398454763e-01 -4.272039285938429853e-01 -1.590531110203267373e-01 4.151420978570818932e-01 2.847319201240030573e-01 -7.875352381180535100e-02 -4.290969191820104278e-01 5.216748754411357908e-02 -3.499596901986541386e-01 4.467895063338515049e-01 6.711742260106559055e-01 3.752890775046465593e-02 3.898599941766677790e-01 3.044210364219605558e-01 -1.205929613849028754e-02 4.316309931809505507e-01 -5.233256250289265027e-02 -1.958556909856636663e+00 -1.719672223273947531e-01 1.460170202245354432e-01 -1.361039353912329719e-01 3.825091443391459012e-01 3.804251944422657461e-01 2.105506241822786284e-01 -5.518312530852453879e-01 -5.417524695496162002e-01 5.501244855722629001e-01 -8.588510758185528005e-01 1.353317419371820318e-01 1.456421233770784085e-01 2.154637261902549172e-01 -7.250818872902206613e-02 -1.305075561112662985e-01 -2.541190077965082561e-01 2.632112692621977335e-01 -3.570519847593772167e-01 3.066302485722844362e-01 -3.508397970220262369e-02 -5.317416819918654447e-01 -4.642438422364514317e-01 4.460104871226181489e-01 6.213626743315272399e-02 -9.930775384602320566e-01 8.789012531925768368e-01 -2.083115597840604627e-01 1.894386185073432538e-01 -7.337954465346467614e-02 3.496788508705321319e-01 2.532140091403332072e-01 6.336412736190573103e-01 1.262451864694524584e-01 -2.813099753204927334e-01 -2.735516957038333086e-01 -4.172535733749587195e-01 -1.225909235245090656e-01 -4.411867043458549964e-01 -6.472391160667433085e-02 -3.265296245167366163e-01 -2.091593183123682809e-01 1.437329861444886503e-01 -8.630742296915784595e-02 2.841799168689201349e-01 -2.978056538007422746e-02 2.281225093445442831e-01 -6.759820841834000005e-01 -4.402696809447483872e-01 5.449344077827027455e-01 -2.403081634928623256e-01 1.102771127923275335e-01 6.872083938472305087e-02 -5.138796207992465392e-01 -3.114611828558369253e-02 -5.122530390974017189e-01 4.638082313361216458e-01 6.418957683112563872e-01 1.084195065510280415e-01 2.069332216901316746e-01 7.899185664426787712e-01 -3.746589138959152687e-01 1.828016540875448404e-01 -8.038588383176954733e-02 -4.483651812143187310e-01 3.921348369771108233e-01 -1.612048868282429381e-01 -1.153514475910411147e-01 1.282137692732750189e-01 2.264781530402967535e-01 -5.492889822239308550e-01 -3.014649705925601109e-01 -5.537393753756235659e-01 -1.049244835620937594e-01 -7.897255908684981673e-02 -2.936126553884417789e-01 -7.801478123716401036e-01 1.771171812077759478e-01 2.848375478496669722e-01 -3.735999937424863138e-01 -2.877493103164127097e-01 1.433996466475206955e-01 4.487212229182985790e-01 -1.038648405334429370e+00 -1.904940631980672761e-02 6.364056553355228185e-02 -6.252646673855295073e-03 -3.835047688767941332e-01 -6.892234404564572259e-01 3.303185016444336042e-01 3.630633187050322230e-01 -1.435857169497047614e-01 -1.370191908854671292e-01 3.603022782466661078e-01 3.842751393475048460e-01 5.059391882826391740e-01 2.885439718216828986e-01 4.101638818391686869e-01 -2.929840625790536834e-01 2.335761370558233074e-01 -2.839188082763935417e-01 -2.634605867334692264e-01 1.762417219324266537e-01 4.260031433147492552e-01 -8.107421969414477236e-02 -4.813212001435547838e-01 -5.835544156998171417e-01 2.831180614438299492e-01 5.330765120677397606e-01 -3.215013078086859100e-01 4.070661229233794587e-01 -4.159608220045135640e-01 -8.586548018006673333e-02 1.222527916890292499e-01 -2.362623705898831417e-01 -1.201288135164011228e+00 6.427829261243733772e-02 7.499546426615345540e-01 1.826264690745211527e-01 2.652082141014108774e-01 2.218428799977187338e-01 -1.010222935866653265e-01 -1.213179585403083571e+00 -4.233102127728764486e-01 -2.608207628239713749e-01 4.464289437145583239e-01 -3.414244339417056850e-01
-5.280768285430373910e-01 3.073326884116019952e-01 -9.710375244753718937e-02 2.411846598364641159e-01 -3.018443713697576691e-01 5.087342609829631490e-01 3.463895455536243340e-01 -1.500232714268716627e-01 2.301827054164583830e-01 -3.438514638926152278e-01 2.857412815164473985e-01 1.404690136113706522e-01 1.197326857888691559e-01 8.871257910896934717e-01 2.398477468805771673e-01 4.237279443390529199e-01 1.531692365916144660e-01 -4.363467406504277779e-01 -4.272039550845660449e-01 -1.755781466476136476e-01 4.019027890835545624e-02 -8.178996193873708798e-01 -3.346598252027505049e-01 -1.722616466169017702e-01 -5.571687335756875248e-01 -5.557799359517172633e-01 9.930018150128959720e-01 -1.897687561475153717e-01 4.266976936842983292e-01 5.580773580353907137e-01 1.410006474851671909e-01 -9.525026451851700826e-03 1.861459202571575100e-01 -2.855762832425234321e-01 1.302446670429154296e-01 -7.156079139304570569e-02 8.579052231631572045e-01 -3.899187826320355682e-02 -4.175676240075735790e-01 3.929814932533677863e-01 -9.935736066291833701e-02 -3.755447109987522514e-01 3.479305579544482718e-01 -4.184037575951188304e-02 3.816639787599086509e-01 -3.694771958108597487e-01 1.816668326231746511e-01 -4.235661319922895962e-01 2.989692913079151082e-01 4.704752521526882059e-01 2.938823040707740364e-01 1.953432335554875776e-01 4.031232269040597171e-01 1.866303377091919902e-01 -1.628304817098320256e-01 -5.648219637193432202e-02 2.887648352407071184e-01 1.141378220968282786e+00 2.920624403670955480e-02 -4.626283582097376335e-01 4.520622333256126280e-01 -6.228264355270706210e-01 1.868445419885446102e-01 -6.701687718752828982e-01 5.844444373478807631e-01 -2.380496256551742074e-01 3.278063226796138485e-01 -2.328288359916655392e-01 1.887406988782094897e-01 -1.730970153677428500e-02 9.204321334996113935e-01 -1.595126215238426293e-01 7.785312262811169837e-02 -4.317692156308512441e-01 -6.293354496528846820e-01 -5.177316328653401856e-01 3.474406280233676148e-01 -9.800463009042452434e-02 2.153144854245666456e-02 4.362016457157378430e-02 -1.946984914592989058e-01 7.009850776617362889e-02 -2.971029804119427187e-01 2.896422168075171721e-01 -1.712497738311928308e-01 -2.050348884761439561e-01 1.055428095836034030e+00 6.591248976971823825e-02 1.874889266366671081e-01 -4.419555763889144728e-01 -3.492112728985715120e-01 -2.881016871915248467e-01 -6.928736480498490224e-02 -1.777747922756408271e-03 2.810782203972135851e-01 6.320329512892720603e-01 -1.310584439161321391e-01 -6.201765054618330053e-01 -1.870206967418642785e-01 1.004706693520008437e-02 3.004317915391387928e-01 -4.651369773896582571e-01 -4.380152460159457695e-01 -2.886075443537152174e-01 -3.135955119975061267e-01 5.531807286221315234e-01 5.414118034031818044e-02 -4.334769960928091526e-01 -5.558404191074057810e-01 5.393292130321731409e-02 -5.718795347427927389e-01 2.605170116526492330e-01 -3.872225811683963625e-01 1.306311146265646227e-02 -4.775996386477050493e-01 -4.927174558331317011e-01 -2.009599559980648209e-01 -3.378529798759877800e-01 4.711667560742021643e-01 -7.252057810724445164e-02 -2.915559989609297076e-01 2.346207998674433859e-01 2.716917467965159760e-01 3.495994200791209539e-02 -5.692557710925884029e-01 1.140863671815139646e-01 8.883318090698240355e-02 -3.931170016070038020e-01 -1.846214460000243085e-01 1.427083011508328558e-01 1.440046354532223682e-01 1.548732482003862820e-01 3.822333273878523729e-01 -2.211531018836227283e-02 2.641518354191263462e-01 -1.230558586595662529e-01 1.593166409649346693e-01 -8.620134138731060103e-02 -2.699166781737062371e-01 -6.065012424499128807e-01 9.661092987092566309e-02 -4.490648177165552646e-01 -5.795191654989647612e-01 3.457750371022159097e-01 3.483945472139070021e-01 -2.385089877510348025e-02 8.697195388692453843e-02 -5.741285786858031370e-01 -2.747901226240934691e-01 -2.352913061668119032e-01 -1.691833690374773269e-01 2.266626326120963764e-01 -3.461012052110783860e-02 1.439044641126388246e-01 4.649354400960576950e-01 -5.988715443043494124e-01 -8.080310968690287976e-02 -2.687129111210438404e-01 5.414148018753408564e-01 2.971772135365517431e-01 7.478930142015158267e-02 -2.509246998807468376e-01 -2.347264247070629806e-01 -9.356187368389382031e-02 3.383770050738617030e-01 1.849010165960755236e-01 -4.297574257537372655e-01 -1.281459931799662499e-01 -1.087917065071334344e-01 -6.148268251326071132e-01 8.629272112002910056e-02 -3.803572546056808168e-01 -1.260249947407334203e-01 -7.379521928799814834e-02 4.644399589574925713e-01 -3.750705684863612221e-01 -4.177763357330498972e-01 -2.033191825099095185e-01 -1.212445100425712241e-01 -2.648994096348575300e-01 1.288578205471951899e-01 7.769344192055677167e-02 -1.518521130010654085e-01 -8.912416270773035332e-02 2.538960872305814354e-01 4.373447756647428353e-01 3.337176714188849203e-01 -8.564669563858139101e-02 -2.934113391260836368e-01 9.449876567762514890e-02 -2.876229491110003367e-01 -2.264513619805681444e-01 -1.428595236035475613e-01 -3.141623573151484106e-01 1.171145714455414794e-01 7.040396999226166130e-01 4.514385308295441046e-01 3.187464410416606109e-01 -3.748060171185090272e-01 -3.439744825052613586e-01 -4.724687061448539227e-01 2.783527205222163237e-01 3.740824265775852947e-02 6.504826484456620317e-02 4.986583412562319295e-01 4.731899528919428222e-01 -7.766716291702253638e-01 -2.463739666878795032e-01 -7.345352295707096024e-01 2.237027562649548384e-01 2.696338481997000436e-01 1.752283155023928451e-01 -2.185245528893637046e-01 4.446650663031673778e-01 -3.878557255250958957e-01 4.897755277614028457e-02 -3.339177949007386403e-01 -1.526435827214626395e-01 -3.214061557263293567e-01 1.648773184487887511e-01 1.254096748592371247e-01 -1.068593696098545098e-01 4.118462252862821749e-01 1.412611531907620177e-01 4.480058739422054237e-01 2.469066804509853219e-01 -1.067414066917420357e-01 1.755464987663334642e-01 -8.125521553812460329e-01 -1.053402129209402571e-01 -1.468269102920785607e-01 -3.672782877769268511e-02 5.198663852431053556e-01 -4.724624318686323488e-01 2.929661456534889408e-01 3.526101293506004875e-01 -6.673714538082065051e-01 2.334117002467105684e-01 -2.445563365928207222e-01 -6.630001355047583644e-02 3.484652222713619518e-01 3.315525013240286367e-01 1.845350399252870810e-01 -2.921496971972931678e-01 -5.466879152806990438e-01 5.152447553972050454e-01 -3.240292328044718784e-01 -8.526117647360581531e-02 -2.258627513714913937e-01 -7.812909702232447018e-02 2.241548230207064119e-01 -2.523535243787405347e-01 7.318897638760328839e-01 1.159710212760302617e-01 -1.003582945998981735e-01 -2.218441971665322532e-01
-1.848729084301783676e-01 2.000411799497110177e-01 -2.528181707356170205e-01 1.718997268972742853e-01 -6.605166930212211795e-01 -1.872544090917377391e-01 -3.560161251718356179e-01 -8.149385952426874136e-02 1.440948019482408693e-01 2.624963769752300391e-01 4.889574736282248923e-01 -1.194352477208807523e-01 -4.336254491202242711e-01 6.551808977419626423e-01 -4.039166144247809953e-01 4.553947861753779858e-01 1.897532938850532980e-01 8.639093929175087894e-01 5.461604039832426705e-02 -1.267864125531898145e-01 -4.891517794122930973e-01 -5.225584520744724903e-01 -4.336144497819030552e-01 4.358247807206145907e-01 1.385470422866047768e-01 4.832375027072310231e-02 -1.218319634216677438e-01 -2.673479585244455947e-01 -3.166996280223964844e-01 9.659143953442566044e-01 -3.084776961126766692e-01 -6.633282579147519176e-01 5.281650064690964763e-01 -2.062425543466200883e-01 5.256765356316051019e-01 -4.221813044979924601e-01 -2.876317186272194237e-01 -4.417936751965962361e-01 -1.481771763360158756e-01 4.422842626048212877e-01 -5.369557180998608681e-01 2.174453038225037105e-01 4.514905980513480438e-02 -6.689259434195544696e-01 2.194750898049261933e-01 -3.503382418557342559e-01 1.201682880891057487e-01 2.964285552694623238e-01 -5.456546457507475134e-01 2.414675856749438076e-01 -3.986858107267176043e-01 6.246856461452114928e-01 4.163296403669956569e-01 2.627896619171510295e-01 -4.667402135767893534e-01 -3.857413237685646257e-01 5.214906157222416461e-01 -1.867246228710639500e-01 1.395811447350966267e-02 -6.245996355735410066e-03 4.104444431340413812e-01 2.273381629073717436e-01 5.243393395926927020e-02 2.503100626783937854e-01 8.212416520047371993e-01 -3.899384539837073005e-01 4.236617721204064546e-01 9.030550314271674692e-03 2.352471655121557426e-01 -1.993732091923787753e-01 5.036015045143743540e-01 4.703072695810177062e-01 -1.044591089968702619e-01 -3.869325417609170148e-01 -5.293115364645877285e-01 -1.975648084103671098e-01 -2.086952479535764959e-01 -1.324558009677176962e-01 -5.808194434566975595e-01 4.431198475081255667e-02 -4.714832710382457770e-01 7.507349393564172191e-02 4.887822670938071212e-01 2.671084225535125256e-01 -3.810238750208684300e-01 3.758344301694329648e-01 -6.057622562795175192e-01 -1.781309584599673895e-02 -2.364875076731834946e-01 -3.681313152150450518e-01 -1.864034688900629566e-01 7.204031600518330525e-02 -4.148596668391228981e-01 -4.075520568187731563e-01 3.393294835389622753e-03 1.895359013464613662e-01 2.679357891979994855e-01 -7.438596988107375463e-01 6.362148150215989340e-01 -2.686556296805094335e-01 2.355901144656136481e-01 -3.705106252340848449e-01 -3.811718434170074943e-01 3.966059330144450917e-02 3.891080973833327405e-01 5.849909993739393910e-01 1.732594185326810643e-01 4.992700821037927006e-01 2.307140845799283413e-01 -4.074268573764693868e-01 4.196506857554204162e-01 7.862451235140674455e-02 7.756716784579685553e-02 2.263283679395953485e-01 -3.810360043026113364e-02 -3.147714322554753807e-01 5.816329137326582688e-02 -7.733649874786741041e-02 -5.275396500911810893e-01 -3.047697810367724358e-01 9.284698233185215144e-02 3.966813315568801790e-01 7.095339685563196719e-01 -6.083884309292095782e-01 -8.715867307255493746e-01 -3.271633216548413409e-02 -1.374138453753409039e-01 -3.959931794434671248e-01 2.401212830799840381e-01 1.347120084897891756e-01 1.916227324907294194e-01 6.802707040970407126e-01 2.682541796011217450e-01 2.105631135855582925e-01 -1.688732937517511967e-01 1.102175647287049864e+00 1.149272905009641965e+00 -3.952429221682748905e-01 1.388784865474075036e-01 -9.571478319655785105e-02 1.323735310185308323e-01 1.918629302890624208e-02 -3.708442324282422153e-01 -1.630227782758186250e-01 -8.305062892296949384e-02 5.021496183959102133e-01 6.698184203620327626e-02 -1.638296279271288791e-01 4.012402344540061394e-01 1.408275937090480989e-01 -1.855530471383393665e-01 -2.727223722049679222e-01 -1.923423342845378692e-01 -7.861449221608941829e-02 -2.475689840418828502e-01 5.808440658336564422e-01 -2.369051438746299920e-01 -3.804914986329654414e-01 3.689414440077345425e-01 1.835660691996549576e-01 -8.543082182861780893e-01 -3.749036313934748232e-01 -9.018721190597589477e-02 -1.507168966530616494e-01 -3.160120418361664907e-01 2.210018745591671163e-01 -4.808794144103041845e-01 -1.344403489973128030e-01 -3.532156977520364283e-01 8.673276230613919946e-01 1.293482008069732625e-01 -3.471121736569910965e-01 1.509909594788080012e-01 2.377293112074932158e-01 2.053450818594297345e-01 1.710091449270583763e-01 2.691598423385898609e-01 6.284798673873741581e-01 -3.631497819913349079e-01 -4.293434678693175965e-01 -1.337277592891513434e-01 3.115314644664470278e-01 -6.221613494471998074e-01 2.231956316094291792e-01 3.778398844504279319e-01 -5.067005591537269982e-02 -5.375398139092739669e-01 -7.938030927742131260e-01 2.506221187642638237e-01 -1.556884894545079445e-01 1.748649771906629902e-01 -6.714682821580499408e-03 1.146892621602364049e+00 2.267468540109535691e-01 6.522473458082282960e-01 -8.133962263663056802e-02 3.673157510977301254e-01 1.355421236162630272e-01 3.367824870863140863e-01 5.515006821953283289e-01 -2.017984020199344308e-01 1.421045898683315489e-01 2.479626401738070987e-02 -3.503059574783102814e-01 -4.104506686273812766e-01 -1.449552170715323052e-01 -1.229261371294386590e-01 -4.555452890132996036e-01 -5.204596891363399980e-01 2.391177042749414727e-01 -3.515732739945779395e-01 -2.148079766760311593e-01 -1.110932615540442397e-01 -5.051794277177743542e-01 -4.380806654269097100e-01 4.729794049670911493e-02 -3.184807560657337833e-02 -2.436128351719247520e-01 4.237536359895625049e-01 -2.767407189342407925e-01 -2.538103386196147726e-01 4.574361041851723320e-01 7.522646469590595908e-01 -4.044180757147476379e-01 -5.401124204063894041e-01 4.280665782113566298e-01 -5.210245323234509451e-02 -4.988444173356165190e-01 -2.991872563648588224e-01 -5.605260765678758000e-02 -6.003750975092410069e-01 -2.185796353742915921e-01 -2.581681010092624073e-01 -2.597875186453559304e-01 -3.128552542964473382e-01 2.925004963320790297e-01 6.742534038008270170e-02 -1.745220529392075837e-01 4.498885913211120857e-01 -4.278217619976951713e-01 -5.769402946027414603e-02 2.292114786867117671e-01 -1.782803768864557603e-01 3.631033432856756726e-01 7.239732229131424779e-01 8.615018434307470940e-01 -4.362838611782962617e-01 2.045940021514985885e-01 7.662842344682616602e-01 -5.554472875853220248e-01 7.146311587194463522e-02 7.171252300952417613e-01 2.846926784987167253e-02 2.884156958092706224e-01 -3.153153311760933941e-01 2.525161083480512714e-01
-9.395933855887403374e-02 -1.165692246179041852e-01 -3.656936765109120024e-01 -3.885816746856899512e-02 -4.774824725537780701e-01 4.337551826036024905e-02 2.165535169219901801e-01 -2.025100047932234526e-01 2.916272348610515208e-01 -8.652281713318901724e-02 -3.933150931720297283e-01 3.104725870738742621e-01 3.747223594345766573e-01 2.353838155527099019e-01 3.142198985672250422e-01 9.785615729286478714e-02 3.936740373799679782e-01 1.515415358111518174e-01 2.718925048223814755e-01 1.951222936256333806e-01 4.674261783158496497e-01 -6.258898706874104212e-01 8.233034409089524941e-02 2.226267531312167702e-01 1.952550435750264046e-01 2.685737428014877137e-01 3.321195197069200522e-01 4.834074469805805796e-01 3.919820798997239453e-01 -4.796522101821192319e-01 -3.928375170716056908e-01 -5.543976488406290315e-01 -1.894316427633917777e-01 3.641887289647643966e-02 3.885280311061108105e-02 4.083390134560676010e-01 4.361866248489688069e-01 4.890190694921991432e-01 -2.065473671219938412e-01 3.773715936201280652e-01 -4.162103931352349462e-01 4.565853681730613345e-01 -5.644846481028319429e-01 -3.732219318430116117e-01 2.130308441440638134e-01 1.069875843368557899e-01 -1.080816940398301590e-01 5.027066301783966740e-01 3.175328063623261143e-01 -6.852343792808105460e-01 -3.822195814434118932e-01 3.440189726973031381e-01 -4.355159488236047260e-01 1.166167280011613655e-01 4.035448643015064341e-01 -2.427260043256511401e-01 -1.370141015086255298e-01 -4.278612118725959590e-01 1.109952878239293256e-02 -2.999556365092047039e-01 -1.226876412958480822e-01 -9.434035244814610588e-02 1.561304246459213896e-01 3.574121759389268793e-01 4.562993276630941120e-01 -4.949341141633788466e-01 -1.146011379400570795e-01 -3.228304886868953449e-01 1.238730273140991184e-01 -5.826771382003845812e-01 -2.115631507866472250e-01 4.219308268709647813e-01 2.448766501061109824e-01 -1.687048971925405594e-01 -1.985965608079834910e-01 -8.998825929254151978e-02 2.095071983316006831e-02 -3.194534754588941872e-01 -3.131993079233513777e-01 -2.583396129266819496e-01 -1.409537158398823375e-01 4.592366383912311889e-01 -1.404046130304691109e-01 1.287735109632930086e-01 -3.001936606437621280e-01 -1.870624840631482377e-01 3.577218400830565193e-01 -4.300288969846841058e-02 -2.624639215448344443e-01 -3.533002821066034138e-01 -5.204446419319663786e-01 3.232076021129231536e-01 3.523920673032441275e-01 -7.723396129393279852e-02 -4.127151085882815873e-02 1.251924011284934711e-02 2.085058525932484697e-01 -1.415287856826788204e-01 8.562549045902478895e-01 -6.077111732753822659e-01 -1.581739947656270739e-01 -1.823981229902973955e-01 7.820059663847652720e-01 5.069673822035430932e-01 -1.609544656869095133e-02 1.823236052371037530e-01 2.094455986117797763e-02 -4.064160963345575528e-01 -1.195688743041295049e-01 2.956057225555927537e-01 3.409528052952627286e-01 -6.015224439416587687e-01 -1.302709165837722116e-01 -2.447577144234465429e-01 -1.522387034943126216e-01 7.261923971142110468e-02 -4.063835750392144619e-01 -1.453797967490391418e-01 -3.498167016956892916e-01 3.565841641443666110e-01 -3.125962125172247474e-01 -2.936573277773640162e-02 8.593130255023089248e-01 7.757659719926407460e-02 8.355312275763290830e-02 -1.673947226983589220e-01 5.481028593890079764e-02 -4.070616571928576399e-01 4.112524279934561822e-01 -4.838140055184907973e-01 5.141163144511381455e-01 1.501252106860956337e-01 -3.915721261164186728e-01 5.259297355251200123e-01 -2.300400436255726488e-01 2.912494584286322019e-01 3.430023946900525589e-01 -1.102295992232118216e-01 -5.458901168708066298e-02 -3.263079003357399199e-01 6.086189714875914203e-02 -2.832931461661837291e-01 2.402919425842688916e-01 -4.922548659184592945e-01 3.977680196129391166e-01 5.493782876108433966e-01 5.029849222037834355e-01 -1.710354397932136172e-01 1.687096710100726704e-01 4.843355641368795039e-01 6.565877570822105103e-01 5.111898212236231087e-01 -4.990338115023527088e-01 1.865383132745280503e-01 3.480708218558625777e-02 -2.767273699385712216e-01 3.359868277244231760e-01 -2.635871157006727250e-01 -1.314061086313661475e-01 1.039837419340268881e-01 -1.134270386082383980e-01 -1.130216836025177592e-02 -1.442511364105971416e-01 6.269700308999927030e-01 -4.723333608830752595e-01 1.378693435885197105e-01 -2.890358046768291556e-01 2.422323283453756415e-01 -1.513204295776983399e-02 4.731766718751167500e-01 1.375200205016163135e+00 3.460915344658628545e-02 -4.483840252471928967e-01 -2.495240182510777976e-02 -6.559985128196216264e-02 5.584524057109371831e-02 -4.102648740911280512e-01 -4.798672806576411154e-01 -1.572004512697506295e-01 1.941762310422575494e-02 3.501307772188004819e-01 4.453498025042687547e-01 -3.723320938658637447e-01 -5.175811668451740788e-02 -2.963153441796518850e-01 -5.938088999210682645e-02 -2.465843137182847922e-02 -2.043689889511987601e-01 1.895071884578479748e-01 7.303210704994564373e-02 -4.583757885048444503e-01 4.551674710528643697e-01 5.935783281674249512e-01 -3.083006762567961356e-01 3.897807864394429167e-01 2.161753544963985751e-01 -4.245356382123203209e-01 -1.798032155062156412e-01 1.242204587238263241e-01 1.024889553555684285e-02 2.736230678567571628e-01 -1.837119224808805018e-01 1.181659886675072435e-01 2.546556852859033909e-02 1.319201443043438726e-01 4.473670992016661740e-01 4.891595814877910259e-02 6.864060980320585426e-01 -3.559922417981647991e-01 -3.800187456432370103e-01 -1.369909088755620896e-01 4.708430920579945722e-01 4.018336040523333152e-01 -1.634920436839194524e-01 -2.529459982832080733e-01 2.289381299441201056e-01 3.298429009537082179e-01 1.789854263046162797e-01 6.528173117311067419e-02 2.308160411362852049e-01 -7.074884879053728870e-01 8.336823385137377418e-01 6.684171003061504246e-01 3.024560736056867150e-01 1.136920964766472003e-01 -7.512945344352864319e-02 7.306456424807789007e-01 6.482708212742892967e-03 1.014432961152617607e-01 -9.813041328317070877e-02 -2.835388962391170442e-01 4.405461266789455488e-01 2.469710253453553939e-01 4.243117468885989618e-01 -3.961698924195015681e-01 -5.982516125922039685e-02 -3.130246429974005706e-01 4.431455028340917646e-01 1.080835068780343633e-01 -4.411885696956697189e-01 -2.826267532751696177e-01 1.033734954741078738e-01 1.337069764080726919e-01 -3.103957070190759837e-01 4.344637576673794355e-01 2.869037566855205945e-01 -2.877586226030271477e-01 3.011460805975469945e-01 -3.171585489477452696e-02 2.255167720590351421e-01 2.272370587281562562e-02 -6.936071107720472029e-02 1.347941665574917958e-01 -1.713385128299750870e-01 4.278967791599687653e-01 3.731820041079194628e-01
