2.248039771350673552e-02
4.106998203646845640e-03
-1.518516700862440894e-01
2.081103494858227709e-01
-4.309236383998275577e-01
3.647422544996414273e-01
2.019434027159499323e-01
4.936198979426440481e-01
3.868184248397478764e-01
1.105488238970015885e-01
4.794520178249960796e-01
-1.294825075439139106e-01
2.221451877558455745e-01
-5.225806509359356422e-01
-3.047442375596127739e-01
1.621793654360806081e-01
-2.504843949831347394e-01
3.560279392410899413e-01
-2.610478784870734481e-01
3.808333611588686773e-01
-3.157469124474393540e-01
-4.703804935062658732e-01
4.369941229639703884e-01
-4.265625977393537882e-01
-3.584453945955261012e-01
-7.017732388014633060e-02
3.218666644992501102e-01
4.137137865128359127e-01
4.906735678311118232e-01
-2.925369546246123220e-01
-3.167450460263227519e-01
1.174635964115624820e-01
4.651227967800997676e-01
4.897494557105980806e-01
3.001208856095109734e-02
2.227980728483617556e-01
5.029506562385069879e-01
-3.701177833800536887e-01
4.095637262258596811e-01
3.595141706910382484e-01
6.332929059080957823e-02
2.131535241689700710e-01
-2.523329104395294897e-01
4.158398689525865111e-01
4.143755533568017069e-01
3.159131738935012090e-01
-2.148631100360128277e-01
3.961133487002984066e-01
2.585148905895200411e-01
4.365082760499358061e-01
6.371976639427455458e-02
-1.104655035759912057e-01
2.758427963463622734e-01
-1.208273758431602368e-01
5.134897009984168426e-01
5.387875226349168045e-01
1.790457962810836912e-01
2.074232826428496212e-01
3.434008009853595222e-02
-7.620872993145162352e-03
-1.304752044601921457e-01
-2.604055219291369627e-01
-2.253701661626574815e-01
1.239154789241434240e-01
-4.731050747984980598e-01
7.403763727708677876e-03
1.907426329674079823e-01
-7.271954341770178742e-03
-4.769449461998840345e-01
2.596282813427254754e-01
2.048795026904887129e-01
2.281607686662619292e-03
2.921887566813112791e-01
3.545452670657130989e-01
5.125593401107156888e-01
1.425447053519505181e-01
-1.027311455467911361e-01
1.831541090574410335e-01
2.970127999812016695e-01
-5.708880225413490717e-01
8.492579817705594525e-04
1.311841118600199085e-01
2.716669303999965090e-01
2.548332683404780710e-02
2.726843141718241492e-01
-3.616395877026205574e-01
-2.350055603469567919e-02
-3.409265409212091091e-01
5.275707137578778960e-01
-5.635913500742100596e-02
5.139832656849653292e-01
2.969595989671052205e-01
2.479975625043311094e-01
-4.423336554291419920e-01
4.686056179189612009e-02
-2.005478540961179168e-01
-1.629593666562970111e-01
3.619998152740642183e-01
2.359141519127514741e-01
3.526834498710154642e-01
-4.462669410335163844e-01
-1.460441858680357752e-01
7.517706441202486045e-02
2.959464531489439110e-01
-2.118282471143549950e-01
3.624462795754496702e-01
5.730786978014269090e-02
4.265761859187317505e-03
1.177545399098180595e-01
-4.525836971355505500e-02
-2.145703892897705689e-01
-3.130166505903176910e-01
1.348141039886343318e-01
-4.508821115765996312e-01
4.740066335270049502e-01
-2.974171560326635544e-01
-2.795533995944613492e-01
1.162118880652040914e-01
3.445874140476855030e-01
4.134657562984764972e-02
4.807775627914296912e-01
8.450979279193560068e-02
-8.759194311617818363e-02
-4.787421299964882970e-01
2.834331900196489507e-01
4.452227114974025013e-01
-3.842634096024112322e-01
1.617032351012445968e-01
-1.225124842574926709e-01
5.386639323895071607e-01
-4.012703249902007108e-01
7.807244144621567836e-03
2.330517784132135339e-01
-4.157267265502876535e-02
-2.582999609713464984e-01
-3.323522771052257463e-01
4.205328604884300825e-01
2.673725126415895659e-01
4.341153742335684268e-02
2.421385960302764873e-01
-4.379945370407576921e-01
3.470198546076021517e-01
-1.406040030434402843e-01
-1.790675308527742704e-01
-1.938385778268695570e-01
7.269872074170563581e-02
2.202301333699779595e-01
2.511580323676758653e-01
-1.127404568448839711e-01
-7.842191257638155000e-02
-1.584016357524418439e-01
-7.917783214478564535e-02
-2.518263428500793211e-01
-1.472740192361041145e-01
3.505349020588139908e-01
4.114737340020218070e-01
1.277289992534628160e-01
-1.200895158050707262e-01
-5.190812104657173132e-01
-4.277202558838185675e-01
2.549951563368428251e-02
-9.573169314414374520e-02
2.359567480938309925e-01
2.432807258227018266e-02
1.424566815875711323e-01
-4.209545512315235327e-01
7.213126773058932406e-02
-1.942094242457077791e-02
-2.658977862975290263e-01
1.608640471982011877e-02
-4.955792387220531725e-01
8.872122584371876231e-02
3.602695004520707345e-01
2.129098228436565321e-01
2.869327135612058099e-01
1.201078236038686659e-01
-2.762347005637393882e-01
4.625533389464696610e-01
-3.677700074165761168e-01
-3.892458340408095491e-02
-3.499471572189077895e-01
-2.352566879527376309e-01
-1.332678303528943009e-01
-1.120200168393756107e-01
1.048026971096567145e-01
4.123308113441518929e-01
-5.233472368001476811e-03
-3.127259610030765358e-01
-1.337175120664270411e-01
4.605812616516125058e-01
-3.506822899932877935e-02
-1.660909883098560524e-01
-2.861725141225051061e-01
-8.684191999074800106e-02
-2.908231973218824637e-02
1.644097506019536747e-01
2.746436070905886387e-02
-2.478845053624259553e-01
9.141353875360963555e-02
-3.561510709123976715e-01
-4.334511598085704076e-01
-1.373500701522401557e-01
-2.904308543583677960e-01
-3.945623243499713495e-01
1.571845261514192571e-01
-1.692104281624325079e-01
1.873531038468628784e-01
-4.639779849736612172e-01
-1.357831259834050008e-01
4.485532630095575950e-03
1.511315835798052731e-01
1.178374072858593136e-01
-1.857891061611610314e-02
2.294104862718554516e-01
-4.759320725827285714e-01
2.377688942679355710e-01
1.237922312974739647e-01
-3.294049654654475634e-01
-3.144553368153788497e-01
-4.749498528175191692e-02
4.277032071706121652e-01
6.801964178904687519e-02
-4.827409584043000357e-01
-1.284102647169361178e-01
3.873182687682585890e-01
4.551105779903056314e-01
2.775447999640537899e-01
4.403832773701892023e-02
3.493844776898743509e-01
1.442362144893548359e-01
2.839676849656944113e-01
-1.342865871810613176e-01
-1.105571185505349746e-01
1.467624430927109425e-01
5.005400293849531224e-01
-2.488636654297149073e-02
2.980383972959964045e-01
2.116150655920675805e-01
2.034874540942702981e-01
4.715395337965356815e-01
7.054685381321899873e-02
2.739944166684852092e-02
1.584880460194106611e-01
1.333317316066217895e-01
2.616203761043972564e-01
3.383735905771832475e-01
2.745140164285282403e-01
5.665727574255283866e-02
1.403968225274271897e-01
-2.248011024825245785e-01
-4.538616602561062474e-01
-1.721708867564889639e-02
-2.885719320093608209e-01
9.277413589419772344e-02
-1.362872634548360253e-02
-5.385203643883338387e-01
