-4.944620529208605397e+00
-5.527677445429975300e+00
6.022893403993086814e+00
5.294241969550139260e+00
3.574295504121407063e+00
7.434552231436636127e+00
9.872611899541764657e+00
3.530488349161671646e+00
-4.898840614325641774e+00
3.211156477316893909e+00
5.587499101894975340e+00
-4.975634202031006481e+00
4.982692662681110995e+00
4.317422798061950395e+00
-4.638894892332004360e+00
-6.520136891127160439e+00
5.690959122239378054e+00
6.886509852178803293e+00
-6.875175578886615568e+00
4.762665197105651060e+00
2.484745659378123861e+00
6.100401982741835205e+00
1.886494882034217335e+00
-6.378323256045514533e+00
-6.646956987244182713e+00
-5.276663378256815307e+00
3.083454852558070503e+00
4.540095401032448130e+00
2.158501513868692268e+00
5.348343076995192291e+00
-7.192555501868110213e+00
-3.988946089071245371e+00
5.224313443546877878e+00
-5.841916473022037870e+00
4.176296258151354301e+00
-7.200100835585862669e+00
5.764866149911744841e+00
-4.677379520906661980e+00
4.351913287431336208e+00
5.618721363824068504e+00
-6.032143693106408300e+00
4.922070142037615170e+00
4.762388213350258859e+00
2.085837616753710044e+00
-5.907734360068420898e+00
-5.947567058201030044e+00
-5.645524627083758240e+00
7.649153817021224100e+00
-4.810895201059217641e+00
-5.442318441158117359e+00
-5.539219651654197385e+00
3.413506271729883412e+00
3.607861166642803319e+00
4.759287953303616092e+00
8.103857838429389560e+00
-6.782041841666109683e+00
-4.634026405210921240e+00
-5.490965611569966320e+00
3.012822068464177772e+00
5.030374805018619000e+00
-5.387008263862235857e+00
1.658909644432786434e+00
-5.968700351674676163e+00
-3.957864194099839583e+00
