-3.335807771000081634e-01 -3.305492142963764035e-01 -3.334745847050658574e-01 1.607873684211661713e-01 3.029244215943224794e-01 -8.777545018911696584e-01 1.176572535925507063e-01 8.482961368562733084e-02 9.081396847295500896e-01 -4.298906186403556595e-01 -3.447430294500766074e-02 -4.464372912750764200e-01 -2.239999780015489161e+00 -4.405521335800920424e-01 3.636862459714122475e-01 -1.423797809786246926e-01 -8.019667655098025594e-02 2.230346019619548481e-01 4.007342095502836599e-01 -5.500979069241548336e-01 -4.967497946086708582e-01 1.736693927185408937e+00 4.652678652636970114e-01 7.827139472651385432e-01 -9.882542078899061999e-02 -1.801120012156691153e-01 -6.383026528077804240e-01 -4.693407208590891222e-01 7.039750839442321384e-02 -1.329084306205287280e+00 1.050323885045499443e-02 7.558552935353133329e-01 -3.069348079518054162e-02 -3.377859524943719327e-01 -1.330443146447023883e+00 -1.287987009261896965e-01 6.613424726513228435e-01 -4.168404709774797268e-01 2.385128538715166335e-01 -2.706096560912720772e-01 -6.354569131158330775e-01 4.667105869869513368e-01 -5.149930109777389742e-01 -1.483422832762586185e-01 4.066404350178995930e-01 2.343658972611272762e-01 -5.748926176990214465e-01 -4.252711656927404826e-01 -1.509782480118289916e-01 -3.379093929637470017e-01 -3.348507990528311051e-01 -4.220032601012805862e-01 1.439068032527154040e-01 -7.597346481042063782e-02 -2.932360682553306619e-01 1.094675230167687086e-01 -3.246445677920825057e-01 4.600012672428379079e-01 4.224223643554756991e-01 2.205556740104780700e-01 -4.354430963003887989e-01 -1.542078930531436964e-01 4.716154770738246182e-01 -7.919459520248606221e-01 -5.632053457713345757e-02 -2.462960799483381313e-01 -3.756160003367033373e-01 3.973429087425295325e-01 -1.940695003165129051e-01 1.556032801783552855e-01 -6.316547996051580238e-01 -3.985957653417201429e-01 -4.501578578274728626e-01 -1.635211439917140519e-01 -8.340149378638513911e-01 -8.135041059699804622e-02 1.675693557706443848e-01 9.155664997348329781e-02 -4.494160061338174361e-01 -1.198388016887854263e-01 -4.680388270189106970e-01 1.970411661926950164e-01 3.673943714529180615e-02 1.817699752891719089e-01 -4.760948295830212951e-01 -3.565485849450908667e-03 1.811953972225025300e+00 -2.377368654121845559e-01 -1.729563709850379105e-02 9.468140252962152503e-02 -1.318597403478823649e-01 -8.997280141162622424e-02 4.655345313937311880e-01 5.198768021127658789e-01 -1.227744455911955190e-01 -2.489112755291275625e-01 -2.300783680948458587e-01 -2.712893650165290049e-01 7.753982233309622552e-02 1.181947540160141363e+00 -7.284936471574735006e-02 3.423369464954969521e-01 3.284933435217295972e-01 3.543527480205893032e-01 -2.188522236288896472e-01 -7.843874669786364828e-01 7.783009782226749662e-01 -8.210077438613661016e-02 -4.519675582052675583e-02 -4.980121428633163538e-01 -7.095273674569454458e-01 -4.106175169811427383e-01 -2.669498456810368014e-01 -4.577487558485519026e-01 2.776324297726064927e-01 -3.767394713075120083e-01 -2.892704516001539661e-01 1.102951199190140286e-01 3.711917446956579103e-01 2.177756492932695839e-03 7.901075054278654947e-03 -5.139985472603825212e-01 5.838510203701898771e-01 1.002998207092887367e-01 2.055326279882324636e-01 -2.435063755640987093e-01 4.799707230390649060e-01 4.293871274598703991e-01 3.379341198129775514e-01 5.139234606077978107e-01 1.672813986968517061e-02 -5.728900949084650973e-01 2.561818830879368236e-01 -2.545921552730668336e-01 7.526035989105311907e-01 1.257926846669523258e+00 -3.618383857042204443e-01 -4.464379587726753362e-01 -3.288411610830709875e-01 -2.859926388033675049e-01 -3.245494952881705086e-01 -2.943079041485790470e-01 3.152410529485043522e-01 -1.564094377879772790e-01 2.349846135956946414e-01 3.175546387308424423e-01 -2.101177119061572729e-01 -8.752925964719248109e-01 -3.637285076271767892e-01 -4.114402407367755421e-01 8.619187921260912377e-01 8.525334380051520500e-02 -1.253506793679472764e-01 4.752395587976169233e-01 4.613667367543315412e-01 -3.600109454250703389e-01 3.267231890613953027e-01 -1.995488626859952541e-01 -2.663730144812265777e-01 -2.013536274304207618e-01 -2.317845965770033712e-02 -3.790904530999248956e-01 -6.144149428642448063e-01 1.141318498219039135e-02 3.651886565991604300e-02 -3.574668096615906676e-01 -2.939590981146047999e-01 3.208581552781111235e-01 -3.317823438573856976e-01 3.475797657465699020e-01 -1.880270290638516584e-01 -4.621172974427820712e-01 3.634318968351224477e-01 -7.505686405674328876e-01 3.019163058216418061e-01 1.021406967475025462e+00 -7.901425348552295613e-01 1.907933260147514840e-02 6.295728973801888173e-02 6.479960255177823203e-02 4.068990414692369995e-01 -5.177078926970055672e-01 -7.236992334864343901e-01 -3.456389945446174949e-01 -2.381474938795630769e-01 -4.630145814795494918e-01 8.605258132809927574e-01 -6.773403998883606447e-02 2.649494907270533717e-01 4.069938519924650722e-01 -2.049270702411352951e-01 -4.455625110700299762e-01 1.698000676383498997e-01 2.068651764799631781e-02 3.130391080652004110e-01 -2.646728571015046980e-02 5.113088923026585242e-01 -2.353330528622400164e-01 3.392002433628517610e-01 4.664428489191145555e-02 4.267356323205487474e-03 3.375310993959401706e-01 1.163215402813590482e-01 3.057786225263091628e-01 -6.740888525277970444e-01 4.150245508337653266e-01 7.089842955363135912e-01 -6.760969703842270029e-01 -4.228364049344323639e-01 4.519747928344740040e-01 -4.052086832676675687e-01 4.211795595858567332e-01 -1.537105923073071034e-01 -1.843437646711978406e-01 4.220497057906076599e-02 -1.296777946361261924e-01 -1.156042874523540986e-01 -2.846825848891506583e-01 1.889986895334438699e-01 -4.155737205918617061e-01 -6.759406407012720219e-01 1.557847971018418431e-01 -5.621947438184178303e-01 -5.297248060843066930e-02 -5.142538071454416659e-01 8.900300300571339918e-02 -2.173316177299032190e-02 -5.118896263078850373e-01 8.451859922560550631e-02 -4.579684353667703989e-01 -5.572124159289824075e-01 -7.034657563708682226e-02 -3.831956804905756742e-01 6.456479655197165934e-01 -8.067003883929778629e-01 -6.034110395558454076e-01 -2.404584693072694401e-01 2.970156905610850662e-01 3.302324192685738291e-01 -5.356929294311114642e-01 -1.098860451960892992e-01 5.067589020152187818e-01 -2.777501324777816860e-01 9.260962560755173212e-02 -3.416472431461630710e-01 -1.377822426445075354e+00 -1.008281748684773493e+00 -5.069082747778144160e-01 -3.930944711587862628e-01 4.822705828002506467e-01 -6.489556077449287752e-01 8.135669490041960161e-01 6.872566140740068441e-01 -1.996425762813893723e-01 8.746368291599868061e-02 -1.655999484210850803e-01
3.539841607897311060e-01 -3.444816328424799012e-01 4.520205238331240216e-01 1.351033012029587699e-01 -1.851349680619183979e-01 6.771338298633339248e-01 2.361433759136616628e-01 3.212060032970405210e-01 2.269195684679862768e-01 -4.029718101579935485e-01 8.947509158851493227e-01 5.135494969923112274e-01 -1.416380689340712706e+00 6.393448659389158184e-01 5.123781254614028224e-01 -3.127088596308369439e-01 -1.731918954493818774e-01 -4.245873179315797774e-01 -1.146468160017897857e-02 1.107027960747534179e-01 -3.849801517567195686e-01 1.236134579266154221e+00 5.070757421349626481e-01 -5.554469242583014860e-02 6.191166201901909805e-01 -3.598700823830889850e-01 -3.696384254072035414e-01 -3.269708682842908942e-01 3.478452109535966064e-01 -1.896804744970661760e+00 3.836176070181589459e-01 4.555766737899796109e-02 -2.839477195501481366e-01 -9.674034176077138392e-02 2.981857481883487537e-01 -3.135728710618987947e-01 -1.759001381285768273e-01 1.467525146352535448e-01 -1.809144193584016624e-01 -2.673916732296046095e-01 8.937839041715923971e-02 -3.697537804705253173e-01 -1.143823886435810094e-01 2.574437296157807697e-01 -4.077412047137914386e-01 2.868889617024331651e-01 1.622827624705190652e-01 -4.041385376471559598e-01 -6.398496995528739628e-01 -2.990832142883755318e-01 -3.308023371024171322e-02 1.295571059902427269e-01 1.492586386361880735e-01 4.755615674069197385e-01 1.799445244355490081e-01 -4.512252568757192939e-01 -4.825330678394959549e-01 -4.534027723651630204e-01 -2.735246696509888720e-01 3.742780455411909291e-01 3.543084187611336144e-01 3.923789527746578965e-01 3.650087055046423723e-01 -3.004670203329068423e-01 -6.876871386732370528e-01 -1.141347415504476021e-01 4.650959765505811860e-02 1.998443030607366389e-01 -5.730655295876787431e-02 -2.757993777547586012e-01 -3.796903842895685277e-01 -2.329327449217948043e-01 -4.195779379669489773e-01 -3.441003664788769845e-01 -7.593237921163170645e-01 3.519686352047204925e-01 1.960601948449196830e-01 2.747139387831233348e-01 -2.438814891894618975e-01 -6.160193845725150386e-01 -2.037680993490293968e-01 -4.581643301996034534e-01 3.659478083891381517e-01 -3.554949015208961338e-01 -3.696319120983134754e-01 -4.408361558734916752e-01 1.185230322386970903e+00 -3.690385414011636556e-01 4.172126852710635880e-01 -2.567350524801871869e-01 -1.413545457722115151e-01 2.569026812173940133e-01 4.024288818839042436e-01 4.351002386972616098e-01 -3.540783033049837436e-01 -1.171845886696373795e-02 3.706848203917559870e-01 -6.463110214850918966e-01 4.655211931540459425e-01 -3.091245879439815172e-02 -1.273375986053642273e-01 -2.112107336326542462e-01 4.048746679262677506e-01 -3.706511639065150909e-01 3.286123848267701042e-02 -4.242596055105792713e-02 4.293046841885550524e-01 -4.126516422866150502e-01 -2.207946921010316699e-01 1.952563596613377667e-02 -2.768451170054048172e-01 2.399937949007743127e-02 -2.031255948430240044e-01 7.295111207692747679e-02 -2.482872878613439638e-01 -2.302498000521643884e-01 7.165212559906622425e-02 -4.327347817083486703e-01 3.178956368100210317e-01 -5.167856526304381859e-01 2.754002164260034857e-01 1.974808888951455899e-01 -5.318982709033055478e-01 -2.538093659051529616e-01 -1.254309490234379876e+00 -2.103513522691706494e-01 3.009593781354750752e-01 1.474825741507548582e-01 6.247645278018619797e-01 -1.943030916873305369e-01 4.294953156342836698e-01 -5.778461939890251475e-01 3.759550916191135572e-01 -3.310650333338620022e-01 7.351158258938646217e-02 1.928186295624676694e+00 7.366543542180745696e-01 -4.889303886028926738e-01 -4.134423636274403568e-01 -5.289381772802762560e-01 8.849713703755109073e-02 2.689654190510888387e-01 5.379292421942703795e-02 -1.412771004088387572e-01 3.505332630180816311e-01 -4.381303041214131277e-01 -9.227384646307468241e-02 -1.893609125197842358e-01 8.830920507403632047e-02 -1.420084001090692882e-01 -6.140368889209512071e-01 1.177154098455144710e-01 1.450631637873667779e-01 -1.795577828758217198e-01 -2.753341091965256782e-01 4.283807515526554810e-01 -4.308874587907239317e-01 -1.205600748308628956e-01 -9.810546941311783231e-02 4.436867096408025346e-01 -1.129490533005514719e+00 1.063893173688404969e-01 4.996198780741675782e-01 -3.077282480153794089e-02 -1.292231806987416132e-01 3.292966035918600820e-01 -4.536830251627237964e-01 4.864411577372200202e-01 -4.654146442264934791e-01 2.084229388897737012e-01 -6.775645341169518332e-01 1.871385977386172961e-01 1.352232108575233960e-01 8.982167553251035885e-01 4.164249970355415886e-01 5.859289787319651444e-01 1.242846853559301801e+00 7.756524182547895885e-01 7.876106819980134566e-02 1.512823332047951753e-02 -2.992173441375814980e-01 -2.460876283839971146e-01 4.455874451852434581e-01 3.161526311110453569e-01 -2.168169697401039209e-01 2.178055773572036002e-01 -1.778741517098165470e-01 -4.489694962667850620e-02 3.677949222735561047e-02 -4.513139127154969787e-01 -1.661479141695003936e-01 -2.054080381540765721e-01 8.771172622721997714e-01 2.899394408299283410e-01 -7.536135050165319871e-02 5.314156642173691880e-01 -5.576954410067597179e-01 1.359543494569105948e-01 5.537535258736501209e-01 1.568179946897482469e-01 3.684227387425404454e-01 4.188651655469552426e-02 1.606434297744227802e-01 -1.573183868250136730e-01 -6.930467567244756877e-01 -4.738296327806750807e-01 1.423801268207342430e+00 4.404866472115307463e-01 -3.514947879049183377e-01 -7.637662357311724159e-01 -4.613604596334515695e-01 5.557489033888589336e-02 -3.225215038584386962e-01 2.906257156708742517e-01 5.325153014326333527e-03 -3.608159033741980409e-02 -5.305438633125652004e-01 2.993091400237606337e-01 1.727544303683245519e-01 2.022783966222857777e-01 6.908654619511717110e-01 4.552675305131815842e-01 4.500964555135992251e-01 2.133823266236336835e-01 4.520188295612981855e-01 -4.215930484374756926e-01 2.346642087878950123e-01 -5.254792766359450695e-01 7.728339215024966624e-02 -3.747401179753079847e-01 1.777119727364674662e-01 -4.146710733512457003e-01 -3.899489235838713985e-01 1.287968857200180450e-01 -1.415343174967557405e-01 1.471496558286477796e-01 -7.963640384106422943e-01 1.024773031521581806e-01 -5.171762170967234562e-01 4.337002404593243154e-01 -2.100232192180298552e-02 -2.911024372835844809e-01 4.971228438428322849e-01 4.829895123825815317e-01 -2.109949477873700185e-02 -1.126290580047226708e+00 6.488105479972001710e-01 -1.772743437830837931e-01 -4.812202220568950195e-01 -3.399743885380847597e-01 3.217742593293717035e-01 6.201746070457490045e-01 -2.896427296444196720e-01 2.902013716347275341e-01 -1.427030434619612764e-01 3.681871245608016596e-01
1.605106523221917214e-01 -1.796655828619573569e-01 2.797695380705146340e-01 -4.345706018187974196e-01 6.025724716668698910e-01 -6.984875546851733175e-01 -9.166578513248019311e-02 4.215577184729664417e-02 2.982291244397326790e-02 -9.910557500905718686e-02 2.681044899225740186e-01 -1.392273782734154697e-01 -2.786340169842165260e+00 8.903482052137703939e-02 -9.055669422799540735e-02 1.517204241070154447e-01 -4.643455869331308827e-01 4.213700851898782296e-01 4.357354273220502283e-01 -2.008766461994029862e-02 9.294789454468667389e-02 1.895796308168565147e+00 -5.023039737947447847e-01 7.770202901914327054e-01 -6.007436289207505054e-01 -5.613270175550197916e-01 4.067312051148844754e-01 1.882666729896857460e-01 2.917215948058002328e-01 -1.343422405005291642e+00 -3.941327023858191558e-01 -4.557899413209775541e-01 2.030149227558770975e-01 3.213017418688572380e-01 1.037098425924876527e-01 -8.907248853970151092e-02 7.260961131622688525e-01 2.756237670284178432e-01 2.250009860440267961e-01 -3.282644275980822757e-01 1.685345435129140257e-01 2.086113235181668579e-01 1.428843328261288903e-01 5.804673894418493907e-02 4.827164688498936096e-01 1.426710284887575397e-01 -4.501481505469480671e-01 -4.516768499495175115e-01 4.552863690977784206e-01 -7.395422190732779955e-01 2.808537347777305682e-01 3.039806979680533261e-01 -4.305098938682045406e-01 -5.993678698033377827e-01 -2.077081550030361601e-01 -3.412118494059976359e-01 5.666664722079893801e-01 -4.579407397702481286e-01 -3.284216333667758225e-01 -4.533145322006352229e-01 4.208298940480226236e-01 2.217747095948525426e-01 4.190662413630513727e-01 -1.696127854340007124e-01 -3.899760070345811291e-01 6.129433608978850367e-01 4.262653343122678740e-01 9.937923640350765364e-02 4.909032789246692112e-03 -3.323412271019486885e-01 2.535659772136340528e-01 3.954914709061967959e-01 -3.573877549888507255e-01 2.313035310843044590e-01 -4.827735971251880254e-01 -4.902989885939663672e-01 -5.284565759466317014e-02 2.073138790079932514e-01 -1.731899477481455563e-01 -7.100889602075673990e-01 -2.575529785876014000e-01 -2.985268614495043514e-03 -1.648194942482017478e-02 -2.130859407294035668e-01 -5.665676387639059230e-01 5.468387094400556370e-01 5.550826148124565762e-01 6.692262559197031946e-02 -4.411913491143839572e-01 3.177529175899025948e-01 3.040827695511252315e-01 -3.994236097934131258e-01 2.024125231867898722e-02 -4.227703811880538232e-01 -4.590526687791089411e-01 5.288213157679346743e-01 -3.456554449102474669e-01 -5.944515021427938528e-01 -6.330116478094051091e-01 8.078560989119650815e-01 -1.831882909484823241e-01 3.396265227565277156e-01 -6.958274183312914696e-01 -2.225085873458126640e-01 3.219145048277025634e-01 -1.065003655870035315e+00 3.495233755566036771e-01 1.206021968886900886e-01 4.980849174133115953e-02 -1.239863261160180780e-01 9.822807175900807874e-02 -1.572430781702694458e-01 -1.757313230114116720e-01 -4.120778133397201559e-01 -5.040022225903003639e-01 -1.375687027255841355e-01 -5.459529377430406838e-02 -5.292375722528022686e-02 -3.626277833179460952e-01 -2.440781332289837513e-01 -9.689117905005688314e-02 -2.660697086626998553e-01 -7.391212860382840866e-01 5.822524086304390473e-02 -4.213925039251881777e-01 3.862450979037853060e-01 -3.109107966118359202e-03 1.775530252917598972e-01 4.645108432180785618e-01 1.404282369183720292e+00 4.244866932890606903e-01 -1.026897318360664862e-01 -2.380606210366409958e-01 9.150284940271855016e-02 4.522330793492259082e-01 -1.399009362079474683e-01 1.646545502811279649e-01 -1.489700214066785600e-01 -2.085494680647399512e-01 4.220567409650019530e-01 1.571815613196795580e-01 -2.350001377230439559e-01 2.164810336654074685e-01 3.917361609685250379e-01 5.139363345774472513e-01 2.968030540372853521e-01 2.964133512712328056e-01 1.522117018406279332e-01 2.840594052977261225e-02 2.236911974940273551e-01 8.187831750217282600e-01 4.539350582068752971e-01 -3.117782797651962381e-02 7.583856471780837417e-03 -3.375619272300482421e-01 2.721824107347131094e-01 5.368452663677622527e-02 1.100645843814373886e-01 7.097135465469203153e-01 -4.231868991987083883e-01 -1.101118384147978524e-01 -8.505474398179847517e-01 7.207789898709920928e-01 -6.403316322528770921e-02 -3.446898531923227593e-01 -2.779542296912687616e-01 -3.727198761965317964e-01 -7.985816237003480200e-01 -2.781444158933785715e-01 -5.855294662891588620e-02 1.797638145799350440e+00 -1.157442980155892059e-01 4.225976873825560975e-01 5.015036044178626806e-01 4.153392541878370148e-01 6.913117038337874831e-01 3.204922997753263392e-01 -4.516663830834552473e-01 5.101066699736299670e-01 -3.082504482502838039e-01 -1.632471325906105775e-01 -6.408662412979559964e-02 1.453829790424135959e-01 -2.279712159611614886e-01 3.558860311926668740e-01 4.135101908546885419e-01 4.205143066861761758e-01 5.348088337304603979e-01 9.741119259882254078e-03 -6.012851559834749005e-02 -4.074142530316433863e-02 5.572243009652748658e-01 2.055019723306656110e-01 2.994896375868048421e-03 5.909052821126870025e-01 6.746882719049841770e-02 -2.628182262817009909e-02 -1.792284960679001171e-01 -3.433229067292972725e-01 3.590580726640418274e-01 -1.440177788813601367e-01 8.245845919923619483e-02 -3.683373585399882244e-01 -1.157872734059854358e-01 -6.359023541379694722e-01 1.900836870200976469e-01 1.149371416678938829e+00 4.438729712273968564e-02 -2.870592708800996373e-01 1.691922563899090071e-01 2.770145506979627692e-01 -1.484305821558667693e-01 6.736213829050161639e-01 2.826838643810878904e-01 3.472535200539120792e-01 -3.449294584499092986e-01 1.365823974388362116e-01 3.835788167048358455e-01 2.211137515935439057e-01 1.171172598886700278e-01 9.487242632508968709e-02 6.765225148088434004e-01 -7.686008229935286096e-01 4.154531813443657767e-02 7.237201667547727979e-01 2.983330035993289608e-01 4.469996140448215804e-01 -3.475075903010265699e-01 9.259536953489126976e-01 1.206153050852717783e-02 -1.835555971563093414e-01 -1.132717017755875549e-01 4.688887421456793686e-02 4.730931600258974634e-01 4.434094847207064455e-02 -2.912054061688700290e-01 3.348372082660295290e-01 4.871361925333187459e-01 2.362297447977383946e-01 1.549241087047327770e-01 2.560534056110828072e-01 -3.596151216342912127e-01 1.013110589807225820e-01 -5.254605797918713295e-01 5.488156463096868221e-01 -1.076121049854608991e+00 -4.079789132935165430e-01 -6.930483927949421252e-01 5.824714369130153946e-01 -3.262779768566025917e-01 -4.082002378559186975e-03 2.167732064669521119e-01 -3.499379663709867999e-02 1.467856490336414410e-01 -2.024541717009193387e-01 2.674337985917918936e-01
3.504675737005377018e-02 4.194013503927629949e-01 1.074760474803489532e-02 -2.074078375977209399e-01 -1.094941511857855931e-01 3.199787207675215406e-01 2.335717908240172724e-01 1.298282863030739698e-01 -2.638295811179168782e-01 2.238102188999744058e-01 -8.204533703299081715e-01 -2.240436215295608657e-01 -2.013785011560218496e+00 9.087159615043098881e-01 1.454129491861733681e-01 9.918216346114586135e-02 1.991001078727600293e-01 -3.236000308873974718e-01 -9.231684673092434290e-02 4.566103933519864433e-01 1.674509819496793894e-01 1.446206713347412132e+00 -4.017625665590205952e-01 1.519131567085838519e-01 -5.234788788414799221e-01 -5.211005747607568850e-01 -4.085052288738143522e-01 2.710824975546044860e-02 -5.148212313399992412e-01 -8.589682353037426665e-01 2.244491757607535720e-01 5.917154962725754697e-01 4.396513934709760374e-01 -5.346055562909646230e-01 4.621822247180666365e-01 -1.510836987693296163e-01 6.441513618257599383e-01 2.179373689404258130e-01 4.139342830004123508e-01 -3.929229352518813223e-01 3.099917766722016244e-01 -1.372252256484707555e-01 1.857690078185845195e-01 -2.798447080378678176e-01 2.440730745900996645e-01 -7.760972506799058701e-01 1.487323886916059879e-01 -3.011615124379912745e-01 4.990714665190422727e-01 -5.918805181249772174e-01 4.993764125920287511e-01 -1.727017755776742158e-01 4.514288551004494998e-01 -4.967457465106946968e-01 4.075061462759977937e-01 -4.536341556751987691e-01 -3.421334055247704509e-01 7.091749198885578531e-01 4.637476272098941532e-01 1.829803501338357896e-01 4.311091446470933231e-01 1.393096831928548884e-02 3.556252455543362778e-01 5.375634091727587993e-01 -1.549898633213190102e+00 -8.174159423625515508e-01 -4.367904923577443088e-01 4.864255553614992844e-01 1.054479882799286505e+00 -1.955053642547782966e-01 -6.666410884013478366e-01 2.334896073419327200e-01 -1.430635456588199295e-01 -2.080366552572801286e-01 1.085804892452551518e-01 -4.598211735948666279e-01 3.737885614082039343e-01 4.083531102147653913e-01 -3.490609382542757544e-01 8.121239555319674508e-02 3.667047583910423292e-01 2.949764584809508317e-01 4.034568538569971441e-02 -5.334237714494687310e-01 -5.418752956054803116e-01 -1.704054064108342370e-01 6.709377246191915445e-01 8.442176356387758318e-01 -4.145747307770742407e-01 -5.518221752448380091e-01 -4.303641789166565146e-01 5.681342962191352625e-02 -1.583198762646850222e-01 1.604035998259678020e-01 1.173913195776266488e-01 -7.972091941572776452e-01 5.051730877839379769e-02 -1.317317287130348735e-01 -4.081931436593077556e-01 3.080486367579942653e-01 -1.526291662180484232e-01 3.629325647382127817e-01 4.269994522033967455e-01 -2.336648127705203970e-01 -1.698880180352149993e-01 -3.741782525037231077e-01 6.424812807316613306e-01 9.047008245758978440e-01 -2.371275413807415466e-01 3.106607085334681662e-01 -1.899398800351296060e-02 -2.948455772934575059e-01 1.430577735750773183e-01 2.547490329641395879e-01 -1.460951870816498341e-02 -1.917253194421043305e-01 4.593132379225018380e-01 -4.723415897181852952e-01 -3.073668145336663597e-03 -7.519692564666635715e-02 3.069950313501764172e-01 -4.728878552350423425e-01 2.954742076176096743e-01 2.513960588481803024e-02 -1.057165514121896521e+00 -5.809008490649479883e-01 -3.967241298177140441e-01 -2.995005254633324454e-01 2.806077778276486190e-01 8.006208295799808194e-01 -1.692655990483776240e-01 -3.299240295942962864e-01 -3.482340805222065017e-01 3.353330118345718702e-01 -5.865259309103022789e-02 5.549060089273330498e-02 -4.781299014604978304e-01 -4.817181812177283584e-01 4.636601657156144696e-02 -6.798677937103538849e-01 -2.505202344315350382e-01 -3.746581446868314513e-01 -6.118837488699819804e-01 -7.563749837107332230e-02 -2.765152075978439261e-01 3.846816997700183149e-01 -1.766867043916695579e-01 1.874322295455670140e-02 -5.140797294067525058e-01 2.712758643944251369e-01 -3.652571102922393398e-01 3.170057377581717711e-02 2.901598376311781413e-01 4.344580598071822175e-01 4.029779160322853326e-01 -3.015585186179389199e-01 2.427843309277477879e-01 3.688883355716377488e-01 -1.002597798794982342e+00 -4.074332969634923418e-01 3.520123390499321214e-01 6.204058690639814300e-01 -3.954156846078240028e-01 -2.926790400908412249e-01 -8.379698966200930244e-01 2.419865233405009072e-02 -3.729397921525935966e-01 1.075507530535623479e-01 4.209201177645110481e-01 1.364489429692066630e-02 -4.098316068381377963e-01 3.806503461553751300e-01 -1.845247926063221244e-01 2.383416980289718712e-01 6.053265066110212755e-01 -6.941211655042386353e-01 4.066232323633375834e-01 5.324409041153339156e-02 -2.214241282749783990e-01 6.194783440800472052e-02 -4.429849018174256137e-01 2.143762911029207796e-01 -4.861703653789977708e-01 -3.065484137948592536e-01 5.394206034255787791e-02 2.348771229835794339e-01 2.722757578371026166e-01 -7.663531917865271659e-01 -1.512607384756281537e-01 4.073525417483683797e-01 -1.144324909800436135e-01 -5.055115102905151092e-01 -6.375931085458228509e-01 -3.574279405786429664e-01 -5.171246868077665759e-01 1.669874415891310637e-02 -2.761668791382767552e-01 -9.222096129880061333e-02 -2.928913737228578951e-01 -6.184675064343780893e-01 -4.001029024693923963e-01 2.172616388420071099e-01 6.707591213788989710e-03 -4.861396231514383826e-01 -6.863571391862390847e-01 1.568561174655396240e-01 1.167791199615691333e+00 -3.260983690948142388e-02 -6.472229167596373900e-01 8.761791990017150367e-01 -4.629840203476079386e-01 3.151560139729369658e-01 -4.264489290250094711e-01 -1.443491886385025180e-01 -1.442560070079859924e-01 2.969400156076532071e-01 -1.515567819935742799e-01 3.615502839553643710e-01 4.246529113913571907e-01 4.172296343507244654e-01 2.282918681002268080e-01 -3.986777519341140330e-01 -5.255853388075641952e-01 -4.543785212263828921e-01 -5.736992987054840842e-01 -1.574570131838066711e-01 6.879783685083686040e-02 -2.581608077384341463e-02 -8.237149489698529781e-01 3.862342039293178986e-01 -3.451770196367062726e-02 -2.853944046016065328e-01 -2.460917246527946356e-01 5.889059430277856499e-01 3.102330020582142467e-01 -2.524746406971259960e-01 3.441501519086472283e-01 -8.872991913258927721e-02 -4.439470014332004277e-01 1.713423119749493684e-01 3.307039437778325208e-01 -1.805375810669558323e-01 2.226239317307553423e-01 -5.683391713740432172e-01 -8.743808426322308147e-02 -1.458406186393413018e+00 2.782410533988089463e-01 3.255274499511847663e-01 3.117398246865382694e-01 -4.977881063112297166e-01 -1.158944928517324918e-01 -8.452184790885840515e-01 8.418705936827424186e-01 -5.166835474069478851e-01 -5.171805894976265749e-01 9.498004629628457873e-02
-1.204552496917139948e+00 -4.230771928942473892e-01 1.116592554462471354e-01 -2.196440838051556474e-02 -4.959139630390141940e-01 1.281782415353442506e+00 -9.702588244991228184e-02 -6.398850144269695173e-02 3.406948794709487860e-01 -2.257522355981242124e-01 3.859741906207299067e-01 -6.247045594788702694e-01 5.981201268014028211e-02 -1.307038298153615274e+00 -2.744024302953798067e-01 4.170220865186750059e-01 -4.310057688872070969e-01 -1.172677801005813925e-01 -1.319651542282367085e-01 -3.725214693481928019e-01 -7.577736945283923553e-02 -7.169692150337088066e-01 2.341283709285104098e-01 -6.337876951991138208e-01 2.725228650141776066e-01 -3.150393973017947408e-02 6.668682818997400119e-01 2.948055738696743200e-01 5.309152556192349159e-01 -6.647866761503301580e-01 2.659486435546079552e-01 1.025095645907369291e-01 5.261549657406948410e-02 -3.675819843667591513e-01 1.021035243354847105e-01 2.835971120377949184e-01 9.523862793873603266e-03 -2.333465772711286745e-01 -4.265114883929400080e-01 -1.929087339884305585e-01 6.919437925555829705e-02 -4.061542663268165598e-01 2.717918480805259773e-01 2.204092314998898350e-01 5.573037298419647456e-02 -2.472616030925204877e-01 -1.339495439596760928e-01 3.191834319411049337e-02 1.318762937473487440e-01 -2.340758712300458622e-01 7.414121465583908832e-02 3.884012026565251130e-01 -1.296821257333700961e-01 -3.660783306479329369e-01 1.138787360118048708e-01 -2.224772420699909770e-01 3.114565340871988663e-01 -2.505745189639554948e-01 -5.730358019424555138e-01 3.838392911135460883e-01 -3.800178926629618203e-01 -3.463347688959786397e-01 -3.960075820178344808e-01 -8.660467396505152626e-01 4.222451081129731110e-01 2.326586030367433777e-01 3.954876670225578872e-01 1.883494717239779792e-01 -1.129823751292766465e+00 -2.438393793683001909e-01 -5.288041011374225997e-01 3.195376189804755573e-01 1.502578831609731602e-01 3.849732343915798771e-01 -1.260903577890197247e-01 -5.366092696229808334e-01 2.966061773813013502e-01 5.651244746608735658e-01 -2.685007342910530805e-03 3.902128021471801822e-01 -1.738882960466003047e-01 -3.519304261693017577e-01 4.009731428796871056e-01 -8.534613522922906981e-02 2.296410521795568815e-01 2.009773260753199842e-01 8.967465178602070930e-01 -2.729270541675591355e-01 -3.686447423038615723e-01 4.163657956975527763e-01 -6.884101808836791125e-01 2.189005136282657360e-01 -1.204180160009927225e-01 -4.670459056696604216e-01 3.963706121001128735e-02 1.591654769656167534e-01 -6.549659406622969637e-01 -6.361201074516833476e-01 2.766365406394756254e-01 2.804851117032558516e-01 -2.533770747883438146e-01 7.353611834362373811e-02 5.603979936611096502e-01 2.749116789379707493e-01 8.831869830590906301e-02 5.186114730510006376e-01 3.184382455573531168e-01 2.012734393886388973e-01 -2.456066964425471233e-01 -2.009168433954959254e-01 -3.711084552138216863e-01 2.684771579745832137e-01 -1.126436717480901323e-01 3.404655354390808686e-01 1.197953442870631213e-01 -3.085300364964832509e-01 7.057076471188669098e-01 2.894904978066078355e-02 2.334269055012560545e-01 -8.383031749412983569e-02 1.162211801999126805e-02 -2.276462002146336649e-01 3.706303438146815038e-02 2.942373627357495747e-01 -6.136331541186322847e-01 3.971529301541013579e-01 5.747812571781082402e-01 4.764434718380499145e-01 7.384994195018727836e-02 6.841667021558943684e-01 -1.578102751237836776e-01 6.570860893766846678e-01 3.528982755862550835e-01 -2.782219414553149250e-01 -4.979794951039567819e-01 -9.127089023785792676e-01 -1.569744987573865325e-01 1.413939549822439135e-01 1.039388281286544480e+00 -3.658064659275815367e-01 1.168841471537139243e-01 -1.739840679698775316e-01 -3.030036237661043463e-01 1.509133303713854068e-02 -8.779212320086615673e-02 -3.447062620207436145e-01 4.479005603667344237e-01 -8.834583506489700477e-01 3.291573347349826539e-01 5.372755481860477800e-02 3.107829533522266097e-01 3.930756601255600002e-02 -4.629908460963084726e-01 4.049974292474138871e-01 -3.146896917799562043e-01 1.662949549812154093e-01 -8.016526242131137570e-02 4.323349225330739842e-01 3.319728176967113309e-01 -6.237111041815912582e-01 -2.387113011564092058e-01 3.463102766900428287e-01 -1.704726617165260028e-02 -7.457668635561025550e-01 -1.725130160688833347e-01 3.683231142267993224e-02 7.096826658572705226e-02 -6.820304870587270418e-01 -2.596007691472527190e-01 2.285485297243609326e-01 -6.045355216940314635e-01 1.705901739240412440e-01 -4.811475288358849078e-01 -1.083650068448628254e-02 -4.923004776496183732e-01 -1.084090633528845826e-01 -3.858371305992541050e-02 3.432294774463720555e-02 8.862334590165381332e-02 3.874824123358265593e-02 -1.231712708282812208e-01 -3.585258993487959178e-01 -6.274466437543391173e-01 4.844365700027934013e-02 2.448073935778650179e-01 -1.244931636453200097e-01 4.325087215048716710e-02 3.892918006933237529e-01 2.992546434768749153e-01 -2.899686172686148367e-01 2.747372523368411534e-01 1.798275363844239194e-01 2.129285003255698694e-01 7.307947710882406467e-01 -2.700231945739876571e-01 9.624517940749693912e-02 9.678739270942916806e-02 2.923742608822270730e-02 5.759778702511368920e-01 -7.874794379605074002e-03 3.742644248637143067e-01 -4.712396094790348711e-01 2.831818860015066219e-01 1.597053469356633226e-01 5.907824564560468228e-02 -2.022656702928802563e-01 -6.262901993665752620e-01 -1.160482940699680970e-01 -5.776221179413156825e-01 3.494603748280515343e-01 2.626211567236555466e-01 8.519897242170268448e-02 -1.192445974358652627e+00 -4.665287231859653883e-01 1.972275511377129809e-01 3.613949794766696533e-01 4.111367224447131652e-01 -1.537841701607822464e-01 -2.030622422566001339e-01 3.678852735932869322e-01 -1.921331683745177987e-01 -1.264399159097649161e-01 2.250108063380499013e-01 3.989525579508083064e-01 5.827431499009265714e-01 1.929571172582683347e-01 2.102800836562943032e-02 4.226141099696628101e-01 7.181248121834198361e-01 2.551770437523013246e-01 -1.716671436593579514e-01 -1.135124223506274316e-01 2.971885414856050844e-01 1.486845405607843396e-01 7.517176422869069341e-02 -4.971326567780245953e-01 -5.823949752419945725e-01 -5.457295437828253021e-02 -1.634082440601340724e-01 -1.557023714333650444e-01 -4.397650288097009197e-01 1.634882234429321790e-01 2.572489230020833517e-01 5.214464924283446212e-01 -7.092523419530597506e-01 -7.022720408072954390e-01 6.843356951669778976e-01 3.370581968364214642e-01 3.575858315911542018e-01 -2.456071513106020121e-01 2.324446258774189589e-01 -7.745085530855790878e-01 4.612902009833015349e-01 -4.792954461343328920e-01 4.770644392074385731e-01 -1.632154871328322654e-01
-8.066298578500411542e-01 -3.994505607475158371e-01 2.247945721155523158e-01 -9.027673977066368038e-02 2.218454492039254322e-01 -3.776354326021694741e-01 2.079667821026818519e-01 -4.092497458662171517e-01 2.122418767142849327e-01 -3.732826177210772367e-01 7.617491546932521063e-01 1.335722117114380436e-01 -2.200462558372156818e-01 -4.921191031091132206e-01 -3.855524033090196312e-01 4.050379878447995519e-01 4.092264076673561846e-01 -7.578016179890556536e-01 2.783144855393924755e-01 -7.517126911830208646e-01 -4.754692439423193751e-01 8.780812987067939668e-01 3.997914594985548242e-01 -1.979412891771526739e-01 -1.112143863446409808e-01 -1.543975060150841461e-01 -8.031019190759487447e-01 3.779111129717396822e-01 -4.123504980321115454e-01 1.011918802502969505e+00 7.724450154883319986e-01 6.411342088883598134e-01 -2.756526307788767852e-02 -1.770876331178830865e-01 -7.595099287811383215e-01 3.914207025674398127e-02 6.745401176831531398e-01 1.003381259596347885e-01 -5.582689784812323586e-01 -6.262099206855405165e-02 2.103689695133497128e-01 -9.876663686629423566e-02 5.021564126594147970e-01 -5.257299459714890322e-01 -1.285550244153286711e-02 3.618527028831509118e-01 2.157084326351589032e-01 -1.236575183663961713e-01 -5.596722288650005650e-01 -2.156823042222138775e-01 -1.437950190494057812e-01 -9.937246428695023504e-01 2.768472922663594571e-01 -2.132491134873187033e-01 3.113048352942354158e-01 -3.391405238988883797e-01 -3.345571123538062519e-01 3.812639499069220839e-01 3.209608532693583594e-01 -7.516484068468962110e-02 1.326124074917119644e-01 2.665267299796186262e-01 4.864691073940817789e-01 2.735858266491840718e-01 7.727733176124781389e-01 -2.440953645593098298e-01 6.350779729646528760e-02 -2.955690889358892903e-01 -1.455372461331876588e+00 -3.496254477189383869e-01 -1.085571578656615799e+00 1.553056689580877281e-01 -2.585438327764466582e-01 6.668772383243790070e-02 7.116198490958821621e-01 -3.666631668862410098e-01 -1.501946163068730300e-01 1.257497634657349872e+00 -5.062564829153601842e-01 4.876563769723687991e-02 4.666334811693961804e-02 4.459034046741943147e-01 5.933460379828155162e-02 9.127615234553487777e-02 -6.421566812215813158e-01 -1.873766205775768690e-01 1.562143427615148850e-01 -1.927905399639082973e-01 2.795526756216338282e-01 4.449596253450113226e-01 2.245356842606102410e-01 -6.604032111539265282e-02 -3.018924489042580372e-01 -9.030962471335464425e-02 -3.656270280690063768e-01 4.333858856166278306e-01 -6.570860331523423747e-01 5.125845970120948003e-01 -2.787101476481357865e-01 6.311026406659753230e-01 -3.493208002135370638e-01 6.600508070941749628e-01 5.743017882546237463e-01 -4.038971698907637548e-02 4.840774890258331409e-02 -7.949919593985871336e-01 5.904664413463773381e-02 -1.381143666444377138e-01 -2.142002978114354306e-01 -1.977656059978462610e-01 -5.652992262714332528e-01 6.335999222232074901e-02 2.986310924860204330e-01 1.030114335907250656e-01 2.472931091528526304e-01 2.722220470661446123e-01 4.998866517969959844e-01 -3.047261053324915731e-02 -2.271636386993206302e-01 -1.102425682828778869e-01 -2.317728624834760609e-01 -2.310985402495642771e-01 -9.218285624654704025e-01 -9.005975552633903591e-01 6.024730840829872758e-01 -2.995710275316968429e-01 -1.441099905816179139e-01 -2.146400904347358501e-02 6.663612193029824216e-01 -8.813359608911188747e-01 -3.880040324198920643e-01 1.423864588709264078e-01 4.963500530251819809e-01 -4.213631496610513727e-01 -5.168312268013666166e-01 1.326393645389770670e+00 7.651125105152637440e-01 -9.857670523061565215e-02 -1.380803992294540872e-01 2.921855918968712662e-01 -3.806215774682637498e-01 -7.168187673829805595e-01 4.456847992555194593e-01 5.001548615475458481e-01 5.425442100282365683e-03 3.223338724652185516e-01 4.784813369279184436e-01 2.243477075881523120e-01 2.613676195504713862e-01 5.734829097315754382e-02 6.301877878725244964e-01 -3.718650486838526725e-01 -2.384218990933809623e-01 5.598437456548788216e-01 5.864420345587235683e-01 -1.813930145175349229e-01 -5.332443988705835025e-01 9.097921148692189597e-02 -3.779148452821008974e-01 -4.709147406411999803e-01 -9.811492666370206228e-01 2.771366759971113369e-01 -2.109941818373249067e-01 4.343494125660768077e-03 -3.130015950226120447e-01 2.891884307487802563e-01 8.234300609563698081e-02 -9.543831256649280836e-02 -4.810509406926243292e-01 7.264145141051923105e-01 -8.886199387074852352e-01 3.087832198148109386e-01 6.584450092429604273e-02 -5.873322467304555872e-01 2.568587835266988861e-01 2.074537467059288653e-01 -1.207477067132552540e+00 8.964748424744380106e-02 2.544704045097735956e-01 3.360475209091394744e-01 1.709149832757684562e-01 -5.398975435583597271e-01 5.093697980972841100e-01 -1.538992651664628786e-01 3.811895677405975347e-01 8.767845292017860392e-02 4.372849473809450882e-01 9.670253296847425295e-01 1.512765893757306024e-01 5.966830741386246473e-01 1.767466974224831122e-01 4.809091363536846520e-01 7.018522885935016831e-01 -6.926375816464910851e-02 -2.294649508605960397e-01 4.233873245952147341e-02 9.169907800068141657e-02 -7.460729408247170069e-02 1.304600068042889305e-01 8.045555917754335443e-03 -2.192971226772047755e-01 4.170400652411503373e-01 6.094926533307893912e-01 2.581056530106619618e-01 2.457651105668986757e-01 6.175154449552906488e-01 -1.987172729481647415e-01 -4.082104583325373848e-01 -1.670732477460559473e-01 3.565209946442636224e-01 1.543303637363171998e-01 -5.100073228710872986e-01 -8.122402828670511471e-03 -2.155642443594285029e-01 -6.436045909894562433e-02 8.174336498431754305e-02 -1.889198930837830970e-01 4.510319308763924284e-01 -4.265486943555124588e-01 1.664246483570396562e-01 -2.210380971621300761e-01 -6.870735510390257178e-03 2.514684108930686501e-01 2.947862895847885856e-01 -5.902215221346590601e-01 -4.475684241898363891e-01 -3.147441255802554960e-01 -3.187189536090612868e-02 -3.723535190975645892e-01 1.132464391897547024e-01 -4.808454691349052790e-01 4.223814876941865415e-01 -4.172672680670779233e-01 -5.659248619698366012e-01 -8.749275834505331195e-01 2.251900668006360795e-01 -6.504659903374004903e-01 1.108449509610088812e-01 2.026419551536275121e-01 3.563471191523655962e-02 1.814213293393609483e-01 1.825298011657783548e-01 3.095093861682771674e-01 3.182284625154390145e-01 -7.013416691439275930e-01 7.488669577947255629e-01 -1.507994733945130061e+00 -4.063574020924106689e-01 -7.994548369628244888e-01 1.594105930026022966e-01 3.415561555865749832e-01 -2.738893440708601856e-01 2.197915921038016696e-01 5.833509855347462220e-02 -1.108745942367883458e-01 -5.114863588981843900e-01
-1.339309128404373161e-01 -1.535003191549901003e-01 -1.167130279512088205e-02 -3.691641841377801270e-01 6.295786279042400735e-02 1.234265506697158177e+00 3.557276647541162129e-01 -3.491201922393373236e-01 -1.436327263321623693e-01 -2.883912130304956967e-01 -5.926855831161497168e-01 -1.391124940741740867e-01 1.962670646937870189e-01 1.845492770620546175e+00 3.202127389823287706e-01 -2.837190841328054436e-01 2.924573748426442799e-01 -2.399472190543300576e-01 1.819736169237834156e-01 -1.775527563622271432e-01 1.977895661165923746e-01 -7.129938256119088269e-01 -2.179355989921621384e-01 8.914642141693771560e-01 1.157859989023216352e-01 -2.437760650815184171e-01 3.062696614485467192e-02 4.388892091279931740e-01 -2.400539592971913661e-01 -9.880363061243013778e-02 -3.429370846555543362e-01 -9.837756468985801028e-01 -1.671473048901780389e-01 2.534727378719112689e-01 8.946718613649184970e-01 -3.747946387588849682e-01 -3.070545412861295231e-01 -1.431954942544636789e-01 -2.365330357907124426e-01 3.422555692010011419e-01 -1.331926280893065417e-01 -3.908903850607753916e-01 -5.907291716100147860e-02 -1.695975893594771911e-01 3.666690995464919611e-01 -7.526837133538971658e-01 3.049652137472189106e-01 -2.809965219553491877e-01 3.913693264089810886e-01 -1.800956685245470312e-01 4.155565960174488760e-01 -2.448080746465038093e-01 3.996629170530894282e-01 5.316243739223285303e-01 -2.243651501208247800e-01 -3.802928603654962547e-01 6.091085413087686806e-01 -2.096182514818850651e-01 6.224619176163096457e-01 -3.386770867398544715e-01 3.149532266244479684e-01 -7.558964340503018797e-02 -1.264339472552342136e-02 3.569453353488558633e-01 1.479204863515618529e-01 -6.747333181200648733e-01 -1.940473757689556184e-04 5.313701072075239784e-01 -1.271756193189273576e+00 -2.286578917112140966e-02 9.455579857196352855e-02 -3.483480119220132010e-01 -3.306843805273739223e-01 4.972962724537248191e-01 2.753135282684289753e-01 1.142804895782498775e-01 1.425409792877432857e-01 -1.104129278666476699e+00 2.456173270361633465e-01 -3.155775342791370397e-01 4.509289775760052382e-02 8.508674832402363108e-02 -2.014721874740277585e-01 -3.957223485099900517e-01 -5.423448371037093985e-01 -3.622390824058048797e-01 2.077897494574171833e-01 5.138816811420265918e-01 -4.845018333115102410e-02 -1.275194972656651382e-01 6.069540121909203223e-02 -1.168527462412460027e-01 8.094602034762612974e-02 1.470747568106497705e-01 -5.183651436344856034e-01 3.443777243938068167e-01 4.115252159981666047e-01 4.554959067209902734e-01 -1.632884754890829571e-01 2.039327174790026287e-01 -1.856900738881491764e-01 -1.279716836574986694e-01 -5.141798748790186169e-01 1.937570926438596242e-01 2.021737246921929965e-01 -1.801167727986858758e+00 8.591447714457607632e-02 1.764702120668854568e-01 1.093734975520966185e-01 -4.761022077131718544e-02 -3.742735753758606454e-01 -6.269037480230388315e-01 -4.388352061327996378e-01 -1.989699629287045579e-01 9.886921788260007171e-02 -2.974196160953658241e-01 -3.360612943871370967e-02 -2.116704311514870651e-01 -5.532228570587793132e-02 -1.293886330726337908e-01 -2.143945549351264079e-01 5.035142391270533424e-02 1.557765350819745320e-01 -2.212352778190512514e-01 -1.092660801167037343e+00 5.386209519937734669e-01 4.535660744758456264e-01 2.722389980835306367e-01 -2.965251948602309895e-01 2.026442869874325314e+00 5.556049529255652208e-01 -1.179604671619738365e+00 -1.889389128880077651e-01 -2.907970312815293945e-01 1.323237514087360012e+00 -1.299191865689356407e+00 -8.080757560358178271e-01 6.177857097896843896e-02 5.708803955395370666e-01 -1.002705176919979957e+00 3.408481823035673375e-01 -4.275419369899697841e-01 9.380958120166278669e-02 4.643518377678256259e-01 -1.542816982892315503e-01 4.090964532833169520e-01 5.135842023298761161e-01 7.688238729086599443e-01 -3.630818007915162515e-01 9.152256269288343293e-02 -1.080091440808277792e+00 -1.229171899893631431e-01 -2.611860271251070231e-01 -3.225507139286326597e-01 1.739805846915832566e-01 2.358514084616213646e-01 2.934703064467950040e-01 -4.490429885262058329e-01 1.847977752069256407e-01 6.992353325978927225e-01 5.524955745684515529e-01 -3.489428190643879546e-01 -4.053027521241636677e-01 -2.770501610051904762e-01 6.421914779103792270e-01 -3.394800639694970923e-01 1.705893837514849964e-01 -5.445296364420717516e-01 1.156507438966330042e-01 -1.088606784692008750e-01 1.442948219301057433e+00 -2.357894281497576738e-01 8.810098215734743499e-02 6.071175948455421745e-01 4.171574854376427499e-01 -1.195800231268734137e+00 2.038856798512230228e-01 1.404949661761492330e-01 3.629599767557269430e-01 5.120996240064913385e-01 -3.655138868620336767e-01 -4.224541847524348470e-01 -8.286829052034505594e-02 -2.177711469559952262e-01 -4.368757775612325950e-02 -2.468530626959457297e-01 -1.358282583105384078e-01 -1.469954881633236399e+00 -2.189204624407255217e-01 -1.272785409648578281e-01 4.582489960611849100e-01 2.256945301657430070e-02 -7.639069370494088185e-01 5.244545100593674958e-01 -2.525015795645831895e-01 -3.217372815462731239e-01 -3.335467247516424316e-01 -7.049851374913318480e-02 -3.284687631663610885e-01 2.229433855597946768e-01 -3.761960677183403545e-01 -1.041691960239949089e-01 1.234633684494281930e-01 -2.491675429885058246e-01 3.728935875902784081e-01 2.829827350464533819e-01 -2.028508572415558542e-01 1.559549665855563816e-01 -2.119743698454188419e-01 2.599800153720594476e-01 2.690143981576791909e-01 -4.161752635938777423e-01 3.456041758938426245e-01 4.797042248602765291e-01 -4.143714735714344455e-01 3.335249830596694331e-01 2.389458233150626165e-01 3.544539804396065752e-01 -9.797768735741478607e-02 -2.749647660573531494e-01 -7.971520084329645206e-01 4.019156851307351674e-01 -4.936585971459551692e-01 -2.610358957445489334e-02 -8.848114197267077652e-02 5.406773710195236227e-01 1.201733499391741011e+00 -4.831463939425315046e-01 1.446159583686187800e+00 2.544439340467596899e-01 -2.068152916637226169e-01 3.316363248694175203e-01 7.280823265853954285e-02 8.881441664526532054e-02 -1.684468915212069817e-01 -4.977520262110248783e-01 -5.353302354038538824e-02 -3.647937391642792904e-02 3.677845924927451438e-01 -3.122841990514358540e-02 -3.560587009282199511e-01 3.416976093576370999e-01 1.736260411938569115e-01 4.387066127098031010e-01 1.293095044866279797e-02 5.066939699408552489e-01 7.634756566729744565e-01 -8.030444040051134547e-01 -4.456554926980791503e-02 4.353584723913487831e-01 7.203631876768683273e-02 -5.873986160666951895e-01 8.483920716686347285e-01 1.054359830850088442e-01 2.580419589063692731e-01 -1.611655583072015840e-01
-6.033935420945865102e-01 7.255206660320237533e-02 1.494508342490379338e-01 -4.454514163778561242e-01 3.771145179914636714e-02 1.073658756895599531e+00 9.234550164350610602e-02 4.199727537981843284e-01 1.768636181850218869e-01 -2.857840416617745682e-01 2.294248973165499139e-01 2.663089612291466013e-01 4.312036701012508244e-01 -6.778550170478317982e-01 -2.749636949660994589e-01 -5.019239904509530809e-02 -1.133223563425090914e-03 -1.992110466592848239e-01 3.174299855352687438e-01 3.559203873477770341e-01 -3.465885203742394838e-01 -1.250782765039431255e-01 -8.719611484961568848e-02 -3.831867494711444500e-01 1.866612653625816798e-01 -2.127903277519247460e-01 -1.633672595154623819e-01 4.950151694965641558e-01 -3.912020980436411444e-01 -1.450690918145049191e-01 -1.476216405935015796e-01 2.855863803056714334e-02 -5.662357131017674572e-01 -6.749138429976457576e-02 7.055181325654258373e-01 5.074133707518662106e-01 3.953149672905912904e-01 -1.899847488808908136e-01 6.540650546046999914e-02 -1.305151540888213613e-01 -3.944959126767079438e-02 -5.043489730062281629e-01 4.633509447307300189e-01 -1.639847049587109529e-01 2.359963068848543732e-01 3.465773317223140859e-01 -3.756404306312614017e-01 -8.986000229767032721e-02 3.128942036887801259e-01 2.493850066382399810e-01 3.422418635036462708e-01 -3.205763747703153088e-01 -1.261869961210584923e-01 2.900322853898816833e-01 -5.838725492249978964e-03 1.711101205183496454e-01 1.188277148857423693e-01 -2.326544828491797501e-01 1.318720573040659538e-01 2.414797759918497003e-02 3.974973034877089528e-01 1.122098090828415329e-01 -2.040244534999391401e-01 6.303921466566628773e-01 -4.073885968589541218e-01 -5.400984377326759622e-01 -9.028519326333414585e-02 3.584153849446346241e-02 -1.170643612160957137e+00 -3.907933180778104809e-01 -8.521381569849182380e-01 -1.739642202023480577e-01 1.135759580806588592e-01 1.134073014731123152e-01 5.742477228577118620e-01 -2.534908909575045999e-01 2.094004193674080250e-02 1.008133738652596589e+00 -3.940393010137335089e-02 -1.041343335854426622e-01 5.302109563466133463e-02 -2.045881112263090995e-01 2.475559356881502915e-02 -4.046023726510020180e-01 4.958552587781270282e-01 -1.692833883116511562e-01 -6.714824290760497590e-03 1.271617537396115827e-01 -4.356383894059021045e-01 -2.019429009913648876e-01 -9.353354638925387779e-04 -2.419090140865173266e-01 3.121953516668131146e-01 -3.143603808077989337e-01 4.995811568476721254e-01 1.548903646230526121e-01 -1.656393771388602609e-01 2.151979866321767076e-01 5.344285255748024710e-01 1.485333041340937132e-01 -5.401415500246846690e-01 3.591634058563178411e-01 6.294873911008347367e-01 1.262960595405408504e-01 3.379094333997058608e-01 5.299366744947198171e-01 -2.398518809637298910e-01 4.009091063658607457e-01 -5.167053925310431950e-01 4.118749621865270272e-01 5.993210538358394457e-01 -1.863184431916876105e-01 5.121248877045403436e-01 -1.274421496935988218e-01 4.075271309082419968e-01 4.458923560458947777e-01 6.141025866859990412e-01 -4.134932387127882025e-01 -2.372496662264045597e-01 3.645066147867469519e-01 -4.613758564420575303e-02 1.815885605811687065e-01 9.023852654718709232e-01 -3.167680576122668401e-01 -1.146256062821404020e+00 -9.192566748382326181e-02 1.985293421353719612e-01 -4.152103706017464257e-01 1.619356596834918560e-01 8.126792938755355022e-01 2.420166505488727804e-01 -6.807416175145893610e-03 1.435263436536927673e-01 2.430478007839679544e-01 -4.472811932288420222e-01 -5.248061338138111376e-01 6.403356908325495978e-01 -1.496714422483613749e-01 2.981864031565433781e-01 -5.011350497341023891e-01 3.801769349322539626e-01 -3.913862159167289523e-01 -8.103779047720151285e-02 1.908145610524706881e-01 -1.139172435556882051e-01 -4.609031980692175900e-01 2.579858610693053222e-01 6.515793343591782527e-01 5.108796752591121537e-01 -3.844989505390325468e-01 -3.692010331771713311e-02 2.830024784903733756e-02 4.997835532736737418e-01 -3.469976489582857759e-01 1.182260519700367163e-01 1.080051516065614892e-01 -3.590453083087387642e-01 1.612739168892177166e-01 -5.530986777140149968e-01 -1.624312457704036039e-01 -2.339126637562191982e-02 4.478526957001379705e-01 9.253069796011058334e-02 2.178803196771864903e-01 -4.806612552555143414e-01 -1.965069782865333792e-01 9.040953305358294390e-02 -2.275860396640412564e-01 1.566132402649262068e-01 -4.147818473385302407e-01 -1.160787052569386829e-01 4.282454107285597611e-01 -1.967266585425460623e-01 -2.659428858512093430e-01 2.609656118039350159e-01 -3.180148005549945922e-01 4.794392560898868422e-02 -2.062754235728791463e-01 -4.541089489267913781e-01 -2.451675475327116382e-01 2.832203013012736803e-01 -3.586658845648958982e-01 2.468810087235824846e-01 -3.824685298140183543e-01 -5.496357803942990561e-01 -5.043176551603504310e-01 9.616562294740536865e-02 7.708782531886153588e-01 2.686056050898921188e-01 -1.029271783524359982e-02 -4.626145658512286624e-02 1.012598160026735583e-01 3.825027167325188437e-01 5.591145648946234115e-01 -3.243731370005533687e-01 -3.416361030427755852e-01 -4.945864280379985156e-01 -4.774867979180826179e-03 -1.676108874424545037e-01 4.333437256337072108e-01 -3.546259472983715466e-01 3.613883036135392413e-01 -1.230109727799754554e-01 -4.131530803811352959e-01 -4.489908617228450388e-02 -2.402470194948214122e-01 5.109760418668830573e-01 -2.999489055376287627e-01 3.331035883859935209e-01 1.425058115982125728e-01 -4.035441850697699673e-01 2.408737313247027167e-01 -6.241833007410654277e-01 -3.228156765587359422e-01 5.429748801527780611e-01 3.693201472353994097e-01 9.286073459882705772e-02 3.733241302514229143e-01 1.529781666073045006e-02 2.658627532535564053e-01 1.439686918145761663e-01 -1.412198630882970096e-01 1.226738887043332324e-02 -2.515538094805254421e-02 -7.402040925297335150e-01 -3.459949171066291351e-02 2.106949627740727915e-01 6.163321092321639300e-02 7.352142199133334666e-01 -2.112741541650891008e-01 -2.575696453148358378e-01 3.624860840619789637e-01 2.321591324225868169e-01 4.672671923146505812e-01 -2.933262050221383324e-03 2.780884559296653569e-01 6.680469957830685868e-01 -4.587620708141424419e-01 -3.996054296412179796e-01 -3.600656200888638914e-01 1.036236139277324775e-01 3.743496766957825628e-01 5.555465129851367978e-01 5.952650296023012100e-01 -4.090589537248535135e-01 -5.095122234762815561e-01 1.907313793774054467e-01 9.420396636737802393e-03 1.198567083810967437e-01 1.203810785861713362e-01 4.853776143781705910e-02 -4.789646779284123523e-01 1.184617269936965311e-01 2.417887985144150931e-01 3.706530924945679040e-01 4.326207155592997067e-01
-4.635403994733729993e-01 5.783540351231563487e-02 4.738951586817803929e-01 -2.585619608895456945e-01 5.505261038166867071e-02 -6.096301287115196699e-02 -4.703872636681669661e-01 -2.432867872882256075e-02 -1.037286470510369929e+00 7.312810858940714531e-02 -3.529196216163932864e-01 -4.215689054911074818e-01 6.626012295055926371e-01 -3.221659651199035856e-01 1.269969248401880135e-01 -9.816876503765160911e-02 2.255884309053697925e-02 2.193605788349747010e-01 -3.493134818358707983e-01 -2.705891047467026134e-01 -4.487142775953250062e-01 -1.130938011481001704e+00 -1.554121624277522151e-01 -8.445927956802560255e-01 4.095678345706362244e-01 2.176457047929007405e-01 -5.459210301468325754e-01 1.907286639596965372e-01 3.190947684103911941e-01 -6.608395192387266082e-02 1.196970669920697367e-01 1.062226240919711961e-01 -2.410107945876655278e-01 -1.214994712663094167e-01 -1.599175427476905442e+00 -5.374723283471181112e-01 -3.499988627638701000e-01 4.188825385993944495e-01 1.024030963364824104e-01 3.818324439999363773e-01 -3.951483102783915347e-01 -7.491075057999779796e-01 1.215753043146315798e-01 -4.328448236624388157e-01 8.347954103948442006e-02 9.873102423634597113e-02 3.402599836717636328e-01 -2.248802660684750820e-01 -2.428743591558876758e-01 -3.160018394396788000e-01 -7.158728156439191082e-02 2.127199216068335341e-01 3.294850450646895634e-01 4.430977136212294609e-01 -4.737209659257650141e-01 -3.295038238043528356e-01 -1.457362510440058934e-01 5.812239904275420255e-01 2.577248636831095951e-01 -2.907753191835222295e-01 4.078900987610113438e-01 3.785965987548285672e-02 1.275816396413915199e-01 -1.023175801581023059e+00 2.977642542164224415e-01 1.210884649765588961e+00 3.088643633374590913e-01 2.033599552825895440e-01 -1.331523508971747427e+00 -2.365603138258264571e-01 -2.086566174783367478e-01 -2.692804679346998409e-01 1.943632885374120822e-01 -4.887323230824525133e-01 -1.031529725763790317e+00 3.690236387969344500e-01 3.180826893188962168e-01 -7.408941303991022354e-01 2.322963750251032244e-01 4.275006459023609762e-01 -5.188128655394511624e-01 -1.313361267012431999e-01 -4.222437010781502909e-01 2.748923333252592527e-01 4.823099657183361755e-01 2.227793535205101205e-01 -1.921530998837073456e+00 2.853024150170860307e-01 1.273982644847011514e-01 -1.812966621453587779e-02 -2.319912176772108425e-01 2.197621375163615887e-01 -4.236279261208855118e-01 3.196852746426411263e-01 4.104313794217298028e-01 -5.974401299224397777e-01 1.653770625283821072e-01 -6.508733546593757913e-01 -2.640807642914422826e-01 -3.801002219976090668e-01 -5.770987762940018584e-01 -4.063157427237459179e-02 -1.853131938476286211e-01 2.108319651625732427e-01 -1.977064962442060328e-02 -4.694224607329658405e-02 9.610626218143128452e-02 -2.486939821446906007e-01 5.198368550666220278e-01 2.175076936475009437e-01 2.140447886852931692e-01 -3.457108738413276483e-01 -1.131458308713674948e-01 6.082089417818112992e-02 3.304329544391326756e-01 -5.428840477276044574e-01 -1.495295746380820301e-01 -5.647292781066297618e-01 -4.642686362102300124e-01 3.627417232490864341e-01 -6.881823994098525965e-01 -1.067988210204506988e-01 -7.106830218334511118e-01 -3.540092141213378035e-02 -1.087116042545885758e-01 -1.589355733852397812e-01 2.930959437765197073e-01 -3.286514082741675558e-01 8.265855532522441151e-02 -1.656331743829401626e+00 -1.646144091689488720e-01 -5.060323787870882883e-01 -2.054944205321370398e-01 -2.201554911796302083e-01 -4.597833036166467657e-01 1.186194211646546676e-01 -2.146519838518898549e-01 -3.407179624935904871e-01 -7.981168747856880463e-01 -5.284048813053612292e-01 -2.024121760498648614e-01 4.890456799321096781e-01 -1.187250981869127260e-02 6.369068916720522777e-01 -2.871409507170677999e-01 -2.908817465934833701e-01 2.558998101407667924e-01 -1.043274059789931041e+00 1.213747201857940661e-01 1.916600024138647995e-01 -8.972707661785062072e-01 4.906775709770664351e-01 5.219181148391204283e-01 2.036157622935005629e-01 -6.728865860000277088e-01 1.076119625854287110e+00 -4.504026356035861212e-01 -4.922601005257336293e-02 -3.709612935927975030e-02 -4.028404230245312134e-01 -1.611774109167305735e-01 -9.124756419673759611e-01 1.276412101925799014e-01 3.232188939069962630e-01 7.467646815931341386e-01 8.219310864420488472e-02 -2.018028726497585190e-01 9.858612267055567868e-02 2.593993602549493627e-01 -8.183101192503356991e-01 4.523268900454516239e-02 -3.378281737588926803e-01 2.209516837921461363e-01 -8.168895485039562310e-01 -5.596640462437830754e-01 9.510025748067715487e-03 -5.409568303529680433e-01 3.412285906726232887e-01 -4.081510827103407291e-01 3.859782215867165189e-01 9.330898142124391392e-02 -2.565414789944608365e-01 -3.489247933516085864e-01 1.046254562610865746e-01 1.417792703724566651e-02 9.645639394853962323e-02 1.591628217899617725e-01 2.932060502663990098e-01 1.582444462068464675e-01 -2.443997756544909750e-01 1.201240262095169820e-02 -4.384167310706371667e-02 -6.568970605755394820e-02 2.486554973604123697e-01 -1.220720183204717646e-01 4.217849682685618218e-01 4.282381774991304152e-02 -2.040077259418335842e-01 2.998543646177820876e-01 -3.350677299026112721e-02 2.586517815485482874e-01 3.027563020368389535e-01 4.875162710234831054e-01 2.435597553628703338e-01 5.489527129605319411e-01 -1.113593791865952864e+00 -4.672151203983839762e-01 4.977066106526883971e-01 -4.806093667618129839e-01 -1.144242313967410940e+00 -6.909603605320938091e-02 -4.059926221228189469e-01 4.497345867302476874e-01 3.529550166117084165e-01 -3.401754615913512442e-02 -1.355384287906692686e-01 1.096944790426554878e-01 -6.386254022076353065e-01 -2.802971482458520569e-01 -2.452538893507013040e-01 -5.949975899281517017e-02 -4.505202804559141350e-01 -6.273410118693029114e-01 2.633175987306401664e-02 -3.785213535620327030e-01 -1.728534093475033728e-01 -3.569680222040990114e-01 2.896305340051315014e-01 1.186692135618985650e-01 -5.203126248831402290e-01 -9.377010709972402602e-02 5.434706770757647548e-02 -8.623780419382508222e-02 6.332050291252164231e-02 -2.562928763015771549e-01 3.021846486583334435e-01 1.639164711408959973e-01 1.836400282469450862e-01 1.165656689824804693e-01 -1.646208087641346518e-01 -1.438768661511364566e-01 6.112550617026111244e-01 1.835433382798767332e-01 -1.964137538024788576e-01 2.238341362901534459e-01 -1.415084625732709322e-01 1.052995609680688061e+00 -4.750413866790010875e-01 -3.712152140218940004e-03 -2.270448012771260071e-01 -7.484791025428985667e-02 -3.564513272399136290e-01 -3.205023273920492577e-01 1.473353118377189186e-01 3.030476631285378142e-01 4.408016570989830019e-01
8.286531959807669212e-01 3.947140620336002659e-01 4.291708399945012298e-01 -4.377511721144489165e-02 -6.412550519459963017e-01 6.028720502569029360e-01 -3.605958926645426721e-01 -8.956955978943997865e-03 -1.414638036272038768e+00 1.696071023292546054e-02 9.243267063415854246e-01 -5.481864684940038202e-02 8.633678980359764665e-01 1.247528063744033577e+00 -1.545742286220997130e-01 -8.599825708730644835e-02 -3.713560670134092301e-01 -2.262137331737036072e-01 2.945974236447280736e-01 -5.036166869315805705e-01 3.580844154417178182e-01 -2.818059893003890815e-01 -1.293155557198492900e-01 5.511768882936959324e-01 6.669037645320743946e-02 -1.217383422943549565e-01 2.320876800793840733e-01 5.620342273505548603e-01 1.986713328413949320e-01 1.034988373147206708e+00 1.868382235905779731e-01 6.378839652592008802e-01 -5.233972779115579899e-01 -6.931825110276983171e-02 -3.868822704560818254e-02 3.855065796715425042e-01 -4.735499985576335780e-01 3.040707766626176700e-01 -1.303285967976637594e-01 1.835610334524425957e-01 -1.785714378105449363e-01 -7.021500124536740328e-01 -4.723495141105018918e-04 -2.970424439764306479e-01 -3.872277927325469271e-01 -4.771334280054175814e-01 -2.724839704498458470e-01 2.069121615374084344e-01 -9.421732011597809819e-01 9.348811764531479718e-02 1.008222773230796343e-01 -1.307081925566672131e+00 -1.293779929453522937e-01 7.352817105284835397e-02 -2.715595901457901196e-02 2.444957874598595871e-01 -3.466815005940281358e-01 8.165240279176995131e-01 -4.413503646863040641e-01 3.699598328867771957e-01 1.343435747659298685e-01 -4.542992035103825266e-02 -5.312307286411961371e-01 4.733010050783936218e-01 6.041633989437430463e-01 1.551774836660589019e+00 -3.731128349800995059e-01 -2.351743077765798828e-01 4.519617955282649313e-01 5.193514323170035363e-01 -5.087527053260909593e-01 -4.092117207363853426e-01 3.866956813183738406e-01 1.709204089944476035e-01 -2.877038017823749239e-01 -2.961099215805140794e-01 5.184512328191429736e-02 1.857372641466108254e+00 -6.334826540916742577e-01 -3.554968954311321649e-01 8.320949821634220089e-02 -5.159543750730714029e-01 -6.948066423794098390e-02 -3.238902615300728316e-01 -6.004446748601458550e-01 1.425044098713333374e-01 -1.601623079522143112e+00 7.764860057735643029e-01 -5.512199769401896488e-01 2.636618406124459080e-01 -5.912268729133419720e-01 -1.417869813649822591e-02 -5.821984280057699440e-02 2.908349777042090190e-01 3.041363368270144640e-01 5.564068624398449403e-01 -2.256781766639917031e-01 -2.692650102321998418e-01 4.117553849590142034e-01 -8.742055028342621270e-01 -5.674543685988066022e-01 -9.432787345567497650e-02 6.387897504325651399e-02 -5.169310908805974103e-01 -4.646262169051643132e-02 -4.620537056943870291e-01 1.587297672652842884e-01 -6.400061833227392860e-01 -1.830581696221568119e-02 2.198218454720048953e-01 3.118676742249833489e-01 1.546409224428001161e-02 3.153475109029363899e-01 1.968375427322962834e-01 4.221684935293086860e-01 3.548954286284523030e-01 1.143202665245799943e-01 -2.248102469012866755e-01 -1.091251429229252168e-01 -3.885017028845936804e-01 2.731200085760015495e-01 2.800658698934634701e-03 -3.038297653357421302e-01 -4.283367772609388280e-01 -5.629130763675258553e-01 -1.468288398358047198e-01 -1.589887086213945533e-01 1.002245239475112598e-01 -3.993052791318841277e-01 -1.308973343904018538e+00 -2.624749457391671870e-01 5.885305058946547208e-01 4.834845603915087775e-01 1.145122442389763517e-01 6.821249434545646473e-01 1.522051517856165770e+00 7.228069787251355516e-01 5.770175109911387240e-02 -1.651200939553050875e-02 -9.712040344809761416e-01 3.515871076046296340e-01 9.644938298736471793e-02 2.768639295163331515e-01 -4.011000002458857128e-01 3.708833031916729250e-02 1.742282576532801219e-01 3.026481622859404363e-01 3.013941712832949316e-01 2.001037787701009651e-01 -3.634318079190692607e-01 -1.259951443818358330e+00 -4.992690029799891349e-02 -9.072963765550359772e-02 -3.472405552247097571e-01 -2.758428421092345983e-01 1.116130469841306816e+00 1.404249017119855170e-01 -1.729255398156195889e-01 5.365888322898646479e-01 3.539852693627382890e-02 -1.566615783832175479e+00 -4.181904418269542512e-01 -2.412808004883329194e-01 -2.065820838111073060e-02 5.644437689511334622e-01 3.940269784235776451e-01 2.273162644519310660e-01 -6.047278277518396833e-02 -3.200259345037732017e-01 -1.350519504892154998e+00 -8.072782516543679510e-01 1.561317336578679771e-01 1.503595841223579269e-02 5.580835092244187251e-02 1.309649572629975889e-01 -8.434920777467569408e-01 1.025198917288133449e-01 4.163094880835358502e-01 -2.259623069020748332e-01 -2.063387696851715636e-01 3.431256176233894728e-02 4.146079396934201911e-01 -2.060575294439668526e-01 -8.567511056016760551e-02 3.554132126759274590e-01 -3.845468589171584933e-02 -2.508547643607403899e-01 -1.141576829593528464e+00 1.217196515961136011e-01 4.344060630253864241e-01 5.835717073840172853e-02 3.153596451585162497e-02 7.997069474450635429e-01 4.840752535142742730e-01 5.723709349327885804e-02 -4.548946435167866564e-02 -1.422781935110503937e-01 -2.181349487153502464e-01 -3.275780680978721549e-01 3.237522809166799576e-01 1.823312942956221983e-01 2.915337723334640030e-01 5.855882792063423770e-01 -2.288837877442764790e-02 6.262550653925604838e-01 -1.117258326736868979e+00 -6.070452546000271177e-01 3.699182228278805745e-02 -2.568725734330390420e-01 -5.969162075029614822e-01 -1.225786062575450440e-02 -4.281414704251940706e-01 7.619387285447366542e-01 4.801268178121944480e-02 1.014760256996131427e-01 -4.133769791282040224e-02 -1.312657195455580461e-01 -3.296448371392773358e-01 -3.142637003011185259e-02 5.744355266143676142e-02 7.748272390279432598e-01 -6.798520185776201451e-03 -3.368164234838970095e-01 9.312870701527270478e-02 -4.539369508750628612e-01 3.808283886063743018e-02 -1.268790536276087177e+00 3.636727139178863588e-01 -5.488224906038362549e-01 -1.483652152081568198e-01 5.221190506013962535e-02 8.580253428326747867e-02 -2.784803975034031986e-01 2.987001479619382782e-01 2.321113651765866204e-01 -2.729348550086381775e-01 -1.667478656907937506e-01 1.834351196947158966e-02 -3.620688512884937538e-01 -4.825666351014939459e-01 -2.840538640760231770e-01 3.421094687051290939e-01 3.842024477184878273e-01 4.337588148938196220e-01 1.121730730774166962e-01 2.701667105417275283e-01 1.067333706601396370e+00 -4.275703840623443774e-01 -7.153309435818224760e-01 3.327389226264775846e-01 -3.640551903763106223e-01 1.932526389144328394e-01 2.931212544072574477e-01 4.016965597873629612e-01 -1.273101541449642993e-01 2.366000413989574336e-01
1.448710652976136493e-01 -3.149498617586894422e-01 2.292754276370622957e-01 -3.140890112827796621e-01 -4.530682564320245853e-01 -5.179895784539855219e-01 -5.640290505358394046e-01 -5.392241816536166854e-02 -1.271962013678925363e+00 -2.802725090402177766e-01 -6.822776289293670526e-01 2.325366992643537190e-01 1.340644800001432602e+00 -7.892328277707650885e-01 -4.905926524630351837e-01 -1.940247873314549787e-01 1.701387048984887296e-01 2.293130981950171898e-01 -2.679668481594436047e-01 3.802984990002288290e-01 -2.919969416766213799e-01 -7.016348819263479308e-02 -2.154498079754296469e-01 4.286852729346862789e-02 1.280652319908071324e-01 4.396629529003167058e-01 -3.054351671012694447e-01 -2.545436244251046004e-02 -2.444626353380267847e-01 2.342512387463995815e-01 -8.491219004175365459e-01 -9.206027980286316525e-01 1.739187490482148601e-01 2.424689428272057690e-01 -1.742759838202597056e+00 -6.681930738427889205e-01 2.063869476991487262e-01 -3.195200094047610517e-01 -2.745632865470571393e-01 -3.387542338169977074e-01 4.282179861872892901e-01 -8.202487644748093221e-01 3.420053011657858133e-01 5.123276868927604255e-01 -1.299577976854559003e-01 -2.435117059689131669e-01 1.132223929165180609e-01 -4.443834723029055911e-01 -5.323901122749620241e-01 -2.468139702347968978e-01 -2.114896034097905331e-01 1.000015145705460462e+00 -4.538430183949771490e-01 -5.304412818905075433e-01 -9.022204723917739977e-02 -9.976414813211159291e-03 4.275392732003402974e-01 1.099085996991973513e+00 6.293792494330671117e-01 -5.950714463140226451e-01 2.554545645616013161e-01 3.635164879308155905e-01 3.400020683731093396e-02 -2.400691069607000794e-01 8.553304435713242615e-01 4.749754941745999437e-01 2.090492605650961511e-01 -3.751514959555794504e-01 9.958379985538882151e-01 1.488784882351658623e-01 1.010691202505397790e+00 2.695910441759762910e-01 3.665299327183240141e-01 -3.885810743363857234e-01 -6.162252522627149898e-02 2.627673561340602704e-01 4.928317635646652928e-01 -5.624033310427005716e-01 3.088242680366571347e-01 1.429167358888273620e-01 -2.508264023457906257e-03 -2.536506270295716958e-01 -3.708971565417663041e-01 -9.301710562101589419e-02 -5.910646722877656301e-02 -3.233010192107858560e-01 -1.779440203910918950e+00 9.861025849643462182e-02 3.633934628578936454e-01 -2.402142170209790040e-01 -5.544817055412111506e-02 1.849317617788399648e-01 2.159671228339677118e-01 -1.756371130165110539e-01 -7.329862262662859007e-02 -4.546423925441157032e-01 3.019887886177343161e-01 5.624202521529107074e-02 -5.670723874177910906e-01 1.292549282143298228e+00 1.132503876837310658e-01 -3.787772651274534108e-01 -9.585270487610182411e-01 -3.431752508644053679e-02 6.119949528426845697e-01 -9.249960025768276806e-01 3.562673053996907591e-01 -4.147392097470445349e-01 5.966419570869391231e-02 -4.001712628415057260e-01 2.503221111447599401e-01 3.393263095499449711e-01 -2.551642210428431423e-01 -1.460943841160557144e-01 -4.679039443816329635e-01 2.347423705846257702e-01 -2.821166281173160817e-01 8.861337247525294045e-03 -3.974144821805636885e-01 -5.138458260650042853e-01 -9.546901594537440111e-03 -5.056129079910854918e-01 6.477909181754664125e-01 2.604629385393159025e-01 1.296285892939518458e+00 4.923050982661513197e-01 -2.537714300736769735e-01 -2.279897644155726849e-02 2.956793619392102945e-01 -2.599176196311930642e+00 6.199604679984732636e-01 -7.507577366330798752e-01 3.925176411388254794e-01 9.809351625048912116e-02 -8.654609639007011523e-01 4.551997973621561555e-01 -6.711597406282753253e-01 4.377178216121298537e-01 -3.358581619555691122e-01 1.154397939990676469e-01 -1.345809532607305792e-01 -4.398971644353934507e-01 -1.601628226732372817e-01 -4.061573589209782620e-01 -3.899334599398655010e-01 -3.592683047899468129e-01 -9.706521131489360965e-02 -7.940668915857745924e-02 -3.802312768541509791e-01 -2.887903319261922452e-01 -6.024653052166941691e-01 -2.028491107972449914e-01 -4.746242661732866797e-01 6.449633131641241413e-01 -7.234243656440594306e-01 -7.716028978512094738e-02 -6.989008891037230831e-02 -2.357840783646599492e-01 6.050825533226082964e-01 -3.229387698257508710e-01 -2.934918584629638352e-02 1.211162735644507465e-01 -1.164793252381247646e-01 1.587002210709837768e-01 -5.204499972663390039e-01 3.460366489917690580e-01 9.484575671441670963e-02 9.448827661817608969e-02 1.298952129618453355e-01 4.962586972825023396e-02 1.141409301357890316e+00 -5.509440401535734555e-01 3.679617199744188438e-01 -9.066213447829083449e-01 -4.438547585423104347e-01 6.445156715421335170e-01 -1.346996608877550461e+00 -4.107575365614732910e-01 1.205236480650369590e-01 2.357702494955665196e-01 2.687405462049707316e-01 -1.790793639605907095e-01 4.186486075303136323e-01 -2.554673024709264717e-01 2.055765013903171901e-01 -4.593431116932608638e-01 7.133959048613347509e-01 4.381515957527903210e-02 -4.706073147004147250e-01 6.563304213848980551e-01 -4.513575886568866324e-01 3.197465928275067815e-01 -8.332711939223932385e-01 5.917281079711012677e-04 4.937491188369301787e-01 3.477393191278333462e-01 4.676070469008379304e-01 -1.336452437744692079e-01 4.446289489438441378e-01 3.031715658490941601e-01 3.034728242578529356e-01 3.695548038348731579e-01 -1.944663112075845079e-01 1.188105678931716952e-01 -6.589882931175766734e-02 -1.140575336973361997e+00 -2.403850683010702594e-01 -5.213296542840095693e-01 5.555371792801706565e-01 -6.146462390277777077e-01 -1.280377584575771166e-01 -2.144066490224310340e-01 -2.964402969752008565e-01 2.715901283564119972e-01 -2.684059342500804690e-01 -2.220362069627028756e-01 -4.393218708420082996e-01 -3.146320729624583201e-01 -3.516724824821899631e-01 -1.561650963620124788e-01 5.770996891870210366e-01 6.233841929688309635e-01 -8.950322434337446564e-01 -1.829175539726816957e-01 -3.109628068452396366e-01 5.518663092732230269e-02 9.960240314314487975e-01 3.196707990804281696e-02 7.676498422930094073e-03 6.206151842949254871e-02 2.626160793422142037e-01 -3.133932065331380135e-01 5.308672629628075068e-01 -6.166112010332982507e-01 -5.590203889329622422e-01 3.244345606459887038e-02 -2.110247471802414454e-01 1.984596283137263495e-01 6.293611579682304447e-01 -1.049893219612187678e-01 -2.152719742275161774e-01 -1.445378362460486288e-01 -3.715901810710305897e-01 -3.722037998132552428e-01 5.594896155846948993e-01 6.163860292653808859e-01 -2.074813675791104650e+00 -4.316948883289340455e-01 6.611359354067832816e-01 3.638325980669799287e-01 5.028255450642413749e-01 6.279482114864798348e-01 1.866327160719305489e-02 -3.596682848088096907e-01 4.860292828319348613e-01 -2.766697422253622252e-01
6.807215167687202806e-01 3.524330318776409121e-01 5.857059727826173512e-02 2.051582924972297495e-01 -3.863611700384683156e-01 -8.832116527507574144e-01 3.534499718778866817e-01 -7.551880103655968235e-02 -9.164914563364191524e-01 9.693701028845100667e-03 -1.395913815110526590e-01 1.308258734032810566e-01 7.961103468194575816e-01 -2.300452309508198290e-02 -1.954599911009304580e-01 2.815671403774581139e-01 3.511107745830057136e-01 -5.388004092812072043e-01 -2.318614862814346450e-02 -1.897523575108412131e-01 5.548046846122343945e-02 -9.960592832711778755e-01 5.872864935261788710e-02 1.806897581832730970e-01 7.944361519174873709e-02 2.710939787929778633e-01 4.196808580325006588e-01 -4.977730950500322549e-01 3.173498204823994029e-01 4.745969400428274865e-01 2.563710544135730518e-01 -5.236586720896480029e-01 -5.389549324006949194e-01 -4.906606535864385110e-01 -4.396374709896048727e-01 4.664809854818044998e-01 3.497711672803043292e-01 -4.911777984734160829e-01 -2.132429406302436548e-01 -1.856176174209530350e-01 6.855996194109070796e-02 -4.725757642327985120e-01 -2.213090671994359382e-01 5.919454441326998939e-01 -2.084261276903747739e-01 4.959914202575898545e-01 -6.097229066588555346e-02 -1.331034214617690115e-01 2.028850808500931927e-02 5.275556199475071040e-01 3.872343522366848423e-01 9.017422269252601819e-01 1.222880851800393354e-01 2.482992948502392994e-01 3.163395336172530881e-01 9.706717840608729275e-02 1.660808642484598308e-01 4.624618610839191235e-01 3.724483951598689391e-01 4.286472021836130741e-01 -7.738229025490696300e-02 -2.054686409733929575e-01 4.962603467420347025e-02 -3.903380364801329883e-01 -1.142130899929352905e+00 2.189994464308044453e+00 2.379008540613043454e-01 3.971985451680075663e-01 6.580155918565375739e-01 -2.582925382736189213e-01 -3.863996889507955168e-01 -1.414739981684009773e-01 4.211361753600476043e-01 -2.358729535864546520e-02 -2.784122869776776144e-01 -4.262534218716691470e-01 1.234713813146806893e-01 -8.548382949544454101e-01 4.821106771452387529e-01 -3.415514196578643413e-01 -7.241371419016358335e-02 3.158885901156550657e-01 -3.376351466321150796e-01 2.440061808050792425e-01 7.673164886474222179e-02 1.107556012158506797e-01 -1.296314700813100851e+00 -3.397228146065849885e-01 1.274630176839151585e-01 4.874703237610032991e-01 -4.293337520145374953e-01 9.869372445522878526e-03 1.022731867408669532e-01 1.056163206496633922e-02 9.812524596638089180e-02 3.296117429158093026e-01 -2.125209650725995714e-01 -2.157659445764944228e-01 -2.606343886091549988e-01 -8.819392263916513430e-01 2.341992536534965585e-01 -4.467888317350414695e-01 4.691252700027666034e-01 -4.317211230774169461e-01 -1.139371027908138989e-01 1.901701980983600271e-01 2.095321477784891639e-01 7.149057023235287911e-01 -3.004303883819730570e-01 4.559164379668042555e-01 4.376868699182691336e-02 -2.603272853633020745e-02 -3.259666839040887276e-01 -4.117497072282249593e-01 -1.604482893657195597e-01 3.977093509655965087e-01 3.183597740194430425e-01 -8.190978059589398841e-02 -4.351875350013476584e-01 5.657689402347079038e-02 -3.354499603720675349e-01 4.479603723583774344e-01 7.205650888663921450e-01 6.654606068938835606e-02 3.409735518281644673e-01 2.578492509929000698e-01 -5.651220980491133972e-02 4.204177862887562012e-01 -8.206383470841384364e-02 -1.889864433261484677e+00 -1.588824768115210673e-01 1.622648916873093913e-02 -1.505562738223966690e-01 3.407017610168366351e-01 3.509264004331211773e-01 -1.150898695335229455e-01 -5.862059513766120222e-01 -5.339246582012473485e-01 6.108739875516278062e-01 -8.666647409659091750e-01 1.385842492837082718e-01 1.219012893139273523e-01 2.268370881579733489e-01 -8.312105535888997254e-02 -1.346832586648313013e-01 -2.607515054609260141e-01 2.363584908178932575e-01 -2.477963655032631995e-01 3.055884591515551918e-01 -3.655699487944747555e-02 -3.875375675946447496e-01 -4.962165262787299747e-01 4.394982166943233737e-01 4.331690041851699036e-02 -1.071424439710785270e+00 8.847620322869025333e-01 -2.294074469852006304e-01 1.942269565702490486e-01 -1.508630329264088743e-01 3.180382106607480552e-01 2.427277688928117794e-01 6.759230935924106509e-01 1.511925741456602301e-01 -2.883122237084187467e-01 -3.355968517854900912e-01 -4.234525602494398355e-01 -1.257304803810261884e-01 -4.520901993103398353e-01 -8.621726067565647911e-02 -3.777018305303047607e-01 -2.690611466118156825e-01 1.510031175084754484e-01 -9.027885227745402474e-02 3.045530830177394233e-01 -1.087359441809878161e-02 4.025765239363939818e-01 -7.269298230636944691e-01 -4.504854248352058721e-01 5.341101602463701470e-01 -2.354733921886049963e-01 1.035168391393481158e-01 5.274810606579310307e-02 -5.358350883342625215e-01 -2.901920446282770308e-02 -5.542414439595215736e-01 4.648218973517632691e-01 5.925922407828779770e-01 2.375590819645254648e-01 1.945728960771049565e-01 7.952669732279407100e-01 -3.773389344171300119e-01 1.631880899857476031e-01 -6.762928923707885176e-02 -4.473309426971809888e-01 4.644968337404267733e-01 -1.536125510836792996e-01 -1.415437505080466840e-01 1.210088727243606860e-01 2.192969769885707298e-01 -5.481243630569887504e-01 -2.938200434384712900e-01 -5.415668327199802956e-01 -1.115489721451267263e-01 -7.789226687389144699e-02 -2.923290191607336164e-01 -7.402260152053316000e-01 1.461537323306300040e-01 2.181269261416923233e-01 -2.718174424901966257e-01 -3.341289307995675140e-01 1.482061726610090502e-01 4.228779289937419916e-01 -1.053596072801860073e+00 -1.888538689448753666e-02 7.611802291847691304e-02 -1.015024540342287541e-02 -3.876988834097773728e-01 -6.794417459553450112e-01 3.260493841118672353e-01 3.685796112244405509e-01 -1.335837695143591575e-01 -1.356901041211709402e-01 2.018785473972660172e-01 3.841352891614118192e-01 5.704545033625705308e-01 3.176676639491682885e-01 3.479775698644744786e-01 -2.931044535516971750e-01 2.623133222920427943e-01 -2.483926855836141034e-01 -2.209702751468536341e-01 1.646104835234368235e-01 4.349804454706668322e-01 -1.193947416645318865e-01 -4.684653603974555658e-01 -5.866351838817307485e-01 1.950397076511701522e-01 5.278752213168049767e-01 -2.169831337136730320e-01 4.110257489622778371e-01 -4.061066836397064783e-01 -9.211357683012048880e-02 1.036372918335454751e-01 -2.464046156439368140e-01 -1.209653747995369288e+00 -1.925081531259898449e-01 8.980451560113582588e-01 1.177059449254703460e-01 2.025873236017053658e-01 2.419485339933118428e-01 -1.070063683013587480e-01 -1.284269723402264196e+00 -3.846916595951901940e-01 -2.566314065033115099e-01 3.793334377006345459e-01 -3.378372939512593320e-01
-4.960347837819892858e-01 3.214027469825938010e-01 -1.009360696854883638e-01 2.418150134573220644e-01 -2.842662766269291597e-01 6.876402763546817232e-01 3.490535107137421877e-01 -1.505005627431826309e-01 2.675310246617517707e-01 -3.408394058801063609e-01 3.309264655243446263e-01 8.325853834730469194e-02 4.067071279781604709e-02 1.248296734940277819e+00 2.373518999446200262e-01 4.204116860163065184e-01 1.545434925555967398e-01 -4.563343075201524712e-01 -4.284683836012819214e-01 -1.323367810000496969e-01 8.493524474109548361e-02 -8.169696303892973743e-01 -3.261063562453256348e-01 -1.862501656206257128e-01 -6.081437696468837695e-01 -5.726477053337414302e-01 1.163450521072027621e+00 -1.891577395167296505e-01 4.092987264984963569e-01 5.583062066917300337e-01 2.315973142542217950e-02 -1.872716752671213236e-01 2.022606127607808890e-01 -2.804592372575243076e-01 6.853927965362277552e-02 3.097631930765258265e-03 8.877438081747630605e-01 -5.674803214481643349e-02 -4.295927488826391527e-01 3.701290338908586053e-01 -9.629475359967457071e-02 -4.370320811254135851e-01 3.454949367081455169e-01 -8.085852096644750853e-02 3.797378258760149561e-01 -3.831386935594824905e-01 1.752968516417003353e-01 -4.224001126381261018e-01 2.674578873946185653e-01 4.294046710190220217e-01 2.948495708557813955e-01 2.078867584135285773e-01 4.257722040114915729e-01 2.001943322575510942e-01 -1.544647648595534883e-01 -5.241194546592505693e-02 3.334405740284988595e-01 1.419973597871146520e+00 2.777916277211881640e-02 -4.922591355940427738e-01 4.692994894907848158e-01 -6.668830274050877582e-01 1.934205377668799797e-01 -8.833497315465256294e-01 5.969582517727390902e-01 -4.169067717260065975e-01 3.392992705765028871e-01 -2.849026245553436532e-01 -8.171962217352417290e-02 -1.158101295331144531e-02 1.005724313200681230e+00 -1.540306239868598770e-01 8.403658365607384606e-02 -4.246129927640909241e-01 -7.055052747864495322e-01 -5.180069572535730416e-01 3.411883428550446240e-01 -5.386911429526988065e-02 2.748073901250698559e-02 4.254487735882526295e-02 -2.079934153337205105e-01 7.034295499206064117e-02 -2.970652794012684228e-01 2.848083777925601301e-01 -2.523062657756529048e-01 -2.149634165391168805e-01 1.109507243757206219e+00 3.972797096891300672e-02 1.672282623824156989e-01 -4.305857940255071181e-01 -3.385983071822879498e-01 -2.880961193853914248e-01 -4.761806062830283709e-02 -4.006924754574240494e-02 3.062676104030103708e-01 7.262089113782803640e-01 -4.402232973181569725e-02 -7.410664231180119632e-01 -9.872103866403700301e-02 -4.226759588574365845e-01 2.664311045434950009e-01 -4.281260734586420091e-01 -3.956491259216197154e-01 -2.864983629349150407e-01 -2.901538295410078794e-01 6.477841903198064966e-01 5.555746077273766154e-02 -4.665501319078779741e-01 -5.606740325236611033e-01 5.038127431939312673e-02 -5.244588085682636569e-01 2.635295590173163394e-01 -3.843861938617825214e-01 1.177554495983590410e-02 -4.746381870783680790e-01 -4.817172217396729628e-01 -2.207533074162627007e-01 -3.519534229841903006e-01 4.696830699458510727e-01 -7.288537997742669527e-02 -3.307434221314285439e-01 2.329264275785865312e-01 2.345740062965475936e-01 -5.772915583865868838e-03 -6.911056577450516158e-01 3.004384860994868123e-01 1.570507249184648346e-01 -3.979952813804527589e-01 -1.527630828713451849e-01 2.596955619204042165e-01 1.513416314375065630e-01 3.264871831096576305e-01 3.687541286713179045e-01 -6.217506460166068172e-02 4.375920731255137919e-01 1.497109339478831791e-01 1.736854382718896195e-01 -6.698627495932561737e-02 -3.530656063328885264e-01 -6.606580227931753146e-01 8.846658632183850013e-02 -3.976454311678947473e-01 -5.726734426213085927e-01 3.204469509301068331e-01 3.406822458201407278e-01 -3.762182988295963842e-02 8.025710062747648532e-02 -7.083039385566685109e-01 -2.357383897422949959e-01 -2.439323605828543073e-01 -3.091929859599001906e-01 2.544974402413396897e-01 -7.415062771361473348e-02 2.399572765328417401e-01 4.840438343036070901e-01 -6.759938875662512281e-01 -1.094340621670521901e-01 -2.582327826941805959e-01 6.225355100852623114e-01 3.671665409938390523e-01 1.247630735629085830e-01 -1.215617443683477406e-01 -2.518431489823529379e-01 -1.140750965909768239e-01 3.082071484220566537e-01 1.912505361444249707e-01 -4.266966681918590298e-01 -1.343933104272001799e-01 -1.206774325522665947e-01 -7.109965086289599112e-01 9.433611951688726516e-02 -3.751110385518308110e-01 -1.342098930411211588e-01 9.840707812996523154e-03 4.772671771169171850e-01 -5.347595991006337535e-01 -4.864561888179450011e-01 -1.661165034545962760e-01 -1.311861088597308933e-01 -2.974242653137533776e-01 1.372557269542766800e-01 1.203124890620820564e-01 -2.151613842336397575e-01 -8.992403946055317621e-02 2.616426215455394111e-01 4.404155169935379810e-01 4.257392647333119728e-01 -3.535051444183952563e-01 -2.850878682079815429e-01 1.199191582927963962e-01 -2.799664982181885309e-01 -2.086164937258404295e-01 -2.313064982664297942e-01 -3.648379223675838334e-01 1.988041325881012011e-01 7.428555772619120923e-01 4.687900274794982725e-01 3.815355875982636147e-01 -3.665813710416080951e-01 -3.336934946981022221e-01 -4.684925056218594008e-01 2.520151624338701213e-01 1.173406897642946256e-01 6.919520934829213876e-02 5.186038187194204063e-01 5.904333535844961123e-01 -8.798135974057402775e-01 -2.729438993443049077e-01 -8.823456147157611174e-01 2.450931160625121064e-01 2.634543316498934029e-01 1.732090892297996620e-01 -2.218276245290496662e-01 4.449143829551481799e-01 -3.835238233908772054e-01 5.003948276798014794e-02 -3.567950900764534361e-01 -2.234203715872692120e-01 -3.323442086593076938e-01 1.688411788332507824e-01 9.313276712943435731e-02 -1.351082616110149126e-01 5.831383584406930609e-01 1.528196721086438892e-01 4.381347542248951732e-01 2.043459209662777110e-01 -2.839522461985365814e-02 1.830514527529461255e-01 -8.361647616530988314e-01 -1.337283932025394861e-01 -1.868984306455331312e-01 -3.063625571244478485e-02 5.235487239399626569e-01 -4.982158636018182429e-01 3.056795304931992363e-01 3.441631034827848379e-01 -6.969802210498726724e-01 2.295752275993173386e-01 -2.875533199979734000e-01 -5.989692927423975050e-02 3.449882119071420172e-01 3.354638011500002404e-01 2.190138113321269397e-01 -2.814501399025445272e-01 -5.639662117728567736e-01 8.312931606702046450e-01 -5.695161976006279242e-02 -1.682083158370219905e-02 -1.661757114876806496e-01 -8.143060347746482186e-02 2.076088641556610714e-01 -2.244133982885437584e-01 7.254196141453806979e-01 1.249824807820901912e-01 -3.879731006291547990e-02 -2.301548319264037912e-01
-1.753303670667352432e-01 2.056995543342325095e-01 -2.571764051788008598e-01 1.753901244361881495e-01 -6.812805726788037086e-01 3.422958737403471174e-02 -3.565522554529708676e-01 -7.617214529398333434e-02 1.663259577238052345e-01 2.685129819992844724e-01 5.308442239153493558e-01 -1.148652756900183369e-01 -6.603328885115933300e-01 4.954654777071903493e-01 -4.078423733980527932e-01 4.467213020995762784e-01 1.917912418575600797e-01 8.912671648792349632e-01 5.011355304918566067e-02 -1.438767964124704202e-01 -4.998001304675405709e-01 -1.884094235832333708e-01 -4.343099364179594524e-01 4.031313807805013694e-01 1.662764956061837107e-01 5.736694518102047891e-02 4.827967924448257897e-02 -2.877837007488275867e-01 -3.413043855192237630e-01 1.174788247146571152e+00 -3.108588373108897573e-01 -5.331210091842277787e-01 5.154040576820426711e-01 -2.106561611748461460e-01 7.965861967151484091e-01 -3.160445904310869580e-01 -3.444715567767425157e-01 -4.633923057469662155e-01 -1.411165389517421431e-01 4.346669956572764559e-01 -5.030335409190722640e-01 1.626685362990291650e-01 4.354215634031281812e-02 -6.896850991829104327e-01 2.196278626020798375e-01 -2.933967071850179242e-01 1.025408831064267279e-01 2.951893891105281664e-01 -5.343542583175411309e-01 1.948201513653358696e-01 -3.843924660652693337e-01 5.413122641994043693e-01 4.201382466470268140e-01 3.059190938796967352e-01 -4.688430906521456332e-01 -3.714060788328575891e-01 5.487828068045940144e-01 -2.773828453481773648e-01 4.429680263807286855e-02 2.445460049804854333e-02 4.069444296634172065e-01 2.270559722019078186e-01 4.706131838822092545e-02 3.673057633460385385e-01 8.175815779884680889e-01 -4.654150778740218652e-01 4.063968238481286410e-01 -4.463575534610457474e-02 3.421216361797361771e-01 -2.015959044752097251e-01 3.436357630957501685e-01 4.693290413025947294e-01 -1.002156104612437065e-01 -3.838507126484025922e-01 -4.174038737458202752e-01 -1.957465593630030865e-01 -2.099806887405713807e-01 -1.141945917098339675e-01 -5.450730035952348063e-01 4.458173909507747584e-02 -4.480303220224953753e-01 7.534219484253948385e-02 4.887120319614862707e-01 2.705137507381439876e-01 -3.973033955429913222e-01 4.320128756566011252e-01 -5.508194119585003712e-01 -5.261036734827265887e-02 -2.536680233754893821e-01 -3.531956900361508667e-01 -2.070196302321982151e-01 7.875948041169632263e-02 -4.148848698944148095e-01 -4.002823202756862764e-01 2.731606681186081811e-02 2.019093241785643034e-01 2.016070382624982893e-01 -7.799929490817391065e-01 7.236625745013401945e-01 -2.959551738229630469e-01 2.338707154245875941e-01 -3.870433007316024798e-01 -3.629457723115130929e-01 3.905976209097303947e-02 3.953035270691075409e-01 6.340529675089868755e-01 1.566448977373838258e-01 4.228674211631122115e-01 2.102559116331312317e-01 -4.139002118710566891e-01 4.081071927570825153e-01 6.687685136161840294e-02 7.645478712770424623e-02 2.393978983220131362e-01 -3.870387837639086698e-02 -3.039439985982427261e-01 6.388696024858417366e-02 -7.375576000289478518e-02 -5.321684660283929613e-01 -3.046587903651996054e-01 9.864997150107185364e-02 3.975224153325130905e-01 8.167421874132797521e-01 -6.104128274543454413e-01 -9.018526844063898817e-01 -2.936268474933721034e-02 -1.468681159617295506e-01 -4.386362257664127573e-01 2.338463759638193251e-01 1.941868241776300019e-01 1.926932552199774884e-01 8.810824489354401878e-01 2.223660652810223459e-01 1.781290260568938466e-01 -1.336251199973539361e-01 1.082766475282097351e+00 1.177155082781118800e+00 -3.875827701766325628e-01 9.706298750818173615e-02 -8.567881119994830152e-02 1.316309821218722975e-01 3.258171481491016486e-02 -3.605460416888757735e-01 -1.689813759859009890e-01 -7.998563190248159094e-02 4.747212006983617671e-01 -6.071923448807466789e-03 1.188999264641763323e-02 4.179325711847831637e-01 1.372876573048012194e-01 -2.141155466594821810e-01 -2.631675988450591919e-01 -1.806146592325923173e-01 -6.180722214356836747e-02 -2.134156465384940693e-01 6.950685432263390418e-01 -2.806589812989220278e-01 -3.838184015116238301e-01 3.759093519573570297e-01 2.103442794666463833e-01 -8.517722407488065306e-01 -2.405632295968522794e-01 -4.839804508708971109e-02 -1.589758465334407678e-01 -3.235596882490457404e-01 2.207557471646948710e-01 -4.833936236736206538e-01 -1.648775292751415711e-01 -3.324088063670774251e-01 8.613527945457374324e-01 4.059086226378746248e-02 -3.404084666610655563e-01 1.308535231364284235e-01 2.863570761175261992e-01 1.874315607549794926e-01 3.183312827517697507e-01 3.359646980976286335e-01 6.694470875232348961e-01 -3.637313802321797129e-01 -4.129278354757354164e-01 -1.346096457464790730e-01 3.327979639906826215e-01 -6.003436799436759896e-01 2.200611701457562963e-01 3.849153986308377351e-01 -4.280406086427038237e-02 -5.539372863088394272e-01 -6.950980555707876318e-01 2.392656861914761457e-01 -1.729672224158712579e-01 1.796422309042696730e-01 -2.898984564554279650e-02 1.167120356058094055e+00 2.746031689449194291e-01 6.541218615346200416e-01 -7.991652665605629424e-02 3.164574831606515870e-01 1.161749344789716476e-01 3.445107410414271487e-01 5.487923799001147573e-01 -2.104599968035135993e-01 1.549632903346402357e-01 3.154329094514850967e-02 -3.498249434651700129e-01 -4.240767944046310856e-01 -4.403378339537239450e-02 -1.560670292901847611e-01 -5.391832217912521097e-01 -5.133759155813061303e-01 3.310996557822019071e-01 -3.549697464702644134e-01 -2.225222358978110881e-01 -1.370656587176965757e-01 -5.046444867510668786e-01 -4.546151855121195462e-01 4.818470291292049207e-02 -3.664578610262533842e-02 -2.454689692947100987e-01 4.220380679336321328e-01 -2.716504803388643530e-01 -3.305949703592039324e-01 4.772151517988605929e-01 9.932253679554353676e-01 -4.125695158040810773e-01 -6.173770841159792466e-01 4.201477113781866279e-01 -1.104916848180506062e-01 -4.860750645874218345e-01 -3.511289323326730605e-01 -2.677983249558881992e-02 -5.947748915474182496e-01 -2.210959054500918619e-01 -2.491868656111957958e-01 -1.714497356526041016e-01 -3.007741209489040446e-01 2.722778668276502612e-01 9.215125458838747952e-02 -1.766529345344250435e-01 4.862298328077863108e-01 -4.320364772549147858e-01 -2.726423691287432893e-02 2.281841398462917947e-01 -1.641138481148507466e-01 3.750674965849984388e-01 7.129628453095260276e-01 9.673112282318820920e-01 -7.160199568846008500e-01 2.437974479486647306e-01 7.427041657702049271e-01 -5.606913727519313717e-01 3.749265215262750223e-02 6.501043705658909877e-01 2.567877641716401205e-02 2.814614262899320374e-01 -3.379527590491771538e-01 2.534665823909241777e-01
-5.984570150848849551e-02 -1.105000137813440253e-01 -3.847437140391665733e-01 -4.776354628957706766e-02 -5.431545488193122440e-01 3.524285557574066696e-02 2.251633371141718021e-01 -2.017745843070900269e-01 3.242011182171337658e-01 -9.352511707345888270e-02 -2.815082417370687873e-01 2.738492037740311025e-01 1.843540604101859548e-01 2.375370601180664398e-01 2.748281589624312904e-01 9.933067035977405368e-02 3.970735416861744804e-01 1.646495210198042902e-01 2.707134591510014232e-01 2.501489200021864701e-01 5.097454104279073306e-01 -4.382354204575559242e-01 9.161404119563854032e-02 2.566968224699885393e-01 1.415925012266063265e-01 2.584064797512057310e-01 5.695810297370922370e-01 4.658556145026814255e-01 3.585797366835360989e-01 -3.880852543746682315e-01 -5.010106351121348389e-01 -6.818700241645779814e-01 -1.043223256795945963e-01 5.189505978914744216e-02 1.938447570872996878e-02 5.376553021574862479e-01 5.204641534760378052e-01 4.875451335548841025e-01 -1.891838089255024336e-01 3.683137255221308193e-01 -4.138009689683299630e-01 3.920375228355567621e-01 -5.632857446814241165e-01 -4.024554427270770063e-01 2.049602319046325283e-01 1.275181645858316504e-01 -7.565076628058882424e-02 5.066929593938752641e-01 2.925847638833239950e-01 -7.903030714096515030e-01 -3.888642163964776688e-01 2.969886724146495460e-01 -4.327284825684972192e-01 1.742063682420779136e-01 4.042124411542836193e-01 -2.248268301049735907e-01 -2.408364867078319552e-02 -2.632882427223481314e-01 -7.208575092844676444e-03 -2.769670606236234733e-01 -1.139041237632145848e-01 -1.068156310424506483e-01 1.656511538647175430e-01 3.637015851733924610e-01 4.546431286097046276e-01 -5.819412333063528342e-01 -1.136211527868816601e-01 -3.843708810996393499e-01 2.098703369618289405e-01 -6.179579725232368093e-01 -2.053401217692761016e-01 4.272590415967593702e-01 2.577196474705409357e-01 -1.540877511822394685e-01 -2.058321592841254599e-01 -9.006335394636352798e-02 1.543198035281264681e-02 -2.910814968394150881e-01 -3.193630640017753874e-01 -2.549012206380038559e-01 -1.412907060923214719e-01 4.595782963552116351e-01 -1.408455467015347073e-01 1.214182189023733371e-01 -3.339407905470078708e-01 -2.184241566285761160e-01 3.683049803138099820e-01 -9.702616505432896943e-02 -2.963653788434199576e-01 -3.464337614050518876e-01 -5.706469806546317081e-01 2.994498900395867746e-01 3.648083735719150900e-01 -1.170842589589386473e-01 -2.588258099845884563e-02 -7.991655456683717171e-03 3.077947135910932830e-01 -2.857101433843690641e-01 1.021571122720022151e+00 -7.942763045172006597e-01 -1.734685515417958013e-01 -1.643812051197017787e-01 9.353822908321753893e-01 5.097448257272634287e-01 2.717794079634212531e-02 2.295309134833891651e-01 9.521950449781108050e-02 -4.343237835665230695e-01 -8.957681852002612188e-02 3.063506502605240489e-01 3.568792893369903130e-01 -6.095354506177255161e-01 -1.173937862661266346e-01 -2.619881174552954883e-01 -1.490742463671281826e-01 9.243065066211671177e-02 -3.454187367198339742e-01 -1.583070886064279204e-01 -3.455332492327166105e-01 3.487111204239387030e-01 -3.342137097993921335e-01 -3.603468041600388361e-02 8.040231868880157728e-01 6.127840042189258707e-02 4.708612482955436968e-02 -6.231321201400540077e-02 8.373875333664394793e-02 -4.666951680356167809e-01 5.074454768122895754e-01 -5.164630561072826032e-01 5.098051802889017603e-01 4.690151913309280607e-01 -3.667411641621194374e-01 5.303499162220702834e-01 -5.713727423783743382e-03 5.726226409406549589e-01 4.422441333301792565e-01 -1.027523009275105592e-01 -1.030982601541470117e-01 -3.464342793044785651e-01 6.131530803380023931e-02 -3.074678902839981243e-01 2.604468420593899491e-01 -5.010568562333270748e-01 4.030081313419389133e-01 5.357034821978944317e-01 5.117176031328437569e-01 -2.095862572878407770e-01 2.232627926157770837e-01 4.911202197129053704e-01 5.792568846251130443e-01 5.443207280997625075e-01 -5.226768231346190507e-01 2.738218125449933260e-01 5.651739371605016965e-02 -2.819066834223415974e-01 3.337641580855721379e-01 -2.592647299772368741e-01 -1.575442460561033708e-01 1.980000293263134148e-01 -1.148492213733817296e-01 2.029752332058251396e-01 -1.367261491317157684e-01 6.645907569496182221e-01 -5.059022927269208880e-01 1.465928661532491517e-01 -2.802884147755039246e-01 3.013312593944862394e-01 -4.343715373815969227e-02 4.053707115604284206e-01 1.545818488314955053e+00 4.733179113315411080e-02 -4.585368832784411097e-01 -1.390526754481214919e-02 -4.758102628416745888e-02 4.032535054546953351e-02 -5.511295548277169720e-01 -4.286615689068255519e-01 -1.809090317286922434e-01 -3.063839486486044303e-02 3.618428336993444461e-01 4.885652364685589832e-01 -4.085629288292724759e-01 -3.773981537847483775e-02 -2.820952803629317995e-01 -4.993758108704239584e-02 -4.186218959060966291e-03 -1.735917375658638240e-01 2.001467529975196058e-01 1.057896281649559761e-01 -4.569281030067357530e-01 4.540395199046635688e-01 6.387372124576127241e-01 -3.134007788932206551e-01 4.349302960897013515e-01 2.426197368260265275e-01 -4.204698119405602674e-01 -1.398214937319142703e-01 1.552451973461587975e-01 2.908529958259608444e-02 2.755605488062742303e-01 -1.901920244819091665e-01 1.263171496154858742e-01 2.607892913602347790e-02 1.081226707291478711e-01 5.210202582276038941e-01 9.391879359437793617e-02 7.110049627107214443e-01 -4.973966893150378321e-01 -3.975626338963668127e-01 -1.460784662530627831e-01 4.967833982947081894e-01 5.782041560771207234e-01 -1.638998922607617925e-01 -2.621653130003812060e-01 2.382798778571200427e-01 3.346296636137662817e-01 1.469928803817962260e-01 7.189108430287723117e-02 2.388529062207755405e-01 -8.706114731986456245e-01 8.513661620873556046e-01 9.955012645899863344e-01 3.025562309461864996e-01 7.369888360912409120e-02 -9.666614683188262669e-02 8.096946886661428033e-01 -1.000173706908859955e-02 3.494449636372974344e-01 -1.062112965606349935e-01 -3.316091824157513246e-01 4.492062116128886506e-01 2.438538643857170451e-01 5.016233807514167697e-01 -4.256633418337950059e-01 -6.794087523172331888e-02 -3.019260914431348697e-01 4.587546667512105714e-01 2.085372716314495278e-01 -4.377998481189123159e-01 -2.893410263504181956e-01 1.008913565712469262e-01 1.411860399942952982e-01 -3.168531631711319907e-01 4.384689380586956897e-01 5.316925437094722762e-01 -5.150042695199216203e-01 4.263241951206248048e-01 7.246778889167196369e-02 1.956968697547096236e-01 -4.088877112202475919e-03 2.540082390802687190e-02 1.284630900090535099e-01 -1.535868365038478289e-01 4.514808108063664283e-01 3.565441231368950969e-01
