-1.641206967791647153e-01 -3.136522776631736620e-01 -3.156403594435917559e-01 1.739026057910531831e-01 2.693745263273163992e-01 -9.186273869441037299e-01 1.269091960684362863e-01 9.030189345070964435e-02 7.459703751381995263e-01 -4.362384412729587990e-01 -8.193630536981916235e-02 -4.098124572973268487e-01 -1.856880938445739426e+00 -5.554391568247818434e-01 3.946664058530439112e-01 -1.468544874342017914e-01 -7.902661308546045371e-02 2.343305991222174312e-01 3.989995123343856864e-01 -5.340259903889010840e-01 -5.250868548127524127e-01 1.523689916438349279e+00 4.628606584219575604e-01 6.316450272112653641e-01 -1.529528710579522999e-01 -1.660728635865580949e-01 -4.735211673502175422e-01 -4.886678616311873613e-01 2.408956183428972303e-02 -1.263379105443223960e+00 1.166539502976657872e-01 7.516420213577384990e-01 -8.511802852230265781e-02 -3.430431561053483569e-01 -9.401000743716581010e-01 -1.320986995524257024e-01 5.764976054717714238e-01 -4.032864729361294032e-01 2.478244342363734309e-01 -2.632211107422365304e-01 -6.491128665091679961e-01 4.342736798687237831e-01 -5.186689253751639583e-01 -1.906582804437223777e-01 4.083698091458593527e-01 2.420777923207717286e-01 -5.800689102176536105e-01 -4.322889614558695914e-01 -6.804795133027867482e-02 -3.701236187879420325e-01 -3.492449069186541188e-01 -4.811443364340347584e-01 1.077085000618645400e-01 -7.726103329123824859e-02 -3.028099469554400569e-01 1.000665450284042024e-01 -4.243233507387620396e-01 3.433650600872849568e-01 4.024665472427278456e-01 1.361109481208143124e-01 -4.856795801060866391e-01 -1.044015702365513332e-01 4.574022542998075203e-01 -6.817379187292196274e-01 -2.853300022299198879e-01 -4.033534309966098630e-01 -3.978737924647102742e-01 3.496330241491225066e-01 9.649853910830909209e-02 1.719094102525298706e-01 -4.393166500900215210e-01 -3.985049699087815367e-01 -4.666521040615657645e-01 -1.698731432606939706e-01 -7.436930315484764353e-01 -8.330751194375719815e-02 1.845005109447696023e-01 -9.238146132972417657e-02 -4.524922596020268251e-01 -8.740708307598156479e-02 -4.565819160369600782e-01 1.963459106026425038e-01 3.680306383526057989e-02 1.816858262350535824e-01 -4.207967335952709775e-01 2.127916211359313914e-02 1.553520168256029788e+00 -2.197390951198606446e-01 -1.362788766730740724e-02 4.942717588119101280e-02 -1.420399513089812271e-01 -6.300938870544697812e-02 4.285684077676567560e-01 4.964669989188967847e-01 -1.306513566747972421e-01 -2.394492059228214564e-01 -1.229145411975634816e-01 -1.558344254172852328e-01 3.986656938241091575e-01 9.271867626057300749e-01 -3.307790735107128677e-02 3.015456159170662453e-01 1.104828376337114032e-01 3.523758027566942230e-01 -2.483442996817944448e-01 -2.785422154342656054e-01 7.565198495605085505e-01 -1.907928522476116592e-02 -1.133214841817000405e-02 -5.045731162977641349e-01 -6.961904854446309132e-01 -4.067609115471131354e-01 -2.897978606736745233e-01 -4.369882417355307469e-01 2.750107788688115895e-01 -3.917099801873155096e-01 -3.521352806271475511e-01 1.350350117520066617e-01 3.702169170544361010e-01 1.237964590323820287e-02 8.451983744669916421e-02 -5.097175849491637489e-01 5.787534780240922716e-01 2.505288700927828238e-02 -8.330438057203300162e-02 -2.272418880806070518e-01 3.955043496073666898e-01 4.512524242209020042e-01 3.247359229271341574e-01 5.507345011310271765e-01 3.305647803498763804e-02 -4.058682016431630069e-01 1.777192375081524112e-01 -3.256439571096807484e-01 4.796078533334853233e-01 1.014119702892517738e+00 -3.564497238681286206e-01 -4.377335399361638735e-01 -2.407973354240998953e-01 -3.305214094160257021e-01 -3.478239177368366297e-01 -1.318640973098806068e-01 3.112600246419404693e-01 -1.100170907714792257e-01 2.451630090451405730e-01 3.352449814398508754e-01 -2.389264635237453582e-01 -6.744361421396363188e-01 -3.747682447382668092e-01 -4.166571607059584847e-01 7.026699715125385159e-01 1.156277322653607303e-01 -1.355508390519868100e-01 4.611705422321264458e-01 5.642004531978356274e-01 -5.635691106755105206e-01 3.479718151939648618e-01 -2.084577736163580608e-01 -3.398514046869718919e-01 -2.202321879497022572e-01 -3.843993542770220151e-02 -4.344856036313023417e-01 -5.999110375737704004e-01 4.214903865737906763e-02 1.648389759503400206e-02 -3.651041475655075752e-01 -2.850279537870604174e-01 4.036130410182283690e-01 -3.489674475978408186e-01 4.689795688135880991e-01 -3.575396232249144490e-01 -4.910284192206419984e-01 3.438138989151994784e-01 -5.760676254061515289e-01 3.018519548912965700e-01 9.637616084845354036e-01 -7.136562406824372706e-01 3.974161061238622866e-02 4.216725551851852050e-02 -7.539397644572749975e-03 3.871316385872358157e-01 -3.636559721372810139e-01 -6.243590868737864952e-01 -3.489833462011609488e-01 -2.357557555762475610e-01 -4.407611570172275672e-01 7.971237043861855165e-01 2.304972289522884063e-02 2.734860746021511857e-01 3.681928462919304423e-01 -2.180386567397801234e-01 -4.489682586375993156e-01 2.194047557146847072e-01 2.324069085892489089e-02 6.959806516078735628e-02 -6.832948665303539837e-02 4.543837813881155263e-01 -2.410142571819097745e-01 3.435792310699550267e-01 1.689365613342719633e-02 8.333853340796669104e-03 3.764946378297758245e-01 3.481665785939423718e-02 2.988831394624911764e-01 -6.704188507156417787e-01 3.423755906634943780e-01 7.258637744484556231e-01 -5.691908083654648731e-01 -3.727565035097005208e-01 3.983611712441533226e-01 -3.957232643191397892e-01 4.301805866455206129e-01 -1.388679766467040555e-01 -1.850318336198745472e-01 4.198524962203561972e-02 -1.281581590295537421e-01 -1.118648216609102325e-01 -2.386777822147418959e-01 2.527311972030580334e-01 -4.269361873687493314e-01 -5.401666218482071846e-01 8.306991447063080680e-02 -8.550923894358208877e-02 -4.967153510920396114e-02 -5.074852703199371762e-01 7.272632110295591812e-02 -5.770215468879098808e-02 -5.228963536694726244e-01 1.375441074030170352e-01 -4.332891578895010642e-01 -5.514530389456920867e-01 -7.483924023043384000e-02 -3.649745316812026963e-01 5.778817086801775194e-01 -7.529737464650939627e-01 -5.584607222342006239e-01 -3.425903725306093106e-01 2.910925063775636756e-01 2.654157135267715129e-01 -5.442630621163049298e-01 -7.998995848351368732e-02 5.031109893523566523e-01 -2.928412478355647552e-01 1.336435629304415784e-01 -3.342180697088781849e-01 -1.603746541446606999e+00 -8.402120106699250135e-01 -3.994329429125932363e-01 -4.213568055849545857e-01 4.503925853938127166e-01 -5.637752012111658662e-01 1.182416250802756030e+00 6.165193564790734104e-01 -1.772281957589302293e-01 6.892187126271459574e-02 -1.558679111609761192e-01
3.262296363061256144e-01 -3.527145446089308134e-01 4.462941881158259405e-01 1.358078460864978743e-01 -2.022645169095153017e-01 3.744179580636953220e-01 2.173146605919031582e-01 3.232983463465052276e-01 2.419077097103319862e-01 -4.124933157030455377e-01 7.333360487534769101e-01 5.435653722887998640e-01 -1.814975573115244378e+00 7.265585593499075401e-01 5.140152228428656045e-01 -3.108420867408192567e-01 -1.709053727587284133e-01 -3.971836426019236255e-01 -1.563790988667441983e-02 7.255450039880623203e-02 -3.755078748501213259e-01 1.148783496804415938e+00 5.023066260491138024e-01 -9.005155343840548499e-02 6.100396826118630322e-01 -3.461291688015663004e-01 -4.948116887085038940e-01 -3.417158336527572615e-01 3.227638767730600100e-01 -1.792609194013619289e+00 3.309500578645382385e-01 1.578549240820763255e-01 -2.041934685937900062e-01 -1.073191019052582018e-01 9.937976248944542512e-02 -3.368323000021241631e-01 -1.117190865179427950e-01 1.521553597388000945e-01 -1.949832535940473899e-01 -2.817115787376907599e-01 9.908939048432435781e-02 -4.145047920547368370e-01 -1.164646042970644280e-01 3.400110348618401446e-01 -4.083503117663138116e-01 2.655071610101625845e-01 1.590922462790557157e-01 -3.995365629338307745e-01 -6.087328695879343776e-01 -2.945733928326572659e-01 -1.831427712029546490e-02 -1.386399444207051523e-01 1.357419912863410960e-01 4.505556851040550814e-01 1.814921404403033456e-01 -4.657844119256936422e-01 -5.222904003232790027e-01 -4.565518274016908684e-01 -2.818604019994114807e-01 4.111848659425677011e-01 3.318490153853730917e-01 4.017720272712912433e-01 3.536704693641172792e-01 -1.579437285813173886e-01 -6.889378411263243907e-01 -3.728952156737807555e-01 1.050603237181183154e-02 1.978518122171319671e-01 2.345139126714640421e-01 -2.596383697350360675e-01 -4.955534238424970095e-01 -2.322320580485270070e-01 -4.214299740008551343e-01 -3.477007253131738640e-01 -8.822896329190347275e-01 3.525190076000891959e-01 1.885872340993009488e-01 3.264324909058627378e-01 -2.332147760425475613e-01 -5.999136949569798816e-01 -1.739522253375733185e-01 -4.580291911264749993e-01 3.657429474423073978e-01 -3.532201708042781996e-01 -3.613160793029874251e-01 -4.108891186660200701e-01 1.100831166440175313e+00 -3.784428348809915077e-01 4.230528566571790661e-01 -2.798960416921560945e-01 -9.852899575623247364e-02 2.700148438375684634e-01 4.136690874448885613e-01 4.290152451638920561e-01 -3.634680660583258227e-01 -4.744319641202798116e-02 3.735729940577208197e-01 -6.465715088906688335e-01 3.650747484865659032e-01 6.539499832403478097e-02 -1.290580469056819557e-01 -1.900683200344919777e-01 4.275175416629655722e-01 -3.727106085684785408e-01 4.820615144781443401e-02 -2.037836349877168995e-01 4.665471633981694288e-01 -3.816443910157296671e-01 -1.465917318680331483e-01 5.464741908269797437e-03 -2.605665813898495609e-01 1.137747342485502522e-02 -2.146738160484643332e-01 5.496564588676371849e-02 -2.492307048146374659e-01 -2.484378515113918606e-01 7.354884180844660502e-02 -4.248265400120537216e-01 3.258346274037785539e-01 -5.077375345268665408e-01 2.395721335440770539e-01 1.976889880741770633e-01 -5.484645983097837796e-01 -1.727992274247335536e-01 -8.337871367252540633e-01 -4.094165369456581605e-01 3.119041798780348707e-01 1.700914273301486479e-01 6.433207711537045626e-01 -1.084681406516548180e-01 4.240545214886143333e-01 -5.670915005362470174e-01 3.534498996535032078e-01 -3.189912252219264666e-01 2.556887975530205970e-01 1.830321829768887021e+00 5.001267688049136906e-01 -4.845582699025432483e-01 -4.425098122541794576e-01 -4.786561796552664672e-01 6.449986152583818411e-02 2.589152120100502441e-01 8.198877891318429034e-02 -1.362884720058496202e-01 3.428764161032832325e-01 -4.616237901933106236e-01 -7.422990441918128623e-02 -5.706031414724517525e-02 5.997536893950572434e-02 -1.456830957967876761e-01 -5.726446855955005244e-01 1.342040230512945020e-01 1.496341965098528792e-01 -1.602861949064138536e-01 -2.795794082733840669e-01 4.590772108079161362e-01 -3.871277888588196547e-01 -1.362174877959160535e-01 -1.277080171228391903e-01 4.577859635051708675e-01 -1.134322817557442908e+00 5.388952151980351546e-02 4.897076580914186406e-01 1.557050756797834917e-02 -1.819109872376714621e-01 3.240519231607960626e-01 -4.600242603033807831e-01 5.508331201297645974e-01 -4.563326805925353447e-01 1.930654008495529816e-01 -6.008469431463263621e-01 1.706699790264148975e-01 1.605114598933931602e-01 7.460003662147509651e-01 3.743935940920345429e-01 4.557828249803420606e-01 1.001839096437432630e+00 6.982944592764287473e-01 6.557608274686470284e-02 2.247402070115791031e-02 -3.011776170824842502e-01 -3.388621077871086795e-01 4.651993195123691471e-01 3.195381707798616300e-01 -2.041681284612647251e-01 2.206368926186109691e-01 -6.693297920364357778e-02 -1.933636103894854907e-01 9.622494271831923823e-03 -3.808585587694350849e-01 -2.007097531780181188e-01 -2.264528916830433336e-01 6.178918790743719303e-01 2.406799887416265771e-01 2.480449162785266365e-02 5.287490029787268453e-01 -5.448353872370933493e-01 1.288975363579966393e-01 5.536445529577618263e-01 1.359097358996264326e-01 3.730001006128506047e-01 7.097784886987881792e-02 1.489833946011797083e-01 -1.589577251740892372e-01 -6.846023416901755310e-01 -5.792239562168366440e-01 1.269930568330954079e+00 3.470734537227069261e-01 -2.581494929769320712e-01 -7.857091876874409131e-01 -4.551734969854178692e-01 3.867862072447066091e-02 -1.174374230884572545e-01 2.905345670987471429e-01 -1.246605112029510257e-02 -3.674738460284006358e-02 -5.363168284429233879e-01 3.122613618520345136e-01 1.651746938673989418e-01 1.961063987432209443e-01 6.254381506615801500e-01 4.465827023825116315e-01 2.926932276813975498e-01 2.081824050976766871e-01 2.991589698235798678e-01 -4.360424993400545679e-01 1.286796736874870339e-01 -5.180100388295257874e-01 4.662998640261387800e-02 -3.899014961801121060e-01 1.920696996271087087e-01 -4.032804996985004387e-01 -3.835366821152584316e-01 1.220545882257272896e-01 -1.922532264578029892e-01 1.868867666602149480e-01 -7.736472599172157238e-01 9.462256417652002705e-02 -4.815071747036106520e-01 4.316880964960531641e-01 -2.332477215371759130e-02 -2.949395881068770930e-01 4.726253222664366649e-01 4.204211103681003148e-01 2.151926811970336362e-01 -9.632786746181362103e-01 4.869760392273183025e-01 -1.723900459382691763e-01 -6.108243516138511797e-01 -3.358151422645322404e-01 2.883450643967739868e-01 3.428719828132826830e-01 -3.755313566028004590e-01 2.790170597930838881e-01 -5.287126657085116505e-02 3.686857567567775606e-01
1.791753237413130639e-01 -1.776351175252610104e-01 2.769889612099435405e-01 -4.342807337466398909e-01 5.681600408221306742e-01 -6.213891275497528399e-01 -9.020797401721872277e-02 3.513568547228101274e-02 9.343083113733234579e-02 -1.032408640715060666e-01 1.934082694975242656e-01 -1.513731239533926964e-01 -2.622770421584170286e+00 1.210930709918890125e-01 -8.637542549669413594e-02 1.418875800986915681e-01 -4.617427160134705555e-01 4.393664160616542746e-01 4.372576045040116877e-01 2.682370812875238889e-02 8.724704225679125180e-02 2.058963225010945752e+00 -5.035242412432414660e-01 7.710624950346147699e-01 -6.181559331599800755e-01 -5.683032118153130696e-01 3.551777597659874219e-01 2.033905257444656167e-01 3.375089834941426559e-01 -1.359718399747835482e+00 -3.808336610746070328e-01 -3.553748166696953925e-01 1.712812472590874713e-01 3.131039941199011412e-01 1.096296171448404022e-01 -9.860456923872239210e-02 7.027276337807607520e-01 2.736783383982699935e-01 2.231718622710479050e-01 -3.394268305033555366e-01 1.703908327983005289e-01 2.327613332257651990e-01 1.409314769377154608e-01 8.126540848973266840e-02 4.887538184832657118e-01 1.644821624909292290e-01 -4.438433951061027116e-01 -4.489886467640078482e-01 5.131840073233279176e-01 -7.340910158806313035e-01 2.907928918224543802e-01 4.366117798602111022e-01 -4.394511547044478439e-01 -5.887771770742993294e-01 -2.083265391482840845e-01 -3.398133564026423747e-01 5.437570229039538905e-01 -3.400427850434397103e-01 -3.129348841673156856e-01 -4.413075752373535332e-01 4.287909047140261998e-01 2.341112600290195800e-01 4.117212472261223555e-01 -2.349225085470774410e-01 -4.980091198418411524e-01 4.654661708546599663e-01 4.225774258612600698e-01 9.668289042329424043e-02 -2.585463193128287873e-01 -2.989788646539228156e-01 1.853135693948981810e-01 3.937523390012473423e-01 -3.601354694023530811e-01 2.267916119060646718e-01 -5.308581644244210196e-01 -4.903234378267797844e-01 -4.647620858470369321e-02 1.179567351354621763e-01 -1.986101025111924878e-01 -7.161723670742663472e-01 -2.731939392519886489e-01 -2.412220004305096286e-03 -1.690908044599333596e-02 -2.133933817618134110e-01 -5.704454704813218813e-01 5.401332967125054285e-01 4.301189328109565890e-01 1.062854129620158933e-01 -4.329568455654517201e-01 3.045874092201351080e-01 2.749476935211014883e-01 -4.050498651645597636e-01 2.022668645904359894e-02 -4.064712920925177553e-01 -4.253750461514900771e-01 5.630413961713947035e-01 -3.256986159764203026e-01 -6.174577437191838269e-01 -6.037432720429669608e-01 8.245592754094986931e-01 -1.679618306936664085e-01 3.119558218709144737e-01 -7.219214018934616561e-01 -2.202922669595635263e-01 3.144749229913485489e-01 -9.514540832689530880e-01 3.549057594353677847e-01 2.039436054288303324e-01 4.693844755677278879e-02 -1.241901598839287857e-01 1.365489358669824127e-01 -1.658976299289541545e-01 -1.566424427493850191e-01 -4.037319567969275824e-01 -5.044910630442984711e-01 -1.065777236092798480e-01 -6.459422853313816215e-02 -4.801355306096847381e-02 -3.514255918275780988e-01 -2.403180372609288185e-01 -1.142126106693538978e-01 -2.651721146681312868e-01 -6.121781416387243047e-01 4.072238476886557573e-02 -5.344681451264817751e-01 3.810281499960946339e-01 5.068631482786325332e-03 1.480973312643105166e-01 3.765345931568682136e-01 1.172613943890631116e+00 4.326547045786490742e-01 -5.479727863483598027e-02 -2.387544882386645473e-01 1.188726972692082107e-01 5.131426222432089457e-01 -3.726422954547865540e-01 1.577802870442945871e-01 -1.421083458711369374e-01 -2.447839798026675284e-01 3.573497339426673913e-01 1.524499910420247517e-01 -2.131624126357688775e-01 2.120677152479606142e-01 3.857829976355132140e-01 5.096542604008992283e-01 2.858219543544130437e-01 2.680444133671259777e-01 1.700576235017151050e-01 3.357854532396057495e-02 2.191212116966567425e-01 7.781799008267210604e-01 4.280293151503409277e-01 -3.570014543334965734e-02 3.488186224290695803e-02 -3.216926647831275798e-01 1.003768215901482824e-01 6.003069792877403082e-02 1.092154545541364624e-01 6.611995982692311369e-01 -4.409712891161737813e-01 -1.243174736020815491e-01 -8.830074983630610275e-01 7.026015467806907555e-01 -3.396660165925786956e-02 -3.644815004970025085e-01 -2.800572613109154063e-01 -3.745406126707707672e-01 -7.960301247990156925e-01 -2.756968844932559670e-01 -7.246993444608444690e-02 1.492584302196413359e+00 -1.391112798325824240e-01 4.214678025431081165e-01 5.897690370898504009e-01 3.912716204924058805e-01 7.832475253977824181e-01 5.597958103297027144e-01 -4.733745539272126157e-01 5.160406172221756460e-01 -2.925466172445483348e-01 -1.714195856248352523e-01 -2.514683564819289105e-02 1.943518426895351203e-01 -2.386824914820314392e-01 3.645126242995510024e-01 4.134729022192210612e-01 4.315987888942213746e-01 4.565073343227285529e-01 -5.349404608973382449e-03 -6.286147781119436062e-02 -3.048646676429479091e-02 5.657880527244880664e-01 1.403679366215951074e-01 3.288853610955743551e-02 5.484066680850847586e-01 9.230528681409726210e-02 -1.389924754664984344e-02 -1.915839533017599794e-01 -3.542184518958036432e-01 3.487220430678681371e-01 -1.265440458865507434e-01 1.000511260578837713e-01 -3.576364106169372392e-01 -1.124665617082943464e-01 -6.569648729648306373e-01 3.459270284139116525e-01 1.180236092158082117e+00 4.236516476232331241e-02 -3.660987018562346651e-01 1.407456192443882759e-01 2.793944794963209022e-01 -1.493743125272352645e-01 6.027355607704942830e-01 2.829467746177995457e-01 3.442050038692078817e-01 -3.452812806518323896e-01 1.283112895478194793e-01 4.039078898590013345e-01 2.433030583413842984e-01 1.169817931478006889e-01 1.292030481698760447e-01 6.125053558459158110e-01 -7.368980170895751414e-01 3.557219677646929895e-02 7.341134732382965655e-01 2.991579853542424838e-01 4.239959576522223106e-01 -3.322952153147062382e-01 7.710461568049030712e-01 1.219713630349926296e-02 -1.809289665951250847e-01 -1.174831525797464249e-01 5.703514453406595408e-02 4.632593584836667278e-01 1.074590240890808956e-01 -2.751103092508662695e-01 3.381865511945308378e-01 4.817868762949026329e-01 1.959680143313043688e-01 1.549529179654182409e-01 2.532063565354215062e-01 -3.583568104887152606e-01 9.929313035949803579e-02 -5.440908383809908155e-01 6.867592300514190340e-01 -1.260883280804910189e+00 -2.264570440420798636e-01 -6.230609166911617036e-01 5.082680817983918908e-01 -2.803964898151123930e-01 2.990061599913381579e-02 2.769377940915007663e-01 -5.363514493946151818e-02 1.358110405544810662e-01 -1.835844730912598033e-01 2.637302946050159025e-01
-1.918248535777752062e-01 4.083311560679486196e-01 1.442983555883273726e-02 -2.184104287286320611e-01 -8.957680874065471893e-03 5.396416914730389758e-01 2.372712492473670054e-01 1.376611960624221365e-01 -3.238984139510432958e-01 2.256346612865411105e-01 -8.552527522455700693e-01 -2.222714449112610235e-01 -1.563850029569124667e+00 6.478488649569583702e-01 1.430122255742578008e-01 1.061820192692200376e-01 1.984826564573644314e-01 -3.954259739084819980e-01 -9.068170145123854997e-02 4.491776458841346131e-01 1.763983538873142576e-01 1.451748076251097475e+00 -4.069344658769250000e-01 2.650885916548121335e-01 -5.644707553114374221e-01 -5.241309559925226846e-01 -2.583861673329672648e-01 5.011792285037491856e-02 -4.753708764233526285e-01 -6.120502643306031665e-01 2.638540857109222815e-01 4.711741980488715065e-01 4.169409444395030806e-01 -5.279290844005851691e-01 5.047774022225212098e-01 -1.082107597786760300e-01 6.186254665742828562e-01 2.273862001253651455e-01 3.797505000047447510e-01 -3.927933257468836925e-01 2.805247830788176744e-01 -2.759636629948262754e-01 1.782133798750828169e-01 -3.156319569422626481e-01 2.414480044737662701e-01 -8.047329976255815920e-01 1.718567474692299368e-01 -2.997020323953026866e-01 4.345291255593983770e-01 -5.693197729069776614e-01 4.761363799717233669e-01 1.682666102726598084e-02 4.539151969237915640e-01 -4.203617717461257675e-01 4.054528543730342438e-01 -4.398492928480542963e-01 -2.454232932643318488e-01 5.855079718119163834e-01 4.143622265161529539e-01 2.246953351101057816e-01 4.259149189598414043e-01 4.223447103783279505e-02 3.603621487192211204e-01 3.967658699210116491e-01 -1.377438505054776163e+00 -5.945965683791627487e-01 -3.850265571033709699e-01 4.477077569541121349e-01 7.867862980044583177e-01 -1.867081278164977320e-01 -4.859029211755543920e-01 2.334810954572849040e-01 -1.385227202992706796e-01 -2.195430050505504660e-01 -1.944014279271310056e-02 -4.579726529396341839e-01 3.844092270103630637e-01 4.568733954238018424e-01 -3.699912231761455783e-01 1.003723861556427149e-01 3.684223271003485567e-01 2.955650819773806837e-01 4.019554290107169719e-02 -5.326239882369349088e-01 -5.935268133820866820e-01 -1.857024144147365885e-01 1.038904013066392906e+00 8.118234419112633216e-01 -4.253053303323759415e-01 -5.497603773858154019e-01 -4.214782481930812730e-01 5.837999102217634323e-02 -1.669387155276268186e-01 1.560917814511192658e-01 9.472844765361193575e-02 -8.163994038624744487e-01 3.601868993427277330e-03 -1.532434999016215049e-01 -4.123850393146259452e-01 1.906461109364421258e-01 -1.514713442117116560e-01 3.145591700341803243e-01 3.383351308741936458e-01 -2.343156341503795648e-01 -1.609146337754935041e-01 -8.810573704868597533e-02 5.952604091252141627e-01 6.992675471209011118e-01 -3.092130987045453305e-01 3.112280029844561313e-01 -2.505901239398842378e-02 -3.325266022719743364e-01 1.610435835066011123e-01 2.645313401519874819e-01 -1.231853612008694185e-02 -1.678644574888012442e-01 4.719741548000903064e-01 -4.642371402802953351e-01 5.899163341504747894e-03 -6.364896739934318426e-02 2.856066989318304938e-01 -4.745493500304355239e-01 2.728816846990334694e-02 6.097122670038169351e-02 -1.148379963487632827e+00 -4.446114125444977083e-01 -3.463338671104532751e-01 -3.245549938040163118e-01 2.162322197136800073e-01 8.749750251461269057e-01 -1.595586630953350349e-01 -1.234665854014638797e-01 -3.698055718507778922e-01 3.463774603358261150e-01 2.012803578446294150e-02 1.291828734848472771e-01 -3.756194190719148174e-01 -4.835434768497347546e-01 -9.743419483517493096e-02 -6.246647871023716103e-01 -2.365306330968760251e-01 -3.599803947882455057e-01 -6.775499244277685129e-01 -1.158220304345995294e-01 -2.737375813202271302e-01 4.084677038219433620e-01 -1.947281661994169355e-01 -8.696844736786654706e-02 -5.392383450879685292e-01 2.805302785515763619e-01 -2.313155851509067773e-01 1.419265663158868727e-02 2.756657073147472659e-01 5.128153571892074547e-01 2.908180368981169717e-01 -2.107187550273630916e-01 2.365325644665713656e-01 3.662585733006154531e-01 -8.543452548887242592e-01 -3.571572126098434552e-01 3.676238890479605614e-01 5.020981102085522174e-01 -3.948325615840510006e-01 -3.298970813324554330e-01 -7.566108981882071483e-01 1.697829074077120831e-02 -3.708542329081815914e-01 4.829701965353608989e-02 3.773288759476765009e-01 5.243746583926677668e-02 -2.633237512696109395e-01 4.015255503796663072e-01 -1.959487431956503933e-01 3.096148590512039500e-01 5.974146369019074365e-01 -8.305212183010721727e-01 5.845329897267679264e-01 1.009887193605251421e-01 -2.009723996042892813e-01 4.437122044578370450e-02 -4.443610934435563431e-01 1.369910624901253260e-01 -5.312313096493270770e-01 -3.095394291493896999e-01 8.469090282822637483e-02 2.110247548665500350e-01 2.653095991856887492e-01 -6.516489931234057398e-01 -1.316059852317990608e-01 3.285502444895003760e-01 -1.109349676216896258e-01 -4.772287001281653729e-01 -5.978471604544610685e-01 -2.910880434443616771e-01 -5.675475039287173340e-01 -4.359333676698840150e-04 -2.332705761197391703e-01 -7.793152415660251076e-02 -3.115886456100316892e-01 -6.175931454070765492e-01 -4.208851834295645467e-01 1.751299614518413150e-01 -1.544785350829311343e-02 -4.840848628581497226e-01 -6.950626784260784952e-01 7.065278687094939114e-02 1.034698378394062868e+00 3.579594772543715636e-02 -6.431741461661744097e-01 6.637112273756591296e-01 -4.691435371637497909e-01 2.927033152249879921e-01 -4.649868523961558364e-01 -1.445326477145485455e-01 -1.865999926490388150e-01 2.993640895836711113e-01 -1.176948318947896033e-01 3.407478590612937341e-01 4.150719652497455447e-01 4.177943740134772432e-01 1.819951738143757713e-01 -3.810063409404091939e-01 -4.174141915492012300e-01 -4.426222439947110066e-01 -3.791852139345875949e-01 -1.995701602092512517e-01 1.723429809260252354e-01 2.813592882417114555e-02 -6.042952433461262762e-01 3.744615814904255768e-01 -4.122300901884063708e-03 -2.823484528575215258e-01 -2.323008078579593960e-01 5.930604816006701530e-01 3.943943024622726390e-01 -3.119918376126878390e-01 2.773131776462953724e-01 -9.130007810014607872e-02 -4.838162406808345639e-01 1.688402351588776384e-01 3.412580852576184709e-01 -1.777591639710949800e-01 2.601693286455669107e-01 -5.337474475484447201e-01 -1.648958448170635971e-01 -1.391891007204030251e+00 5.945554395264752712e-01 3.543021228160674330e-01 3.167722227378613753e-01 -5.725950654162270670e-01 -1.226520266768091338e-01 -7.961744792144037630e-01 8.502749384238599273e-01 -5.219288277077250848e-01 -5.252237292654874379e-01 9.802302826164367711e-02
-9.891413851747660191e-01 -4.301358384575175164e-01 1.159007282095401020e-01 -1.048877640104674790e-02 -4.981452488951672586e-01 1.079917077886440868e+00 -9.766964894586363521e-02 -6.066150672139125621e-02 5.120233071138449166e-01 -2.285811195365688719e-01 2.271458872465486334e-01 -5.459619505052336619e-01 4.294333837182484626e-01 -1.411479480099172568e+00 -2.591771652218456956e-01 4.217019308033850278e-01 -4.287750639894574722e-01 -1.135838513092499863e-01 -1.325754436771449662e-01 -3.943614085256598178e-01 -8.090554910744013339e-02 -9.801493901873398196e-01 2.229666113234784752e-01 -6.376762053689580823e-01 2.413357238004215088e-01 -2.401724652235353100e-02 5.766343825669416612e-01 2.643908580359641269e-01 4.979755627206037816e-01 -5.146910023156316960e-01 2.923158502042915718e-01 1.227601487561396365e-01 4.016959927400940572e-02 -3.787347973537653067e-01 -5.427147276599575410e-02 2.136008265613756341e-01 3.546001360770462824e-02 -2.095053739864503883e-01 -4.257693350614288330e-01 -1.905741354043883062e-01 6.102750820389462455e-02 -3.038554836736728215e-01 2.698529637580746599e-01 2.405189341094180755e-01 5.532520897782726432e-02 -3.789811324115057722e-01 -1.358551959341886550e-01 3.370698482591462375e-02 1.755538066655210061e-01 -2.043231053750796944e-01 2.830116574015781664e-02 2.108358541340295822e-01 -1.591745319309216256e-01 -4.171579344610150675e-01 1.042222175836426262e-01 -2.416271713289424028e-01 2.374097580626206294e-01 -3.285329853253958765e-01 -5.589169122176876892e-01 4.044812215551282231e-01 -3.864378781449356870e-01 -2.990549229753892702e-01 -4.075112397060645653e-01 -7.082740633055405466e-01 4.253410327566809479e-01 7.402721643402401797e-02 3.718534357306289562e-01 2.095850455804530721e-01 -8.676178582209679302e-01 -2.349161589048742449e-01 -5.660813509342431660e-01 3.173357352971742928e-01 1.382709895722821769e-01 3.633494520262853245e-01 -1.587477865181367020e-01 -5.359222820572903112e-01 3.072272604797172679e-01 5.522414144294448546e-01 -1.791226644047358083e-02 4.171058373405091557e-01 -1.636355186909782267e-01 -3.521448387222593235e-01 4.017458677107372811e-01 -7.916712315408754030e-02 2.973950472369025211e-01 2.285762286086854278e-01 9.642693288392047979e-01 -1.947188697630222731e-01 -3.350986409799985299e-01 3.801310404995698611e-01 -6.633720518570915825e-01 2.422079062875411581e-01 -1.363465306517883113e-01 -4.730553868149599550e-01 1.246239522840717775e-04 8.636777005733692336e-02 -6.891813794506445046e-01 -6.039238683480127046e-01 3.124145638893325305e-01 2.038714556015830681e-01 -1.953999674761273675e-01 5.659864664428347625e-02 4.407800098129245336e-01 2.737762204322485848e-01 7.249556152101779838e-02 5.842220787522982572e-01 3.313106782319756860e-01 2.273710018225797158e-01 -2.224495464691660096e-01 -2.119864337570061819e-01 -3.819952263835501571e-01 2.619093624618253346e-01 -1.277951808901704733e-01 3.396999767151011040e-01 1.173937093306521573e-01 -3.214755486550849861e-01 5.805709913651784237e-01 5.100224609883215882e-02 2.432938406745153159e-01 -7.293592768615658750e-02 1.492607323923228653e-02 -2.210098854453014516e-01 -1.181760081894838443e-01 3.609786871047030443e-01 -3.857441943303516751e-01 3.359626441784844264e-01 4.724182868802240254e-01 4.825731705435666319e-01 5.407901357822739175e-02 7.787443916251033382e-01 -1.536273605071266646e-01 7.099766510335867586e-01 3.016111477814643616e-01 -2.780446476140331913e-01 -4.906278916286209713e-01 -7.845601924994813903e-01 -2.845789822933836311e-01 1.409283169128434099e-01 9.313799177702615228e-01 -2.682316733366756356e-01 8.937699708552365729e-02 -6.800405595667760594e-02 -3.065252391316994340e-01 3.791688852973103263e-02 -8.678696290492424192e-02 -3.177765146973294264e-01 3.926142333768179449e-01 -7.244946524033797353e-01 2.752448365004007136e-01 5.623697436738792771e-02 3.886637075511598094e-01 1.926151157968091290e-02 -4.519631911490369358e-01 3.793231022215685644e-01 -2.790784073004939358e-01 5.835777917105552937e-02 1.930887046149553634e-03 4.125423395447804786e-01 2.280792902586050164e-01 -6.417479828701929678e-01 -2.656816384566982325e-01 2.137835672072924409e-01 -1.042293857833743488e-02 -7.220517797602449273e-01 -1.541687980094422483e-01 2.147857613615146086e-02 6.325617476868430900e-02 -6.475938002731382870e-01 -2.279969579955122005e-01 3.338559703491259523e-01 -5.090268803739785852e-01 1.561945422625715396e-01 -4.528670556401792613e-01 4.289948067244954422e-02 -4.855138140571407801e-01 -1.782275184828130132e-01 -9.771453380416891821e-03 -6.081658424994191084e-03 9.196589783905716187e-02 3.340417283372634771e-02 -1.369731694374636544e-01 -2.888115396349703046e-01 -5.636131294134862912e-01 3.272350531103020849e-02 2.645872551682522111e-01 -1.120845539067066299e-01 4.447952779642842802e-02 3.862921288733452418e-01 2.928137737251378936e-01 -3.003335705164011937e-01 2.444251868053494148e-01 1.774667504044774302e-01 1.450371605880675097e-01 6.784396021310129532e-01 -3.778460782380498317e-01 9.235864187460419983e-02 7.097971038112821374e-02 -8.113628888514334489e-03 5.602714398272100604e-01 -4.569286916396648329e-02 3.911031535844022300e-01 -4.350614702186464400e-01 1.548800595221686560e-01 1.518518277349948375e-01 4.982383685849512550e-02 -1.994076616346404374e-01 -6.328695038210937485e-01 -3.684178316323302033e-02 -5.782944646821598367e-01 2.682736053242625873e-01 2.719640150238805676e-01 8.924591827998487603e-02 -1.139398879856732938e+00 -4.668404528547185905e-01 1.806645650182464036e-01 3.588869085618912047e-01 4.225239574578580348e-01 -1.052810195209536448e-01 -1.641497252106329796e-01 3.536088791371427842e-01 -1.686673306532616157e-01 -1.393053083353415211e-01 1.909078735424492579e-01 4.057021281811375446e-01 5.424735630869825798e-01 2.173917448811719944e-01 1.888951066222645594e-02 4.011592239409196847e-01 6.854054016744243194e-01 2.466834763881677328e-01 -1.539123637513956366e-01 -1.134012677040702743e-01 3.004926872464769305e-01 1.427668481100694275e-01 8.049421127051098468e-02 -4.636581387601407811e-01 -5.726094628766756900e-01 -5.668215899476843067e-02 -2.135095669856118539e-01 -1.618993184086217618e-01 -4.185235255445572955e-01 1.606826387424724334e-01 2.009390873921618748e-01 4.663721432058373084e-01 -6.041719307677131390e-01 -9.859673373936463925e-01 6.212059775348557356e-01 3.732730215857900102e-01 1.994213837744299167e-01 -3.134210300135998883e-01 2.520290781675498804e-01 -7.158114213599872100e-01 3.460134462674365197e-01 -4.964369225868964786e-01 4.547286976419477322e-01 -1.612297935147136152e-01
-8.695691684445303604e-01 -4.143018851857565021e-01 2.265288126147540493e-01 -9.780448195425522906e-02 2.005287997139353351e-01 -3.604352126790537070e-01 2.273095572620312810e-01 -4.108689543233181030e-01 1.967971551409768427e-01 -3.862811711081535204e-01 5.726207109870190548e-01 1.737309310277114771e-01 -9.698520316495261306e-02 -5.934610300637532809e-01 -3.782225405274715624e-01 4.217449441259638054e-01 4.073920567036720120e-01 -7.456958258034693809e-01 2.784208650486835190e-01 -7.583613761097152128e-01 -4.886540678214958411e-01 8.387936431783050706e-01 3.944933560553813279e-01 -1.948492776862908449e-01 -8.877932668100277369e-02 -1.719841266357899356e-01 -7.879274935478226549e-01 4.172411838933423045e-01 -3.631842151093745974e-01 9.815696350501661449e-01 8.155151072415232072e-01 6.830154074818874932e-01 -4.421612137010405563e-02 -1.794793185501949995e-01 -7.966360648157969626e-01 -3.937898696971720014e-02 6.192029369002847172e-01 1.275092868748967934e-01 -5.690565819426920413e-01 -6.386567894838547643e-02 1.619628444425969260e-01 -1.453250701535134526e-01 4.990454347334183915e-01 -5.464152235314215789e-01 -1.286759838055386018e-02 2.691714785147085731e-01 2.207146658481390911e-01 -1.214790253951440191e-01 -5.479972374763008025e-01 -2.070421007686615300e-01 -1.535659703262171605e-01 -1.060894233511182394e+00 2.538392262385706921e-01 -1.655717442068176670e-01 3.054859185276970202e-01 -3.436102009305038174e-01 -3.620468126136944242e-01 1.940018220654031456e-01 2.846983378731020586e-01 -6.204148128195943745e-02 1.244136960885248444e-01 3.078689911215475306e-01 4.758270746496465198e-01 2.353747369501262843e-01 7.399731140462731949e-01 -1.633688009519298767e-01 6.902468112662202282e-02 -3.082576839632719112e-01 -1.467617091561987941e+00 -3.384436417407619135e-01 -9.331507853186452595e-01 1.533063638206551560e-01 -2.675113737293850491e-01 4.722355254546729830e-02 6.465092499881959220e-01 -3.668877739210930078e-01 -1.381239137314657639e-01 1.110696200528209054e+00 -5.706849836651887165e-01 5.980363822009675950e-02 5.958804707990501826e-02 4.457999666709259179e-01 5.989779425065282215e-02 9.367060050010844741e-02 -6.505251607547452020e-01 -1.692461917673236116e-01 2.419950993505707582e-01 -8.976270354815821251e-02 2.993980288999349981e-01 4.218098399180191804e-01 2.116791069448790696e-01 -5.618298483636263024e-02 -3.104371060427439377e-01 -1.130060368175750118e-01 -3.886923916217516206e-01 3.637157359319634353e-01 -6.892024185112682888e-01 5.881774856934812723e-01 -2.499682748427028700e-01 6.277353412405156652e-01 -3.307488304807549850e-01 6.232768230719837321e-01 5.120629259633860952e-01 -4.059314979846324889e-02 4.265237267648096936e-02 -7.243175682832003748e-01 5.880725525529085368e-02 -1.927331824760315504e-01 -2.083054315570183890e-01 -2.059490198534220384e-01 -5.542691905861031332e-01 3.020791024521677498e-02 2.960271241963615685e-01 1.003491665089761842e-01 2.461993978547451778e-01 2.661489504992397004e-01 4.807739793606207179e-01 -5.121785740513254241e-03 -2.109364064270685402e-01 -9.960550445632723737e-02 -2.601104535915716442e-01 -2.291487777767979850e-01 -9.546727930080027846e-01 -8.492144186263854699e-01 6.004878409100734560e-01 -3.125234496729755729e-01 -1.874599829287846020e-01 -3.501966343788147362e-02 6.396679703823270335e-01 -9.157704179903211061e-01 -3.907311376810889136e-01 1.747952448769622691e-01 4.459411634234948796e-01 -4.105154173194134892e-01 -5.367463166126855700e-01 1.306806112397399966e+00 6.886376670746202633e-01 -1.170624026246283866e-01 -1.467547329627368613e-01 3.575173404046029790e-01 -3.787519844010630576e-01 -6.857434735525551606e-01 4.580959584317802480e-01 5.077327999638421296e-01 1.241694662324862794e-02 3.701630324753176216e-01 4.682802083982595676e-01 2.262089217430014731e-01 2.116749751266880641e-01 6.450434974014314371e-02 7.132586883221048168e-01 -3.772884602627953887e-01 -2.435206584896483228e-01 5.350461089476853394e-01 5.285487717488734916e-01 -1.277823168729078918e-01 -4.521309518020490970e-01 7.406314029449825864e-02 -4.041315789459548058e-01 -4.774923279404409970e-01 -9.586880214437316639e-01 1.790342637027726724e-01 -2.125065198378963682e-01 1.629113797940196298e-02 -3.386243953262077500e-01 2.774721928210289734e-01 8.469298563632327026e-02 -6.911433404089289967e-02 -4.984833856149442632e-01 8.392078085846300661e-01 -8.311374263530046935e-01 2.929018762642335294e-01 6.581720121045635252e-02 -5.685040023931462461e-01 2.651936904498216063e-01 4.875233995057597775e-02 -1.072922188061359083e+00 7.779467621355189155e-02 2.606955403258890414e-01 2.976903586977390215e-01 1.644753575400146606e-01 -5.550919074169962109e-01 5.260105610688070588e-01 -1.658458189750829370e-01 3.781727759451568027e-01 8.613945325396531183e-02 4.238194851542617103e-01 1.011693385737503892e+00 1.571453661051946948e-01 5.681444842776066650e-01 1.654939758030554986e-01 4.952148641352533409e-01 6.732658559836032230e-01 -4.922546958340837109e-02 -3.345038125367520987e-01 1.291898623014886213e-02 9.998329536421374231e-02 -8.369109186361452235e-02 1.174982635809631443e-01 -1.935230543854393401e-02 -2.081403802085106391e-01 4.217650082452301663e-01 5.341229343837679000e-01 2.568470240663242588e-01 2.290420337089154046e-01 4.852865050721259510e-01 -2.121655926941050374e-01 -3.769915320844123841e-01 -9.681042026380536070e-02 1.202551513491870588e-01 1.540202157286607310e-01 -4.769852666178822087e-01 -1.524601301026144717e-02 -2.160467211233259854e-01 -8.458059753769829603e-02 8.498727434596203834e-02 -1.624093450239338376e-01 4.796742622624238783e-01 -4.007921079321788427e-01 1.626019762019184078e-01 -2.189138943086191835e-01 -3.892449674263957771e-02 2.863430528813283305e-01 2.994277908636530094e-01 -5.249655033430051798e-01 -4.719976306292636981e-01 -3.998410890905139126e-01 -1.586440008371518481e-02 -2.916288873515798241e-01 1.013372625835250174e-01 -4.609147883772860554e-01 4.384308966256288409e-01 -4.253906748755549860e-01 -5.539062304212964971e-01 -8.324132327540846310e-01 2.406284687640952435e-01 -6.887285721926245108e-01 1.151224733085030871e-01 1.663567876560384240e-01 3.103766642661931821e-02 1.945948841730542889e-01 1.829629033409864158e-01 3.095871719777012476e-01 3.464167562434354308e-01 -5.846819774651789148e-01 5.558922476542391689e-01 -1.482621685952764334e+00 -3.797234860437154191e-01 -9.131306882009704307e-01 7.409770930099281172e-02 3.420860392403239358e-01 -2.619280017856944198e-01 1.231202887161138015e-01 4.077907758850096015e-02 -8.567745069592021256e-02 -5.107026891631709642e-01
-2.251856191009013186e-01 -1.598283442721652736e-01 -4.871140131541412677e-03 -3.827250663036895206e-01 4.849168779868694851e-02 1.269531680205496560e+00 3.666702402242552616e-01 -3.513739127919918714e-01 -3.009151959210105698e-01 -2.978542252404197122e-01 -6.384770166668929381e-01 -1.370051533260383814e-01 1.137464068522692218e-01 1.824209966511762149e+00 3.292142687917403165e-01 -2.764994085018653847e-01 2.889794446115037663e-01 -2.135820621557567855e-01 1.791405538350976379e-01 -1.678724677907058593e-01 1.596103313721052852e-01 -6.532403090968037507e-01 -2.206020175398637206e-01 8.657858525975368202e-01 6.032251386379669511e-02 -2.418712600672731916e-01 1.765178879498975340e-01 5.063240209515895707e-01 -1.626372984800371346e-01 -1.183655922524341070e-01 -2.390875166177848787e-01 -8.323959151045536853e-01 -1.897058354027116034e-01 2.541212777180872906e-01 8.063809397946635205e-01 -4.219080861053550735e-01 -2.963797015419731840e-01 -1.418658531708133497e-01 -2.355225764927754706e-01 3.162093468563348386e-01 -1.783641653509035196e-01 -4.798197217421471539e-01 -5.909980554728545832e-02 -2.130560352105260180e-01 3.685451579273834599e-01 -6.366474518710975028e-01 3.373061998881906054e-01 -2.815835497637021456e-01 3.929311690878705132e-01 -1.846312134826714746e-01 3.975596654663823282e-01 -2.329067107227429101e-01 3.873085818612624909e-01 5.387488945148207753e-01 -2.261622997174662364e-01 -3.677489197135215826e-01 6.404615044870132223e-01 -2.426966143945815946e-01 5.747477791123021262e-01 -3.120239100265447263e-01 2.844799434548926920e-01 -5.552370756626548443e-02 -9.155796375475462254e-03 2.591850622534357385e-01 -2.012680417999247184e-01 -6.087160306989599645e-01 9.686135425894422391e-03 5.241986253519683725e-01 -1.167812204482456151e+00 -3.948042198539594011e-02 2.325082828623457054e-01 -3.505958780095697058e-01 -3.272392421666572293e-01 4.644050535228376742e-01 2.316387738410223829e-01 1.132436919768589761e-01 1.433523044467020779e-01 -1.302024318605744968e+00 2.256458022783613959e-01 -3.139703430479920954e-01 5.887566243168442653e-02 8.455025833268860203e-02 -2.014494469663077325e-01 -3.971765474057475376e-01 -5.268686358061510644e-01 -3.223942621273875320e-01 1.772417568946376421e-01 4.964397607529340561e-01 -5.735430326705229925e-02 -1.275017808471587411e-01 4.078037441519671846e-02 -1.232467183496007285e-01 4.999039822685408252e-02 1.290928123588272469e-01 -5.161154484246739393e-01 1.987779058458675752e-01 4.221680008074371604e-01 5.548205841255763326e-01 -1.442383093611513123e-01 3.627873799753155160e-01 -1.936111770703711210e-01 -1.550740538669583557e-01 -5.507632669338359266e-01 1.907764887615703842e-01 2.014393904350627040e-01 -1.848539596378855121e+00 8.715326927343039487e-02 2.150098986707960347e-01 1.360487591966593746e-01 -4.241035338916979841e-02 -3.448250650031754461e-01 -6.552403950219561901e-01 -4.302553695881213836e-01 -1.929375564237673091e-01 9.726081988453820493e-02 -2.840825364411000420e-01 -1.270032100766750605e-01 -1.939929332507531745e-01 -4.560129487013966226e-02 -1.152379014347800351e-01 -2.076918007968270308e-01 5.133906986162729835e-02 2.526715411743902240e-01 -1.819041103369379020e-01 -1.048429559425631208e+00 4.750455245704232610e-01 4.231198339768979522e-01 2.538335102513307739e-01 -2.833577923951384747e-01 2.146183439194150555e+00 5.530942402531063840e-01 -1.304901876337421829e+00 -2.129542100801405102e-01 -3.157014831468149541e-01 1.282938181328249438e+00 -1.376890229633342289e+00 -7.938308813463018643e-01 5.445243288053352310e-02 5.479764950051637662e-01 -9.502613576899323622e-01 3.435506430870663430e-01 -4.448284009678698525e-01 7.596811248565554786e-02 4.552728461638724244e-01 -1.346658652514157728e-01 4.228014311915314072e-01 4.926390210780441370e-01 7.234319736023510083e-01 -3.764962829121456522e-01 9.397666940032803340e-02 -8.830200071636492565e-01 -1.437478008097390625e-01 -2.613313586267911881e-01 -2.712373604870311761e-01 9.194088952585713348e-02 4.004881668303184594e-01 3.154591984310557429e-01 -4.605689851777299282e-01 1.411229332180146401e-01 7.101158600996668735e-01 5.552724380440439145e-01 -3.594262465786913774e-01 -4.023480609154567178e-01 -3.081137734462534028e-01 5.966336553702893397e-01 -3.485032250176746671e-01 1.675908300627846625e-01 -5.388005611729743682e-01 9.034119384912385475e-02 -2.771903112272196962e-02 1.222107179887124806e+00 -2.406424025151495671e-01 6.783344956074080501e-02 5.206576698667965131e-01 4.408235383254912043e-01 -1.017291294034406768e+00 1.692821042605969217e-01 9.368323724005762909e-02 3.410464492699288863e-01 4.596730612197555965e-01 -3.630301156040336985e-01 -4.067481106443045502e-01 -1.000365976399796575e-01 -2.140210399472742275e-01 -5.666666067315428296e-02 -2.461423505220754204e-01 -1.557567815626631769e-01 -1.436150107635084883e+00 -2.171347735178196514e-01 -1.563693901929145424e-01 4.363074970220638948e-01 1.774014840860115363e-02 -7.634366998649613212e-01 5.366540881885409897e-01 -3.695013059464596350e-01 -3.390970033577380693e-01 -3.218130886293039672e-01 -6.547295986986594041e-02 -3.309173106697942401e-01 2.179268654051767784e-01 -3.740707990972996777e-01 -9.822828220481918948e-02 1.022579522722467105e-01 -2.429869082949807357e-01 3.430511433094946550e-01 1.217353993226092113e-01 -2.248576835954593789e-01 8.927941437764719268e-02 -9.819980160358618426e-02 3.280217080025515236e-02 2.693016481022099118e-01 -4.119464906699956130e-01 2.813033293419832104e-01 4.796508828097356680e-01 -4.202468894260945609e-01 3.342076528199570129e-01 2.460009625911145359e-01 3.325824532167138692e-01 -9.374070368945985887e-02 -2.771850092931356646e-01 -8.178156765381563442e-01 3.503537478163161190e-01 -5.842672612404256061e-01 -3.205207001357778668e-02 -5.810846536990402211e-02 5.482162964839165653e-01 1.021448145749282999e+00 -4.468635972054760264e-01 1.279403599973704120e+00 2.825286739370356237e-01 -1.998328848280235825e-01 3.390562971353163757e-01 7.228084158382565294e-02 7.532320054588141633e-02 -1.612274850884851951e-01 -4.839765981394189565e-01 -9.230695021454114746e-02 -3.770670700026081817e-02 3.615107304082764705e-01 -2.495522759910918931e-02 -3.307759727149777174e-01 3.425576498469434794e-01 1.727282659923509156e-01 4.282858192853312151e-01 9.343542720543833446e-02 5.036166653264902981e-01 8.142422991843379920e-01 -8.192310784395304690e-01 -5.366852267420959416e-02 3.709007055937110220e-01 6.178986665473876899e-02 -2.753667929796257408e-01 8.256791607940440203e-01 7.985133448230748165e-02 2.669506372860033228e-01 -1.580403120528039440e-01
-6.132223403534057260e-01 6.632624348783668078e-02 1.606585922776021524e-01 -4.446629382954375154e-01 5.904222354337592543e-02 9.684168933157343284e-01 1.059253097772456520e-01 4.216596251616724911e-01 3.156838427794391166e-01 -2.844910208220372549e-01 -9.063497697250758045e-02 3.141202970374308290e-01 6.778621700154752183e-01 -5.875157734331789561e-01 -2.447487426149514145e-01 -3.749758185937238780e-02 -3.291355298257968385e-03 -2.472414928912676224e-01 3.182524294479879834e-01 3.457006362536057531e-01 -3.409761304954871952e-01 -2.592445270555849834e-01 -9.553618257774695866e-02 -3.881691906988314900e-01 1.755687720530479112e-01 -2.278429904528626870e-01 -1.869773687896443826e-01 4.832112581587966194e-01 -3.709042297784789777e-01 -2.297257248719624667e-01 -4.674052011147851460e-02 -3.171826298037518088e-02 -6.086195617583014528e-01 -7.416511563799740858e-02 7.948743631189374437e-01 4.321397363389713475e-01 3.405421138176494833e-01 -1.684387210576941685e-01 2.505988224049598284e-02 -1.170351044749469160e-01 -6.329575157915082184e-02 -5.633263543357025505e-01 4.519649538395615895e-01 -1.774078635662299785e-01 2.416719911876742122e-01 2.402308685095435048e-01 -4.039592482771348636e-01 -8.771549083035599936e-02 3.365833320393664674e-01 2.845830992440513407e-01 3.143554867298823940e-01 -3.216096755310992594e-01 -1.497834449417100589e-01 3.793536712699089319e-01 -1.439879167052154733e-02 1.400595749453039107e-01 6.703924682262274448e-02 -4.022621936021572586e-01 1.266226568857788393e-01 -1.009035690121864830e-02 4.121392527878343648e-01 1.621855957064425036e-01 -2.154630464797877287e-01 5.375644169171455156e-01 -1.685842081971379858e-01 -3.989611212804188289e-01 -9.453377509101471010e-02 3.035656866067946644e-02 -1.081361669262890235e+00 -3.732629130617313717e-01 -7.067333043107667523e-01 -1.782310815629644385e-01 9.873608126532261442e-02 8.558406878293010889e-02 6.390692718345746259e-01 -2.531001986828718686e-01 2.977163556694439883e-02 1.021710805646665721e+00 -8.029757557568613369e-02 -6.095640241681139770e-02 7.738371941568693291e-02 -2.044561578553127368e-01 2.511076461671432267e-02 -3.997172026758904484e-01 4.466597749165877040e-01 -1.645986838548527953e-01 5.927528243177281331e-01 2.485648371191033768e-01 -3.968333138930331128e-01 -2.157931427270432523e-01 1.259797228107853266e-02 -2.244185574657669713e-01 3.166232924303454821e-01 -3.204943070365219859e-01 4.551951734900575031e-01 2.819724878710592186e-01 -2.443974054788567996e-01 3.115208966256011736e-01 4.837202403103174619e-01 -9.637007908777403542e-02 -5.089191547015903261e-01 3.000496913932187426e-01 5.948961966175824179e-01 1.267503753950553480e-01 3.093673273143237035e-01 6.986500365983580041e-01 -2.325683479079640736e-01 2.361788683882868056e-01 -5.817421738035686296e-01 3.890319204482455828e-01 5.894094153274654913e-01 -1.890165579158792075e-01 4.982552921490854825e-01 -1.202011854832282511e-01 4.072956410355655921e-01 4.162141626633719116e-01 6.129820590735310937e-01 -3.951054640985550703e-01 -2.319121115561615931e-01 3.779532862718514852e-01 -5.840269966600838969e-02 1.847796421920296084e-01 8.750899549756444573e-01 -2.315791006933926033e-01 -1.077907631658989507e+00 -1.244329677200771249e-02 1.476362681626432194e-01 -4.008916278203580319e-01 1.446850253877212111e-01 7.678642978219346604e-01 2.463984105748013576e-01 1.197552838856647678e-01 7.630085071278805420e-02 2.321320679344701099e-01 -4.964336098816043430e-01 -3.560754876983155404e-01 4.950688940096102941e-01 -1.639326031823274132e-01 2.518690466393186944e-01 -4.486959023624524923e-01 3.786032586225512309e-01 -4.195835696310201701e-01 -5.311182796830560271e-02 1.992146909158374335e-01 -1.233330090232517412e-01 -4.063672856564384261e-01 1.938031888450523488e-01 5.739945708175356875e-01 4.743302381390457900e-01 -3.804590237788971763e-01 -8.310189868692417769e-02 3.478541602255521420e-02 4.918824571773040555e-01 -4.260165865291045684e-01 1.345834096100094746e-01 1.256593447543125353e-01 -3.235095555847861126e-01 1.396601885910467855e-01 -4.549490015721897596e-01 -1.899550205483546139e-01 1.948317216386718717e-02 3.682890007705604263e-01 1.200285825828216330e-01 1.784827183152817576e-01 -4.640130514226187830e-01 -2.064225207482474900e-01 8.819987481818702957e-02 -2.595118043954381393e-01 1.497585919441549451e-01 -3.155648283399475340e-01 6.360004498517816962e-02 4.166397354646322881e-01 -1.621507377856428456e-01 -1.208898041524437833e-01 2.575321303836100584e-01 -4.910406766071384044e-01 3.676883294576594463e-01 -2.308631421595521149e-01 -4.025756045008421768e-01 -2.463897897454257191e-01 2.687227206456818118e-01 -3.742180791595031142e-01 2.947070147600381884e-01 -4.020976829888668891e-01 -5.404866057226090925e-01 -5.007325081702925784e-01 7.923420981919032657e-02 7.874684719133934196e-01 2.676891018483652518e-01 -2.408442250381733971e-02 -5.595392610708595921e-02 1.198105842099415896e-01 2.647016062806093473e-01 5.162445622507230159e-01 -3.967385111263632136e-01 -3.988267356233081706e-01 -4.882163160613352537e-01 -1.214630456462448792e-02 -1.910458163816744215e-01 4.061509966144588035e-01 -3.665872778560830825e-01 3.385717650296153347e-01 -1.863448523464376338e-01 -4.170453478586287899e-01 -1.111310409730304448e-02 -3.125682988732117473e-01 4.720676837070197363e-01 -2.796536493944553059e-01 3.847590281069835916e-01 3.979714150987345017e-02 -4.081163338677083474e-01 2.752578475109221934e-01 -7.757777367664728807e-01 -3.227678572323582906e-01 5.164747972187369029e-01 3.685952344437362083e-01 1.042756326279087042e-01 4.322049613493392783e-01 3.199976033629953198e-02 2.601251346707609269e-01 1.907729090585143783e-01 -1.871986303377208838e-01 1.796003708280200784e-01 -3.162329077225290580e-03 -6.719530411751003518e-01 -6.534522228043242176e-02 2.695122012695455038e-01 9.829850633990261377e-02 8.607049205925053625e-01 -2.259534277865510310e-01 -2.443892260655166071e-01 3.658092619235745468e-01 2.237248420491991796e-01 4.700851447339387534e-01 5.473733516910866959e-02 2.719257905774132844e-01 5.750044910123092157e-01 -4.555795383646302210e-01 -4.705543226734937301e-01 -3.762205517677469357e-01 1.179668879432683032e-01 3.705383668746971004e-01 5.605539870177109751e-01 6.137156361987304853e-01 -4.621862106173962315e-01 -6.529787674429089472e-01 1.495021740392481757e-01 7.808901949452343172e-03 9.032340413538626767e-03 7.976303856374276913e-02 6.402090949175107126e-02 -6.802435270886566521e-01 9.343796858488385981e-02 2.238261149624795610e-01 3.739570116579621906e-01 4.390045792881842601e-01
-2.117522052603841298e-01 5.434408532374223472e-02 4.576601005733401673e-01 -2.734557464267910465e-01 1.601067862079822227e-02 1.290038473123327756e-01 -4.641749020133583148e-01 -1.140837157233044047e-02 -7.259885483525494454e-01 7.062430449536565014e-02 -4.221687950182471671e-01 -3.696752469780761330e-01 7.316410263165357142e-01 -1.981962554444442470e-01 1.078197371498315765e-01 -8.612213681102474927e-02 2.380741089300277349e-02 2.586966441684260820e-01 -3.512370736572484886e-01 -3.408544669561073825e-01 -4.276361352443148744e-01 -1.104671889276321872e+00 -1.451211582123022314e-01 -8.712274414903750097e-01 4.149215838306365423e-01 1.860424604039948859e-01 -4.315089745314322212e-01 2.343104657526859924e-01 3.435731170024213244e-01 5.249263910587290832e-02 5.995083191733205710e-03 1.437964452964466955e-01 -1.654615973179994759e-01 -1.100618409282655280e-01 -1.517855757104692893e+00 -5.017144831498648871e-01 -4.399345409476171365e-01 4.138174210275009091e-01 8.527632818407465676e-02 3.661016035841360150e-01 -3.484976889256855559e-01 -7.657253250692157565e-01 1.206680823786588780e-01 -4.321746032094881951e-01 8.535173050270830619e-02 8.104002340088017550e-03 3.445871543158411376e-01 -2.267365158397068037e-01 -2.380307339145257273e-01 -2.976722276231199005e-01 -7.387496477680184637e-02 -2.415431940155949100e-02 3.378387192977311826e-01 3.866191794652667491e-01 -4.794361108069741806e-01 -3.112660569056499016e-01 -1.263552378736602366e-01 3.735599923264424360e-01 2.280255017527035022e-01 -2.729965076498806487e-01 4.252897368773598807e-01 7.810330435765275303e-02 1.144380306738486813e-01 -7.590314342257531433e-01 3.446307716427350343e-01 1.133764273674972012e+00 3.084175871503866961e-01 1.488980418000243888e-01 -1.212950209469073393e+00 -2.551203159999171910e-01 -1.034217270329294974e-01 -2.706850176275392150e-01 1.961091265369349357e-01 -4.741618487261300974e-01 -9.509381478299627766e-01 3.694532839476966646e-01 3.267493832341051840e-01 -8.963101887641314880e-01 2.045784063242915285e-01 4.248885045022576246e-01 -4.902349352983720876e-01 -1.305885367685047926e-01 -4.219744527394730937e-01 2.851992479413001935e-01 4.857349648002369791e-01 1.900121875015128303e-01 -1.099709268509147631e+00 3.089975618236982524e-01 1.090226925561418175e-01 -1.409216010266316731e-02 -2.655585608283148047e-01 2.145021938831170039e-01 -4.297985557329167539e-01 2.743024766810379655e-01 3.940727020186619023e-01 -5.729912931499573370e-01 1.077100322907349750e-01 -5.181430924201304578e-01 -1.864552602260308722e-01 -4.924144056252145463e-01 -5.832647774309650535e-01 -5.946640795679435099e-02 -2.069975356816468048e-01 2.120648896726229637e-01 -6.946393987098649705e-03 -1.465201621013398070e-01 1.024274837942101696e-01 -3.103604885023655280e-01 5.086617791580901882e-01 2.060729962527975967e-01 1.743328421454537203e-01 -3.560943365917984549e-01 -1.358238482696130511e-01 6.021072759037939676e-02 3.299181754956562740e-01 -5.589636509607774917e-01 -7.924319033719951291e-03 -5.701085873400538739e-01 -4.636056743654106138e-01 3.624971655349136235e-01 -6.469166788485496422e-01 -1.087465533064114892e-01 -6.838048563726222273e-01 -4.764815684910637256e-02 1.209060115440595690e-01 -2.627599115208779645e-01 2.166877428210214063e-01 -3.390444449878644573e-01 1.131163415047990173e-01 -1.310146228221313436e+00 -1.665857485685392214e-01 -5.305608805369458336e-01 -2.519144136842724202e-01 -2.604168889359836370e-01 -3.356040028954460075e-01 1.123190924565562188e-01 -2.504878982331340542e-01 -3.502643263460870626e-01 -7.439144945568856304e-01 -5.455703247917811360e-01 -1.927699116193883899e-01 5.387846502069107979e-01 2.061980245097371281e-02 6.588166694548441837e-01 -2.787522253224680724e-01 -2.865166608089570466e-01 2.669811243744216744e-01 -7.446495204226761810e-01 9.584796933137808284e-02 1.921258033136550580e-01 -9.294618043847385769e-01 4.845324680057981337e-01 5.032326178173721631e-01 2.494025461773199392e-01 -5.701850080552343103e-01 9.363789698949452900e-01 -3.800165872776908316e-01 -6.767070584991810578e-02 -9.583374745376832538e-02 -3.313425736766421048e-01 -1.293789860098974454e-01 -7.886396375869705322e-01 1.460496832364239772e-01 3.842100613243671359e-01 6.349846907961782527e-01 8.865512488976305672e-02 -1.953959002863674965e-01 1.179947805239752318e-01 2.117716048111480120e-01 -1.002786731063002312e+00 2.130150870893336157e-01 -3.505829521282582406e-01 2.067764146166786443e-01 -7.817677560441879114e-01 -5.687439642251093108e-01 -3.199662100895636074e-01 -4.760247978705546834e-01 4.329499490234585135e-01 -4.142718461624555482e-01 3.407525843691228684e-01 7.887617778337828456e-02 -3.198648979896370204e-01 -3.416006423519727386e-01 1.045849340776351666e-01 1.196029132596288652e-02 8.996427532178448427e-02 1.627289628925125686e-01 1.753035531786422407e-01 1.586820227559143648e-01 -1.966543484235970807e-01 9.381209818943707932e-04 -4.985029424598579756e-02 -9.489135236352018443e-02 3.018585477582599319e-01 4.927307441978751252e-04 3.836846549608025625e-01 -6.581511025935217474e-03 -1.969253209922711134e-01 3.172877876880969561e-01 -4.266063718831539231e-02 2.678773033156666150e-01 3.061336341806499828e-01 4.610599917236750112e-01 2.367073794328760361e-01 5.253203952209494210e-01 -9.247919842865064410e-01 -6.903923234939486342e-01 3.397133700591065120e-01 -3.919137139321636765e-01 -1.129419013641900449e+00 -7.878289579153960331e-02 -3.775350139710319519e-01 5.690220381895878532e-01 3.525042806650761640e-01 -5.947086891160571764e-02 -1.327764534310056088e-01 1.246850875248352031e-01 -6.202686954122872409e-01 -2.529659123315078917e-01 -2.400535338672988850e-01 -1.631367950539732437e-01 -3.703233049228235041e-01 -4.994921659410010983e-01 2.172533076007481662e-02 -3.448547427854533054e-01 -2.173362075518645020e-01 -5.370465133326006724e-01 2.700705154555432252e-01 4.135181734261955677e-01 -4.977416607272546201e-01 -6.042060074312341489e-02 6.958474510070332408e-02 -1.028310902322391723e-01 5.496638275155227467e-03 -2.346216900916329173e-01 3.019925913674634255e-01 5.711110369785075275e-02 1.913892937543305028e-01 2.410134809153318125e-01 -1.713815973870160270e-01 -1.345290230909828300e-01 5.973463661516076328e-01 1.979110465878782810e-01 -1.243246891969209261e-01 2.184381354112980012e-01 -5.480383822264048993e-02 7.466784926023762869e-01 -4.756460402776895857e-01 -1.042156285085716755e-01 -2.806859522012753461e-01 -1.080841510435283925e-01 -5.373051800335161277e-01 -4.304403558575161104e-01 1.545177331391344999e-01 3.510834438452294370e-01 4.376555192660169791e-01
7.277714486538234828e-01 3.886122607929414219e-01 4.492574949199532042e-01 -4.546600144916133207e-02 -5.798261731820727460e-01 5.611231473973402606e-01 -3.684463082999744343e-01 4.572508692867871018e-03 -1.418269100464114141e+00 1.064231944223081178e-02 8.478194167734784958e-01 -2.681017173006627896e-02 1.155444225969935124e+00 6.470413602140651088e-01 -1.372094682976894575e-01 -8.126817321049269183e-02 -3.696356909789776379e-01 -2.238434356210284581e-01 2.944586397790429078e-01 -4.817205243763882927e-01 3.336679391855542076e-01 -5.800521455282416916e-01 -1.324100323717782857e-01 5.028132315253884821e-01 -1.739115503295196249e-02 -1.036059369376166606e-01 2.385256510785023210e-01 5.706855974034673595e-01 2.080308952942252210e-01 1.214355359668185530e+00 2.408357337879059867e-01 5.978719025702987633e-01 -5.446217065227357823e-01 -7.473472977348212531e-02 1.696256086511007399e-01 2.831289724315865231e-01 -4.716616759582465956e-01 3.059969967656872014e-01 -1.424481481937720784e-01 1.700894497260555249e-01 -1.705406659458721386e-01 -7.542699004825620390e-01 -1.507410491892502077e-02 -2.965507723946596008e-01 -3.803405340112815392e-01 -3.163354789498416531e-01 -2.630052032072324186e-01 2.097792561517591303e-01 -8.849330883314949769e-01 9.612167661100608218e-02 9.378613323208449815e-02 -1.270172322028637835e+00 -1.705579264609181911e-01 9.237694063638686448e-02 -3.153436155791372597e-02 2.237008142734369376e-01 -3.619167337368723314e-01 7.173878192538118981e-01 -4.705331518889574460e-01 3.534992077658002385e-01 1.003851004310470363e-01 -6.485828605437110941e-03 -5.350845930261978189e-01 3.504437331953310641e-01 3.487652675230953903e-01 1.396427132179075326e+00 -3.829857042815876800e-01 -2.167555061625609791e-01 3.389973169202265546e-01 5.681707647434187658e-01 -4.483222395873842081e-01 -4.084086766482704633e-01 3.829682392947552638e-01 1.438125902251752297e-01 -3.152025673557055097e-01 -2.971683383719504468e-01 6.310419183128489207e-02 1.861530038264672449e+00 -6.493195404885868660e-01 -3.201027547595210465e-01 9.668311854978700604e-02 -5.159522468030792730e-01 -6.943259541812552005e-02 -3.247265234752566565e-01 -4.994400030515805389e-01 2.135880356547622538e-01 -1.638243290023639442e+00 7.308405070270984627e-01 -5.474227690197718266e-01 2.332973868726203048e-01 -5.574446184283980976e-01 7.151775799456576432e-03 -6.309410418958572020e-02 2.975588567207365642e-01 2.991034718963412331e-01 5.394263221379146378e-01 -1.730882766361376279e-01 -2.165246156598473470e-01 4.702476039232871829e-01 -8.037786346997540798e-01 -5.461697889621089930e-01 -1.689847673662446814e-01 -7.282040117933494261e-02 -5.191307269658076429e-01 -5.910830813297848763e-02 -3.408958256450367319e-01 1.750928523154806904e-01 -5.548198862345833371e-01 -3.826748092849415264e-03 2.224107918310973264e-01 3.545545369152029447e-01 1.536641957548937586e-02 3.368542838621631508e-01 2.135076172498245051e-01 4.235413103387886680e-01 3.584806854024522038e-01 5.292086063875812985e-02 -2.063497972291469806e-01 -1.131734102386188212e-01 -3.644356015866264675e-01 2.901158800915633607e-01 3.744586477281135889e-03 -3.477475434895516138e-01 -3.868032206048226396e-01 -8.550042658051001387e-01 -1.256517829927280838e-01 -1.464038886945920048e-01 1.113481085715508773e-01 -4.622086285015348239e-01 -1.172178543820089791e+00 -2.576338490459836872e-01 7.473555570848195995e-01 4.552550353750443590e-01 7.889267209830459759e-02 6.221766546191682679e-01 1.319188627125320590e+00 7.200264983643555050e-01 6.692119762401305127e-02 -2.191848712640282609e-02 -9.404064955795187197e-01 3.438290750280733055e-01 9.436176412997364371e-02 2.191817379639395547e-01 -3.953343286947544333e-01 4.179757230086771080e-02 1.674083179657885057e-01 2.972110533240222008e-01 1.831185098807198985e-01 1.440370477193048671e-01 -3.639457899896482163e-01 -9.938827622921554417e-01 -5.971593321625398576e-02 -8.871918091407093865e-02 -3.594258207348894896e-01 -1.798299086196752383e-01 8.074618176254859669e-01 1.079001764258287893e-01 -1.828176624507444059e-01 4.667770171020586556e-01 1.277968764923497966e-02 -1.574970656187504758e+00 -5.171834854406698323e-01 -2.262013649775843627e-01 -2.296916125706148157e-02 4.850858783107935279e-01 3.736901835113224934e-01 2.282415280911027633e-01 -2.716270784471100028e-02 -3.503411555809868849e-01 -1.176578147575121580e+00 -6.434022502424400214e-01 1.407830325605411992e-01 1.921336921606220730e-02 2.013117894669224084e-01 1.030649984996771795e-01 -4.791184423519962987e-01 2.436611041348619167e-01 3.520081628597099277e-01 -2.101056199154738291e-01 -2.399124166427623883e-01 2.185814230296333899e-02 4.606272571863522791e-01 -1.363907866933885549e-01 -9.533051125202539333e-02 3.572480906301344072e-01 -3.846132221749319624e-02 -2.657961563082038570e-01 -7.926329734073089828e-01 1.140624715860470567e-01 3.755067706838062791e-01 5.150646067909290388e-02 4.202483476062326972e-02 7.198633362757204113e-01 4.624458487668659523e-01 -2.773677726774633964e-02 -6.783792786384248985e-02 -1.198952104465321328e-01 -2.132062690979012465e-01 -3.687872631679460778e-01 2.960406574224175857e-01 1.920246878845230654e-01 2.993344457977328288e-01 5.612951479037215918e-01 -2.188951210628931748e-02 6.169084587909116069e-01 -1.098494047668813201e+00 -6.976302805379234195e-01 6.051825307083725375e-02 -2.650708748078048349e-01 -6.569274118687482567e-01 -9.130059750690217718e-03 -4.514294865595629980e-01 6.483458982189914677e-01 4.812429509464045962e-02 7.894401588308565254e-02 -4.025077787582914679e-02 -1.397385548110620102e-01 -3.068272315629767544e-01 -1.215466382382735140e-02 4.164929333335889994e-02 7.695677759689565356e-01 -4.528108430974248783e-02 -3.136269598599097375e-01 1.092216835074810710e-01 -5.133570771757297591e-01 5.285212766683307362e-02 -1.123197193894286849e+00 4.017382928605650605e-01 -4.250046912349623174e-01 -1.490753147023985425e-01 6.519858979422650525e-02 7.500447621577040203e-02 -2.705984187895561499e-01 2.200264900949196190e-01 2.980374681851184482e-01 -2.509008046218804688e-01 -2.540255767268011500e-01 5.343573306969192152e-03 -4.446086821141747580e-01 -4.839103324194925504e-01 -2.664862891917195165e-01 3.450803649875789914e-01 3.752492879942876947e-01 4.213430782324141255e-01 2.655208195668405935e-01 5.578895172711503259e-01 1.260620567147150428e+00 -3.629006790273343608e-01 -7.920320786448291628e-01 3.200421930723156838e-01 -3.544124608776314522e-01 4.527071234309940628e-01 3.519640813465660933e-01 3.601030170786256868e-01 -1.453707538504198093e-01 2.476545332376170194e-01
1.645272983269079337e-01 -3.176004202195280013e-01 2.272469030028719528e-01 -3.053889358386812636e-01 -5.036826887392450436e-01 -4.093558300555149576e-01 -5.562002402060303163e-01 -5.845752248901111420e-02 -1.086681698866065027e+00 -2.873375202954323582e-01 -6.663887905977370352e-01 2.324726803056828828e-01 1.210310777993420350e+00 -1.002698108323445414e+00 -4.872945957141428530e-01 -1.915202859872537633e-01 1.684145721387190209e-01 2.830252535247539392e-01 -2.699192804829884662e-01 3.579283420820199568e-01 -2.952832026002505939e-01 2.512834177095754074e-01 -2.255056571993560854e-01 2.480256029297562333e-03 2.222839548224214701e-01 4.274851384861917403e-01 -2.471447315062203498e-01 -2.825438963308673362e-02 -2.865917622816396282e-01 3.223008864434764309e-01 -8.607371060615637282e-01 -8.148798916334548670e-01 1.841092712077561366e-01 2.349176808375715297e-01 -1.708964043975577329e+00 -6.658903235294845180e-01 9.372244030432941297e-02 -3.113059310551754555e-01 -2.587115593973678407e-01 -3.345220774079253889e-01 4.387734647904569241e-01 -7.280855037629059279e-01 3.442969996250573317e-01 5.265511754514015097e-01 -1.263266775094152028e-01 -2.638361795733681903e-01 8.046254946271984287e-02 -4.458528590761647314e-01 -5.542722028667571577e-01 -2.156425491384187654e-01 -2.303848308280220247e-01 8.298952661321047364e-01 -4.609875125629160353e-01 -4.751864915677798673e-01 -8.994440340731131578e-02 -2.060202695409190515e-02 4.135592663217820819e-01 1.054469270906055689e+00 6.177257401011898574e-01 -5.883854147005476154e-01 2.381250114849704780e-01 3.685985572201657123e-01 2.195054391462768553e-02 -2.839989679312690529e-01 9.875642003826680115e-01 5.524233982637839491e-01 2.054907612184095900e-01 -4.249009194736491635e-01 1.042561671093137354e+00 1.802921106442634536e-01 8.957265525366290282e-01 2.667672327462031201e-01 3.526308872727396682e-01 -3.859448464988636807e-01 -2.372279268140313202e-01 2.654557546358420339e-01 4.972419512366572647e-01 -5.394741671251960247e-01 2.719797025494419818e-01 1.460035066492128553e-01 6.048745874666319744e-03 -2.537006195348414095e-01 -3.699672193259728736e-01 -9.132141996438283837e-02 -8.935659434019781189e-02 -2.711018050395138101e-01 -1.738999049568929145e+00 1.103307689131124703e-01 3.858322325645927031e-01 -2.448533178892139395e-01 -3.142396161059050896e-02 2.159763748216857737e-01 2.138172838697857403e-01 -1.781825525969113200e-01 -6.618739393159452089e-02 -4.244516408600286783e-01 2.768025842588124896e-01 -4.254308409568297727e-03 -5.336833325477141621e-01 1.070536503685718843e+00 1.211044677317644064e-01 -3.677593582817552664e-01 -9.668054417578505477e-01 -3.655263753080293526e-02 5.933987157845945770e-01 -8.928891019797189355e-01 3.044663841367153401e-01 -4.901005498439908181e-01 7.096823734119503402e-02 -4.152618856440549178e-01 2.765701139453892732e-01 3.316757842052003857e-01 -2.587893452452302845e-01 -1.460235684035126602e-01 -4.697939116968316564e-01 2.250938376435855925e-01 -3.293013665776981513e-01 2.832187242636680438e-02 -3.929046537329639599e-01 -5.177410826320175685e-01 -2.712517351058517379e-02 -5.011191952737588107e-01 6.168694067619912014e-01 2.876403124839018721e-01 1.231682857731997371e+00 4.683611547622359428e-01 -2.782195767543970133e-01 -4.133248075463395732e-02 2.464260696202509038e-01 -2.541598910396394295e+00 6.055096677717055620e-01 -6.678729974499466593e-01 3.209257767292987840e-01 1.246208031150486395e-01 -8.798969339044532267e-01 3.974116326178793734e-01 -8.203433019856400943e-01 4.310709084256370560e-01 -3.429928284653717130e-01 1.069391155426202555e-01 -1.316393518809155228e-01 -3.494965951080990507e-01 -1.487279591425118841e-01 -4.085475318504707687e-01 -3.933208727492499279e-01 -3.590507880113195105e-01 -1.455371755933783928e-01 -6.003000334729265836e-02 -3.722945648625288206e-01 -2.918848397899101998e-01 -5.267742852964739653e-01 -2.010688472954151318e-01 -4.900422208308261585e-01 6.096647060007138741e-01 -6.774391093853556756e-01 -1.579365161485065880e-02 -5.326782715561872994e-02 -2.357441698701964738e-01 7.017275754178506908e-01 -3.369209101672943629e-01 -4.366479815817805171e-02 2.526780107005334453e-02 -8.243478322134278891e-02 1.918330475723272477e-01 -4.491436362067654509e-01 3.418862458091599943e-01 9.807548884436527448e-02 1.036108320420386225e-01 1.688888215394466485e-01 1.209846858604066294e-01 1.200943491373390959e+00 -5.801441296601285158e-01 3.626664715105044068e-01 -8.440475858312085355e-01 -4.754003075262782652e-01 6.238842422776100793e-01 -1.306566808713436556e+00 -3.778385201053942599e-01 1.111763067353793294e-01 2.451128530047261000e-01 2.663777811451432109e-01 -1.678276513250270552e-01 4.271847878072900229e-01 -2.670039998277866089e-01 1.968025254340452779e-01 -4.559067472390588294e-01 6.852905284739445602e-01 8.565487791637572956e-02 -4.791304217231975859e-01 6.217968225430595686e-01 -4.587614300894609642e-01 3.036410128904674099e-01 -8.523293798360478402e-01 4.497638983113873279e-02 4.376777308652451959e-01 3.538860972984855247e-01 4.489264676625229766e-01 -1.316670849102123952e-01 4.517796403272534844e-01 2.799333195747858993e-01 3.068817098315375080e-01 3.821702931192443309e-01 -2.310602123181604017e-01 1.194803067340559771e-01 -6.403659787067934872e-02 -1.125767655188971039e+00 -2.578034478615222613e-01 -5.255470249254293735e-01 5.406175892780971104e-01 -5.224101714936202345e-01 -1.299927536210094547e-01 -2.308696287373955547e-01 -1.605666988886690072e-01 2.721042570896843316e-01 -2.740394358626948579e-01 -2.188771019386199779e-01 -4.347599350189203515e-01 -2.996643146434667115e-01 -3.266153685929515382e-01 -1.617249306169422085e-01 6.341859336077257936e-01 5.823398433753413928e-01 -8.245748199067810535e-01 -1.875375270838017805e-01 -3.881563612939670782e-01 6.350060202098199713e-02 9.455813243337762852e-01 3.314181393709941803e-02 -1.859023622072173906e-02 4.690684110600600726e-02 2.568669199222008981e-01 -3.007749789387589856e-01 5.296792745570935157e-01 -5.171571449899007300e-01 -5.464209334546226149e-01 3.370090154833918494e-02 -1.207290684284965387e-01 1.922143847744267608e-01 6.077877456172485759e-01 -1.057734196321565012e-01 -1.817179539295103174e-01 -1.365043728168795489e-01 -3.521787487470698919e-01 -3.106782724296796028e-01 7.026865210350203839e-01 7.560682502230560154e-01 -1.777371140182032017e+00 -4.457917684743337161e-01 5.907462451530053338e-01 3.372307519676524534e-01 4.808396372982839395e-01 7.313477037855555807e-01 -6.918047588011201621e-02 -3.646136127958022333e-01 5.075445221056591460e-01 -2.812735011778196847e-01
8.053397097778711711e-01 3.486071698957988185e-01 4.747993887014602399e-02 2.293420371008018377e-01 -3.674867785444907442e-01 -9.829494769699058665e-01 3.515912502053412103e-01 -7.016740959659481525e-02 -1.009934510222229465e+00 7.693206245936204737e-03 -2.455186484197174335e-01 1.247431345828707572e-01 1.034688478843377890e+00 8.363919491460197753e-02 -1.935114657964721596e-01 2.778539192707744077e-01 3.529859522486484269e-01 -5.859638817392909260e-01 -2.420921695422648470e-02 -1.468195297676233579e-01 6.489174536066484589e-02 -1.332384078029931862e+00 3.272390165609759954e-02 9.684710309061193845e-02 1.201946308767177785e-01 2.753011378011641641e-01 4.242639285319895759e-01 -4.899160426155230175e-01 2.505593611813035637e-01 1.019683863907708821e+00 2.513914026792698486e-01 -5.611914835131598389e-01 -5.932014806912070393e-01 -4.993794776252218903e-01 -4.875247784894860548e-01 4.284137304177607075e-01 2.162370027682399831e-01 -4.638788336447477456e-01 -2.232555795868652326e-01 -1.883000731843033071e-01 7.743391854376099892e-02 -3.893214163128632110e-01 -2.254959256781328414e-01 5.777984398664196553e-01 -2.028311710947466873e-01 4.630446346194617147e-01 -8.007366605594207210e-02 -1.342118715738615242e-01 2.391752486805697256e-02 6.049247407934867926e-01 2.854798140900485226e-01 9.056995454054321826e-01 9.899396854838270199e-02 2.636940424280566631e-01 3.112407230683563730e-01 9.541662713128207240e-02 1.102999196552734151e-01 4.328456244559769073e-01 3.787865693691009894e-01 4.337083714959487080e-01 -1.025610613442615032e-01 -1.729382605311153842e-01 2.950265568255902929e-02 -4.460816736441763353e-01 -7.175996845535338453e-01 1.919253940171240735e+00 2.119690526526105123e-01 3.983236449647810651e-01 6.033199365810564263e-01 -2.243549402412322036e-01 -4.621045150586068351e-01 -1.402906092225906787e-01 4.001175565282784063e-01 -3.028445238910503975e-02 -5.154916967998757205e-01 -4.235194398666575211e-01 1.329041794090337070e-01 -8.591042344458499347e-01 4.955091739793273664e-01 -3.092517331508307654e-01 -6.329570473444273704e-02 3.164827781723034694e-01 -3.366916123032985264e-01 2.507287537924078880e-01 8.896114304199069511e-02 1.716348612745481061e-01 -1.587308251763960509e+00 -3.060548096948700891e-01 1.517163737746314855e-01 4.369083369999671174e-01 -3.570121920706636476e-01 2.824478117388126361e-02 8.326400114363610716e-02 -1.885868632105015645e-03 8.963005625343398175e-02 3.550416945574254024e-01 -2.435949630954249434e-01 -3.235560305389698632e-01 -3.146979020248434900e-01 -9.025320854780618518e-01 2.412034434272390671e-01 -4.818829754356566686e-01 4.612579281936732833e-01 -4.327442137189777549e-01 -1.219971184827880056e-01 2.120493250348054748e-01 2.144868944579939596e-01 5.263196310116194931e-01 -2.877309500057806946e-01 4.284695549836723405e-01 6.043095218975237659e-02 -2.465502117931919757e-02 -3.518015693194067040e-01 -4.191053831324612622e-01 -1.604902481130052183e-01 4.058500418528323550e-01 1.971483016416276379e-01 -6.417080400886991665e-02 -4.400540000049332767e-01 6.290374090120391670e-02 -3.185591864689138464e-01 4.553404645656471406e-01 5.605030378409789904e-01 7.667631254664339369e-02 4.393828850745093439e-01 2.989586070405059193e-01 -4.599115719272355712e-02 4.648819130045639958e-01 -5.925256517212073443e-02 -2.093270938220552768e+00 -1.671073271391265713e-01 1.480772179565890689e-01 -1.726218225568449949e-01 3.527920132994602498e-01 3.209224063271102212e-01 2.857668570423653187e-01 -6.790630239186796757e-01 -5.270403787452953015e-01 4.609643060729683994e-01 -7.965349680778371910e-01 1.062278015650273549e-01 2.608544647885562284e-01 1.824680729906344723e-01 -5.501906095397469942e-02 -1.391791748927277694e-01 -2.732543821179199139e-01 1.800413829439742597e-01 -3.255049766253549914e-01 2.812512844534029721e-01 -3.949585492571239254e-02 -4.759412518348697385e-01 -4.739983216375165398e-01 4.633187643901123254e-01 3.350786687241883582e-02 -9.659868130731122937e-01 9.256792267610851610e-01 -2.275127042214294126e-01 1.796499458103658631e-01 2.574887036649089675e-03 3.107311323341095943e-01 2.638211417593687713e-01 5.263309022917294078e-01 1.429862722742405445e-01 -2.916233066644843830e-01 -1.958636509531050951e-01 -4.250833115039916454e-01 -1.334793663604318392e-01 -4.660273188670132627e-01 -6.886318896121847513e-03 -1.803046107474706172e-01 -3.984928142223341796e-01 9.898224805707897533e-02 -7.265500751369829979e-02 3.595169508774095357e-01 -8.175760829211164982e-02 2.492112749408063599e-01 -5.694187076012903193e-01 -4.574686581790162743e-01 5.644648006505676996e-01 -2.220882157869925322e-01 1.016172221565622841e-01 1.336278164543633351e-01 -4.795401414097759107e-01 -4.827924621389520499e-02 -4.879449211267983255e-01 4.729079818015076153e-01 6.466866869312606347e-01 2.059244313148424765e-01 1.995351496239494982e-01 7.626107936672034127e-01 -3.896882463474638514e-01 1.669734611981754657e-01 -2.810650431482003553e-01 -4.815548563883240707e-01 3.135016159794941637e-01 -1.937289864801511607e-01 -1.262385305941591263e-01 1.143267619681699598e-01 2.222866025824062897e-01 -5.725106543540340320e-01 -3.211146876421143159e-01 -5.444529026174883546e-01 -1.615415818537415948e-01 -8.309494906830935945e-02 -2.651596040961484158e-01 -7.541116521646452631e-01 5.276299397842863087e-02 2.572841374683688676e-01 -3.481201484710375604e-01 -2.961110227310439491e-01 1.468221590228313833e-01 4.339385252938607884e-01 -1.103274426838047884e+00 -1.946670230153569464e-02 4.014965740542003614e-02 -1.048938484749656341e-02 -3.900014524809727323e-01 -6.500290516639950500e-01 3.490553532296090111e-01 3.507238458242126766e-01 -4.853119019290760838e-02 -1.938664723881909080e-01 3.468790735648026868e-01 3.882867258806776412e-01 4.347837342279152195e-01 2.980559390253090801e-01 4.037616785680808729e-01 -2.743990154953717120e-01 1.912786708453647344e-01 -2.767853813122890250e-01 -2.469242185697651526e-01 1.710533331735305529e-01 4.353451483980935732e-01 -9.834371457141147244e-02 -4.734444066264094086e-01 -6.016912222359461770e-01 2.943507239505485096e-01 5.228221605243960068e-01 -4.210874750953006451e-01 4.022998810844143902e-01 -4.013810122128141922e-01 -8.811997469632443236e-02 1.079891905643093758e-01 -2.398532368212598909e-01 -1.204966458808586882e+00 1.159316630702829642e-01 7.288181799836722652e-01 1.650154186335456297e-01 2.403266621783074486e-01 2.297582753650591614e-01 -7.070384043160034271e-02 -1.102930128998125037e+00 -4.961960322677662072e-01 -3.000758987816355416e-01 4.591207731495034472e-01 -3.392133970937232235e-01
-5.836977702656235278e-01 2.932785681331744332e-01 -1.110843663585856372e-01 2.272258971974427388e-01 -3.773300112386322458e-01 7.225165667133424119e-01 3.669145606703730356e-01 -1.569306941662384769e-01 1.266203588269081137e-01 -3.544454748653987353e-01 3.950863998854372006e-01 1.057009796571638793e-01 2.418606154218358728e-01 6.683517915113725838e-01 2.003779554894214721e-01 4.340735981533699328e-01 1.524848798092227065e-01 -4.045229787005957256e-01 -4.245547136808224820e-01 -1.442099239355214835e-01 6.108648135883755492e-02 -6.102489339757750653e-01 -3.275350077938612992e-01 -1.528307705124118121e-01 -4.990570284464785900e-01 -5.772412197864231764e-01 1.057940509525774342e+00 -1.596618817996418027e-01 4.610766913963517677e-01 3.446764937431649467e-01 1.198661095818686073e-01 -8.778269211842779085e-02 2.113319499562222037e-01 -2.655731395226762492e-01 2.301598647434162370e-01 -4.465689224164577642e-02 8.958057967356409801e-01 -3.042625001562661302e-02 -3.939429801022737432e-01 3.673405286172737871e-01 -1.380820157257819647e-01 -3.932727182664522148e-01 3.548238237136417395e-01 -9.642900949527848098e-02 3.693101205226774764e-01 -4.645910768983506078e-01 2.147331207696879796e-01 -4.237473803140320849e-01 2.257700673208408448e-01 3.712839409943962665e-01 3.222768222572610641e-01 2.801799095947143381e-01 4.162560215421530208e-01 2.405473191009902534e-01 -1.598300509460305330e-01 -3.296503171427868362e-02 3.679422145039814018e-01 1.070615755507005940e+00 1.295800165082248122e-02 -4.462361948288493529e-01 4.882507656167145438e-01 -6.443291969624870275e-01 1.993668081904086398e-01 -6.279305164713382403e-01 4.591772525343097988e-01 -8.954400263774331403e-02 3.599420798887419393e-01 -2.549224368019845088e-01 2.339701126219189409e-01 -4.046098230420287073e-02 1.095353767659327904e+00 -1.564982986017212085e-01 9.547674240489471831e-02 -4.118273718348114953e-01 -6.369062093606961961e-01 -5.199192967865414738e-01 3.441706374421422132e-01 -2.476300953817195394e-01 -2.323187146751569745e-02 1.946828279809167603e-02 -2.064329833948984616e-01 6.966478404407419611e-02 -2.974883311803471764e-01 2.839731739772533015e-01 -2.443410916839278135e-01 -2.487119801647336703e-01 7.864231788168819515e-01 1.264331268061382463e-01 1.584476308755637108e-01 -4.257592705761917840e-01 -4.316649329115739286e-01 -3.157787915958414349e-01 -5.079552304108606031e-02 -1.992780944255177072e-02 3.030972816354350341e-01 5.299645777624200083e-01 -6.031422027384956280e-02 -7.034471275455421724e-01 -1.176584068486424828e-01 -3.221600004341377416e-02 2.818160674283990974e-01 -4.563841917552736160e-01 -3.742258495279241481e-01 -2.843551408127933944e-01 -2.668861265981538611e-01 5.840980469168804978e-01 9.541895970243996494e-02 -3.809744517805192521e-01 -5.012388543967158938e-01 7.706655671132514596e-02 -5.761140056464573167e-01 2.360283124569953483e-01 -3.663453617602081547e-01 3.077728504985967600e-03 -4.754164302552101873e-01 -4.821953942659780168e-01 -9.532480547970406670e-02 -3.557507795671870920e-01 4.801847568701689828e-01 -8.821803716726461797e-02 -3.121712824293784716e-01 2.281179652869795849e-01 3.504716878756005682e-01 -5.292871579604259413e-02 -7.741817498204258685e-01 1.766227916411254595e-01 1.076630706684389427e-01 -4.362872972381731107e-01 -1.358411168501590660e-01 1.833776698522182613e-01 1.436542730551820524e-01 1.284596322131925372e-01 4.343638702950453068e-01 1.360469755585732438e-02 3.468652484567880667e-01 2.505521784348198056e-01 3.571982933713893638e-01 -1.006046696993145584e-01 -1.875763544279473449e-01 -6.451806625895961655e-01 1.152054175261848362e-01 -4.659609104634787058e-01 -5.145582328688466101e-01 3.637554706297028706e-01 3.571393444064706046e-01 8.951493912445703666e-03 1.527946341321163581e-01 -4.858385929131129322e-01 -2.635413850636106337e-01 -2.283949773772391278e-01 -2.613112456422006513e-01 2.545754557609429813e-01 -6.346580489244323109e-02 1.481419309703338461e-01 4.019795161134100403e-01 -5.293708654665751911e-01 -5.200381137541057464e-02 -2.587897661595524035e-01 4.185492167075364200e-01 3.435320987900393197e-01 1.211810680249454375e-01 -1.411871457984908984e-01 -2.663590690557101626e-01 -4.072848729309332810e-02 2.639002821532835941e-01 1.936718885475008922e-01 -4.171435805178614342e-01 -9.210382041252665464e-02 -1.315015682709159972e-01 -6.631569465146629483e-01 3.408645406453374438e-01 -3.452083506987389527e-01 -1.616454605474549611e-01 -4.082728317518419942e-02 5.079829831809382634e-01 -5.384870391750823382e-01 -3.062351147792335970e-01 -1.301511100237325580e-01 -1.403599163905561165e-01 -3.010476379573777672e-01 1.428485635276539878e-01 6.958726535703448068e-02 -1.997946575022915561e-01 -8.070013080812923900e-02 2.280426306475036025e-01 4.350511502576320244e-01 2.912591572594187550e-01 -3.762155190624473511e-02 -2.709448415346837891e-01 1.192029649717344791e-01 -2.561286020577549505e-01 -2.056615172976446193e-01 1.216767103687916018e-01 -2.481029014609840988e-01 1.358319263728279547e-01 7.339162444408722230e-01 4.624990677074727885e-01 3.316073586319931987e-01 -3.649443338317093222e-01 -3.314949032323983302e-01 -4.533787393499180696e-01 2.649131695299587475e-01 8.417327672010814499e-02 6.752570254728457178e-02 4.601905251185770540e-01 3.407242090098026033e-01 -6.705244834874817261e-01 -2.062275541360219511e-01 -8.094593926744906298e-01 9.122215338746571256e-02 2.618178232252330595e-01 2.128987805174092640e-01 -9.652439265203364982e-02 4.449349003320812734e-01 -3.730029391160869512e-01 5.754152034887008438e-02 -3.140470957561655729e-01 -1.785828040323575727e-01 -3.140536459614708398e-01 1.829104091541389476e-01 4.386228958654952992e-02 -3.259390166340978001e-02 4.600191857066772694e-01 1.298621309900064302e-01 5.207898961576011843e-01 1.896343460311945839e-01 -8.693376897359793298e-02 1.559900345071781602e-01 -5.952459474002077533e-01 -1.175279330251197546e-01 -1.683353209377924375e-01 -2.491536619559363633e-02 5.021769915498716097e-01 -4.376009052735305715e-01 2.794725323205778933e-01 3.791385385307676215e-01 -6.206596649092874785e-01 2.504906231735698485e-01 -1.356673938519458167e-01 -6.194562622298594584e-02 3.214474799154573570e-01 3.334665235801592131e-01 2.083115415306042439e-01 -2.367624436115547404e-01 -5.065196214562835975e-01 4.083016494381354056e-01 -3.656424555103697793e-01 -5.571218728375265661e-02 -1.610471274323866941e-01 -1.204455735399896921e-01 1.979983292504206016e-01 -2.732406915653003976e-01 7.714290170152930948e-01 1.515532094403106433e-01 -9.840602920407072463e-02 -2.308209585508815276e-01
-3.268585597357064887e-01 1.958666823665891343e-01 -2.480142867001116358e-01 1.662411906375043658e-01 -6.454705505211122407e-01 -2.575741700012837976e-01 -3.522468641244767551e-01 -8.591738635290339932e-02 2.121013163571423554e-01 2.576237470935920371e-01 4.418198103952608036e-01 -1.105749221029636575e-01 -3.987043810112693154e-01 6.126525410642573721e-01 -4.043055656435398104e-01 4.581638258055970581e-01 1.905429456384439835e-01 8.755900462386493333e-01 5.464085745609587041e-02 -1.462380338052881867e-01 -4.858464689272323778e-01 -5.219370867444126372e-01 -4.290487164467571835e-01 4.383236174022678289e-01 1.218195384782780055e-01 4.019532397118071726e-02 -2.801561205339103688e-01 -2.597017380616093440e-01 -2.854933541178452661e-01 7.050139044173318048e-01 -3.045564296915800329e-01 -6.505505712519941142e-01 5.127192657465650116e-01 -2.117975697525158185e-01 5.133268839610127809e-01 -4.419372405062014786e-01 -1.667186293996058832e-01 -4.430461070130727874e-01 -1.631067562474083910e-01 4.351255619353699422e-01 -5.542528940439952478e-01 1.590678412675270714e-01 4.219476827247689577e-02 -6.412454647826933973e-01 2.199857614022718011e-01 -3.817660817054254196e-01 1.289161324529130570e-01 2.971294351310333481e-01 -5.031997915953996259e-01 2.004007003480720861e-01 -3.785681945485405153e-01 5.300981508590333346e-01 4.092814526551470933e-01 2.725664404161338705e-01 -4.655168155217193626e-01 -3.788977322243674561e-01 4.721596171680858545e-01 -1.941532672837887052e-01 1.601500837263439281e-02 1.041193991103868226e-02 4.185270213513974658e-01 2.281336451701774792e-01 5.525689489926008391e-02 2.588343902692172849e-01 8.252883303315341479e-01 -1.923057233426347101e-01 4.142081080298279927e-01 1.560313219120942549e-02 3.344020131372747451e-01 -1.881412839356005895e-01 3.970048812295072227e-01 4.702343425448321512e-01 -1.059601986675927088e-01 -3.897289965987540405e-01 -5.027082898863254323e-01 -1.994494934254210372e-01 -2.139110695451325039e-01 -1.048703033693555442e-01 -5.937108699620102792e-01 4.180430223269240159e-02 -4.629395436200234859e-01 7.523673300264188679e-02 4.884051692617091822e-01 2.656975757288414508e-01 -3.946955919191285633e-01 3.481193058745213342e-01 -4.562378930808088651e-01 -9.681518312723092282e-03 -2.408184918752057091e-01 -3.571255259231831403e-01 -1.855783226776622219e-01 6.389515633094851321e-02 -3.991236132877332698e-01 -4.126368308321538003e-01 1.428207277855680435e-03 1.280225658020074375e-01 2.453765076812719215e-01 -7.269930864046258989e-01 6.269770330668099634e-01 -3.788713879558128217e-01 2.373154245805010887e-01 -3.498169685407157004e-01 -3.130807266796446497e-01 4.139891977785891547e-02 4.009750962616325798e-01 5.001972049134086884e-01 2.054383910535209357e-01 4.865601467700763072e-01 2.563363656808990698e-01 -4.093212289984687335e-01 4.113819701957611152e-01 7.277614160092280016e-02 8.375538071229801651e-02 2.149414796273490524e-01 -3.722552072129953205e-02 -3.217011558403291560e-01 1.038935379582324181e-01 -7.737572427294518718e-02 -5.214002506709252138e-01 -3.026554998281231201e-01 8.183544817816056083e-02 3.938346420748846666e-01 7.859520329704143826e-01 -5.898980643001640045e-01 -7.571078465084686293e-01 -9.582911489048204223e-02 -1.181973950619767538e-01 -4.180854728724935909e-01 2.421354834022882985e-01 -2.922417108591868207e-02 1.928661508044279549e-01 6.650650170852954179e-01 2.680781043141865494e-01 1.915019210241173386e-01 -2.503758285591181978e-02 1.098325284840042659e+00 1.131931488538854724e+00 -3.941574249722439305e-01 1.565233355317934005e-01 -4.243614910618626057e-02 1.282062362728731419e-01 -7.436479585524718994e-02 -3.223674115817222741e-01 -1.525552543775209047e-01 -8.378577447085951146e-02 5.159872464407598835e-01 1.035057673203528955e-01 -1.621513037331860085e-01 3.958507784821120312e-01 1.440643753578554898e-01 -9.663115612137601618e-02 -2.741576891178589270e-01 -1.851740955683312539e-01 -4.746532259775765317e-02 -3.403357963282156451e-01 4.932026894347793511e-01 -2.252553416936979858e-01 -3.854678210701955043e-01 3.870217053066362656e-01 1.858812972395022522e-01 -8.550267339238543096e-01 -3.853553389414468566e-01 -1.206762205124756321e-01 -1.370281142920724560e-01 -3.555930175286704520e-01 2.155448185959283058e-01 -4.791770481406021909e-01 -9.902588729672166801e-02 -3.563494316051904476e-01 8.762378043421743534e-01 2.870805115428807786e-01 -3.456790495615914560e-01 1.544221502119582368e-01 2.202101161410266461e-01 2.276523740113746141e-01 6.030727912774192651e-02 1.588042124292134982e-01 6.120143006304343825e-01 -3.654726384260433836e-01 -4.452494554819476091e-01 -1.312292754012052975e-01 2.380437558032829359e-01 -6.015465695383068745e-01 2.263967082571864409e-01 3.832343099642464002e-01 -5.446444007719750818e-02 -4.730031051418625565e-01 -7.991415578360070437e-01 2.441304969404549385e-01 -1.163448474503798180e-01 1.762203114246712610e-01 -1.990056455202458222e-03 1.109232928340478708e+00 2.094357492344916527e-01 6.661089833182279873e-01 -8.563649492420172260e-02 3.914341513730925093e-01 1.240162084179902841e-01 3.337348104731496790e-01 5.502961884436388118e-01 -1.946211084244632017e-01 1.421409483565753695e-01 4.138223654798396656e-02 -3.487164376625463413e-01 -4.092611900952540238e-01 -9.977707146449431297e-02 -1.541562619003763457e-01 -4.925642791754967775e-01 -5.088266196875377290e-01 1.290326606078263383e-01 -3.477773253065623016e-01 -2.115680570578844233e-01 -4.461948950525324725e-02 -5.050238293702661307e-01 -4.411434563300493661e-01 4.598526491305108405e-02 -3.455038691052466499e-02 -2.550494329762392764e-01 4.108815994106712610e-01 -2.756358194237396031e-01 -2.688057141375382320e-01 4.502906511743691165e-01 7.043366810935508537e-01 -3.992464621802037650e-01 -5.467022497219857780e-01 4.169632394869874359e-01 -7.637801140609656869e-02 -5.029699615354620290e-01 -2.254389146046441583e-01 -6.325233777732322538e-02 -5.937079174119201941e-01 -2.102498908135901068e-01 -2.525361185560362487e-01 -2.342243060980533642e-01 -3.231523177046803363e-01 3.137642026768051040e-01 7.756435018168476858e-02 -1.715732688622660929e-01 4.616370206689244249e-01 -4.292039568797667570e-01 -6.785178848719670974e-02 2.271618914340911843e-01 -1.896603967905260979e-01 3.325375781849176926e-01 8.307010016808118458e-01 7.781137534348221418e-01 -2.586462591342391093e-01 1.934454249999593978e-01 6.363023684815855008e-01 -5.612514140747658642e-01 5.287309594285202058e-02 6.166612060222034231e-01 2.337540188391309948e-02 2.865100194441312920e-01 -2.990909110738145249e-01 2.526084483791281587e-01
-1.744358183989435651e-01 -1.219340451543998588e-01 -3.693356448406424075e-01 -4.754077913626239549e-02 -4.790423904423277701e-01 6.878988051007524362e-02 2.246689460454316944e-01 -2.080610456492912597e-01 2.153698055370714404e-01 -9.395086628313230326e-02 -3.543954139220712451e-01 2.936873236531246101e-01 2.319118513250008340e-01 3.237791401112445899e-01 3.028754508187485039e-01 1.037191908700980381e-01 3.931314585997826572e-01 1.569858756973979697e-01 2.728223554885695346e-01 2.042220102029230211e-01 4.731042323148865747e-01 -4.848393168256380226e-01 8.947704168495897170e-02 2.533571212759678226e-01 2.071006360920341349e-01 2.570446693432145713e-01 3.590960793020185893e-01 5.005239814845463542e-01 4.153571750408887597e-01 -5.920150361113198922e-01 -4.128616629229888146e-01 -5.636823352999331682e-01 -1.633120258381562939e-01 4.336677559164323764e-02 -1.653245174817662144e-02 4.419281385571490750e-01 4.626923706485095433e-01 4.981656542341119098e-01 -2.018901855071406348e-01 3.641401038220513642e-01 -4.365749643801339896e-01 4.173185346558863640e-01 -5.611272523332685447e-01 -3.737747068065586098e-01 2.090936507924933963e-01 7.227283725915588375e-02 -9.665300999195453047e-02 5.053083258387132126e-01 3.097837787594914238e-01 -7.269801774020415719e-01 -3.602216712410246657e-01 3.453797933547922416e-01 -4.233687162778988489e-01 1.641173415330484109e-01 4.066525284964748188e-01 -2.384838828550869538e-01 -1.300750170432747044e-01 -3.922140701464383872e-01 -1.122471600427846737e-02 -2.785745510637399058e-01 -1.070382979413683905e-01 -1.087725480575388870e-01 1.624635376206400028e-01 3.180183174507916766e-01 3.707644812545253243e-01 -4.819897335564108376e-01 -1.065022076457678851e-01 -3.520808743122797457e-01 3.158422569307831745e-02 -5.861448705152240146e-01 -1.997237578566002092e-01 4.239695800826702166e-01 2.485959784008975326e-01 -1.594556380933905004e-01 -2.287598714459499472e-01 -9.070009314640889442e-02 1.470341363070723668e-02 -3.288885930774606559e-01 -3.277613482504130316e-01 -2.740010881988850788e-01 -1.515839344418522527e-01 4.589224259124862204e-01 -1.411133972786944857e-01 1.242235393897409279e-01 -3.435811872168640924e-01 -2.090705447683668117e-01 2.685024044428952483e-01 -1.791429065011096791e-02 -2.738163549343758940e-01 -3.468091075370495768e-01 -5.252326442020411879e-01 3.064811355077819988e-01 3.605762026631061934e-01 -9.490811813909566519e-02 -2.160384132748736918e-02 -8.047166145891229347e-03 2.215408237255477031e-01 -1.576585134609461980e-01 8.750450255285251444e-01 -5.242530113101268041e-01 -1.745182361008446315e-01 -1.596142705657554728e-01 8.236098133220063344e-01 5.087431679815036523e-01 3.462261032535580031e-03 2.562952277238008669e-01 3.523855010942054944e-02 -3.775180675947954478e-01 -1.072519491755656584e-01 3.080986108237229182e-01 3.619772851588238249e-01 -6.161817945622726223e-01 -1.201441034862901908e-01 -2.558528680772994557e-01 -1.515992830771299149e-01 7.845710788444039407e-02 -3.759648302058012370e-01 -1.515923975586422889e-01 -3.429604604613930019e-01 3.475063334582859098e-01 -3.422664942384100462e-01 -3.301652083922507197e-02 8.975186168513952234e-01 5.778534702137577694e-02 9.364328177761481464e-02 -1.622537970532248464e-01 8.375697311788488086e-02 -4.187405610562197622e-01 4.178300218134445854e-01 -6.234377754444075936e-01 5.056520558896774320e-01 2.311613943456463094e-01 -3.593114946176192981e-01 5.522914435435845038e-01 -1.852173450822282019e-01 2.710803724826001404e-01 3.415164005546071357e-01 -1.204034579889717155e-01 -1.959432417319786554e-02 -3.416588560732791158e-01 7.421448490103292606e-02 -3.206513782591301487e-01 2.517288922527819439e-01 -5.097263317279077111e-01 4.012460926118106563e-01 5.590324352947261266e-01 5.424578938926069016e-01 -1.964921221985399813e-01 1.729846557696506637e-01 4.884538036848672937e-01 6.037651573738435085e-01 5.267862607168456446e-01 -5.098679930306098118e-01 2.207704813925250864e-01 -1.518640662732317383e-02 -2.276920933112605849e-01 3.557584832477374004e-01 -2.544543070832934739e-01 -1.534485207413596175e-01 1.191539847699432941e-01 -1.099718535376637413e-01 2.739901893786363118e-02 -1.702183867165371345e-01 6.378813413718802394e-01 -5.022879800855739596e-01 1.429247627843454327e-01 -2.831508257234127135e-01 2.606270034592081397e-01 -4.244636541640135763e-02 4.263179345894027583e-01 1.434041212945531774e+00 4.780527041119775333e-02 -4.530010925388378018e-01 -7.218943449345519014e-02 -4.083376208725262441e-02 -2.201450260626653874e-02 -5.102944779371735295e-01 -4.697926793628006137e-01 -1.748790170010711686e-01 4.988769193972128826e-03 3.580188614388268298e-01 3.972592408488969662e-01 -4.107301916019862609e-01 -4.499795155237513306e-02 -3.118472456914967994e-01 -6.793507907135354351e-02 3.126537224505296364e-02 -2.941733047860733419e-01 1.932086316234278844e-01 9.521244096870655482e-02 -4.529454014714639487e-01 4.731668098790642873e-01 5.878328550765489213e-01 -2.952977177995611546e-01 4.299780406031668001e-01 2.320792266854657115e-01 -4.072831585133991350e-01 -1.701011504414076392e-01 1.275076605084916326e-01 1.788833844814037219e-02 2.858805758517188322e-01 -1.916984023286372740e-01 1.477869016670770308e-01 2.807966176827460594e-02 1.087840521061419902e-01 3.914112173052308186e-01 1.040766837439521253e-01 7.348666087285304904e-01 -3.709265469416970218e-01 -4.379210662889643224e-01 -1.402787793396229610e-01 4.904856444854117092e-01 4.226572461337768094e-01 -1.633444631752560272e-01 -2.418997172947518204e-01 2.311265463011573373e-01 3.365940974239371997e-01 1.590913742204094206e-01 5.098822813747314747e-02 2.369048621704137880e-01 -7.179329702309318328e-01 8.680273772537706600e-01 7.077100716537790825e-01 2.979623736711634607e-01 1.277916249458903863e-01 -1.074036532730386906e-01 6.719667374797866355e-01 -4.368393696511236636e-03 1.384738357030557698e-01 -1.132385343478202744e-01 -2.928663737697527192e-01 4.488416934556195836e-01 2.390943905451412277e-01 4.643330512193918347e-01 -4.188006453788774008e-01 -3.781894751478521999e-02 -2.992330672225871346e-01 4.542912189118394894e-01 1.245083308294834268e-01 -4.377610509060833044e-01 -3.010465650245776059e-01 1.044403804303393746e-01 1.524418883448719064e-01 -3.015083799394188691e-01 4.641269213802847182e-01 1.438092049951504026e-01 -3.487333544779799288e-01 3.348194102125729987e-01 -2.214809784233755588e-02 1.986056194936914598e-01 1.236052821749291861e-02 -1.660227664288196070e-01 1.374933306959358614e-01 -1.520188787963168975e-01 4.567868009860058809e-01 3.688391557095038187e-01
