2.230025510427359858e+00
1.965312416985606214e-01
2.212183975731673857e-01
2.646109426440849122e-01
1.041191030674696538e+00
-3.171490206306432302e+00
-3.108762336461489695e-01
1.970078989503409317e-01
2.782007865883735498e+00
2.348556760654861297e-01
-2.070135917818644256e+00
7.402265603237332403e-01
5.727402235902330219e+00
-3.797035114874534933e+00
5.284479980423092416e-01
-1.930932199056961951e-01
4.475209036534687906e-02
-1.154035122372280675e+00
-5.749648732262903350e-02
-7.315059113221443754e-01
-3.169915818940173824e-01
-4.258599046796437193e+00
-2.420752399146463563e-01
-1.192886837233442465e+00
-1.168868356836382461e+00
4.673581341257573851e-01
-2.058056473209816772e+00
-8.195676059184130446e-01
-9.125547696890385918e-01
3.832264204184194334e+00
1.467515693722089676e+00
1.721502493064615891e+00
-1.139009140955788757e+00
-3.189080052773667906e-01
3.265662385104965981e+00
-9.988146902775061342e-01
-1.800154744666437212e+00
-2.822762478627053873e-01
-4.051272253376439481e-01
4.738568392334493451e-01
6.825979878681919244e-01
1.610207513631697784e+00
-1.644116749787948584e-01
6.250399737226094432e-01
1.610858295088959946e-01
1.153056236393909417e+00
-4.253879298338338888e-01
-5.458065781743717121e-02
9.784766043782078260e-01
1.279231763041468684e+00
-7.091506349219928174e-01
-2.171716036526129656e+00
-3.569031588228636642e-01
-1.217343133540753852e+00
-6.922318873107553838e-02
-3.910275230568462379e-01
-1.087661498050731312e+00
-2.462272178244949039e+00
7.141251362679338355e-01
-6.706083027369668104e-01
-5.713700463778466077e-01
6.031010004945444036e-01
-1.877113998089011138e-01
1.687710470929157491e+00
2.556519337150756410e+00
-3.527289334200139237e+00
-5.790529211807066146e-01
7.928665687280636032e-01
4.139130267926551809e+00
5.671145099345329399e-01
-2.514281808459476686e+00
-6.891592090697444550e-02
-1.613024033255537060e-01
-3.532167564626615408e-01
1.762267233320492066e+00
4.672261056025855952e-02
1.948436257637675417e-01
3.447981065903309439e+00
7.665479112955042584e-01
6.149475877399638302e-01
4.036127634126269181e-01
2.923079229952176700e-02
2.586254906518400953e-02
1.440062617058159855e-01
1.379549917660865876e+00
7.711795952699539436e-01
5.348586179624652992e+00
-9.921792427463448361e-01
4.097293283646591955e-01
-3.911060031955874150e-01
8.067067563362905203e-01
5.176590314569013973e-01
-3.183579022357647115e-01
4.449704458004690166e-01
-5.531671419848986915e-01
1.433039086570834231e+00
-1.401664380757683626e+00
1.360909418908371027e+00
-1.402486885720351628e+00
-3.672098430693421900e+00
5.337515391635141437e-01
-6.910063123716975175e-01
-1.691220368263307350e+00
-6.762010028145278018e-02
-6.169139790449339467e-01
-3.313489773612249500e+00
-1.135851234248166364e+00
-1.048675635957300178e+00
-7.942801789702181869e-01
-3.716290354165364684e-01
-6.379111135715838099e-01
4.943544770551808187e-01
-4.155823871048875962e-01
2.838281528424949629e-01
-3.114684555613050215e-02
-3.701198070314340449e-01
-1.448029446106289919e+00
2.405814439182120679e-01
-1.471317021843580042e-01
3.043391063065354341e-01
8.627485209730422211e-01
1.090332882684350857e-01
-1.905720206845151310e+00
9.205310549026599620e-01
3.487799148188811316e+00
-1.522593710333543848e+00
-7.975793823917871617e-01
5.665968685538489424e-01
-1.084752012583201308e+00
6.454735690589235020e+00
3.433902511435172333e-01
-2.546897180416340056e+00
-8.959793710851539084e-01
-8.146618569914797492e-01
-2.161010895556154665e+00
-4.334971525406709603e+00
-1.808865212066225858e+00
3.374879885365653087e-01
-1.328648182158100877e+00
1.490754866479488960e+00
-4.182781933057510004e-01
1.321564656608620325e+00
-8.767451139026644080e-01
5.622972671723297511e-01
-1.539641285185428532e-01
-4.597221844674277413e-01
-1.180015267107811017e+00
1.814727416389482872e+00
-4.088666585330714698e-01
-1.226179546404017467e-01
1.965200192654846800e+00
-4.880185433946407914e-01
5.527432158212656210e-01
-1.055357791033643799e+00
1.658220830122349110e+00
-2.213046670261586080e+00
-5.390629578361340046e-01
-2.997334731821480469e-01
1.342731313015307570e+00
-6.951601153186444115e-01
-2.215888564029402819e+00
-1.883307336274050670e+00
7.677851340669151758e-01
-9.115411370356205634e-01
1.224068133148366488e+00
-2.137501063567102122e-01
-2.151245033263802231e-01
-1.051267013436262943e+00
7.711630531575686121e-01
2.001592834939775578e+00
-3.297787958769435424e+00
-5.084133445080252223e-01
3.881209620897780876e-01
2.067141701472714477e+00
-8.742414924771642060e-01
2.445836343870128715e+00
3.321958129483211231e+00
-8.518116627867158286e-01
5.360869873087107385e-01
5.516640904659013689e-01
-1.932931315996441746e-01
1.285501685247067538e+00
1.257547218185879778e+00
-1.867244175195393041e-01
4.087721084232552871e-01
2.606423991486374048e-01
-1.655697625656416205e+00
2.299871305600309945e+00
-2.824228043836691793e-01
-7.419692070884225110e-01
-3.709223979058431375e-01
-5.240196990444718761e-01
-2.030110872874751227e+00
-8.510942897498768867e-01
-1.344159341840245547e+00
-6.307576909446787061e-01
-5.797208920819055811e-01
-4.258391626361667792e-01
-2.237880121311590920e-01
-3.299917311606372361e-01
-3.498673695513081494e-01
5.232905431372288918e-01
-9.328360676945740559e-01
-6.834658917965764913e-02
8.009730278945361714e-01
1.986292148282400305e+00
-2.374969946481202854e+00
-1.329258996391490255e+00
1.533154346642209731e+00
1.893349259171104304e+00
1.733449580425552305e-01
-6.351310323396713864e-01
-2.368175896142367787e+00
2.019641958728300019e-02
-4.253611927398269210e-01
-1.287490130356548357e-01
-2.843234682296915117e-01
7.902604802573328646e-01
4.531629892185468078e-01
-2.444632742077482435e-01
1.509921047184303200e+00
-1.169239569664978662e+00
-1.979552236229085826e+00
2.212978941457646453e-01
-1.493147270777762881e+00
9.258990659239878518e-01
2.290463055142142768e+00
4.717621342990284128e-01
-2.229960161263405904e+00
4.874727487675575288e-01
6.483830777234057541e-01
-2.293609736450007430e-01
3.354671797419353507e-01
-1.362560282538565204e+00
7.687483852262557704e-01
-7.305888868698611205e-01
-1.406810563807260328e+00
-3.221518056020503118e-01
-1.487104888417642545e+00
-1.324484678516610614e-01
5.544532425353000393e-01
-9.744229865663014967e-02
-6.575392310438072929e-01
-8.690296178003248384e-01
-1.789138994112733139e+00
4.287440498685047174e+00
4.065723584322078921e+00
-9.625807240962065414e-01
-1.866047641255715650e+00
9.724265640490834528e-01
6.240678653013158605e-01
3.553691171408155380e+00
-1.560995678689558464e+00
-5.529469079324865755e-01
-9.253030845951375483e-01
1.991687972353787528e-01
