-6.992284382449691638e-01 -3.312758809745071087e-01 -3.418233654237813890e-01 1.534861191615238263e-01 3.955805990434402286e-01 -7.447307961963568479e-01 1.272327861002538474e-01 6.906633538118016336e-02 9.521616386757111306e-01 -4.250099562495515126e-01 -2.523874527514091137e-01 -4.954262107263860404e-01 -2.445265343844227335e+00 -4.025734330283410323e-01 3.438083730878521149e-01 -1.358140732081758451e-01 -7.393777509922513924e-02 2.520609248310111128e-01 3.953713072021616259e-01 -5.749374409052476764e-01 -4.834684563851933126e-01 2.291549473309538509e+00 4.689180969346962713e-01 8.214935448286070363e-01 -5.951413454891475024e-02 -1.793547109563688458e-01 -8.001427449482204635e-01 -5.283361462660911556e-01 1.079695272352137331e-01 -1.248855872087156982e+00 7.808762069290645091e-02 7.767104022275752584e-01 -4.298903042262585544e-02 -3.281259356196225552e-01 -1.798007475063591709e+00 -1.755007902643566098e-01 7.771397110915551076e-01 -4.352681163639854911e-01 2.159301776355931901e-01 -2.676879939351256565e-01 -6.125462727797077456e-01 5.705823045723169562e-01 -5.272122827064457118e-01 -1.179136100692785294e-01 4.086699368892364737e-01 3.306124832263408475e-01 -5.871943294952352010e-01 -4.211930420687331478e-01 -1.168370707563081978e-01 -3.540942058431146289e-01 -2.549917428270586095e-01 -5.116284479520997186e-01 1.767947961147503522e-01 -1.255841269651747638e-01 -2.875874485436694661e-01 1.110329106687422546e-01 -2.772262358457969755e-01 7.424284512117307333e-01 4.378056824524052537e-01 2.667758034879784690e-01 -4.278617886449925245e-01 -1.979936681222656258e-01 4.699869418370862806e-01 -1.149052187338641007e+00 1.324308560491627706e-01 -1.188827153507828471e-01 -3.969916476111808867e-01 4.313550791729746647e-01 -5.793545959987926874e-01 1.753126846976498787e-01 -7.585525080466568593e-01 -3.960690645893508166e-01 -4.470330153688514274e-01 -1.731874160289614828e-01 -9.122123460131688066e-01 -8.190263075739467880e-02 1.540144776873594856e-01 1.548782019333375115e-01 -4.767194007592061022e-01 -1.083999094955011983e-01 -4.534736288506490132e-01 1.971801841392333554e-01 3.918421863511223346e-02 1.823618481685108372e-01 -5.346010587836975692e-01 6.472340386563799064e-02 1.845410507283306245e+00 -2.874087331614368357e-01 6.778286341488534402e-04 9.461180837000679467e-02 -7.141675129914787368e-02 -1.120818178125091436e-01 4.932805192832231400e-01 5.370220712371052141e-01 -1.426922827483842193e-01 -2.105005141944704949e-01 -3.210012031300623625e-01 -3.116151002868459141e-01 -8.839093175530479685e-02 1.342654034860176537e+00 -1.295893244930719779e-01 3.045214346228565239e-01 3.228432387628752953e-01 3.509699933000071659e-01 -1.970589244951859720e-01 -9.164296727952038202e-01 7.836634589680192553e-01 -1.881599592452574410e-01 -8.880862025812544247e-02 -5.192814615560631397e-01 -6.474249433515096852e-01 -4.278446126303673824e-01 -2.488225564102189979e-01 -4.480270212577240341e-01 2.777155818080167538e-01 -3.464135263241421292e-01 -3.236948604357544057e-01 9.707072990852526340e-02 3.490573998185868554e-01 1.044422968239116893e-02 -1.022660723188355131e-01 -5.188504825346460514e-01 4.336130069939850284e-01 1.387389369042607012e-01 1.707324978594071396e-01 -1.230918200959398023e-01 6.123785385327371600e-01 4.387637164091034436e-01 3.435271238984519693e-01 6.609179521737901242e-01 2.346119808546907881e-02 -6.587088286589878328e-01 2.578565247100401692e-01 -2.083433780997200335e-01 8.019662802633114040e-01 9.886430563010154549e-01 -3.501313499035700882e-01 -4.535935635466566418e-01 -5.033288413452354781e-01 -2.683947290378861927e-01 -3.494213394558258190e-01 -3.646421456481964141e-01 3.966273158749553662e-01 -2.216938687411601772e-01 2.157643886575480174e-01 2.888121058601155755e-01 -2.688501684022786553e-01 -1.183711429806199922e+00 -3.661878308357147116e-01 -4.103244294841829620e-01 9.163950983948849771e-01 6.636922046816350063e-02 -1.268527066378867529e-01 5.260038016090923252e-01 3.911856007976047822e-01 -3.337966734543383884e-01 3.189945923539781458e-01 -2.081213680809393118e-01 -1.313333732296451950e-01 -2.186371777436935393e-01 -1.308082682439431349e-02 -3.604527765752242319e-01 -6.504507506814464213e-01 -3.306527789341150159e-02 3.392172669851098443e-02 -3.546374714230597358e-01 -3.027866663825359295e-01 2.660481592231541681e-01 -3.160313033791594672e-01 4.426439274734553786e-01 -5.423651221130476596e-01 -4.473092936243565632e-01 3.777655994693631114e-01 -8.982892886091256024e-01 2.919187774097599108e-01 1.224741936880257676e+00 -7.725647278042168109e-01 1.228004495268131963e-02 7.070173838664038646e-02 1.261579896862792260e-01 4.008683073109786665e-01 -6.116886355306191403e-01 -8.332508032924842434e-01 -3.473253344112826602e-01 -2.120443546512105204e-01 -4.639427464604901075e-01 1.024146583027989221e+00 8.786228233108058991e-03 2.541050045772297317e-01 3.989611114330215424e-01 -1.921418058817504770e-01 -4.078405308915984406e-01 -7.543222716914925463e-02 -1.207343540650632728e-02 3.128629753858099827e-01 4.611585025641912194e-02 5.550622864116722122e-01 -2.212462495050652733e-01 3.147293149058787987e-01 5.865859767164972177e-02 -1.617893118026247670e-06 3.210157065984397540e-01 1.657689385261401915e-01 3.098819132572839252e-01 -6.700166919514074504e-01 4.749797457009544699e-01 7.504644499440157324e-01 -7.335117634376849827e-01 -4.346206283372158752e-01 5.495941360088080208e-01 -4.099751487203051603e-01 4.298454771867410984e-01 -2.469502222740404263e-01 -1.849724230762753718e-01 1.390469967041643717e-02 -1.297660614437717019e-01 -1.233688044578279963e-01 -3.713529050904397222e-01 1.429778663746654466e-01 -4.107636886589632330e-01 -8.378030166605415774e-01 1.003007064052814229e-01 -7.843790966363648476e-01 -4.793827498544899618e-02 -6.493918649109682306e-01 8.147782300180944626e-02 -3.825109530571610406e-02 -5.180785232551907704e-01 -1.480661938566380786e-01 -4.667696012873692735e-01 -5.446521495426842607e-01 -7.783041254364669870e-02 -3.873002190848229831e-01 8.010826055672504165e-01 -7.746709865765729619e-01 -6.325667254717913801e-01 -2.481186729634466959e-01 2.952039356603395337e-01 2.236969826745549561e-01 -5.392795012664921561e-01 -1.038419345323645659e-01 5.129618293061880552e-01 -2.435968389735533590e-01 3.174457427742347071e-02 -2.987709979581015252e-01 -1.711029542485347665e+00 -8.512808681798312849e-01 -5.313035501366140112e-01 -2.724308458991090975e-01 5.232484340763956521e-01 -6.536260185352499308e-01 5.953217530102239419e-01 7.212799379698590085e-01 -2.203086552170848422e-01 9.462729290238429403e-02 -1.628904389797352636e-01
5.539370172769317868e-01 -3.358258861648692473e-01 4.523518040428182729e-01 1.385535393579359342e-01 -2.257415000851027143e-01 7.847660179757819376e-01 2.452149613540641204e-01 3.259502315148594676e-01 2.857856108673674234e-01 -4.011671955151915325e-01 9.967164152000561606e-01 5.543092964630705888e-01 -1.085427921315303079e+00 7.721532195046049152e-01 5.051543532973846728e-01 -3.182084616763964369e-01 -1.751311176886672649e-01 -4.875464532478523960e-01 -7.673662103054189679e-03 1.312199530404891956e-01 -3.891794583744835334e-01 1.215356256944337909e+00 5.007403065890478899e-01 1.139008037660932532e-01 6.186651041279664920e-01 -3.687147153437850267e-01 -1.946077114586422518e-01 -3.430367418822812264e-01 4.392968975453869773e-01 -2.388040090262800508e+00 4.850300337842841092e-01 -4.788839961125489209e-02 -2.993502846568580344e-01 -9.225019875381416934e-02 1.311610469119271483e-01 -3.524738521929671187e-01 -2.585564201639937165e-01 1.675652797015667883e-01 -1.833723042487021559e-01 -2.562670936831403790e-01 9.686974589933067259e-02 -3.733960390213716951e-01 -1.252689240007981708e-01 1.953080550800630755e-01 -4.094609273003646521e-01 3.074124315100942306e-01 1.557371103603334972e-01 -4.016516197463871896e-01 -7.218746336633928840e-01 -2.866906208860489635e-01 -7.847035846512095958e-02 4.360577125976565771e-01 1.413674660242583980e-01 4.508754164676649356e-01 1.709718246508440398e-01 -4.683218783105007055e-01 -4.890579054289724281e-01 -5.432012241356268811e-01 -2.943064670427615326e-01 3.256008520315687438e-01 3.668659565578059611e-01 4.208039814758095520e-01 3.606705944429625665e-01 -2.437546931849175758e-01 -7.028454274034372506e-01 -1.042673375803799540e-01 8.183717262453206465e-02 1.848815937963202705e-01 1.379648600705590811e-01 -2.638611264675434498e-01 -2.671835015394942725e-01 -2.324734099240192697e-01 -4.183335213058812507e-01 -3.461122124519130372e-01 -6.624580894254037400e-01 3.543417356682816433e-01 1.970140290818739037e-01 1.429931241571047729e-01 -3.309772063268329179e-01 -6.300886546589682391e-01 -1.919540441777834727e-01 -4.578301201759968353e-01 3.651616886745329693e-01 -3.574014485090540316e-01 -4.302366832289356013e-01 -4.707600519156640018e-01 1.539605065136083972e+00 -3.067414688676218248e-01 4.235959585673609862e-01 -2.589823141629118419e-01 -1.237349892136651308e-01 2.421493943909985014e-01 3.890053999781142302e-01 4.442390023581023195e-01 -3.729042069588459074e-01 1.959417821486636110e-02 4.216109275417389002e-01 -6.921179223283850934e-01 5.289567031814812470e-01 2.412986079796100060e-03 -1.129702845060148314e-01 -2.257064992545684823e-01 4.536573363429241001e-01 -3.669539321550117084e-01 -1.679438549012032562e-03 1.153741043570520597e-02 3.660868521321214986e-01 -5.296024075138747733e-01 -2.239220093947206502e-01 4.117162617024888033e-02 -3.144580784179989430e-01 3.881866016554606086e-02 -2.069832678620336375e-01 8.337108155664428588e-02 -2.472194838372211156e-01 -2.443120185804290023e-01 9.550403934478381152e-02 -4.404851537516208393e-01 3.201413918526692104e-01 -5.353454877407163304e-01 3.077018309851923816e-01 2.003918996237079031e-01 -7.034729181981488333e-01 -3.009172680728536831e-01 -1.285153599704900618e+00 -1.153871300582408194e-01 2.059558504239103749e-01 1.522839600234688895e-01 6.172011753785924260e-01 -2.398094373819700253e-01 4.235887364014253587e-01 -6.711037306153303517e-01 3.550922573865334941e-01 -3.516614732561332279e-01 -1.568587866249987195e-01 2.006326508667329644e+00 9.012906197056579360e-01 -4.863093755153779507e-01 -3.482108445219319059e-01 -5.538175975071412127e-01 1.004666200519357955e-01 3.648128145232411579e-01 6.981037063766899579e-03 -1.035855390735186121e-01 3.431142218068629068e-01 -4.184089729242737588e-01 -1.240351560835984968e-01 -8.756624246457667127e-02 1.035766189788012437e-01 -1.442898237978735287e-01 -7.471427882178466318e-01 1.248414922165087398e-01 1.327687345259629670e-01 -2.100837208961811309e-01 -3.707069124841393393e-01 9.332043463476629164e-01 -4.748892233888010184e-01 -1.248912741505661117e-01 6.301951288274224017e-03 4.489599775912616608e-01 -1.127920581845124559e+00 -4.324966606826952803e-03 4.989209921104719725e-01 -2.933863808895689068e-02 3.260219779962645476e-02 3.310360393421365455e-01 -4.643789892800154750e-01 4.793033013382425045e-01 -4.795077975690562599e-01 3.793172623454215131e-01 -5.526830927845404196e-01 1.805067966037450511e-01 1.248650181134898368e-01 8.691636939190113820e-01 3.874037670290159108e-01 5.134535807409288388e-01 1.442197809568923850e+00 8.172012132450593436e-01 1.012713118484227653e-01 2.990791863368515852e-02 -3.035096284363170138e-01 -1.606717513844916900e-01 4.474742525295924422e-01 3.204422546335375932e-01 -2.383928955868767630e-01 2.174198381192192497e-01 -2.515698418049915897e-01 -1.441836277713693937e-01 6.637120053608523695e-02 -4.628411197843815827e-01 -1.456443110787968842e-01 -2.102378668500232972e-01 1.176208516126333148e+00 3.397032919689760289e-01 -1.453346789136499007e-01 4.786984858383707131e-01 -5.722020899357892487e-01 1.438953795685323500e-01 5.600316215972016565e-01 1.891301969588238541e-01 3.614331713029694804e-01 -7.781935636011066970e-03 1.014555523261249509e-01 -1.636176248256804022e-01 -7.064260849117300900e-01 -3.645567185701981683e-01 1.553869059750619286e+00 5.275012334416756543e-01 -3.821238611413883546e-01 -7.994090782513030291e-01 -4.726448402751590727e-01 1.061471929310473655e-01 -3.343454986014752217e-01 2.900693209810045192e-01 1.137969205798908257e-02 -3.811468965665922720e-02 -5.184930503195656071e-01 3.238605792232766012e-01 1.977004258689275262e-01 1.988899362438668050e-01 5.922623822006584104e-01 5.628438419793579950e-01 4.116683791670965875e-01 2.371346436617812192e-01 7.097430650538775199e-01 -4.168863396106590180e-01 3.462836200791374330e-01 -5.285654849451445481e-01 2.545591179396778370e-01 -3.604952847179431208e-01 1.553863268881642001e-01 -4.215026576489236398e-01 -4.105768093921335349e-01 1.361329179725303262e-01 -1.047714257630746604e-01 1.204982200596082520e-01 -8.656857680910643449e-01 9.607404413781514552e-02 -5.772787168814363934e-01 4.342029483638136789e-01 -1.149593365152788010e-02 -2.907636503563849062e-01 5.073427395174812116e-01 5.717092800745033898e-01 -1.875365776981760546e-01 -1.353869685278352941e+00 5.994459735548166579e-01 -2.198679376257769991e-01 -4.829028231343533983e-01 -3.277311827696273161e-01 3.350285659635565128e-01 7.102228015481073520e-01 -3.018154647748395591e-01 2.800382082437893327e-01 -1.673736509136190820e-01 3.734918989545417123e-01
1.296060106138775536e-01 -1.997661358876253457e-01 2.842313238640245543e-01 -4.446510617425929457e-01 5.984089434218686776e-01 -6.942053148925412254e-01 -8.413051748926690665e-02 3.655126938701053207e-02 -2.005436347120384821e-01 -9.910433937598657483e-02 3.508960288287207852e-01 -1.220902897596085473e-01 -2.764673596200596606e+00 6.926793312340631670e-02 -1.126895764065798111e-01 1.703445910013770825e-01 -4.742275487840558190e-01 4.467956413677328098e-01 4.349780543345311279e-01 -5.937271009844264508e-02 1.005544506483696116e-01 1.806945757373215278e+00 -4.925760650225489701e-01 8.977715689759744322e-01 -6.014244090454811120e-01 -5.819342635119775231e-01 5.058279739693556376e-01 2.322915168487785786e-01 2.939474136564173556e-01 -1.210997008482496362e+00 -5.286021528654554213e-01 -7.894331091009978429e-01 2.404831944674120092e-01 3.366879755593581436e-01 1.851947066217819460e-01 -9.600837583964898225e-02 8.027216836980327619e-01 2.869215681863481748e-01 2.300959200594610843e-01 -3.079584248700524829e-01 1.416633344473156308e-01 2.500062708259341848e-01 1.458293921986275332e-01 5.313589156156550003e-02 4.765106937382563301e-01 1.026676348176432801e-01 -4.634743910969876812e-01 -4.516621322024063079e-01 4.253026229873548836e-01 -8.609900636960490239e-01 2.570172911600749344e-01 3.077672281824064271e-01 -4.198625801102070509e-01 -5.949483534932209494e-01 -2.049423446422618256e-01 -3.361833974453878882e-01 6.364424525519039033e-01 -2.813215999235560427e-01 -4.162310362487223192e-01 -4.369871277457073599e-01 4.374500097822670575e-01 2.008214779203850997e-01 4.274487935088506774e-01 -3.213478370339646339e-01 -4.216772263682981858e-01 5.501105277794018367e-01 4.537280808238937091e-01 6.628495982294084488e-02 -2.106322700098585410e-01 -3.550609076271381559e-01 2.356079053419075364e-01 3.998706844586654707e-01 -3.502768892627610708e-01 2.397922863180523001e-01 -5.150777462668606477e-01 -4.921300173327912142e-01 -6.963252258239292780e-02 3.639063071707024921e-01 -2.416991496811404794e-01 -7.177026012067924121e-01 -2.381128876162116326e-01 -4.507748450088945938e-03 -1.444301777239711919e-02 -2.102657160574278039e-01 -6.802383022234387289e-01 5.611205754772735643e-01 5.630829113151456511e-01 1.280992067124008156e-02 -4.467888802618877331e-01 3.160907452066649692e-01 3.200034716811694935e-01 -3.976987833833478536e-01 3.290532263101500488e-02 -4.375442578640431623e-01 -4.673697548320744910e-01 5.525401836415432255e-01 -3.356087407581437310e-01 -6.584378426242490923e-01 -6.037548870586720851e-01 6.641278668445019795e-01 -2.109553597420550930e-01 3.370443421092089165e-01 -6.934279776244702820e-01 -2.215278136815800603e-01 3.343392242291566840e-01 -9.828909421688329928e-01 3.567199981293406874e-01 2.502674755926333552e-02 8.141214395777786328e-02 -1.224032667293801641e-01 1.471628074953180432e-01 -1.660752731641416957e-01 -1.615821436568761482e-01 -4.275757706640169742e-01 -5.040498241889724840e-01 -1.414608964948279590e-01 -1.338588873337393237e-01 -5.677113929832026951e-02 -3.692784198480528746e-01 -2.515283704360652961e-01 -1.679952052606720203e-01 -2.660654357569217088e-01 -8.338907459831053082e-01 7.181369889638496151e-02 -5.549964384556873576e-01 3.772795464706146240e-01 2.312125691361005889e-02 1.804351791034842778e-01 4.968210502448589527e-01 1.350245209483705855e+00 4.085126049224445111e-01 2.310168682986478081e-02 -2.377261109656886862e-01 1.145187253364539359e-01 3.197484457445278760e-01 -2.294779435810311852e-01 1.144830572033456867e-01 -1.740213016328032436e-01 -1.678298475298326264e-01 3.793308049809598348e-01 1.681204651083411938e-01 -2.824478702344895842e-01 2.238975803963100253e-01 3.494097192352343395e-01 5.154024757434442217e-01 3.187573543518063546e-01 4.025427208774596810e-01 2.656997138482719220e-02 2.752764137704090744e-02 2.280398000585301677e-01 8.549796498748557516e-01 4.791391649405444819e-01 -6.064189393656600063e-02 4.640245390740123377e-02 -4.235316931978557187e-01 4.355174173174106711e-01 3.169319455133905866e-02 1.109174767641797621e-01 7.507624032802935332e-01 -4.175961028331302560e-01 -1.802811316889758597e-01 -8.272273574682940112e-01 7.064486151575534167e-01 -7.204129513639230542e-02 -2.656785044187817135e-01 -2.744159514531424593e-01 -3.652957450612268619e-01 -7.826676040822320157e-01 -3.005087692651344233e-01 1.686091407715600496e-02 1.975339318306781111e+00 -1.123158552778701219e-01 4.323267648090511339e-01 6.403334324967401292e-01 4.365031224541762733e-01 7.664240674070995629e-01 1.378765862951372156e-01 -4.339855729404127338e-01 4.892255410206921562e-01 -3.226286124214028939e-01 -1.609108572043178031e-01 2.824934433304503514e-02 6.716616995617416541e-02 -2.191762881370025728e-01 3.464014429670261852e-01 4.205089026382106132e-01 4.892645733424015320e-01 6.398507643789667076e-01 1.111808018718500601e-02 -4.860472983826862742e-02 -4.329828070461932965e-02 5.797946098093226253e-01 1.135082929566088999e-01 -3.274571568128509247e-02 6.486017639786224587e-01 7.338474238543679640e-02 -1.841503980529136594e-02 -1.584568816801659730e-01 -3.518254745257136662e-01 3.705809954299165154e-01 -1.385454483148546301e-01 7.064461403216405755e-02 -3.827028922527028199e-01 -1.146120659733374653e-01 -6.432142151440000122e-01 7.792080364101625078e-02 1.222254638758495826e+00 5.490378800269976600e-02 -4.112493731356726134e-01 2.456831793996548385e-01 2.743897668777438570e-01 -1.509130909017350752e-01 7.074259436314060956e-01 2.822532533417015377e-01 3.660066163070614942e-01 -3.439005062866372087e-01 1.439394254883731017e-01 3.489732939313328619e-01 2.020546426400845752e-01 1.235460291522779558e-01 1.595421166845882033e-01 6.947780864223491726e-01 -6.627368516170522028e-01 3.007207120308885706e-02 7.201937420440928106e-01 3.263833381906599551e-01 4.494435274267176705e-01 -3.588968839402824629e-01 1.130266806495092258e+00 -3.937325230710097927e-03 -2.458192119622152616e-01 -9.640617007255945781e-02 3.447603581393755834e-02 5.233454002378102876e-01 9.637557021378771738e-03 -2.780921467153471549e-01 4.146330035166996830e-01 4.995385369835837475e-01 2.202667426850629662e-01 1.621678313454427145e-01 2.566442479198890458e-01 -3.455983697127812393e-01 1.276089162322870951e-01 -4.647762409442265930e-01 5.793228351385486530e-01 -1.305886617563179142e+00 -1.799406162345928983e-01 -6.840589618097661084e-01 6.626284897533342155e-01 -4.069015640275174817e-01 -5.572403828914381657e-02 1.315802805396603520e-02 -9.801966343655505592e-03 1.505075715836487193e-01 -1.620427956247211254e-01 2.626252108728573398e-01
3.259222823180135675e-01 4.326533751289491914e-01 1.160278317262557722e-02 -2.039201025285815316e-01 -1.968315920335749272e-02 -1.904822509171360048e-02 2.115603644505196501e-01 1.185742173288621970e-01 -2.661797184252467918e-01 2.263186660100696967e-01 -7.568340680968201895e-01 -1.763912359370247429e-01 -2.251719839184734173e+00 1.304407363238498929e+00 1.279929030002408263e-01 9.603361024309103877e-02 2.078511840280135026e-01 -2.237734110269282983e-01 -9.267555215905455557e-02 4.881376548068280807e-01 1.678957179304508829e-01 1.272436575545378368e+00 -3.917457396030646355e-01 1.304083435363476498e-02 -5.378892099166763252e-01 -5.388088018014626224e-01 -5.246047446437894779e-01 2.308771543300941129e-02 -6.219020381635614880e-01 -1.104220330861567900e+00 1.547959306108736277e-01 5.717217583705923589e-01 5.356212428352318256e-01 -5.356319808529297344e-01 6.456999185026979227e-01 -6.852695878950967878e-02 6.230873444758948665e-01 1.999502485034483357e-01 4.512712086150559299e-01 -4.300273381457647703e-01 3.354882278221983927e-01 -1.536136305392086232e-01 1.932823916536228204e-01 -2.391558860395543717e-01 2.444240229077202786e-01 -8.923283546772764474e-01 1.600411649253336288e-01 -3.014031716809474348e-01 4.992366305256180081e-01 -5.376350052780090039e-01 5.329815300928981703e-01 -1.748232789347293759e-01 4.541271783831273834e-01 -4.966554678100614240e-01 4.156553283441510316e-01 -4.711978280725612755e-01 -3.131209993266618752e-01 6.821963833869160165e-01 4.876496527238257661e-01 1.654277645927539897e-01 4.318152726411338960e-01 -4.661505652340689095e-03 3.544538000483800078e-01 6.829652358566016268e-01 -1.889532974161399981e+00 -1.226451769328126495e+00 -4.191199304454384933e-01 4.729040213688397443e-01 1.239543038779207018e+00 -2.089027999710410810e-01 -7.028915578081235127e-01 2.331096565612909011e-01 -1.461140148648650272e-01 -2.172306168697887285e-01 2.354849132277591628e-01 -4.599278423538525895e-01 3.807237376280400709e-01 3.984912018075409956e-01 -3.370361916594354357e-01 6.487824868353780916e-02 3.669128482742601838e-01 2.943003647293758185e-01 4.105050702140623786e-02 -5.304263230778670790e-01 -5.180703518303593214e-01 -1.721691093166473063e-01 6.538970437679887393e-01 9.584252024137925874e-01 -4.010062882995540923e-01 -5.618415181630930233e-01 -4.008806814910001459e-01 4.436420598616020589e-02 -1.506056882040057165e-01 1.431152377262646935e-01 1.554540470231893512e-01 -8.145731670979887706e-01 7.559995241848618819e-02 -9.277909695722534600e-02 -3.654487962092951014e-01 5.405340677931501636e-01 -1.420126206182337758e-01 3.812426373398605794e-01 4.679518340728747727e-01 -2.333390163138379381e-01 -1.532129091703266222e-01 -5.105242272774261902e-01 6.731113976489819795e-01 1.119390341357315410e+00 -2.367499902645827381e-01 3.173240696460531973e-01 -3.593795350251477450e-03 -2.808920840394932839e-01 1.588498332688577375e-01 2.547142789525504991e-01 -1.537342367522731741e-02 -1.936591866090451308e-01 5.314681282222258885e-01 -4.704230045394937054e-01 -1.321595062330585373e-02 -7.421380214904021999e-02 3.432732090612066744e-01 -4.662849463742438361e-01 6.291686351581843306e-01 5.448114086453549609e-02 -9.196688613224754949e-01 -6.180949762845522333e-01 -4.748936436630608604e-01 -2.791820400541718539e-01 2.424382244775604434e-01 7.570634372942826040e-01 -1.505963205762572699e-01 -2.060083973565013105e-01 -3.343604695025780282e-01 3.510850693180416759e-01 -2.159844690681800849e-01 1.730867531268770812e-02 -7.777440323845591363e-01 -4.719671520044541602e-01 1.323965656787561562e-01 -6.920382664821707053e-01 -2.429257343616827436e-01 -3.679165862825413691e-01 -6.464033933041892777e-01 -8.296120973412192401e-02 -2.886500137634353536e-01 3.713441118663269314e-01 -1.950013459260554194e-01 8.431021027543635082e-02 -4.951257088856236277e-01 2.695188874167657178e-01 -3.581303873722317399e-01 2.861583156589162652e-02 2.909111842546527327e-01 4.594621713666041107e-01 4.429155910910747007e-01 -5.430827598786323041e-01 2.571053259171533489e-01 3.733390294927187436e-01 -1.274728841475981644e+00 -4.171600392593327600e-01 3.072057914909357978e-01 8.270274370853236690e-01 -3.890435912151595788e-01 -2.170747793804273240e-01 -9.860964872293264127e-01 2.899433026162619859e-02 -3.854207350710703306e-01 1.160778750571551249e-01 4.268875994554442999e-01 -1.844448069871762463e-02 -2.987443082767622937e-01 4.051417670786477410e-01 -1.668132403751569903e-01 2.365432290214015687e-01 6.074139327336122163e-01 -8.618717174613425014e-01 3.309444316369556938e-01 9.394323455873106188e-03 -2.657189237242980062e-01 3.870832721853966624e-02 -4.396638052283369791e-01 1.986234380665768962e-01 -3.824305344340027113e-01 -3.031978318687633123e-01 -3.976689036315172489e-03 2.326710993666092908e-01 3.902394958029795635e-01 -7.753487293142283798e-01 -1.785965360485708142e-01 4.472343757184150115e-01 -1.225936921349303627e-01 -5.013786406789516592e-01 -8.088864882784363441e-01 -3.823928419111788379e-01 -5.066885649035135497e-01 1.155326565982501934e-02 -2.960472755442556392e-01 -1.100427324594180772e-01 -2.744035242258455742e-01 -6.160617119560095611e-01 -3.878969847260878567e-01 2.470546396236968922e-01 1.000644379706743838e-02 -4.840434809884593403e-01 -7.321182391737035555e-01 1.252512907127222019e-01 1.282401353453401116e+00 -7.661427725106456643e-02 -6.555726602518893165e-01 8.965019616864065011e-01 -4.571102420237639352e-01 3.207607974485037761e-01 -2.699353186366275081e-01 -1.453163932234525502e-01 -7.211535781369575460e-02 2.955404520682072822e-01 -1.501992890720342255e-01 3.610962863764609065e-01 4.422689010227618400e-01 4.195733449691112504e-01 2.098724058370997902e-01 -4.208720582951419598e-01 -6.096167630955579009e-01 -4.654437731747730900e-01 -6.465195930372452660e-01 -1.160089549226279854e-01 5.729172958923882397e-02 -3.820978984107446103e-02 -7.851832591822646146e-01 3.893270660047644105e-01 -4.803511619736669860e-03 -2.900663974442943549e-01 -2.544744794605426907e-01 6.218095493199804480e-01 2.718614973573647564e-01 -1.956132620938818290e-01 4.296600567475974408e-01 -9.698860688965710297e-02 -2.992970645057360657e-01 1.745985430980049602e-01 2.978486326230267989e-01 -1.906050033010439071e-01 2.058889970198781727e-01 -6.246177837204679451e-01 4.674973563170487650e-02 -1.510436203292065516e+00 4.972862488925817170e-01 4.055329194600227893e-01 3.613022359972607456e-01 -5.239571201827268876e-01 -6.879780345300264000e-02 -1.020398752360655914e+00 8.262591972323619638e-01 -4.849491206808975718e-01 -4.906799444113408848e-01 8.719601816533978367e-02
-1.349934453042298976e+00 -4.149287767378017633e-01 1.101141572191237927e-01 -2.749991348035071836e-02 -5.514880282124823285e-01 1.239534846560460313e+00 -8.565632149879079393e-02 -6.509288157509607320e-02 2.911958290102659164e-01 -2.272233874622507921e-01 2.560149710198477702e-01 -6.736227962017378168e-01 1.710073660720077826e-01 -9.839675166939672035e-01 -2.975713670481893725e-01 4.203473550999305419e-01 -4.326835527377906332e-01 -1.248948375973767816e-01 -1.291080953972226775e-01 -3.301441768268409960e-01 -7.103978962773829786e-02 -4.360700023142118353e-01 2.414467898792122535e-01 -5.840389948808132337e-01 3.144685755604965660e-01 -1.979231399170961608e-02 6.426596696513183771e-01 2.862171639622810848e-01 5.571319362900399863e-01 -6.543047426944473832e-01 1.570924400977133650e-01 6.079218299887606536e-02 1.248259462224649285e-01 -3.521383341477417050e-01 9.304510754151412710e-02 3.407727693026907922e-01 1.017536540811710272e-01 -2.370071378375446514e-01 -4.292935300144261612e-01 -2.375929528464869600e-01 5.072976681106217134e-02 -4.357341035473930591e-01 2.763373917122152190e-01 2.012605726223181679e-01 5.226039604879260947e-02 -2.084267401037762646e-01 -1.251957595946341373e-01 3.462919413050428302e-02 1.578984958805524641e-01 -9.461670906894409372e-02 1.064967405354871471e-01 4.232907470943740313e-01 -1.215557082032634600e-01 -2.800133404556111039e-01 1.264921826023873430e-01 -2.060279264784212749e-01 4.010701392888995076e-01 -3.989192105581318426e-01 -5.985437066765104674e-01 4.141060533972561464e-01 -4.095034443936879098e-01 -3.592983423553863243e-01 -3.862381838061734740e-01 -1.015569426043369194e+00 4.903485047379974038e-01 4.729394204759305165e-01 3.996504230492931575e-01 1.451936477133430881e-01 -1.180681971058132662e+00 -2.733811950511395583e-01 -4.033955033843914517e-01 3.203631752386333353e-01 1.578910423158690901e-01 3.980735444764719189e-01 -2.161535289658446379e-01 -5.367087584678147394e-01 2.880135075154334756e-01 4.280166723428900921e-01 -4.533850805208028412e-02 4.000509780078432831e-01 -1.673825565684497474e-01 -3.535267279216202096e-01 4.010988249196789646e-01 -9.494985601859856628e-02 1.681089204894287426e-01 1.060007100174350236e-01 6.815937866774858245e-01 -1.588641363270628382e-01 -3.920261439236311096e-01 4.157074986796667759e-01 -7.304849319753862202e-01 1.906139323642587480e-01 -1.174422519173746737e-01 -5.185217713088934310e-01 4.094655230800062912e-02 9.020894925395617214e-02 -6.642358562981961478e-01 -6.403310005847439035e-01 3.384925913464497116e-01 3.985011165012408707e-01 -3.271973144832717728e-01 6.409293777798859282e-02 5.775812891008635930e-01 2.716113292773583154e-01 9.882493459128205426e-02 4.489210378556625081e-01 3.429600032550113031e-01 2.501903110432415200e-01 -2.398167242810448629e-01 -1.898308419549482873e-01 -3.741493286406275542e-01 2.521356976725149246e-01 -9.193396662770361716e-02 3.261336350694615804e-01 1.208295498030230175e-01 -3.061948478505142623e-01 7.291338704602602361e-01 1.504559649859716491e-02 2.236787949738012482e-01 -7.940428009255287578e-02 -1.974851385498883893e-02 -2.279461236749131259e-01 2.102988317274542135e-02 3.099718246954998868e-01 -8.474806272037527233e-01 3.820309277416512050e-01 6.020495605431160913e-01 4.500815195033278648e-01 9.662263835541516632e-02 5.010503666148868884e-01 -1.642430047253056469e-01 5.899005176632831082e-01 3.411419970183850459e-01 -2.709724094830932017e-01 -5.271610237956708689e-01 -1.128673907739776716e+00 -1.801649075369266828e-01 1.461804678704298477e-01 1.181862901986667547e+00 -3.597651231562413177e-01 1.113257930005477764e-01 -2.347771157010515308e-01 -2.690657201789647401e-01 1.249735292940050077e-02 -9.088428415650570691e-02 -3.251217338135719004e-01 4.868847473843185281e-01 -9.934409311648509933e-01 3.346671591079433128e-01 6.303580203086579792e-02 3.601062866288100017e-01 4.381609924285536500e-02 -4.702989393045422517e-01 4.276244958155765441e-01 -4.996796683633122349e-01 3.105054815596594575e-01 -1.135785314875806945e-01 4.513733999765278115e-01 3.723517981412922118e-01 -6.009040204340753144e-01 -2.659620594631001977e-01 3.140281077389679987e-01 -5.459877178059627939e-02 -7.369845818106968149e-01 -1.758884712576018194e-01 3.721473612355364474e-02 7.811611490018809112e-02 -6.555858053190619650e-01 -2.498911768080668561e-01 2.170908510940184333e-01 -5.317676073720669638e-01 2.014878455677309721e-01 -5.012160867544315224e-01 -1.067797031575265926e-01 -5.048827797487565050e-01 -7.463843944934028807e-02 -2.197989213538709408e-01 3.555384089154760979e-02 9.142736553038602332e-02 2.440692277581595418e-02 -1.240958011205145206e-01 -4.596897676369618435e-01 -6.626986750653037772e-01 5.700799904870997026e-02 2.000577148891885537e-01 -1.360452451783910055e-01 5.678658552769312584e-02 4.089901618067474653e-01 3.107625823350340100e-01 -2.800798204314458029e-01 2.651344774198917675e-01 1.857208090815249124e-01 2.642316134732466959e-01 7.619162765892107947e-01 -1.748326584801491723e-01 8.707978357597288832e-02 1.226947513877140739e-01 5.823544652215816714e-02 5.886190803032335106e-01 3.637755521736154608e-03 3.843612355731832464e-01 -4.694519277518794942e-01 3.488235520979410809e-01 1.666198264629407677e-01 1.004692365985577346e-02 -2.695456720775935011e-01 -6.255172425513128021e-01 -1.353104682330499575e-01 -5.540203814972790575e-01 2.585583903428532726e-01 2.593926605381393080e-01 5.978739954157496345e-02 -1.173613963172917662e+00 -4.673425330063282201e-01 2.163563584931833816e-01 3.651026876398378862e-01 4.139611575535963039e-01 -1.823672116223813144e-01 -2.090538597604175708e-01 3.810293499702166464e-01 -2.806243430858037513e-01 -2.694924365233821936e-02 1.349472471194754220e-01 3.985517684767102553e-01 7.078123439919787874e-01 1.276419738531419656e-01 -8.842426673283478034e-02 4.325492391999039565e-01 7.333244977093412720e-01 2.754568186167205002e-01 -2.168326168495469941e-01 -1.033860336977781846e-01 2.763676401635020707e-01 1.954958922078252337e-01 3.549349546271013400e-02 -4.908824074453496666e-01 -5.485387775552981182e-01 -6.032767805340542161e-02 -1.781874805746049839e-01 -1.334769689075087917e-01 -4.792289426972284883e-01 1.601504111096059835e-01 2.705181655378193772e-01 5.492805095319422959e-01 -6.715971352010325912e-01 -6.427694276134794382e-01 6.291364619797527036e-01 4.118859076022401422e-01 3.931715140725083324e-01 -2.734655629885127115e-01 2.291693001805745200e-01 -6.976160816150176469e-01 4.619374494963097710e-01 -4.568481400957635219e-01 4.971462074303349410e-01 -1.682658061030357921e-01
-7.261013014602993865e-01 -3.922609175130784553e-01 2.270963837456075052e-01 -7.576286460730594086e-02 2.543036034481375163e-01 -3.867989999498152587e-01 2.096101708407714093e-01 -4.125868284844635414e-01 1.709782444631547105e-01 -3.662045462921035277e-01 8.069135499395813094e-01 1.627898579616197106e-01 -1.180878089081002086e-01 -3.588947433046329460e-01 -4.030820587878057859e-01 4.032655528471754680e-01 4.160894778780448999e-01 -7.663343525350037044e-01 2.790797467256043718e-01 -7.640968153266255447e-01 -4.628741995512771767e-01 8.379464089160922891e-01 4.044182933795393287e-01 -2.016071509514239524e-01 -1.049982174844436844e-01 -1.472824912870069058e-01 -7.771139248593550430e-01 3.478791392011415518e-01 -4.384498138499030584e-01 9.187812038208625909e-01 6.882622222692909020e-01 5.101063235244250871e-01 -7.733747651018687760e-03 -1.675042468479187863e-01 -7.241522731649983058e-01 7.157560493558892678e-02 7.747347425053331404e-01 9.346755872100806495e-02 -5.526081060574411508e-01 -9.303384442283466060e-02 2.012387021760393691e-01 -8.734810340449576660e-02 4.902774714897866759e-01 -5.510234706588567066e-01 -1.311295282983284023e-02 4.034779729393714320e-01 2.067943475628763461e-01 -1.221200394079800661e-01 -5.540589359315987172e-01 -1.456387886740044546e-01 -1.587065127835340372e-01 -9.388993090940025432e-01 2.861017479963438581e-01 -1.786698280642708692e-01 3.212637774837647231e-01 -3.331478075001756411e-01 -2.962260803504159767e-01 3.523573966261923096e-01 3.098472734032061693e-01 -5.983008951702043637e-02 1.200076074487015781e-01 2.473901619159955545e-01 4.872448883649543871e-01 2.961528168249000226e-01 7.475901256636184877e-01 -1.814068263521336488e-01 6.478036206704601563e-02 -3.386674812725333772e-01 -1.345969932828114946e+00 -3.583597714278536350e-01 -1.094466476844640823e+00 1.567748900694629077e-01 -2.542749698659237945e-01 5.862731002442495010e-02 7.811803631567685313e-01 -3.644869871584996424e-01 -1.566598811593453988e-01 1.221430121741658548e+00 -5.730860475566398327e-01 7.090750466379461270e-02 8.013367932437252816e-02 4.452779663473107052e-01 5.937259809337845640e-02 1.012169915331949249e-01 -6.973671505462362141e-01 -2.147673621813473710e-01 2.631209148805793707e-01 -1.333921788752240045e-01 2.818958149101723487e-01 4.389717146553654414e-01 2.466070132989354735e-01 -8.555589011948386280e-02 -2.984428324807739119e-01 -1.322127551034686099e-01 -3.606767468421574474e-01 4.454802717476498697e-01 -7.139211062838959343e-01 4.254373964499626459e-01 -2.064737558481245794e-01 5.562365788623629959e-01 -3.869724866189745427e-01 6.133467757209712934e-01 5.241834577232395986e-01 -4.254018355379352023e-02 3.118176034284803055e-02 -8.840410727257556056e-01 5.918089040001587448e-02 -1.341744388261972565e-01 -2.159472355312588854e-01 -2.040743137062719648e-01 -5.596166448089818779e-01 6.661020781595160256e-02 3.129952758576380889e-01 1.025854496627695012e-01 2.471344490427645202e-01 2.804236359743752516e-01 4.510049297408719737e-01 -3.598836924638636886e-02 -2.502764046461761205e-01 -1.165411872805502957e-01 -2.194578465709344783e-01 -2.240149057737666483e-01 -1.053196297631533884e+00 -8.640355709138536344e-01 5.444189273534901785e-01 -3.177322389234387146e-01 -1.972009903627146565e-01 -3.734094783823376645e-02 6.705881089736265288e-01 -8.458821252283043046e-01 -3.854922812108744767e-01 2.894938287737731653e-01 4.607777198446295075e-01 -4.184469541969426665e-01 -5.679978201751743061e-01 1.249979983313318277e+00 7.011962356292500420e-01 -8.552125814097678858e-02 -1.294369954022823455e-01 3.614008253260547199e-01 -3.827498794157670470e-01 -7.228799473535681974e-01 4.533741124618987928e-01 5.169691378776987145e-01 -5.963983812000647235e-03 3.241639361339291314e-01 4.954965228625889395e-01 2.535972342642095478e-01 2.815551813548867188e-01 5.598355953142170743e-02 6.407236216647634874e-01 -3.790497386635648391e-01 -2.241629422109225611e-01 6.204851981236232383e-01 4.538865219697424958e-01 -7.525170895125674053e-02 -5.698290724298271659e-01 8.758287010654960958e-02 -4.293230372794645811e-01 -4.574091790861622431e-01 -1.051302621008887606e+00 2.872279331481497056e-01 -2.329290107745697613e-01 3.853004450114879981e-03 -2.734644731102945925e-01 2.870269226722751421e-01 6.910647498760012775e-02 -1.226640310376646698e-01 -4.545608464693067785e-01 7.697594181557270154e-01 -8.616559305811796188e-01 3.401003663810148736e-01 7.256379223860005834e-02 -5.584241227584706424e-01 2.134386791362870850e-01 2.781319244953880943e-01 -1.329381934645452512e+00 1.079595928315839198e-01 2.611900833549495871e-01 3.346033434889963964e-01 1.623988428798542327e-01 -5.027886375455549173e-01 5.029737979779165258e-01 -1.494754077978000528e-01 3.560675730551509655e-01 9.922349550509196314e-02 4.910712047450257467e-01 9.790590975574600119e-01 1.473038192112677003e-01 6.010450399940479027e-01 1.753584756916783671e-01 4.811340410414250424e-01 7.663036532414525537e-01 -1.013744199090562265e-01 -1.675257294295317001e-01 1.663433179764990319e-02 8.128581139454850446e-02 -6.591223352291862569e-02 1.410852933979105106e-01 1.378458812762352326e-02 -2.218820786769453435e-01 4.159468345937047951e-01 5.769060704918193005e-01 2.567502287650122450e-01 2.069697036704436777e-01 6.279280055893233792e-01 -2.126938962470144301e-01 -4.390567025300262105e-01 -2.202494633266134372e-01 3.890877393392161987e-01 1.563942000466189142e-01 -5.257804948177259297e-01 5.707704905318900651e-02 -2.167264073548599013e-01 -1.949861099237477913e-02 8.074757084869370327e-02 -1.841140146163185720e-01 4.232927786915499091e-01 -4.221171727901718018e-01 1.736038617551605712e-01 -2.429312069673444374e-01 9.129154292534014115e-02 2.855805178668908151e-01 3.057052113222032408e-01 -5.226044440753456755e-01 -4.170977016914758084e-01 -2.958297568947286793e-01 -2.962256206058157260e-02 -3.760499354412116801e-01 1.378028526910961005e-01 -5.200671108509553608e-01 4.175402837100388731e-01 -4.243644673935846323e-01 -5.343160140897594834e-01 -8.957995664942078884e-01 2.336041246351827083e-01 -6.211430188400981489e-01 9.994815589964031743e-02 1.337694713716059136e-01 5.041221600631414640e-02 1.723100200231138246e-01 1.812586868227128722e-01 3.061174815169272478e-01 2.982987866312459824e-01 -7.333166134866266894e-01 6.131617496836949677e-01 -1.481303411937372916e+00 -3.381581635752159976e-01 -8.291592472624149668e-01 1.361758697451434241e-01 3.501061383905891278e-01 -1.839579287498025462e-01 2.353333355567329144e-01 5.863466004848220947e-02 -9.082025887952147047e-02 -5.178918915146415447e-01
3.433786244681463762e-02 -1.564819138192678205e-01 -6.749603383981977144e-03 -3.566827314613580380e-01 1.653196451685974566e-01 1.201584357853745288e+00 3.645291369798060455e-01 -3.506010654349226985e-01 -2.380056716954813412e-01 -2.839153264161529688e-01 -5.246442802566930741e-01 -1.078643801107507100e-01 1.418862924110053658e-01 1.536788320198996471e+00 3.015086293048007127e-01 -2.878016172967430286e-01 2.979990436925170072e-01 -2.492200533589113420e-01 1.830723644714187803e-01 -2.202564226363560584e-01 2.134951435794363583e-01 -4.155335154498689398e-01 -2.016103485829353337e-01 9.418812651984636020e-01 5.220267793341459156e-02 -2.668174504229688937e-01 1.446671261247781393e-01 4.558166700043803088e-01 -2.186606835638965074e-01 -2.729711705014062351e-02 -4.914402586570885134e-01 -1.127465772898648799e+00 -1.586831560052286150e-01 2.610189613861003122e-01 8.228118762587196544e-01 -3.761585265845607817e-01 -2.123720264434383886e-01 -1.489057307849070977e-01 -2.508112756955668821e-01 3.561051619001492363e-01 -1.357642460564914555e-01 -4.112233533258045082e-01 -7.519650246773736113e-02 -2.002696554837984366e-01 3.648080513703536032e-01 -8.409485611312771391e-01 2.935759520079109786e-01 -2.804410556330503290e-01 4.008144255032393688e-01 -1.783243239664152047e-01 4.030335503116334039e-01 -1.925051062076318376e-01 4.137366471941142376e-01 6.002631640921540779e-01 -2.222757665276380024e-01 -3.787549946670276113e-01 6.175213691042442665e-01 -2.216477393993587508e-01 6.075819756463231025e-01 -3.454536864018326603e-01 3.337093175848846460e-01 -1.120326280344579734e-01 -1.041509565621746673e-02 3.991841809581299083e-01 3.135107327734080185e-01 -3.617962205178733570e-01 5.379910222951179988e-03 5.027808466168679491e-01 -1.181965796109429201e+00 -3.022633829642758577e-02 1.070665222869414679e-01 -3.450612828432148005e-01 -3.308928129703420651e-01 4.947213685068521660e-01 4.080230865588038158e-01 1.156534750210646972e-01 1.355560576872947842e-01 -1.123734625609950077e+00 1.579652862499324739e-01 -3.119470415647515593e-01 5.977071701515997842e-02 8.466241418519031281e-02 -2.006650364999998382e-01 -3.902671115815316560e-01 -5.666857912159923849e-01 -3.988912700603615136e-01 2.738378385685267258e-01 5.734055431203194386e-01 -6.769727608178686962e-02 -1.182217138882615676e-01 8.594215790314219117e-02 -1.374078401139043337e-01 8.742413423734772537e-02 1.310700702416336405e-01 -5.196032767738054670e-01 4.015572222564130489e-01 3.474404170730345798e-01 3.745562651566663459e-01 -6.690144414517960880e-02 1.839545960684674242e-01 -2.042748292906114704e-01 -1.760495111420038450e-01 -5.697175698970595725e-01 1.957051740458654876e-01 2.189727603794795752e-01 -1.798334965057906576e+00 1.061717188939401840e-01 8.376784186424694745e-02 9.031184463578745270e-02 -4.436538904955293627e-02 -3.982490544911821417e-01 -6.231426855905443096e-01 -4.265856823233352690e-01 -2.004230551830954443e-01 9.910630530176803288e-02 -2.864055528645376714e-01 -4.215296080933952916e-02 -2.162621441319497462e-01 -6.365599476514890998e-02 -1.411023742916951429e-01 -2.605487522405010581e-01 4.925470677071010911e-02 -1.656078659897343083e-02 -1.857293457731982456e-01 -1.131909500527040535e+00 5.426044986612278409e-01 4.029546814009853928e-01 2.633359888726287679e-01 -2.688234196884078941e-01 1.942472325560107960e+00 5.631756390743150043e-01 -9.616808568144800118e-01 -1.702863413386789537e-01 -3.074936328506259198e-01 1.322561059991730348e+00 -1.372414664706043119e+00 -8.108042359359450835e-01 5.786214570428286491e-02 5.617492701552271317e-01 -9.706814762448893186e-01 3.516953254923111394e-01 -4.403860119020662767e-01 8.196043143725106894e-02 4.725693988792817324e-01 -1.578867018205781236e-01 4.115140915547262912e-01 5.735007176236308624e-01 8.727267491989735282e-01 -3.470375252540177646e-01 8.425164986461054772e-02 -1.136380385417004479e+00 -1.132263058431770691e-01 -2.491791803163417307e-01 -2.396786983258448744e-01 1.240548112267040592e-01 1.278540709141605392e-01 2.686368268989560715e-01 -4.485074105018701518e-01 1.436381087531899137e-01 7.147064711974352447e-01 4.941764999162334138e-01 -3.988942463864444399e-01 -3.997622724778235326e-01 -2.886127044319864443e-01 7.415739507537073560e-01 -3.389473803755320702e-01 1.698967370104223218e-01 -5.643230064159672210e-01 9.056293834022724476e-02 -2.647768371862282422e-01 1.565338654381116745e+00 -2.131981236580524630e-01 8.502712657577121691e-02 5.965069943776729611e-01 4.256754480693396570e-01 -1.409142496983686765e+00 1.283073912388670856e-01 1.633212468662752770e-01 3.758057825192304691e-01 5.063847089861795991e-01 -3.670261595859388715e-01 -4.050840267057509991e-01 -1.451385983051705353e-01 -2.172542333362438294e-01 -3.763018969886081783e-02 -2.488084006736939191e-01 7.112312950005579559e-02 -1.466666012024455013e+00 -2.211360036081458647e-01 -1.166744878189836798e-01 4.738674806806627560e-01 2.868940386268698656e-02 -6.344942408975136061e-01 5.208783909058132267e-01 -1.078184604519640960e-01 -3.436444552757971782e-01 -3.412854489197702512e-01 -4.775052498956414149e-02 -3.253140772793728930e-01 2.454884558201561873e-01 -3.765706954571231280e-01 -1.223233678494416582e-01 4.619201079647337199e-02 -2.560908539110188231e-01 3.365698974952269773e-01 3.334367485879251025e-01 -1.386072562251075557e-01 1.539546333182993387e-01 -2.779961289952019854e-01 2.964793484892960795e-01 2.654116953647774335e-01 -3.929864721589103604e-01 3.319985945299160912e-01 4.789080132958572489e-01 -3.917641374524730158e-01 3.321440344819953649e-01 2.448209314714226148e-01 3.620301452693203137e-01 -1.053787877305315396e-01 -2.684530988860828193e-01 -7.621378748344790344e-01 4.814538008646637723e-01 -3.498176427821916845e-01 -8.309306849687350671e-03 -6.084438797430732904e-02 5.173783065787742608e-01 1.288805310192309594e+00 -5.095014711446740341e-01 1.639588079441051338e+00 2.632046197219085615e-01 -2.243690166967112209e-01 3.353016695037950301e-01 6.285933999654715054e-02 1.283267401178919964e-01 -1.589068946481375089e-01 -4.877090033175808803e-01 -1.490309591404326006e-01 -3.981576985395098717e-02 3.420668121692359565e-01 -3.868160372456497242e-02 -3.638452814669476676e-01 3.405856054243695530e-01 1.716600423787039698e-01 4.353079602854998398e-01 -1.005168228126522290e-01 3.373702732987671760e-01 6.979803877866681550e-01 -7.904930689047838799e-01 -3.410037463762735643e-02 4.518859166746805323e-01 7.152336522066432556e-02 -5.995632287851970776e-01 8.646792103991254308e-01 8.825439924699202132e-02 2.762494314572629950e-01 -1.707605636967068907e-01
-7.371810431951572040e-01 7.471961622963858851e-02 1.396159864310235199e-01 -4.399913169283335423e-01 2.325470242437129020e-02 1.220785731858986978e+00 8.934560794995856370e-02 4.155306153493493748e-01 8.539296846345058312e-02 -2.850912703889618149e-01 3.611503987215644584e-01 2.704499194994726685e-01 4.890073545999120141e-01 -5.270345414923958138e-01 -3.023866680566059673e-01 -4.460996076293875789e-02 2.561773051352799445e-03 -2.067297424308054965e-01 3.189937948090111330e-01 3.580886293587386415e-01 -3.218218692673924242e-01 -2.019480765561004754e-01 -9.305169747188599128e-02 -3.682597775967198506e-01 3.131131044561485388e-01 -2.058974869294826759e-01 -2.174686469129640809e-01 4.954539525372817499e-01 -4.716732485809730369e-01 -2.295357171499734228e-01 -2.071291344555201142e-01 -9.271897246038747487e-02 -5.580089604595364072e-01 -5.728253502282167064e-02 9.038170635500635264e-01 5.357975000339163518e-01 3.736394967179182958e-01 -1.895634365113311182e-01 1.118056660155714171e-01 -1.705068538496429531e-01 -3.561712950099291813e-02 -4.386975549192050905e-01 4.648960246423193832e-01 -1.988425572755156134e-01 2.336001115238785231e-01 4.500967627799959403e-01 -3.622895013481134963e-01 -8.989872786214871125e-02 2.860828792335699533e-01 2.456544165172865890e-01 3.470230967594830629e-01 -3.891302635204345051e-01 -1.154819691055622294e-01 3.053352788820696273e-01 1.053032060220102616e-02 1.902573636363441845e-01 1.618824414987383997e-01 -3.906142920916116368e-01 1.370633308511808313e-01 4.977264630150566443e-02 3.794626053321767389e-01 1.033682923982104790e-01 -1.976222024538995536e-01 6.497457605742655851e-01 -8.626141836669264373e-01 -7.761263057924220332e-01 -8.407236426327183154e-02 -4.576416999179227021e-03 -1.518146550311898491e+00 -4.096854521817684947e-01 -8.139445483271382509e-01 -1.704718534701605559e-01 1.197208960724279181e-01 1.271097984021793970e-01 5.600501745613508664e-01 -2.502602309084702159e-01 2.027007769278474369e-02 1.059598351607519362e+00 -7.862168318123592681e-02 -1.114938172939494571e-01 6.526589328559724568e-02 -2.050316109074756532e-01 2.420386861924562691e-02 -4.015754951643197845e-01 4.521825080216803627e-01 -1.734362221757686784e-01 -4.053375344247409778e-02 7.796754908398889627e-02 -4.392342536184566382e-01 -2.081469644695012888e-01 1.970128303780143211e-02 -2.454568979876409485e-01 3.188433064386825277e-01 -3.303715084619012199e-01 5.310178173176913763e-01 1.347713844299348596e-01 -1.570692205735227387e-01 7.373825361155565694e-02 4.983665620950083475e-01 1.132237597686676367e-01 -5.508251113954951705e-01 3.542785439132620229e-01 6.125048493476774603e-01 1.243647040011997412e-01 3.198331131473184374e-01 4.715368275528074027e-01 -2.807403128447169549e-01 5.132740427307473929e-01 -4.890420829093825028e-01 4.171924085062362342e-01 6.426411193612737716e-01 -1.918098942481384073e-01 5.347699458711363540e-01 -1.288040903752179500e-01 4.067750424208311788e-01 4.642817018595422618e-01 6.314535333787659743e-01 -4.112238483460936012e-01 -2.471570341509973512e-01 3.505547304550274412e-01 -1.890197180875616972e-02 1.887184275314019999e-01 8.836215366347190958e-01 -3.422364127917369991e-01 -1.209327427189419213e+00 -1.343917246971685076e-01 2.148226043593556012e-01 -4.427914612459142307e-01 1.605080615265412625e-01 8.740635594896708493e-01 2.280320197670099580e-01 1.396523672267853955e-01 1.094108779835537143e-01 2.820951439991838394e-01 -3.798690046625140537e-01 -6.836361886547015487e-01 6.347853163653832675e-01 -1.410081971210129514e-01 3.379392699396005506e-01 -4.686096600594930051e-01 3.993264737812315390e-01 -3.882600938442334337e-01 -9.378607067849235868e-02 1.990018755644261395e-01 -1.242910620031515562e-01 -4.709004298106078124e-01 3.322723438631765558e-01 6.020326402123248322e-01 5.334349718317149547e-01 -3.781191990320336149e-01 1.477481641415771645e-02 3.245414149464596193e-02 4.954288165647686704e-01 -3.150426888844702344e-01 8.534861482881414552e-02 1.724405836587420970e-01 -3.333270069490429921e-01 1.622533209200384408e-01 -6.571257460918192850e-01 -1.276123857013477803e-01 -7.240418391537424558e-02 5.565585011431107842e-01 9.222702009094743691e-02 2.598587303545771832e-01 -5.861119053760728281e-01 -1.947979706515557963e-01 8.316625028045662726e-02 -2.235456622429056739e-01 2.093470482613772887e-01 -3.331165611383858360e-01 -2.958658761011681571e-01 4.429483138101821815e-01 -2.108832810650907719e-01 -2.035500836805060887e-01 2.091825149000522410e-01 -1.631754902119788575e-01 4.625409526126846027e-02 -1.690239494639512174e-01 -4.713747821501224622e-01 -2.433893032272408941e-01 2.834494779652557139e-01 -3.517381117391750189e-01 2.348327093806175936e-01 -3.760865630277477889e-01 -5.959521295898365656e-01 -4.963340779136586889e-01 -2.703926934231084579e-03 8.250202587234357621e-01 2.713610467061746134e-01 -6.846333350679507934e-02 -3.245956122159537882e-02 9.122645059015559166e-02 3.583594150069118744e-01 6.006849126157778329e-01 -2.875748531174061595e-01 -3.446148841372478344e-01 -4.971861819421531936e-01 2.410691050756715850e-04 -1.588938451547871888e-01 4.377663822179377884e-01 -3.517036798430414057e-01 3.867368982370824604e-01 -1.250192265667531277e-01 -4.106886492575969605e-01 -8.524066017352482927e-02 -2.435163937841896276e-01 5.135400283041242631e-01 -2.877975675412870471e-01 2.675362552458075416e-01 2.624739637916456148e-01 -4.005977564622790199e-01 2.146675390161723873e-01 -5.939336452480442619e-01 -3.232325161333667873e-01 6.065044986240238911e-01 3.717797852067326603e-01 1.034179174902169207e-01 3.321336885317070498e-01 2.759822114331578202e-02 2.747806508366602007e-01 1.853866158948960785e-01 -2.296791998055398507e-02 -5.899759762317372674e-02 -3.626560971629716468e-02 -7.107672396639275192e-01 4.056171513794945560e-02 1.729919646546656253e-01 6.431130122401193527e-02 7.060107299376227052e-01 -2.133279566110985459e-01 -2.844662304705322109e-01 3.676324385270932638e-01 2.313441721753231595e-01 4.804644288231673110e-01 -2.721211949590663856e-02 2.745482748104877690e-01 7.244266974910015255e-01 -4.523044363677263813e-01 -4.464017476550392605e-01 -3.351015270380822142e-01 9.170142174788509237e-02 3.805559122615602696e-01 5.772159778238092898e-01 6.380035296497120756e-01 -3.464414689341973053e-01 -5.131678176780462008e-01 2.603245289345663682e-01 1.042498014066143147e-01 8.900511602824774660e-02 8.878182829188040193e-02 2.958404831866604315e-02 -3.827950512937400851e-01 1.255652108980948312e-01 2.564699951129603139e-01 3.868890667971277009e-01 4.315275027481975112e-01
-6.343306496301573949e-01 5.739118072912064578e-02 4.787218395511595448e-01 -2.544174292772621304e-01 9.686808052259084090e-02 -2.272380201809558464e-01 -4.657395118326060346e-01 -4.325602041303096279e-02 -1.315300381909255689e+00 6.771832548317889555e-02 -4.451853517660068205e-01 -5.055675845368117205e-01 7.375897221751787081e-01 -1.322227738514339668e-01 1.354361677923032470e-01 -1.014275541780156470e-01 2.358484230622718419e-02 2.337671860959562031e-01 -3.489660209586211148e-01 -2.067034657498257322e-01 -4.659808589210112095e-01 -1.276749934717485990e+00 -1.568015913963509977e-01 -8.345880979819159107e-01 2.783657880048355793e-01 2.269769469754290003e-01 -6.080675847098123699e-01 1.381916199345730178e-01 3.156605173556780164e-01 -6.285206818249730598e-02 1.287012529391023952e-01 2.236102185016386121e-03 -2.386062529676271360e-01 -1.218367195429704841e-01 -1.937821996882766573e+00 -5.809413383652992646e-01 -1.276159830838579368e-01 4.368421826213392256e-01 1.139418550213254361e-01 4.106384900407746841e-01 -4.302123771501477068e-01 -8.082799382057131998e-01 1.128309162928625570e-01 -4.335771592088736304e-01 8.322071630922334151e-02 1.788103402721331059e-01 3.542748667832256726e-01 -2.214166776000133507e-01 -2.266250353716095511e-01 -3.375547151482122810e-01 -6.831281840529199179e-02 4.422891865216632690e-01 3.181456420267566032e-01 3.997111804592504147e-01 -4.684722856934701030e-01 -3.376998452625238900e-01 -1.270682077162145485e-01 9.984940863791704757e-01 2.628719854541409773e-01 -2.690023472023571061e-01 3.884835562956601152e-01 -2.749467350513546196e-02 1.324769896866115348e-01 -1.289912422915707069e+00 5.292204145267521698e-01 1.150285715950580601e+00 3.186903313067453447e-01 2.401873541744735940e-01 -1.391646134042544558e+00 -1.966160481338469213e-01 -1.554172219430542401e-01 -2.677952293764458425e-01 1.941449617707007858e-01 -4.966769069362124145e-01 -1.202341665137374838e+00 3.656498205785939648e-01 3.081891750526438156e-01 -8.382329117424488496e-01 2.233314592662020981e-01 4.338794314021257592e-01 -5.183311623683849456e-01 -1.310887166955558014e-01 -4.223135454893297558e-01 2.679981689749317275e-01 4.403411027095110453e-01 2.385648804315301796e-01 -2.567180200158856618e+00 3.682913822584814589e-01 1.308408048574724314e-01 -4.582139856796287047e-02 -1.572909032538728769e-01 2.168796849186101217e-01 -4.258455876845392285e-01 3.173567415476017395e-01 4.081710596338601338e-01 -7.145718608652833481e-01 2.319644719086385309e-01 -7.346643616645721631e-01 -2.638871474906315795e-01 -5.077831991551429169e-01 -6.290637969989427702e-01 -3.921940757816486794e-02 -2.152247777502441228e-01 2.096375218306947563e-01 -2.065339023026483214e-02 -6.830355541974611477e-02 1.562626505683306355e-01 -1.822661530046226497e-01 6.132988501933518410e-01 2.252106631970394179e-01 2.507813906170065499e-01 -3.516642697061921341e-01 -1.064985339452463181e-01 5.238673367495300104e-02 3.310594913077683499e-01 -5.245478357943847980e-01 -3.345346153364355812e-01 -5.639970950512854797e-01 -4.620918906397159520e-01 3.686091216971754680e-01 -7.226709835046797314e-01 -1.006639128799125538e-01 -7.889595238598533511e-01 6.019015796218069730e-02 -1.845593974594842701e-01 -1.761362095647882875e-01 3.350573202292209674e-01 -3.388907260629521745e-01 5.250957528582316652e-02 -1.813804159380356440e+00 -1.584837657603033467e-01 -4.953330514281172881e-01 -2.392932645185695262e-01 -1.837222572206260174e-01 -5.700293999493972752e-01 -2.556359087658501283e-01 -2.923558452659593132e-01 -3.453046167831830271e-01 -8.521576928611671597e-01 -5.421100503716144159e-01 -2.339489409669768538e-01 4.592529134334081831e-01 -3.462919911079036239e-02 6.216131818937213893e-01 -2.939851475276210602e-01 -2.903993239390730841e-01 1.884076217510966822e-01 -1.399272872994482997e+00 1.296208846823231065e-01 1.973576919876091074e-01 -8.768778070227237764e-01 4.950291888702927356e-01 5.499095590062198502e-01 2.420981087916868890e-01 -6.516737318621476094e-01 9.902161515754558385e-01 -4.879584651784247828e-01 -4.045813881628880504e-02 -3.265996817889860876e-02 -4.161347879992516874e-01 -1.765304063911823651e-01 -1.003797521330822118e+00 6.523086605628934664e-02 3.051939531208529566e-01 8.106049634129419701e-01 7.798453078370336244e-02 -2.030516390347265887e-01 1.512055578156085989e-01 2.837265368808707944e-01 -7.539806358205921599e-01 1.043449489975592642e-01 -3.160115296105416860e-01 2.476141594426460313e-01 -9.596325379084333917e-01 -5.387710805250051083e-01 1.309280024124997999e-01 -8.470677337907641657e-01 1.986479599132223994e-01 -4.170587001546574024e-01 4.178469625064440418e-01 8.934470048957156296e-02 -2.394529389181754842e-01 -4.614070881680833458e-01 1.088763457964877224e-01 3.256700679990619240e-02 9.694076464326611964e-02 3.455406961737437777e-01 3.780808760520090739e-01 1.599954455525801622e-01 -2.144578265046832299e-01 -9.861768883150830167e-03 -4.299667524543090980e-02 -2.589560592966136388e-01 1.547563103309170240e-01 -1.689920973712045194e-01 4.404933850346999802e-01 8.451914305983944387e-02 -2.021596476122369812e-01 2.667803072176125889e-01 -4.038528946216124460e-02 2.585904165741960692e-01 2.859913928616276690e-01 5.289839794929492856e-01 2.521336311271596964e-01 5.390477809774337770e-01 -1.298091031217045277e+00 -3.538336898116739015e-01 5.415678380499372446e-01 -5.939229220398251075e-01 -1.263689629880533349e+00 -6.785404826924022748e-02 -4.480753510384415383e-01 4.384986955196675251e-01 3.523655266383042828e-01 -4.199751778355863274e-02 -1.376941517309915042e-01 1.118118323660102359e-01 -6.699011357805454425e-01 -2.957349536332236073e-01 -2.525179303009844611e-01 -8.918592605545609675e-02 -4.946847427505247086e-01 -5.303515904467183129e-01 3.595142142833775839e-02 -3.886136075762259279e-01 -1.910750040608151790e-01 -2.738207089222456925e-01 3.021817828796720118e-01 -8.583588575413476918e-02 -5.202974328972198581e-01 -1.486106067916061202e-01 4.907584094134154890e-02 -8.302739117275412251e-02 -1.490434985990190652e-03 -2.267597878350237350e-01 3.444677197489235398e-01 2.913152091169070590e-01 1.606223732358134648e-01 1.004801987961295023e-02 -1.576270091958230923e-01 -1.290072881148072725e-01 6.226569073636626372e-01 1.841620983847559456e-01 -3.012831626457188050e-01 2.382280626378237565e-01 -1.437994740280770234e-01 1.226670797432258597e+00 -4.613984022705511778e-01 6.196211173474963640e-02 -3.017685362104195468e-01 -3.031911938775226981e-02 -1.858460898178494192e-01 -3.027857214156342569e-01 1.442746410504724963e-01 3.399366390744484878e-01 4.426813211766464917e-01
9.685351614392256892e-01 4.130979289161240131e-01 4.237887616984579164e-01 -2.359248811820807007e-02 -6.886509957493428535e-01 7.005974583673423295e-01 -3.572166012513338096e-01 -1.063238242434881228e-02 -1.348712688404129834e+00 2.326595822418969089e-02 1.038746397358309981e+00 -4.694680927587710322e-03 1.044616777613674330e+00 1.335436920133955985e+00 -1.471905774093439367e-01 -9.901053008986643311e-02 -3.621632014617472972e-01 -2.506570223640743333e-01 2.939528467345927654e-01 -5.532455680222890804e-01 3.821379445417129594e-01 3.743786906611442505e-02 -1.260634769608610095e-01 4.801569232517216568e-01 8.814922679477275869e-02 -1.432889363232024149e-01 2.107099765826646598e-01 5.022133959518554347e-01 1.765233438627460683e-01 1.113769143390373806e+00 1.703311289513874394e-01 7.926113823342498810e-01 -5.204177457407848095e-01 -7.228356350262789276e-02 -1.883080802786646080e-01 3.985925351164245067e-01 -4.640287841492699017e-01 2.828877941072120428e-01 -1.143077945915801086e-01 1.834801519303150552e-01 -1.366025833215450680e-01 -7.149083723757196918e-01 -4.442824648234555175e-03 -3.359926524041334517e-01 -3.854903495153838011e-01 -5.705619535305148649e-01 -3.054744171933797547e-01 2.048268128337447647e-01 -9.859164455207215516e-01 1.811569827798671650e-01 1.160088350639043864e-01 -1.386091210117579298e+00 -9.956096214842899417e-02 6.223884844909779307e-02 -2.758335177257964163e-02 2.540599499917046145e-01 -3.827517188156088768e-01 8.591414514811057668e-01 -3.975720775153142039e-01 4.047054889576634507e-01 1.791204626053327364e-01 -5.849349011633045436e-02 -5.482408185369941345e-01 5.987596136600830121e-01 5.758455208797840230e-01 1.678049092962190070e+00 -3.802029241446357455e-01 -2.035982015248457566e-01 5.151486433478315030e-01 5.099711186515056838e-01 -6.821720612961910124e-01 -4.094059096775363726e-01 3.906079917159845927e-01 1.698204642349427917e-01 -1.507352887147761222e-01 -2.898257918974458391e-01 5.573280421300384757e-02 1.857650827317891107e+00 -6.835743243256234836e-01 -3.657789414428670449e-01 7.849422207906002480e-02 -5.159822481800190319e-01 -6.798975561560668956e-02 -3.174146880470766208e-01 -5.998356850419085395e-01 1.401805554736738901e-01 -1.337918857850651122e+00 8.776262120474996875e-01 -5.343420719353620951e-01 2.920898314404047902e-01 -6.225767363782385155e-01 -1.791099569296004251e-02 -5.144342191567415762e-02 3.037285675817807395e-01 2.981280385287413126e-01 5.973135830325922990e-01 -3.804925292586729402e-01 -4.288577540075150241e-01 3.870022285144443241e-01 -8.707533141163151802e-01 -5.679429402294143836e-01 -5.736607031789760225e-02 1.491285185853931036e-02 -5.167476976067706396e-01 -3.603041237878810282e-02 -5.515925143857631774e-01 7.138385790323995006e-02 -6.602860048089967959e-01 -9.562725437701784237e-02 2.156359077451491801e-01 3.024745083337878615e-01 1.716184804713505319e-02 3.052330837096013383e-01 2.078777576680997941e-01 4.218420274820343652e-01 3.486929840139753600e-01 7.222578449631592012e-02 -2.310294272253133330e-01 -1.228987229008551979e-01 -3.993876361447730727e-01 2.345180261301059166e-01 4.394680379434831412e-04 -4.275990803652178762e-01 -4.759121526317823814e-01 -4.815670506959013331e-01 -1.850529998503958051e-01 -2.238035688087094688e-01 1.222241674027071540e-01 -4.340944992588429696e-01 -1.510229289245602846e+00 -2.707664245712529949e-01 5.213752816266178369e-01 4.659501024918458745e-01 1.273724008338945057e-01 7.525123727170470733e-01 1.589600396695884932e+00 8.263572667050773646e-01 6.953338918037220429e-02 -1.466419641941047736e-01 -9.387832664335481470e-01 3.371102879505044614e-01 2.606918210567276128e-01 3.021457138610421644e-01 -3.978737754100468149e-01 3.374164675329251878e-02 1.666447344882875381e-01 2.889610630259450419e-01 4.683234421774902234e-01 2.288892535918680693e-01 -3.695395604509931209e-01 -1.494805764575997120e+00 -5.955804256634790461e-02 -6.497325771959348850e-02 -3.417839161883924337e-01 -4.359539941819044473e-01 1.533948204941239180e+00 1.841723169671513893e-01 -1.892032252044378859e-01 5.583518886851454033e-01 2.045818625428372922e-02 -1.553066115890432197e+00 -3.524713301459162507e-01 -1.803271920142869023e-01 -3.238161755995182939e-02 6.794311451413641567e-01 3.943663124034270662e-01 2.150497033318004847e-01 -1.245084013201100404e-01 -3.049038250249867521e-01 -1.511356679989110940e+00 -8.436859597776218411e-01 1.721713305173338815e-01 1.559544980933878951e-02 1.815961313486544326e-01 1.202739407708929426e-01 -9.807309300912260275e-01 4.871503943593917252e-01 5.032204826107598006e-01 -1.974059732905270592e-01 -1.988386395286456110e-01 3.522023261574169783e-02 5.434391161977683016e-01 -1.555424379990146266e-01 -8.799288939036745139e-02 3.583258587122425953e-01 -1.523988124364510956e-02 -3.821120699493715245e-01 -1.266437580146475117e+00 1.173220207741414445e-01 3.962065193959353748e-01 7.683395303585401070e-02 1.660484741577058013e-02 1.157669895866526799e+00 5.035980873406640246e-01 6.560732128900419180e-02 -1.946374858970211646e-02 -1.776142223472301218e-01 -2.430105936008394307e-01 -2.893811858017987793e-01 3.520209148416119094e-01 1.788871821525772621e-01 3.126969667125019670e-01 5.366125577688763970e-01 -2.943907800406204631e-02 5.963896916425706074e-01 -9.241413630232906407e-01 -5.094596712093255597e-01 5.561978582563109619e-02 -3.254193314383024282e-01 -4.540549841208008641e-01 -1.430643431390992391e-02 -3.810122139023670584e-01 6.202459242677653695e-01 4.808687922117199642e-02 1.243946695689802096e-01 -4.732278197397839226e-02 -1.207769168745633503e-01 -3.000694998692874371e-01 -2.848925974008713509e-03 5.657883378530741136e-02 7.297406095524792136e-01 6.335522284064168397e-02 -5.233004383004870030e-01 7.821220664080701102e-02 -4.517738444944274234e-01 3.006612638641487437e-02 -1.358838087594226529e+00 3.348927319325818996e-01 -5.994986872695228231e-01 -1.572393012192563055e-01 2.131920069178363034e-02 8.125721966421238507e-02 -2.779073441547594836e-01 4.366743319511957044e-01 2.552919393859275909e-01 -3.221808511413310483e-01 -9.909418010290264867e-02 1.791568425123746255e-02 -3.531075507517070777e-01 -4.898108057622452827e-01 -2.654173594759692834e-01 3.458838193637501224e-01 4.041293582343977731e-01 4.276457567910703084e-01 -9.883633698855850969e-03 1.478559749939329371e-01 8.487341000244701394e-01 -4.211177386325213878e-01 -7.608728700176102810e-01 4.018787434364103350e-01 -3.911872378620039337e-01 3.012014908108657241e-01 2.330054040955164829e-01 3.843250360937357502e-01 -2.323085518087983636e-01 2.423062150028995609e-01
1.553478364110225662e-01 -3.234241843766675895e-01 2.247265004535524691e-01 -3.149642809365805207e-01 -4.780296997503741818e-01 -3.923049522819869184e-01 -5.515402010572610925e-01 -5.738093120589450591e-02 -1.358898487173451741e+00 -2.815239161480931340e-01 -5.366176318077352514e-01 2.364800862379753399e-01 1.378702040231032599e+00 -9.830124661726113988e-01 -5.090479506425378275e-01 -1.903267492557025875e-01 1.704366376272250239e-01 2.278414205261084513e-01 -2.667244938734223969e-01 3.524734318084826734e-01 -2.787293466469814573e-01 -1.800131412050095248e-01 -2.103032745249219515e-01 2.316073250724039537e-02 2.079726214441615095e-01 4.513483590684196911e-01 -3.648229909217108879e-01 1.022860927977738837e-02 -2.747993991672571523e-01 2.169193848333538510e-01 -8.941795619969865605e-01 -1.104491662114060802e+00 1.864035067639476240e-01 2.497666196007053696e-01 -1.743715159314330521e+00 -6.902124687155097860e-01 1.900332025962712668e-01 -3.134122211267092450e-01 -2.644637728185688097e-01 -3.513333076068260730e-01 4.073361872217076129e-01 -8.417126200143784098e-01 3.487077565226405773e-01 4.690240546033370705e-01 -1.340609691278094318e-01 -2.604118160539153903e-01 1.150921810831949527e-01 -4.448900606068783015e-01 -6.196156888983030964e-01 -3.954002296254600091e-01 -2.162899954302756333e-01 9.702606867444280025e-01 -4.507897121442918653e-01 -5.476064272785285958e-01 -8.677558099956984849e-02 -3.024981025336676271e-03 4.855452801965184917e-01 1.066633376006293821e+00 6.183727544420365430e-01 -5.907468990689145327e-01 2.791004463015764880e-01 3.527494018173723545e-01 4.436853681834112412e-02 -1.485951284264018790e-01 7.168515673320987602e-01 4.580987008999146681e-01 2.214440666927663393e-01 -3.777444424273507795e-01 1.071705624395336676e+00 1.023185810392985423e-01 1.089991825817365534e+00 2.736493131359469810e-01 3.738880534120622157e-01 -3.797942046259447091e-01 4.337174051047395368e-02 2.636335218934027780e-01 4.887959525994509113e-01 -4.737706862620690851e-01 2.811236780518511225e-01 1.363968400141169768e-01 1.146965169731523114e-03 -2.551255276494135971e-01 -3.708562180721517998e-01 -8.385303599341591141e-02 -5.593035772787079835e-02 -2.918599629794746408e-01 -1.451856289771551900e+00 7.010187624551451890e-02 3.657671965524866287e-01 -2.427248759866617589e-01 -7.371421362918992304e-02 1.651463570693241234e-01 2.193490964548626687e-01 -1.767575354161002310e-01 -5.967106667267302322e-02 -4.252981146570396498e-01 3.051731543584603745e-01 1.252941938354055866e-02 -5.729465829149091860e-01 1.267871106200181730e+00 9.883679361050762280e-02 -4.040454438725610276e-01 -9.964898347369068876e-01 -3.298493148157884830e-02 6.153462405907658139e-01 -9.771702557625269181e-01 3.355701063502896098e-01 -4.472536052146294794e-01 6.372812930428366218e-02 -4.104096954111386419e-01 2.614890132134795042e-01 3.277206261679899701e-01 -2.525822845647582304e-01 -1.482541729849256029e-01 -4.680204790675168702e-01 2.345240522781628090e-01 -2.421361194882914736e-01 -5.865864882874883592e-03 -4.028681591833955244e-01 -5.219900482455923640e-01 -6.456774656113955027e-03 -5.037623805841895397e-01 3.687461729831548185e-01 2.506870743654394107e-01 1.272629992235115637e+00 5.260958969796404316e-01 -2.393888845826913081e-01 -1.593466437552401582e-02 3.560715212715825362e-01 -2.564961590779438971e+00 6.158376233354325713e-01 -6.676053165157633806e-01 4.642134898650774333e-01 1.084554901470573401e-01 -8.663342481427930286e-01 6.327093416957338956e-01 -6.150127275156151985e-01 4.323139506769392848e-01 -3.690402934291604486e-01 1.924997379852363966e-01 -1.202399340803818606e-01 -4.282075521582713318e-01 -1.435844614375741402e-01 -4.076710326349367586e-01 -3.851361897303885451e-01 -3.487011712388258244e-01 -3.149677402337944937e-02 8.593074283520836520e-02 -3.818075677857555861e-01 -2.852328865717077000e-01 -6.194226370843778362e-01 -2.022385334270636048e-01 -4.823120394159605695e-01 6.153392341303560720e-01 -8.078090772742408943e-01 -6.790129231317297565e-02 -6.395840940845876066e-02 -2.396998880198804305e-01 5.491160878624535835e-01 -3.374009983295581661e-01 -6.554511115924380182e-02 1.299015534314311160e-01 -1.208360154329050362e-01 1.446566995976112657e-01 -4.628584212207302873e-01 3.501190081962213263e-01 9.668089353587500101e-02 6.364895521283329971e-02 1.367677923630379044e-01 -7.735905284094772572e-02 1.430848778550138034e+00 -5.476800832486992121e-01 3.667200798581206067e-01 -7.355396047662114967e-01 -4.216557315633133740e-01 5.725896274396323760e-01 -1.286748832013821620e+00 -3.506859003850650303e-01 1.218471385233908660e-01 2.284094961647860078e-01 2.706962122101928547e-01 -1.489329867784998374e-01 4.076255926566346721e-01 -2.566415867388802119e-01 2.104682902177777981e-01 -4.461618335249734613e-01 6.402891008732053413e-01 1.231229006699948725e-01 -4.697165585332465643e-01 6.459123933206480928e-01 -4.486012141611974147e-01 3.447663704798943907e-01 -7.610340797527674894e-01 -2.383278491493053333e-02 5.496064051582540966e-01 3.503890376773534099e-01 5.045579716378479906e-01 -1.264073097765323339e-01 4.591414839292543570e-01 3.151466865312349541e-01 3.206817531269881560e-01 3.756580852667615322e-01 -2.384326524067801045e-01 1.143848744611613844e-01 -6.376893435170843949e-02 -1.236334242360203506e+00 -3.595292168142235623e-01 -5.249643464207542909e-01 5.296629880911765120e-01 -5.468560828617566871e-01 -1.274278718969901192e-01 -2.124577186098114689e-01 -3.428089933532492140e-01 2.716187046829556806e-01 -2.548340698483535505e-01 -2.202855396381198649e-01 -4.229085374677488129e-01 -3.357033520004198413e-01 -3.545558991682596917e-01 -1.472768686448058806e-01 5.460408627332442588e-01 6.785946522706045592e-01 -8.562300916810537954e-01 -1.941604824303896915e-01 -3.168692158309436846e-01 8.424855930398886250e-02 1.028578487685827714e+00 2.154184443911195956e-02 2.341094200686680005e-01 7.609632526828064014e-02 2.388836890587409389e-01 -3.085836805358259105e-01 5.329339847907176297e-01 -6.519406668340704814e-01 -6.213823025141483880e-01 4.700783768133126594e-02 -2.102387135079621383e-01 1.991588538187206991e-01 5.971314667348065486e-01 -9.847453039167827771e-02 -2.439937405674534321e-01 -1.413528861499918909e-01 -3.560124063250798554e-01 -3.373831319139214968e-01 5.499741108124682754e-01 3.777359188287948699e-01 -2.142893011950175897e+00 -4.072813062957049701e-01 6.438702825978938060e-01 3.551946518283830567e-01 4.746779673368508035e-01 3.009146853217157802e-01 2.441176247697215279e-02 -3.482617020593365420e-01 4.800899221117777005e-01 -2.841703595559018081e-01
8.097777344336065664e-01 3.539960898517379717e-01 5.633674957018715984e-02 1.941248077341382883e-01 -3.294002430095639422e-01 -1.011794712908472560e+00 3.469894512429665956e-01 -7.282308513779946202e-02 -8.961044223492349303e-01 1.613614621023335208e-02 -1.519525106412089321e-01 1.448845691829116489e-01 8.920115527034025993e-01 -9.901098098823599147e-02 -2.151399652321202005e-01 2.778944562403179441e-01 3.548313298642678526e-01 -5.207003167515938946e-01 -2.484410345794918831e-02 -2.356156480194827596e-01 6.567618286537546535e-02 -1.001858979604047128e+00 6.520344718962949038e-02 1.201336407706996151e-01 6.413358669652836908e-02 2.718479502433712724e-01 2.616279319560482208e-01 -4.959998161091366820e-01 3.741014941550011574e-01 5.065178059109395337e-01 2.303654491857870246e-01 -5.380054380930826552e-01 -4.967059432109717232e-01 -4.881463794962270231e-01 -1.338213074027811700e-01 5.218846798665659481e-01 3.923255635859005941e-01 -5.175643569749801554e-01 -2.207615643250016579e-01 -2.148216033587755369e-01 9.105497475411612751e-02 -4.938786685154117895e-01 -2.241887070567180340e-01 6.119495336490744508e-01 -2.123335335349914865e-01 5.707603964204800429e-01 -3.807990220405729764e-02 -1.335740832513406251e-01 3.710902714026790422e-02 5.370080350933388313e-01 4.479706258880599146e-01 8.045672344456943348e-01 1.185506230162800406e-01 2.341512817470560170e-01 3.279763001727254434e-01 1.050282442463455479e-01 2.396038392027330377e-01 3.053199510669927230e-01 3.899729786597047054e-01 4.275932664489251467e-01 -7.212699294337428235e-02 -2.233756496074415510e-01 5.351303267739050684e-02 -4.385136474078682456e-01 -1.342451122348417014e+00 2.567493603791788370e+00 2.490825003036478691e-01 4.077292731473905474e-01 6.247042611795042832e-01 -2.887255643831040386e-01 -2.854867321116590917e-01 -1.443086872379668595e-01 4.267811892714141742e-01 -1.893373384243623309e-02 -3.080772189024172381e-01 -4.278248914760187649e-01 1.230914988442732283e-01 -8.724788185785676831e-01 4.654061272239422009e-01 -3.178445990145942757e-01 -7.388504415601866715e-02 3.156664765038932896e-01 -3.361872878569326928e-01 2.394136061631735868e-01 1.968776719260493038e-02 1.120585127912427093e-01 -1.049572853544035400e+00 -3.158822103253712821e-01 1.109857262903158615e-01 4.872398299519423159e-01 -4.650061451087416642e-01 -1.735654499151190536e-02 1.202755562174292886e-01 3.116077933046425275e-02 1.348386794656915022e-01 3.713557761741466678e-01 -1.804116764731314992e-01 -1.292865304711677266e-01 -3.353897195924328556e-01 -6.208464061553250479e-01 2.424253268131251471e-01 -4.352401324992921094e-01 4.973778615830511396e-01 -4.331316535149104530e-01 -1.079125110198354970e-01 -8.100532590327748361e-02 2.421263703519224153e-01 9.945953143102124194e-01 -3.056675175894079111e-01 4.490823609620447354e-01 3.681037847380273093e-02 -1.835225161676911493e-02 -2.847645319438350531e-01 -3.974797599197401055e-01 -1.616752130429219003e-01 3.970731988096176668e-01 4.429002058111591866e-01 -7.597863714357164233e-02 -4.396539642517989233e-01 6.213266484982574167e-02 -3.502531537476107348e-01 4.513664306785947211e-01 9.198209141414764867e-01 1.047153910042696312e-01 4.819199182629103628e-01 2.530404118426952120e-01 -8.178560360183287359e-02 4.276768563255239353e-01 -8.221349902207000793e-02 -1.748799337852064095e+00 -1.531864700485168485e-01 -1.746657727834982632e-01 -1.648362923355677634e-01 3.293548229246408554e-01 3.822071064630104265e-01 -1.984743589307025047e-01 -7.475910549357428492e-01 -5.207523134663760711e-01 6.941172735870814181e-01 -8.533893993500785147e-01 1.588562237093034124e-01 2.515257586050449051e-02 2.753870729478848367e-01 -8.083000907416652836e-02 -1.449405382948561194e-01 -2.695025515656990778e-01 1.787120425191123518e-01 -3.050139131767352629e-01 3.054349113392392789e-01 -4.386462117759497292e-02 -2.523628175152372588e-01 -5.056539065272872557e-01 4.287505080723641449e-01 8.456846118916978849e-02 -1.206061022045080477e+00 8.302264370642791214e-01 -2.139807644634542649e-01 2.198149340675344121e-01 -4.500241562861582167e-01 3.863510398395326173e-01 1.992255643521318453e-01 7.989495010057745539e-01 1.456033334750033992e-01 -2.508816939396985579e-01 -5.076439507208746482e-01 -4.242145172173713563e-01 -1.344742592894957456e-01 -4.536897145289989774e-01 -1.266104032351713371e-01 -2.842227153854319233e-01 -1.709113262420187684e-01 1.893453578610488630e-01 -1.014185335728979981e-01 2.176841383310937905e-01 -2.014985053858167272e-02 5.753706062167825985e-01 -8.870285900300372006e-01 -4.087176749941910936e-01 5.209143781399644402e-01 -2.199804025979412436e-01 1.063869358846038782e-01 -6.358620550169530317e-02 -5.231934679407076461e-01 -2.497292953666307991e-02 -6.101488321751507016e-01 4.586956541475887827e-01 6.614076295173296760e-01 2.139656377869124937e-01 1.800310358038838265e-01 8.306224132644620672e-01 -3.686767219817815855e-01 1.694020647549397685e-01 -1.442135647947976607e-01 -4.186552148215810787e-01 6.523772994518016732e-01 -1.623502680304430013e-01 -1.729197244548625889e-01 1.190035343540018636e-01 2.235960996350102592e-01 -5.496511028341635186e-01 -2.894716988611941710e-01 -5.307262974947141165e-01 -7.740366307845197857e-02 -6.838998405680032922e-02 -3.003500919513093503e-01 -7.561588497979356838e-01 -2.725435508299272128e-02 1.273814751542298451e-01 -1.828806947546625095e-01 -5.074913478864535588e-01 1.507799723320003837e-01 4.281351893990485991e-01 -9.542233307667630227e-01 -1.970395357845283746e-02 1.349374733804870330e-01 -7.482536447587967258e-03 -3.874827884427946567e-01 -6.658419392792251923e-01 3.284330979964957820e-01 3.861350057118221324e-01 -3.924750145794919098e-01 -8.404904583604191903e-02 -2.772224811231444042e-02 3.864225362231013539e-01 7.236995416744435028e-01 3.204204556091846956e-01 3.649781065126494473e-01 -2.691275847968151447e-01 3.012802614908320908e-01 -2.246244707663963835e-01 -1.619943858073216725e-01 1.606354623008070803e-01 4.378837904396241099e-01 -1.967785276224841007e-01 -4.617452822663416501e-01 -5.753490697152280342e-01 1.153054863342751618e-01 5.377359016239571243e-01 -6.842968157461647161e-02 4.245205753433773932e-01 -3.976005814921730885e-01 -1.044750780414140656e-01 8.891644593218236969e-02 -2.887466551582835717e-01 -1.180022108880365961e+00 -8.811656530852872427e-02 1.030531669719039423e+00 1.067294589340630900e-01 1.165617071397144489e-01 1.831730033799537638e-01 -1.336153196496123463e-01 -1.455276196622341311e+00 -3.914252382746163939e-01 -2.409524018456351557e-01 3.952262324759388545e-01 -3.425833456438800995e-01
-5.988469103327878074e-01 3.470650552903677966e-01 -9.927224656493556509e-02 2.452544051011527615e-01 -2.768407369970849463e-01 3.860305173012147373e-01 3.532575188542351752e-01 -1.525642674129417953e-01 3.895128281222215438e-01 -3.359214899665577403e-01 3.087652308433642689e-01 1.294070180594064125e-02 -2.553614734467494693e-02 1.623658154714950674e+00 2.446508663995680399e-01 4.203762823665851411e-01 1.601693495801058131e-01 -5.219003158765505024e-01 -4.263996108727398648e-01 -7.000900981966932946e-02 8.533929367763802565e-02 -1.221662027870378031e+00 -3.197188886577129185e-01 -2.320173893504406115e-01 -6.816674533134193803e-01 -5.563463324887744088e-01 1.405215213708869371e+00 -2.181559557617021861e-01 4.001234982235993831e-01 4.705387860786547916e-01 -1.200014282723549236e-01 -2.363766423555476448e-01 2.531575225565731446e-01 -2.797382314389920688e-01 -5.666834998395135770e-02 -3.129151105568314661e-03 1.042440025766952605e+00 -6.191967545192852973e-02 -4.479283198566599844e-01 3.348689401254483777e-01 -1.597781351491653901e-01 -5.130227042516602998e-01 3.389210061528858398e-01 -1.293914954591403044e-01 3.849033147662278553e-01 -4.396695384429415432e-01 1.787833276416174455e-01 -4.189405567516683027e-01 2.816006824208897585e-01 5.744593257232105676e-01 2.327075419656520761e-01 4.086502272276937298e-01 4.404110314739738685e-01 3.058868417713410670e-01 -1.461476478398871515e-01 -4.167309527609907444e-02 3.968034552521457758e-01 1.660256262530026339e+00 -1.095789417770175883e-02 -4.696047279980527511e-01 4.562095350435041996e-01 -7.230158502155071831e-01 2.050004863524631793e-01 -1.281378299998295223e+00 7.069641957133091514e-01 -3.164159312174645300e-01 3.428916984860480022e-01 -3.590745377283943718e-01 -3.399293973134681623e-01 -2.262044430748292798e-02 1.124371647591450030e+00 -1.540145742784640448e-01 8.967339306148634781e-02 -4.366905286162343081e-01 -9.697303691671329551e-01 -5.173700090929470585e-01 3.388085595155430618e-01 -1.105554934242491127e-01 -1.630114670851446484e-02 7.971997852941427321e-02 -2.034380471400714652e-01 6.991270622385810374e-02 -2.972106161879585762e-01 2.797487875447796646e-01 -2.791046048932027679e-01 -2.585690329252047226e-01 1.092305284777142838e+00 1.601406141634690028e-01 1.623861130935781716e-01 -4.485730059622945465e-01 -3.199864387167300483e-01 -2.899209733691130997e-01 -4.770707998330860761e-02 -1.357626382822191835e-01 2.758954932588704168e-01 7.481687693529507355e-01 -5.188675729210351362e-02 -9.092675308243599597e-01 9.705808262090773186e-02 -4.535853866444298221e-01 1.852898438952234605e-01 -4.605824811046671519e-01 -4.492865852875429500e-01 -2.872974521489926047e-01 -2.948530115115285954e-01 9.169682340932359121e-01 1.359757046624991972e-01 -5.813785976240353204e-01 -5.845625744944515922e-01 4.944086373503181475e-02 -4.972713665483320389e-01 2.553311956466434163e-01 -3.791769190954867308e-01 -8.021839694944708776e-03 -4.740440311445666133e-01 -4.558785554284650043e-01 -4.574611763116478436e-01 -3.561819340163699943e-01 4.629984272811680790e-01 -5.675062708193217426e-02 -3.511626115518117763e-01 2.416228680944339513e-01 8.741899120508658805e-02 7.605471156622811701e-02 -8.633580138580906338e-01 3.447133116177370504e-01 1.924793014258237012e-01 -4.058769372442875834e-01 -1.510220215212007555e-01 3.746535275974480772e-01 1.492718057634992712e-01 5.446931816470154120e-01 2.853513833498191876e-01 -4.766331435621395940e-02 5.723037755360133039e-01 2.929049890847078008e-01 7.736340908500374813e-02 -4.697781535686803428e-02 -5.288903548621838313e-01 -6.070587809395533441e-01 5.725312552643524455e-02 -4.247939097459668689e-01 -6.115108008688275865e-01 2.982724838551488733e-01 3.417013360673848976e-01 -1.953840712659671991e-02 8.241314324747933684e-02 -1.107374060191395060e+00 -2.329223676199117521e-01 -2.395187913351166098e-01 -4.572258237166271777e-01 2.375662881759542100e-01 -5.669976947330296335e-02 2.642506105415183826e-01 4.179893977953045292e-01 -6.655847427415114703e-01 -1.397412293548644380e-01 -2.540546173312120959e-01 7.571902801061668464e-01 4.215765350931405253e-01 1.065701177913732228e-01 -2.339170355421713032e-01 -2.723527590817867994e-01 -1.715371448306811653e-01 4.041105618333226679e-01 1.899277056169756950e-01 -4.321321656116892673e-01 -1.456607156476219245e-01 -1.013720146022130814e-01 -8.231241108677361806e-01 2.256765472675870132e-02 -3.368463080685734079e-01 -1.034117036028322639e-01 7.887227487362930001e-02 4.719466500172054269e-01 -4.700411695090557784e-01 -8.584549366623451805e-01 -1.848111635278223419e-01 -1.208432633391652578e-01 -3.397261372950984848e-01 1.275615128859775571e-01 2.230528754689131976e-01 -2.950079247829077711e-01 -8.609794635269453489e-02 2.848965954754560381e-01 4.480770620184209574e-01 4.505465126921492369e-01 -3.809210252362145721e-01 -2.788951569663277175e-01 1.103444385700641239e-01 -3.072091217773520455e-01 -2.074624517193231765e-01 -1.639695659755125157e-01 -4.523728953191741842e-01 2.793954396500958337e-01 7.393882522259738188e-01 4.865471526493285737e-01 4.422936150101691721e-01 -3.532416087078524836e-01 -3.439809271657567336e-01 -4.596333962145773278e-01 2.198388761670653502e-01 1.761334349835545765e-01 7.508805095377880934e-02 4.910230248186251423e-01 6.951721664651427934e-01 -9.094816391800505384e-01 -2.635573297797645931e-01 -1.147889323637420356e+00 1.669954939092601898e-01 2.634888869571100356e-01 1.523502832334210078e-01 -1.791493798880871846e-01 4.445276927835478120e-01 -3.690997666511514064e-01 4.531280993673960505e-02 -3.628531386717486762e-01 -2.873088849337853135e-01 -3.275236846385152778e-01 1.635522439692171925e-01 -6.509090763157383830e-02 -1.379762713881603764e-01 8.069148859048199673e-01 1.775465211507281094e-01 5.784641870867329727e-01 1.930171854673929377e-01 -5.146658638912195854e-02 1.893011120939770697e-01 -9.364406690573071623e-01 -1.356811735717106115e-01 -2.801301290697721380e-01 -3.257114452546403666e-02 5.207516418737951902e-01 -4.877776211948077201e-01 2.767743308071052843e-01 3.578460328572627414e-01 -6.289095437981798709e-01 2.141248554910641366e-01 -4.016362894499987402e-01 -3.991506576015196178e-02 3.732302800912472573e-01 3.430265127941958814e-01 1.919819696915129048e-01 -3.475411313779345202e-01 -6.275440916806072078e-01 8.285635697784012876e-01 -5.841932015920030686e-04 1.072846314551269553e-01 -1.380964512642189057e-01 -1.094321935709562238e-01 2.212876612665813925e-01 1.015095501365796127e-01 7.339972343517012776e-01 1.337381227464967126e-01 -2.642845518209424940e-02 -2.344020758200339727e-01
-2.293393604827660085e-03 2.048531011161075222e-01 -2.679299555037771285e-01 1.879769378089652943e-01 -7.762250625374558233e-01 3.800802003372897309e-01 -3.585537181760396486e-01 -7.830903313399222021e-02 1.236538615161429377e-01 2.701605772721191734e-01 9.269933587174078449e-01 -6.344299371178373226e-02 -8.739752624838411643e-01 6.535144058563716607e-01 -4.003945212452491575e-01 4.419675123925159710e-01 2.026234276522058120e-01 9.407470064423421041e-01 5.220817472210166621e-02 -1.571084669548212243e-01 -5.288618746025649520e-01 -1.451621327369146883e-02 -4.369803357106673558e-01 4.228851009984025411e-01 3.161211037033286320e-01 4.781827846231727352e-02 5.195993909335585581e-01 -2.738846401415644394e-01 -3.971874088018381710e-01 1.122830006358905619e+00 -1.913448924585566813e-01 -5.090167777777115932e-01 5.783543218739859437e-01 -2.162321975508445793e-01 9.406200063219163354e-01 -2.113404266343906213e-01 -5.161263869778849323e-01 -4.688590972753213793e-01 -1.274555022618312772e-01 4.195728128839943394e-01 -5.143237378057824438e-01 1.452086679306139883e-01 4.940843807391297193e-02 -7.113312648044279873e-01 2.120370840435189530e-01 -1.594159821000590005e-01 9.324936128630288701e-02 2.940136470225991339e-01 -6.201148259861185563e-01 2.645986665030194418e-01 -4.554394745681157874e-01 8.270884137936532765e-01 4.048050464594671882e-01 4.006485798104724716e-01 -4.774290709875961269e-01 -3.673393963482493585e-01 5.926291283970440693e-01 -3.559991662950653390e-01 9.385420293129918823e-02 5.717999016522583300e-02 4.026322521180489833e-01 2.649141047366441182e-01 3.023379272764692080e-02 5.949575011391964319e-01 7.776495069132187687e-01 -5.692234228254651196e-01 4.133269000155849193e-01 -1.425449422362923546e-01 4.960815683239256924e-01 -1.895665412340355738e-01 2.737075867289257003e-01 4.696406833296242200e-01 -9.999430150101806802e-02 -3.897639288179314820e-01 -7.237626461426242830e-02 -1.913660491244113804e-01 -2.142623348618993284e-01 -2.574848330598762947e-01 -5.605204102818397427e-01 2.714127388285364484e-02 -4.065125212490511841e-01 7.471403070061596874e-02 4.868787923861813138e-01 2.792306610079385853e-01 -4.017749226304403454e-01 4.258698138254943255e-01 -5.501389101297269324e-01 -8.997448830751281212e-02 -2.341296511763719113e-01 -3.358011138493026682e-01 -2.310589985944169478e-01 8.554397486057868649e-02 -4.340246252930757276e-01 -4.558109739067866539e-01 2.403996238925202450e-02 1.501285167221306782e-01 7.733298938502121411e-02 -8.722291706934173217e-01 1.051580892272374834e+00 -9.256411027120349244e-01 2.388884137384588158e-01 -4.028908652943348212e-01 -4.533771624676797840e-01 3.966938987154267071e-02 3.571035457749061059e-01 6.524370322476295003e-01 2.857333046715994709e-02 3.534562805552830533e-01 2.302096445669875313e-01 -4.381724851894819861e-01 3.583922021212177511e-01 8.611279334224675175e-02 6.168670364210064594e-02 2.289505844760996445e-01 -3.841895856380017626e-02 -3.212061436103562095e-01 9.943704181453548452e-02 -7.987590709024987301e-02 -5.534489066747905195e-01 -3.240158343764460436e-01 1.623536796628224366e-01 3.954923781297525753e-01 7.629547057822837486e-01 -6.877812439840175207e-01 -1.116476005246021863e+00 -9.145409395463768853e-02 -2.615506435175436462e-01 -5.157876632364672975e-01 2.295510233243956144e-01 -2.171355335552531754e-02 1.885971669828171715e-01 1.170374765821639462e+00 2.342909027450834902e-01 2.264251452218847549e-01 -1.527573330405291030e-01 1.423799911170564592e+00 1.399634719472187427e+00 -3.835642621842859645e-01 1.561292339357868708e-01 -3.076905112350505553e-02 1.278214838628713712e-01 1.270870536304577469e-01 -3.469616144157170456e-01 -1.158219236679589731e-01 -6.827899919442928511e-02 4.744492763015699666e-01 -1.153502855424833572e-02 3.718975062704194534e-01 4.376143230939838480e-01 1.359802303274754431e-01 -3.323459063685013093e-01 -2.914373393782457855e-01 -1.459520672138790165e-01 -1.110363769489619984e-01 -4.121604207684508303e-01 1.276045840840904777e+00 -3.569100990824891073e-01 -4.028328506913815277e-01 3.699831026990047511e-01 1.850248709903143662e-01 -8.350557546502854755e-01 -1.829915949294636801e-01 1.764481702329491475e-02 -1.437351856843606390e-01 -2.247716653289018873e-01 2.164380910496353505e-01 -4.876028678311526976e-01 -2.341506156413041828e-01 -2.950311259525199015e-01 1.125745558492688536e+00 -2.650274613212143596e-02 -3.558019974844344735e-01 1.021757491238064336e-01 3.105913359242816196e-01 1.421190935909972253e-01 2.980332753552566993e-01 6.091107428080265729e-01 7.850172011514553461e-01 -3.610132518908837351e-01 -4.354488510601937645e-01 -1.473834756434323767e-01 4.040793447217269074e-01 -5.529874224063910937e-01 2.206427152245185319e-01 3.881700634489074764e-01 -1.605385015155202932e-02 -7.373994000017287664e-01 -7.869007689348893608e-01 2.518817871493813088e-01 -2.062739793090686002e-01 1.954988704758435225e-01 -4.594268243250543282e-02 1.504258418505926009e+00 3.589020585514794970e-01 5.413594484661252704e-01 -1.312684480117675412e-01 2.873786668101643293e-01 7.391071886914277189e-02 3.509268195682703206e-01 5.551359889108529178e-01 -2.291128965488609948e-01 1.345892259540761027e-01 -1.547148935644411527e-02 -3.583146405046122585e-01 -4.317349371240840616e-01 1.888989178228381652e-02 4.634525746461330697e-02 -6.610980287429352176e-01 -4.713640877280652064e-01 5.520159903606639551e-01 -3.541270474384093925e-01 -2.227380592506273127e-01 -8.897837256889203073e-02 -5.046753047444230145e-01 -4.571934960773950674e-01 4.847568114973764553e-02 -3.708711064676746549e-02 -2.025143505961873314e-01 4.151775831847542286e-01 -2.636268468347933713e-01 -3.282709761671070425e-01 5.503329560668875908e-01 1.394601686968307108e+00 -4.233185216361707304e-01 -7.035919130637187102e-01 4.865952048944968134e-01 -3.154938213327067309e-02 -4.771255863271370301e-01 -3.958881171203244564e-01 2.095206228507019708e-02 -5.987005761723518393e-01 -2.317884394071938192e-01 -2.511141522627912126e-01 -1.049246956677870601e-01 -2.833840562211514813e-01 2.534718455022392791e-01 2.638919859952658098e-01 -1.864586251382719384e-01 6.035359958906404421e-01 -4.393139222728631998e-01 -4.249210817877046437e-02 2.369681171111471807e-01 -1.619700351330867205e-01 4.960298676154684117e-01 7.969188656539166749e-01 8.889369820386674448e-01 -9.311051251378504867e-01 3.332733488616119732e-01 8.865498854214176605e-01 -5.684735676484649058e-01 3.643885986107071352e-03 7.839837437175470880e-01 4.607426358926838827e-02 2.600631753632840493e-01 -3.700683642421290775e-01 2.533527901979431007e-01
7.170931772435455709e-02 -1.084386969767447279e-01 -3.717499220207594046e-01 -4.061675791710388922e-02 -5.732269858863668910e-01 1.288400189885020863e-01 2.115102255884646620e-01 -1.946260434716170495e-01 2.679454206916752623e-01 -8.824101729231449698e-02 -1.179302804831808271e-01 2.942657649095354322e-01 2.384638572527701950e-01 -1.588167486489482916e-01 2.644877259622094856e-01 1.098350002218479726e-01 4.000538780881210954e-01 1.105521903857416832e-01 2.711358460731638220e-01 2.061934349595317129e-01 5.125299972604802079e-01 -3.471541172583252344e-01 8.790233177900924622e-02 2.676786713924436678e-01 1.236455253708621249e-01 2.788367740902424341e-01 8.066268303532727613e-01 4.606014921299105280e-01 3.698628180245424613e-01 -4.668248108258049034e-01 -5.514854111801194003e-01 -8.302453651898529241e-01 -1.676121061633961684e-01 4.832059903362852238e-02 5.076043748003028488e-01 5.771663552737726910e-01 6.186959679017522973e-01 4.786892318625354248e-01 -1.967017127673691412e-01 3.512152585142866434e-01 -4.238353914358568009e-01 4.086301822706108200e-01 -5.808242708939006516e-01 -4.112783577148261260e-01 2.062605498061269027e-01 1.470881163747748965e-01 -7.116979421728922284e-02 5.053216302675190841e-01 3.496871569775553135e-01 -7.850060253806853128e-01 -4.317196905679003827e-01 1.086243543598822830e-01 -4.406721376340837493e-01 2.657189763947974681e-01 3.942376484030258865e-01 -2.129674787065033437e-01 -4.952993143641267609e-02 -4.271236754871111096e-01 -4.541515056793501287e-02 -2.218764907319814017e-01 -1.334938735741249827e-01 -9.974845501089675548e-02 1.627369676031747703e-01 4.476627314850845640e-01 6.060489446608455788e-01 -3.933356899182965938e-01 -1.517746483608917174e-01 -4.626662568788124097e-01 2.730784303215252340e-01 -6.340953578530342805e-01 -4.660088728326954310e-01 4.267094192365847860e-01 2.576199297062306548e-01 -1.646577918466658463e-01 -2.733444404178086290e-02 -9.213483716570314286e-02 8.102641311051260106e-03 -3.039481505754168533e-01 -3.021933358779743117e-01 -2.285200934777436854e-01 -1.161465379587699465e-01 4.596147160732011461e-01 -1.412567565293725846e-01 1.328582576798835180e-01 -2.928475864977140852e-01 -2.639778151186019106e-01 2.092280993569052283e-01 -1.296142984931730191e-01 -3.052872742923770089e-01 -3.375858819969511093e-01 -6.062139286555695561e-01 3.041430290784349899e-01 3.657061001785460452e-01 -1.633126580999890998e-01 -3.425152297767625892e-02 -4.694535924532781956e-02 2.810926495310427375e-01 -2.899774702185753394e-01 1.240603262148438413e+00 -8.590740358363854190e-01 -1.751019782338009978e-01 -1.704351139976659213e-01 9.637097485476997516e-01 5.071029906638173657e-01 6.846232408843319281e-03 3.615308795344041592e-01 8.393648458736621687e-02 -4.862919445351449044e-01 -8.996125057886880660e-02 3.044450254911585385e-01 3.238167513185065127e-01 -5.960613818128231989e-01 -1.283596845423892185e-01 -2.633295408775264135e-01 -1.498576692251348819e-01 9.557230473326952525e-02 -4.055901234984212733e-01 -1.509133700888515006e-01 -3.491989102845917126e-01 3.506669654271892811e-01 -3.230914026451355281e-01 -3.335696110683289417e-02 7.250944824874734351e-01 9.513765338661080151e-02 -3.311100443490543055e-02 -2.482209298232943007e-01 3.426523378122636743e-02 -4.941673193820091403e-01 5.480128966566090165e-01 -7.927710824782323584e-01 4.970752528934689329e-01 1.040761071481989708e+00 -3.524928174907867029e-01 5.166059543467530490e-01 3.779260514075705180e-02 6.310488892911654268e-01 3.774763632172784544e-01 -9.397713497577775410e-02 -1.416576584449805443e-01 -1.609457384459004048e-01 5.142744578653073162e-02 -3.372271908487309289e-01 3.051011121270680859e-01 -5.012365637861154744e-01 4.102182646511319253e-01 5.325981106520325525e-01 5.925248595450841593e-01 -1.632284030277769693e-01 2.152570002154526874e-01 4.944677482721633877e-01 6.901931425336287340e-01 5.347243696185201012e-01 -4.951648580993320281e-01 2.393864778854670194e-01 6.976991432070155097e-02 -6.062265809372779923e-01 3.142258144995715430e-01 -2.721208615485695148e-01 -1.399193467265422430e-01 1.839964503582063593e-01 -1.415562733893558078e-01 1.455471682135217326e-01 -9.688615264062623578e-02 6.750491179981455980e-01 -4.668939227871243269e-01 1.409147553488551696e-01 -2.769846267707972709e-01 3.782888397819831328e-01 -3.640014009032584846e-02 4.084429086270480180e-01 1.683044049817686849e+00 3.474926354476094714e-02 -4.512143641368969171e-01 1.542269661493205213e-01 -5.164250066960872354e-02 8.809325426782410595e-02 -7.944331197822106505e-01 -3.664745825284719261e-01 -1.854532740764895660e-01 -7.765106651898730228e-02 3.556821302951521657e-01 5.077202975054808665e-01 -3.626765318813232608e-01 -3.467137832029849182e-02 -2.493009514344811384e-01 -2.843556381533353730e-02 -1.484646445884791818e-02 -6.511057279296281197e-02 1.910331125293806553e-01 8.493347244647853067e-02 -4.580061156544424361e-01 4.268775999286468226e-01 7.330962472531735719e-01 -3.079748804167516396e-01 4.611832635444899076e-01 2.109915696727105439e-01 -4.690709653285773384e-01 -1.472993430268494108e-01 1.620572724905567918e-01 2.553389683600460966e-02 2.737851369617279040e-01 -1.797418802419006867e-01 1.309018107399520792e-01 2.255658033309015931e-02 9.188428792725629457e-02 5.057808296316490537e-01 2.174331428973625968e-01 7.488844092304683953e-01 -4.223312698377252872e-01 -4.302380582852163293e-01 -1.380904704016814311e-01 5.267270487555063552e-01 5.925082464040993813e-01 -1.630702764722782583e-01 -2.770187404029808009e-01 2.266626614792637273e-01 3.205977681353132658e-01 1.682743303267338342e-01 4.566529563776613315e-02 2.329261927774632646e-01 -7.198323091410785413e-01 8.766952631662011663e-01 1.433386106142266581e+00 3.204252908327929750e-01 4.178573417550717622e-02 -7.958387179274584167e-02 8.671956177778640251e-01 1.023641306663298362e-02 3.882295844579392030e-01 -7.599293712744828455e-02 -3.357675384579103528e-01 4.488535538794526936e-01 2.461104006552131407e-01 6.547915643289285992e-01 -4.470148644158720153e-01 -7.173369335740745201e-02 -3.105041757881181752e-01 4.640573108258815305e-01 1.315189060500293328e-01 -4.368372195564057536e-01 -2.712262340358721491e-01 9.573729377977145683e-02 1.039893269168026130e-01 -3.439127654837317305e-01 3.906523819840138634e-01 4.763738804177190533e-01 -1.114741135735156208e+00 5.747799553259754779e-01 -9.964979604045112738e-02 1.666838762286451947e-01 -3.739407694168359747e-02 1.599584398047058376e-01 1.287224658400132060e-01 -1.663227423974527330e-01 4.083895059415230122e-01 3.547572821695423873e-01
