-5.820189889660080107e-01 -3.305146923235227630e-01 -3.371267719378399641e-01 1.570372312176092355e-01 3.805814350716162364e-01 -7.406370768076840916e-01 1.179116668656322725e-01 7.450550876754409579e-02 9.667141738800743012e-01 -4.257565044942834831e-01 -1.461395716320084970e-01 -4.844887879301679190e-01 -2.302150991238154809e+00 -5.472759398174327217e-01 3.543115055858577778e-01 -1.423648538579059541e-01 -7.814968839535291201e-02 2.092551675804739664e-01 3.968372267283493127e-01 -5.838831478261173880e-01 -4.871235370056248848e-01 2.034155996017191548e+00 4.671124417353846869e-01 8.246425972822697403e-01 -5.338682750698604818e-02 -1.859099788240990980e-01 -8.271963976580271050e-01 -5.042358304524118262e-01 8.341909184625308227e-02 -1.167095692842442300e+00 3.947078561570370459e-02 7.597850004317162620e-01 -4.593432528102867063e-02 -3.297303435050421561e-01 -1.618658693797011772e+00 -1.738631461116712240e-01 7.219472124577920313e-01 -4.315565435167200703e-01 2.246983658185486288e-01 -2.603459728925129335e-01 -6.182665961948288214e-01 5.671440426421818781e-01 -5.252418194335788382e-01 -1.437186330115430843e-01 4.076161655600868405e-01 3.130038604845151728e-01 -5.888734388248341167e-01 -4.208962241492935075e-01 -1.246222386295735979e-01 -3.604126045554736923e-01 -2.749717638336256487e-01 -4.883374797661602651e-01 1.681554783516824858e-01 -1.156239236414387389e-01 -2.886550826639749934e-01 1.169821077356265754e-01 -2.932206219164748551e-01 6.783722195585873971e-01 4.282913201555715310e-01 2.399008966160282308e-01 -4.238539580491874070e-01 -1.956143351238010530e-01 4.673147260483249132e-01 -1.028795040036181163e+00 -4.318193852139382699e-02 -1.911486555188935677e-01 -3.905382662798934090e-01 4.174242235300630322e-01 -5.076217382056230631e-01 1.810705172229087889e-01 -7.228266281146867867e-01 -3.962998773796085339e-01 -4.475066612840375435e-01 -1.694066241473334011e-01 -8.814746159424480254e-01 -8.071326468366757378e-02 1.600450066551921957e-01 1.299864342861704880e-01 -4.737179535713831879e-01 -1.061225992189519518e-01 -4.594854857985768426e-01 1.974799465195778425e-01 3.822506108288765275e-02 1.831613529045768296e-01 -5.541935356771556798e-01 5.984138603983038540e-02 1.775351575724202879e+00 -2.960481361526601241e-01 -4.077039310262322094e-03 9.331119674629247129e-02 -8.859994606181864629e-02 -9.279123636518725460e-02 4.883220284245570753e-01 5.407134036655887321e-01 -1.325844561173257219e-01 -1.970189614016756574e-01 -2.942600133815735930e-01 -3.329394903280709639e-01 -1.454013337747847578e-02 1.294665866300375390e+00 -1.020421602587518600e-01 3.255625661092289014e-01 3.169863566873970528e-01 3.518535101541159782e-01 -2.031590894386060830e-01 -8.907732949437204839e-01 7.630758202188160366e-01 -1.286148923394516697e-01 -7.979659432892821647e-02 -5.124398782748391667e-01 -6.555167353857500601e-01 -4.197150440535605265e-01 -2.577652025412552339e-01 -4.470986734121242256e-01 2.776379398535769871e-01 -3.514383943789895492e-01 -3.451314531581735623e-01 1.030695710321342384e-01 3.547675642575293109e-01 -1.932508722151179287e-04 -7.018442017054636606e-02 -5.156178022924170490e-01 5.203238516121272417e-01 1.191169434925968829e-01 1.993371867111830009e-01 -1.355782318562727407e-01 5.800854282641015880e-01 4.303195979493408818e-01 3.108442161609744625e-01 7.269240262051901436e-01 1.556266451723438068e-02 -6.888461925474003156e-01 2.336096615606181870e-01 -2.266939548404464932e-01 8.423318028284099146e-01 1.164616190165231213e+00 -3.482796327705735551e-01 -4.464534541810394885e-01 -4.479495934509966082e-01 -3.120508290993713185e-01 -3.326446756675703886e-01 -3.417051684430880698e-01 3.642898085319349888e-01 -1.966341809720506817e-01 2.191420264104727567e-01 3.019047715598818238e-01 -2.514465333723900908e-01 -1.078267043880336784e+00 -3.666122043149431242e-01 -4.101417398400674652e-01 9.642543262589299280e-01 6.710079443083677431e-02 -1.322004091811059268e-01 5.330044169708121338e-01 4.132312481225838274e-01 -3.299100477433863920e-01 3.344058422568944033e-01 -2.037298892930227701e-01 -1.940746123533734768e-01 -1.965455406451430964e-01 -1.645329034386796077e-02 -4.019165607408570207e-01 -6.282428936974945310e-01 -3.082270707236766868e-02 3.205779729937274086e-02 -3.573007554549064158e-01 -2.990423722055227662e-01 2.807456356625108729e-01 -3.112069434750480701e-01 3.923763130535681820e-01 -3.543209330103405108e-01 -4.519350159467485084e-01 3.704981840527223902e-01 -8.477425916567202790e-01 2.866762986921006506e-01 1.173257439003852598e+00 -7.615816842540179543e-01 2.799226528137921388e-02 7.066142247742171478e-02 1.162653720859723600e-01 4.012502368852358670e-01 -5.738137023171155926e-01 -7.750179072282786796e-01 -3.466617221061265575e-01 -2.218734714473609149e-01 -4.666918862980452554e-01 9.495834717695468274e-01 -5.708823535645925207e-03 2.593745119092532025e-01 3.865987320503703750e-01 -1.906256861950359482e-01 -4.141689537761631401e-01 3.924383645718823588e-02 4.392240062534370423e-03 3.280651797435862882e-01 2.406795877700198052e-02 5.420328968399898972e-01 -2.155397375852201869e-01 3.248755350696728161e-01 4.797943791785727607e-02 -6.576783016890548096e-03 3.204828827486045362e-01 1.610862404961361516e-01 3.085640839121970291e-01 -6.709116064512534727e-01 4.756337010587854408e-01 7.523037833026761101e-01 -6.907736338601812021e-01 -4.869812266068589413e-01 5.222917635512800416e-01 -4.096794160775162341e-01 4.139503187318389066e-01 -2.864406596014705264e-01 -1.851201289014154650e-01 3.983925622841564401e-02 -1.299409036615257473e-01 -1.280260716951221456e-01 -3.372614983923039600e-01 1.612808260660860415e-01 -4.123190720614202665e-01 -7.901127689041526070e-01 1.539195907765938121e-01 -7.364087857535802639e-01 -4.492755045130058383e-02 -6.069481730508483608e-01 8.566219594373608581e-02 3.007496563492935166e-03 -5.049352067020259627e-01 1.190290278850114625e-02 -4.733895574885336743e-01 -5.480661038579062172e-01 -7.484637552190921694e-02 -3.829240952093187489e-01 7.307843327730565441e-01 -7.637807276567951664e-01 -6.283657807283423713e-01 -2.230614132756620072e-01 2.981243231626121704e-01 2.468584633997104316e-01 -5.374051356504923049e-01 -1.023140945917331845e-01 5.144065179483329198e-01 -2.443598922357859415e-01 6.091866035086063863e-02 -3.262891914783441760e-01 -1.598521984216759062e+00 -7.175511635639966190e-01 -5.292851011490522506e-01 -3.036116434384991125e-01 5.185409339948487961e-01 -6.642566588870172373e-01 7.013989893105051499e-01 7.012747037088341573e-01 -2.179553179634328153e-01 1.025072514336552998e-01 -1.600109913684207019e-01
4.569611980620139069e-01 -3.349011211062437043e-01 4.471613924865309730e-01 1.317573881351643827e-01 -2.059250315440549206e-01 6.221698053650296378e-01 2.432977039248649387e-01 3.271513224110426665e-01 2.887429398051167828e-01 -4.030200518568291534e-01 9.398420023702219739e-01 5.347667762218215604e-01 -1.247637942197053595e+00 7.201029404735803663e-01 5.028149457290564950e-01 -3.123608936706645522e-01 -1.772266326565545558e-01 -4.471894959503481259e-01 -9.435074541441205997e-03 1.385967487962778688e-01 -3.911980651550860388e-01 1.260418269444052886e+00 5.082465590379628972e-01 5.749132422410508508e-02 6.138502939381584866e-01 -3.701204946073751167e-01 -2.255625102142918559e-01 -3.151817513170684371e-01 3.924210554528408945e-01 -2.202610236349068273e+00 3.903329892093556630e-01 -5.236188251220245948e-02 -2.431557803335314960e-01 -9.249980568558202609e-02 1.601405706977541699e-01 -3.161784317197122163e-01 -1.914068172975166016e-01 1.545990841107059421e-01 -1.905381456646288996e-01 -2.685364677993565263e-01 7.313829840292661311e-02 -3.664461323287531713e-01 -1.164726319172123409e-01 2.266939108723810825e-01 -4.091395282663271571e-01 2.844682750742749677e-01 1.643557764658824527e-01 -4.014144375276859078e-01 -6.752085019808271582e-01 -3.072528790213824856e-01 -5.516596996425796040e-02 3.384514156112437000e-01 1.420313842193264842e-01 4.827331508462758269e-01 1.767359257561005037e-01 -4.578943918466312213e-01 -4.445969466679335902e-01 -4.956707342966665264e-01 -3.051408882422720348e-01 3.432016449283727400e-01 3.544135324157964284e-01 3.998914301473596722e-01 3.668777284473336842e-01 -3.367015638611835504e-01 -6.124194524758574953e-01 -2.456910574436173278e-02 7.757859569672680145e-02 1.787566921025197930e-01 -7.707364126214376158e-03 -2.953990336960062302e-01 -2.183818955268857775e-01 -2.320611845202107670e-01 -4.180296928533187573e-01 -3.418554807968087750e-01 -7.158303039335057738e-01 3.524879733570582818e-01 1.982367555450859908e-01 2.034946950996425752e-01 -2.795665677965225582e-01 -6.270270734616996133e-01 -1.929189962222982169e-01 -4.583932430881835218e-01 3.658561266229438669e-01 -3.594267176837362965e-01 -4.163209878002696596e-01 -4.661819282046071877e-01 1.486145730458015235e+00 -3.370788065442594794e-01 4.147381401860845140e-01 -2.625473101248429475e-01 -1.492021547688241190e-01 2.448097540898356295e-01 3.993945302411572862e-01 4.392407265118307702e-01 -3.746695467212995956e-01 2.521287031366852699e-02 3.956223859246735808e-01 -6.480678111843937161e-01 5.446721571360276792e-01 9.127488891182630737e-02 -1.311589604799710540e-01 -2.204907446947856620e-01 4.450759161579320722e-01 -3.688497197257722404e-01 2.778974467592167444e-02 -2.658007204822383784e-02 4.627358739484569994e-01 -5.073846719149180950e-01 -2.241097422879597401e-01 3.259716416758071111e-02 -3.079839656077946741e-01 2.913630356502517477e-02 -2.038649682005150010e-01 7.078403693837165278e-02 -2.470901428969755897e-01 -2.411737483780097002e-01 9.213683466688663004e-02 -4.378726260844612028e-01 3.168660718498367279e-01 -5.201224417516773224e-01 2.715274024783161932e-01 2.002251824729023022e-01 -6.425451760494383935e-01 -2.407318136405202924e-01 -1.248285903677626152e+00 -1.341911825444632722e-01 2.477372310344412576e-01 1.559075414355834965e-01 6.614140769901876160e-01 -1.539488400245206390e-01 4.292279394133541315e-01 -5.854652670588484931e-01 3.547202574788154150e-01 -3.374954492918700311e-01 -4.033973324037674890e-02 1.939118031584539770e+00 7.871902248625043397e-01 -4.892032467384335170e-01 -3.751767537072548397e-01 -5.754269252177374172e-01 9.571272029077668164e-02 2.771272531059352229e-01 9.269696659685522366e-03 -1.281034127239570053e-01 3.481168861183826513e-01 -4.234955824494943677e-01 -8.046103155290627862e-02 -1.797694761296641797e-01 9.599011077143641824e-02 -1.394394061214263014e-01 -6.450499047897624294e-01 1.292593813198186503e-01 1.222179652863622373e-01 -1.794207800318305956e-01 -3.354486099282392164e-01 7.041807769976903275e-01 -4.611262982993926118e-01 -1.172842133413463384e-01 -4.622477108958336980e-03 4.684189721204309320e-01 -1.128544887769886929e+00 3.331613622518242446e-02 4.935748836787035021e-01 -3.852637146885565245e-02 -2.874393774748564001e-02 3.313765981608006173e-01 -4.509134182431590032e-01 4.722868719922814207e-01 -4.616962023275295035e-01 2.506089227666496444e-01 -6.109711773691978154e-01 1.914467136810240055e-01 1.360425352570497903e-01 8.620255095085052055e-01 4.151775616057278850e-01 5.596730229090783881e-01 1.252828259774221076e+00 7.764302652409679206e-01 9.223135976361016009e-02 2.305544114689863505e-02 -3.020085172606576940e-01 -2.161963602833210651e-01 4.203894620933874560e-01 3.198758478500851044e-01 -2.285590402348174344e-01 2.189939407160766405e-01 -1.757627635314463754e-01 -6.933157750318783008e-02 4.872161676930900076e-02 -4.392105386757902408e-01 -1.654895074738317318e-01 -1.989763591513043772e-01 1.057138763023243389e+00 2.775764788845884179e-01 -6.832862653247304130e-02 4.999936377636248208e-01 -5.547618629026663806e-01 1.505513706725670753e-01 5.581038844519656816e-01 1.740876217421069572e-01 3.704311947289543605e-01 8.719341733024382757e-03 1.173281162694018165e-01 -1.603782842696824251e-01 -7.071743390809677177e-01 -4.506321841384316462e-01 1.439392020366999869e+00 4.418402971371970245e-01 -3.827280694503445990e-01 -7.828102574622765042e-01 -4.690576814045023246e-01 7.919401335201421699e-02 -2.607307084899385674e-01 2.901669521655821371e-01 1.268709839898689686e-03 -3.423227578662047660e-02 -5.246721689711398851e-01 2.981433408095888749e-01 1.829286740763542418e-01 2.018973105732037587e-01 5.843819222768389388e-01 5.033846122711649329e-01 5.116624759261199085e-01 2.195580253135236970e-01 5.880640556242274775e-01 -4.308852520608783543e-01 3.106458704394716164e-01 -5.358221748920012351e-01 2.404782422532077135e-01 -3.668983011352675572e-01 1.478928808218305246e-01 -4.120348588437882653e-01 -4.018288849914030680e-01 1.294066934236299538e-01 -1.488572935910270900e-01 1.373739891612234809e-01 -8.386601389145101892e-01 9.707687789140667656e-02 -4.847516959184359764e-01 4.349635212204126522e-01 -2.823123944772523361e-02 -2.931222117785466930e-01 4.997906846387187296e-01 5.170135458347839830e-01 -9.575757441119107927e-02 -1.274282357023918122e+00 7.183804575879563226e-01 -1.957099598560336495e-01 -4.240928424202007885e-01 -3.471081523040827066e-01 3.225654689322953184e-01 6.642369189865865442e-01 -2.956479649202279902e-01 2.943274070338936510e-01 -1.382473790988721085e-01 3.658718039102015762e-01
1.178086898106747854e-01 -1.863386459395481032e-01 2.836989183871821418e-01 -4.393601338541792134e-01 6.143406672063856933e-01 -6.762012389672918955e-01 -8.874220912787977866e-02 3.902027267469661276e-02 -6.625575909212558234e-02 -9.791048435054498789e-02 3.080003028362749973e-01 -1.306410696945885519e-01 -2.780406631213603319e+00 1.241784613403578708e-01 -1.003438265708911231e-01 1.635362130074673737e-01 -4.716337137656772538e-01 4.017657594742584104e-01 4.354661061806635591e-01 -5.665328380406282199e-02 9.199133897046257724e-02 1.801168514211037852e+00 -4.983097022560529221e-01 8.738136264108082862e-01 -5.930914314799000664e-01 -5.736228407627165238e-01 4.213667899709653830e-01 2.126957734950950252e-01 3.166596632055906357e-01 -1.255968630217472626e+00 -4.741688871666788208e-01 -6.366593977726723308e-01 2.012834554434784484e-01 3.311335798346600745e-01 5.805791977284498195e-02 -1.018527648725280205e-01 7.887339890439535317e-01 2.748182995124494599e-01 2.158579772246866924e-01 -3.164084882768340989e-01 1.525898485631559387e-01 2.032788451492854587e-01 1.413850666836061754e-01 3.803008752263604270e-02 4.791093268269144279e-01 1.365190405215922775e-01 -4.676133385936889209e-01 -4.519826104510690223e-01 4.393877494439711873e-01 -8.005645919312500691e-01 2.745000291180255125e-01 3.249421859080842134e-01 -4.301783812562067766e-01 -6.120451095951046083e-01 -2.068318233298208353e-01 -3.417139702535758050e-01 6.049894703847291666e-01 -3.474199510374046951e-01 -3.820220178197466510e-01 -4.545274288472466728e-01 4.370898983694894158e-01 2.131634455037873521e-01 4.234291950290197670e-01 -2.594018944373592817e-01 -3.927285488834044158e-01 6.597158496890133117e-01 4.407467105275905683e-01 9.276326408697367631e-02 -1.455883958933700817e-01 -3.455955522682904180e-01 2.454730412842329457e-01 3.974955930295294704e-01 -3.530977484392676669e-01 2.343682463171782027e-01 -4.947050311002743062e-01 -4.907757324657802678e-01 -6.257955517152104241e-02 2.556421463889285151e-01 -2.102103413612542715e-01 -7.156520553328211687e-01 -2.427589117016166476e-01 -3.872113050837159513e-03 -1.541627192420542622e-02 -2.101129025008015294e-01 -6.377733553798531352e-01 5.648896101472491438e-01 6.336315120118348743e-01 4.377770215727041364e-02 -4.396715631803468360e-01 3.192458739031793780e-01 3.161068585308245971e-01 -3.920615506620222512e-01 3.127978699460459006e-02 -4.195108420733210663e-01 -4.730506492990744216e-01 5.779222141830256954e-01 -3.447304649127253540e-01 -6.317624874574644389e-01 -6.095350522428049089e-01 8.181447694858455799e-01 -1.977221992250021432e-01 3.330264142482700085e-01 -7.099635420281723563e-01 -2.221385235240076750e-01 3.226414835541650539e-01 -9.904634638858332840e-01 3.467385371473349909e-01 4.234516375317417397e-02 5.222309246081685563e-02 -1.237088185224652775e-01 1.178480468976788875e-01 -1.608581840607636315e-01 -1.772535457725313846e-01 -4.139342610527899091e-01 -5.035066046350822333e-01 -1.451141016069888989e-01 -1.111613564056609937e-01 -5.890099816974619235e-02 -3.652560093155947651e-01 -2.459863585847886780e-01 -1.357315835675343141e-01 -2.654102386083677101e-01 -8.185741244178535991e-01 7.840211006156988516e-02 -5.398369619577639833e-01 4.156957867185189226e-01 1.794279307533384535e-02 1.803787305395657126e-01 4.855471636479073982e-01 1.250326399839584379e+00 4.140794427352112450e-01 -8.864430354682486038e-03 -2.567842525941805287e-01 9.062523539332692502e-02 3.642403066005702739e-01 -2.793378971327857285e-01 1.527621794153846968e-01 -1.620152970932494385e-01 -2.117735049807665249e-01 3.810198885674585534e-01 1.602977552825181340e-01 -2.544795631892720622e-01 2.192538885509076885e-01 3.647416622985443779e-01 5.126295469122029713e-01 3.139999334588612356e-01 3.459133937914882218e-01 7.496384426984946392e-02 2.831010617058297291e-02 2.271582604399050576e-01 8.497328912455185401e-01 4.598041369066839801e-01 -5.168035323214442006e-02 2.230587582362184018e-02 -4.147611285358000499e-01 3.710247412296457936e-01 3.716439272162019164e-02 1.078828529459166657e-01 7.537268362752762574e-01 -4.237634706328133882e-01 -1.339744230070875342e-01 -8.911717887273332694e-01 7.147109303467865660e-01 -1.000518811497212585e-01 -2.708908976754502151e-01 -2.785891496493351771e-01 -3.692484662328913148e-01 -7.972691853121440797e-01 -2.942517984066064796e-01 -2.716304657229502359e-02 1.980471335165105318e+00 -1.154158690116706826e-01 4.289120226082481224e-01 5.273854812188629726e-01 4.355575701223691754e-01 7.862409053954860783e-01 2.195011842747902620e-01 -4.652458706657576770e-01 5.118713468271185452e-01 -3.149537382601826363e-01 -1.631880204663050393e-01 -6.887719291052716263e-03 1.015865742912702985e-01 -2.251899699625411755e-01 3.518782558425043727e-01 4.187929711399938637e-01 4.536169320479818134e-01 6.262934731139718769e-01 1.184904802496152681e-02 -6.185993462122943432e-02 -4.055304490160535624e-02 5.650070465086159954e-01 1.482469165149016277e-01 -4.598031522644246971e-02 6.231007921145740314e-01 7.012089800219943603e-02 -2.258002734634520503e-02 -1.617145860429332060e-01 -3.534210282111379664e-01 3.694003552487954423e-01 -1.472743666373403926e-01 6.558381384400392700e-02 -3.732027684100898135e-01 -1.162433329584007941e-01 -6.487229041538997709e-01 9.904450794528486812e-02 1.167944231174244285e+00 5.141005341907699949e-02 -3.717508234919904009e-01 1.643280908480732883e-01 2.760483126934579201e-01 -1.537459956071158262e-01 6.669636131517899802e-01 2.823400594974653233e-01 3.512629290320750663e-01 -3.458019754829941839e-01 1.369463851658851705e-01 3.613864840069107021e-01 2.078719213516028730e-01 1.208781049109741712e-01 1.342222685006417560e-01 7.003963087906106555e-01 -7.042329537080820323e-01 4.146523366867557736e-02 7.366294766222309942e-01 3.130370624494846488e-01 4.597226587787318630e-01 -3.473723784208318510e-01 1.039112170829618043e+00 3.035819903763681011e-03 -2.206868992235927474e-01 -1.057561987162820294e-01 4.186365329016804998e-02 4.927325011113414810e-01 3.974317106554636769e-02 -2.964281293292019281e-01 3.630688643908046020e-01 4.894832442860801991e-01 2.210018635771843210e-01 1.600544519002354282e-01 2.619449116527149402e-01 -3.503580581104919212e-01 1.169290348407899527e-01 -4.935989332690133846e-01 5.209495572572278022e-01 -1.233846745117831434e+00 -3.253088458549616702e-01 -6.838906945217656519e-01 6.014334910273058110e-01 -3.580254761688649312e-01 -3.898252410841122201e-02 1.159377992072423008e-01 -1.875323934053362701e-02 1.450554067262515845e-01 -1.905694132598732826e-01 2.675459843905432789e-01
1.740762987177962851e-01 4.309747544761112770e-01 1.538221821748180645e-02 -1.988798046236259498e-01 -6.365959070910554018e-02 1.398855622039903435e-01 2.169249791553895801e-01 1.256894539834845503e-01 -3.200968820075326127e-01 2.267544451099366143e-01 -8.044496538323697710e-01 -1.872249000932138530e-01 -2.108949719579082949e+00 1.244186235806498786e+00 1.353828188602703708e-01 9.250354910879134140e-02 2.066237308581715115e-01 -2.916492750091368991e-01 -9.196148207643012329e-02 4.866286665452043136e-01 1.590998466206985651e-01 1.321898893482357451e+00 -3.960930252773460225e-01 8.138509190566613205e-02 -5.336201731963490236e-01 -5.234821345981111040e-01 -4.929964394082140822e-01 1.691828192610492221e-02 -6.168673973522025289e-01 -1.023844372546516723e+00 2.032298066313864282e-01 5.902342704673525509e-01 4.473547395902875423e-01 -5.362644008360990533e-01 5.784635645008372462e-01 -1.146060755685278515e-01 6.109079882038628284e-01 2.130259710533827788e-01 4.469150331904101492e-01 -4.004701728665210902e-01 3.370204299261407854e-01 -1.652797399592406680e-01 1.916256865078350691e-01 -2.490167240362114176e-01 2.442849279884141134e-01 -8.539925828632735083e-01 1.524350003476851456e-01 -3.013258055581863881e-01 4.871253851182764105e-01 -5.604048970682395936e-01 5.041209866638275416e-01 -1.915365813963497144e-01 4.504461466190237684e-01 -5.296823077276618941e-01 4.100125748030026829e-01 -4.661268273022700082e-01 -3.539584879257182126e-01 6.715572091585090275e-01 4.911881951165122384e-01 1.621103240863917272e-01 4.298123410204416350e-01 8.858222127302577565e-04 3.558783002602693979e-01 6.864473309185487038e-01 -1.702511284884656639e+00 -1.006177028523528749e+00 -4.360016377690468792e-01 4.933535276653003843e-01 1.194379867936548933e+00 -2.046779527522541164e-01 -6.953904828748794786e-01 2.325590582562598041e-01 -1.465432699261605964e-01 -2.190548041076590402e-01 1.695732583511550540e-01 -4.599616752856491297e-01 3.820872693587796798e-01 4.103637196571840451e-01 -3.365309307872151323e-01 7.641532217443655628e-02 3.673838979534004845e-01 2.947488347916532025e-01 4.053955415292594816e-02 -5.304283008613233097e-01 -5.550073563951086753e-01 -1.857491077800813295e-01 5.888599779550249824e-01 9.425166055151814604e-01 -4.030626862077631434e-01 -5.629775304614850207e-01 -4.113154714469750561e-01 5.386357062906459853e-02 -1.532997353651132932e-01 1.529687053341530489e-01 1.315021049843850265e-01 -8.132703313868446804e-01 9.225755678342183186e-02 -1.113532919918032299e-01 -4.110215327195775870e-01 4.425871384966583721e-01 -1.320171665988126297e-01 3.583112244454577655e-01 4.891655113545231859e-01 -2.337576339199673447e-01 -1.706986487399826669e-01 -4.215525731659008346e-01 6.584618884991466636e-01 1.028550724627387503e+00 -2.455756994830246009e-01 3.185361164252749067e-01 -2.577209012660707996e-03 -2.843319680600414623e-01 1.482279085540025021e-01 2.575090981609599594e-01 -1.499819749362292856e-02 -1.944810483011295277e-01 4.801397378403342575e-01 -4.710892458356852885e-01 -9.977252140683515874e-03 -7.161085241455522610e-02 3.212497394392899164e-01 -4.673357234673847227e-01 4.803991128007013556e-01 3.603400651052775239e-02 -1.083623337910658124e+00 -5.893137549837177414e-01 -4.482973085305363425e-01 -2.755858081998712739e-01 2.551591059249256332e-01 8.510889897469703369e-01 -1.610821209526936415e-01 -2.573106430408649836e-01 -3.334138980210328840e-01 3.498676772923283718e-01 -2.698744361502789513e-01 5.008795820424317286e-02 -6.770007449562391866e-01 -4.750575957689311402e-01 1.030727329294906930e-01 -6.759761178157618344e-01 -2.470546436293780956e-01 -3.592253243263590634e-01 -6.268488096316553460e-01 -7.671996341459905167e-02 -2.851804464852025212e-01 3.799183098287184923e-01 -1.736493925659767790e-01 7.694179522060240473e-02 -5.104029465550480316e-01 2.716034713033048664e-01 -3.833655117268432999e-01 3.541000521435300197e-02 2.910873934231200666e-01 4.243920143471786588e-01 4.277375176080694397e-01 -3.873844138414525573e-01 2.316210509574689602e-01 3.703893998437632340e-01 -1.141239040020999962e+00 -4.240113577003052914e-01 3.221329421135563087e-01 7.010624563530971631e-01 -3.989093628182709961e-01 -2.366130660200037317e-01 -9.196866714809626142e-01 2.596726530808026595e-02 -3.819268058823796497e-01 1.285034696900530793e-01 4.404347983113183207e-01 6.623593087775517252e-02 -4.206724804635532666e-01 3.927090820072123289e-01 -1.711193922499665565e-01 3.019411273477924929e-01 6.012358804147677205e-01 -7.387809864882594058e-01 4.290643109903742314e-01 2.869166446906391485e-02 -2.470614765335173435e-01 4.804499560033179822e-02 -4.427690175893587710e-01 2.378148587306483652e-01 -4.205723487520769410e-01 -3.045779246953546626e-01 2.047313906126381478e-02 2.398924528111922860e-01 3.015968960681916222e-01 -7.665923536300723873e-01 -1.701074358025927158e-01 4.202859809437182181e-01 -1.229021617678474065e-01 -5.026052800772788931e-01 -7.410262431578527043e-01 -3.754243303184357505e-01 -5.383005636835346275e-01 2.167238860760585181e-02 -3.019633742675254529e-01 -1.128435589737600137e-01 -2.856292321112395283e-01 -6.175592957497487712e-01 -3.967579867157784435e-01 2.450330273224608779e-01 -2.463783623806210668e-04 -4.864694765928224696e-01 -7.174000260415334118e-01 8.865108733609330938e-02 1.235611269903196918e+00 4.996756549256495088e-03 -6.501215903162445020e-01 8.622792440508372236e-01 -4.578747220882833369e-01 3.124296944861426062e-01 -3.414590122231034308e-01 -1.452120326103318315e-01 -1.159179975316075167e-01 2.939724338803154091e-01 -1.517520975854930176e-01 3.458023572282058478e-01 4.462262542619479522e-01 4.194031406728490063e-01 2.483047475301174423e-01 -4.063685179663455438e-01 -5.679117944542843022e-01 -4.642775920531375666e-01 -6.403945595529599855e-01 -1.334049172004718731e-01 8.634359506629793457e-02 -3.090690113344739948e-02 -8.046336229802171225e-01 3.859228205506698428e-01 -2.201133000131407641e-02 -2.886661780197626315e-01 -2.452828303933484444e-01 6.272780418216593601e-01 3.003653003377850239e-01 -2.189880804282120508e-01 3.994146606837468139e-01 -9.559211062368938583e-02 -3.892768757006764280e-01 1.747515509714392679e-01 3.225162728422322767e-01 -1.904812206647970296e-01 1.982982071058288498e-01 -6.104704753616624346e-01 -3.785544665207026677e-02 -1.529159203967181746e+00 2.974560074602946025e-01 3.890336432986061244e-01 3.257234555516763108e-01 -4.889858265840909546e-01 -6.730740590682594837e-02 -9.219820021736749860e-01 8.369187196508605098e-01 -4.883704020677459567e-01 -5.209104964213973066e-01 9.201074726394180281e-02
-1.277747604199268805e+00 -4.170052396255418681e-01 1.125987997911495342e-01 -2.713982044528707310e-02 -5.374475995257780303e-01 1.356737106051828068e+00 -8.097484391154050054e-02 -6.664029555280344408e-02 3.217687932621704494e-01 -2.296121563405483512e-01 3.510464140339768502e-01 -6.735765760897934884e-01 2.963248013193791053e-01 -1.276749439419821996e+00 -2.876804748868233563e-01 4.191692321783982988e-01 -4.386482906500884793e-01 -9.335509194795572896e-02 -1.316899077446154476e-01 -3.354815211165158573e-01 -7.401915761009565664e-02 -6.510251678170534406e-01 2.378387588848952794e-01 -5.914871691013907640e-01 2.893395999776026684e-01 -2.970090306989341816e-02 7.872293546713333701e-01 3.077397327560848495e-01 5.408195647169723452e-01 -7.030544716123939830e-01 2.199971317007196892e-01 5.586393419561515999e-02 1.263418914144145144e-01 -3.497362970825931838e-01 1.279421077070507472e-02 3.415892696461088618e-01 4.370588848539315452e-02 -2.304937348754214355e-01 -4.227057133643813969e-01 -2.075286160141147918e-01 4.812155300838311806e-02 -4.245954457704964047e-01 2.735087238968660350e-01 2.088168117927655665e-01 5.274494699039780632e-02 -2.258571786889378430e-01 -1.320849538732641604e-01 3.557967461588536218e-02 1.296777228351803923e-01 -2.231530228709200925e-01 1.063897230676755512e-01 4.323993631763340950e-01 -1.155236576205466853e-01 -3.115457675331390619e-01 1.249302003478931916e-01 -2.058930280025427495e-01 3.839122453501146448e-01 -2.672173586466633499e-01 -6.198533802269512449e-01 3.925351833661623324e-01 -3.842152030989682276e-01 -3.745924789484239015e-01 -3.873568546083304143e-01 -9.052770665548366402e-01 4.066022256777590549e-01 3.047647791777613469e-01 4.094151581622891278e-01 1.495631345423228953e-01 -1.185760765491190138e+00 -2.530275601597696822e-01 -4.778249946285636485e-01 3.218628760952838563e-01 1.581012445548590217e-01 3.985417550031473133e-01 -2.090721819424917749e-01 -5.374273065365210433e-01 2.880376999427881612e-01 4.817739348193679216e-01 -4.391214275373215431e-02 3.902257172067634672e-01 -1.765958681697401833e-01 -3.525707419621159633e-01 4.014898113642426658e-01 -9.206630049177813579e-02 1.875136317904329275e-01 1.590563195183890277e-01 8.021342814712800751e-01 -1.940834883169079150e-01 -3.857544229337763753e-01 4.199257329211030232e-01 -7.204484185152588704e-01 1.979741477423050955e-01 -1.124298643188382935e-01 -4.952450837807533257e-01 3.820703878365043493e-02 1.163637849502125454e-01 -6.637171518812020610e-01 -6.527907745604413225e-01 3.683788102205522441e-01 3.712885513715356023e-01 -2.979878325749495960e-01 8.266084503592724397e-02 6.143041688008193946e-01 2.737271105369403768e-01 9.322482403686049857e-02 5.119642837968663152e-01 3.489652041689568218e-01 1.996404841455765022e-01 -2.355847490263878463e-01 -1.884608376174223832e-01 -3.552533794362552344e-01 2.585217000339079529e-01 -1.012357919730452749e-01 3.328247585810226727e-01 1.211865212304977096e-01 -2.999338255992022861e-01 7.021651235055350604e-01 1.533306712077781193e-02 2.215003036272782388e-01 -8.581626462488639584e-02 -4.262605460224620606e-03 -2.259259120343220240e-01 -1.234663852589751656e-02 3.053685771334966881e-01 -7.681092818803123556e-01 4.098506043824364786e-01 5.758865429186035279e-01 4.606093536758608109e-01 6.630472353613874048e-02 6.059359711924443559e-01 -1.635831893463689513e-01 6.973642344358738088e-01 3.268122885214840845e-01 -2.752276547046512700e-01 -5.802026200922262289e-01 -1.092209256864761002e+00 -1.880008346672195907e-01 1.447721995347343305e-01 1.158216456029931507e+00 -4.309507179963704138e-01 1.185175191384654769e-01 -2.022806629211141571e-01 -2.818360155631526309e-01 -1.578882512773701306e-03 -9.474147683791878105e-02 -3.287266802935740473e-01 4.425693360310603008e-01 -9.369765538326234600e-01 3.369482707991305892e-01 6.103177829517208303e-02 3.852497850578242011e-01 4.138078924354249982e-02 -4.905358702855206476e-01 4.607291510395493117e-01 -4.464690251873110194e-01 4.055480304664748070e-01 -9.431740218198317316e-02 4.498234161035898904e-01 3.722184403933671004e-01 -6.065575621179779553e-01 -2.641545377606183687e-01 3.892846965793209102e-01 -5.359569855526121612e-02 -7.304884354693911286e-01 -2.127568241699827334e-01 3.607984059893024065e-02 7.850595746507341155e-02 -6.569225957873293664e-01 -2.524114476498930393e-01 2.666759167985632839e-01 -5.354569720019337620e-01 1.998591299539682620e-01 -4.982391141093570064e-01 -1.041882633626842053e-01 -4.875422630004224711e-01 -6.097456290828399267e-02 -1.934008268021355781e-01 2.645239896274877850e-02 7.611470134067424564e-02 3.090690140716705406e-02 -1.257558709037534805e-01 -4.092470933360571883e-01 -6.675971721830299410e-01 5.662355662518087085e-02 2.148246156729236300e-01 -1.388643479168713835e-01 7.422160654656130563e-02 4.603551219661592420e-01 3.110392353426296719e-01 -2.638911401787217836e-01 2.690219865606696681e-01 1.912025696471149894e-01 3.068788680649571221e-01 7.522489142520208949e-01 -2.597953805589317544e-01 1.024637767277918471e-01 1.110181842417216624e-01 4.924619233290507964e-02 5.854806043867982757e-01 -1.318923617291111513e-03 3.778341533108885986e-01 -4.752042257637937861e-01 3.041859303056922981e-01 1.640139631952363397e-01 2.589196988588217743e-02 -2.581038240759015445e-01 -5.964894530150673946e-01 -1.684226980802216167e-01 -6.152862475128670905e-01 3.248264287665612038e-01 2.586130316537056939e-01 7.447195643662637976e-02 -1.148185815568863122e+00 -4.670997355288493136e-01 2.093980483639202306e-01 3.652999258126864435e-01 4.123908615977333048e-01 -1.874078626484643739e-01 -2.006948637135714808e-01 3.815876660623349070e-01 -2.760127857187979483e-01 -5.291662139136885795e-02 2.766523043037995011e-01 4.000306019517020362e-01 6.633557086572683392e-01 1.682119457970149001e-01 -5.263818256057622991e-02 4.430137693802906895e-01 8.180527976941392998e-01 2.640394813222700088e-01 -2.149773679698794571e-01 -1.035490081537968760e-01 2.805389803277232863e-01 1.621914570047544302e-01 5.810803743077507660e-02 -4.865955729810313990e-01 -5.173456526718658299e-01 -6.350088116997595900e-02 -1.337680525512279506e-01 -1.412928308040970193e-01 -4.585889544922147065e-01 1.661935303121350183e-01 2.887968862792635316e-01 5.500154586828047698e-01 -6.262334799701975152e-01 -6.409592610279868374e-01 7.513633721112807917e-01 3.989684786742195288e-01 4.188059033809209408e-01 -2.682382271804258922e-01 2.275815611683343342e-01 -7.992231838936245669e-01 4.608751260576876563e-01 -4.533674881232527820e-01 5.158145031187073570e-01 -1.677109004990864072e-01
-7.505432802642655332e-01 -3.857444644946088630e-01 2.279742204816046780e-01 -8.007950974770722263e-02 2.201982810439805649e-01 -3.784047693959879943e-01 2.080711281641102472e-01 -4.061892635492977965e-01 1.832349772018833922e-01 -3.692944726431377500e-01 7.635285491149409465e-01 1.247964501444590868e-01 -1.542152894101753713e-01 -3.707551908892202652e-01 -3.906068136563544679e-01 4.014490299322415190e-01 4.076243521445903073e-01 -7.877974119683249787e-01 2.791540151748476695e-01 -7.549543535900679059e-01 -4.818502643621578874e-01 8.522605301305320458e-01 4.062526664685140454e-01 -1.514522425844362086e-01 -9.707578763374499764e-02 -1.441881372260953587e-01 -8.048050254954044469e-01 3.770564656794840319e-01 -4.655281737115486984e-01 9.524040657299113199e-01 7.372515292277493915e-01 5.546030969522868226e-01 -1.892124670593200997e-02 -1.693661309934731962e-01 -7.746720172021528406e-01 6.447977504848607933e-02 7.171522492713181540e-01 9.741406248049463978e-02 -5.571059246868833581e-01 -5.983534537104685108e-02 2.087189784642873025e-01 -7.900006991135459511e-02 4.995619215890831910e-01 -5.413662686596151241e-01 -1.429564664128020815e-02 3.474594700728433350e-01 2.062554879113802919e-01 -1.216766835340076930e-01 -5.629127270389978621e-01 -2.102416309854747145e-01 -1.427280359819399491e-01 -9.465112006523290766e-01 2.812963084015192572e-01 -2.180662920325445175e-01 3.185784627702952232e-01 -3.349685517633835818e-01 -3.102535170439811862e-01 3.378186619104385779e-01 3.169173712428423606e-01 -8.280892615633070331e-02 1.226006072330600299e-01 2.352693518085810787e-01 4.890913366507793070e-01 3.255211917510731356e-01 7.710575832608739244e-01 -2.366053987526140767e-01 5.791281090370006823e-02 -3.080857297568341258e-01 -1.390849139993389327e+00 -3.603999727378451867e-01 -1.107166223711058217e+00 1.565416572916266957e-01 -2.559279247599847151e-01 6.199524491077469668e-02 7.354847224653782156e-01 -3.664109090114203715e-01 -1.531226804311298095e-01 1.210299665893883603e+00 -5.510689054844223334e-01 5.596484437570167086e-02 6.511924238874190751e-02 4.456679514605335624e-01 5.934975991041278182e-02 9.596476506242694604e-02 -6.832962090473523320e-01 -2.146031915889965447e-01 2.348248555756774214e-01 -1.574102943616238759e-01 2.800081355117557402e-01 4.393063802197080814e-01 2.359772308078419700e-01 -6.887254079156916731e-02 -2.942044229935993904e-01 -1.059979032990709114e-01 -3.699239290611145980e-01 4.455129063945865164e-01 -6.897706738352786804e-01 4.935136282442634248e-01 -2.389717414805214157e-01 6.190172654670881291e-01 -3.624570447993473166e-01 6.308614775487930704e-01 5.869001731354178686e-01 -4.196439004838216358e-02 3.142071444807031932e-02 -8.359485540034821138e-01 7.287783976130973729e-02 -1.661323809241806448e-01 -2.138179339544987179e-01 -1.908503292755320546e-01 -5.645400394898685281e-01 6.685102290407297920e-02 3.010127679579931992e-01 1.026818470367890229e-01 2.478624990801926720e-01 2.698287958125061836e-01 4.545261928428672715e-01 -3.896416891816228273e-02 -2.448684793383480163e-01 -1.111391649788774499e-01 -2.353658279770546036e-01 -2.252849443157194098e-01 -9.869495956703554507e-01 -8.742782369801933573e-01 5.222428963803559254e-01 -2.950419866130946089e-01 -1.839383911059215559e-01 -2.018256943329081732e-02 6.637550180423255064e-01 -7.231600035752911992e-01 -3.907582638968020161e-01 2.285272789636562940e-01 4.581230407367150592e-01 -4.239674205992973177e-01 -6.157313563926957167e-01 1.302777497434446818e+00 7.297199418235048585e-01 -8.772009422798170142e-02 -1.203223358291692635e-01 2.921010758858235135e-01 -3.849827554277264752e-01 -7.182799143216598292e-01 4.528554530101921438e-01 5.098510237189145533e-01 -4.684719548651650536e-03 3.300974158085945853e-01 4.812980313338316996e-01 2.553213981681144440e-01 2.655474255483144530e-01 5.857893048897797744e-02 6.694688294132888906e-01 -3.819147394605240109e-01 -2.431414326107056434e-01 6.072927121215112578e-01 5.357716023761655011e-01 -8.818672488411087584e-02 -5.698969075524520367e-01 9.070803104750115031e-02 -3.507207251047968488e-01 -4.499491059978254492e-01 -1.013207398088354694e+00 2.537764989369545310e-01 -2.326402483515989383e-01 -7.374132089764001176e-03 -3.256384836234583191e-01 2.836945282255676215e-01 7.933094503014746779e-02 -1.057741395908840115e-01 -4.423112841945594509e-01 7.760250976765794562e-01 -9.060177627337265838e-01 3.241432958154249477e-01 7.097292259610567255e-02 -6.201521676436351216e-01 2.467866558236290475e-01 2.583867109252609984e-01 -1.277290492642602082e+00 6.900399963376463441e-02 2.580999818161140991e-01 3.521596109626651261e-01 1.631933325276337665e-01 -5.208226480095097255e-01 4.783210902770769768e-01 -1.498089653392145060e-01 3.701203101105675630e-01 9.178171927745037983e-02 4.509862108642508360e-01 9.731143718861782199e-01 1.508319688596927999e-01 6.118111078315611184e-01 1.698458321752409628e-01 4.752917247655651378e-01 7.319174445614909930e-01 -9.409155481960219947e-02 -2.197501180091699091e-01 3.945253881235222249e-02 9.377250433627744297e-02 -6.820819295658961390e-02 1.336081911279075052e-01 9.642572384141546993e-03 -2.293855403910460555e-01 4.167425106301171911e-01 5.843756204083154771e-01 2.570019664880856536e-01 2.130541454853417394e-01 5.893134235212078575e-01 -2.164089978727850583e-01 -4.281709260381631466e-01 -2.046162108425308990e-01 4.241605665718517493e-01 1.556766014197545622e-01 -5.356842663673387905e-01 6.623111936641752628e-02 -2.165720691277979726e-01 -5.390081645527255300e-02 8.035451658380092510e-02 -1.940794987768080515e-01 3.970903875224151003e-01 -4.218126795889284852e-01 1.733650263425018656e-01 -2.440077916838250260e-01 5.664276719751782513e-02 2.627727080806250837e-01 2.996814198197872980e-01 -5.841651295271709232e-01 -4.353189665915588868e-01 -2.975676122804556956e-01 -2.107265205985325851e-02 -3.638620856310931795e-01 1.215983806579274545e-01 -5.181200890167239059e-01 4.239244899769763486e-01 -4.207365286552141592e-01 -5.566848623688346320e-01 -8.827018154315202647e-01 2.281536982858853313e-01 -6.172734344158503639e-01 9.717364383588945886e-02 1.985465331351802254e-01 4.674260083493843310e-02 1.728888354508791858e-01 1.805451759629372599e-01 3.036396228422168497e-01 3.113180771265678937e-01 -7.112522061130894802e-01 6.332888353652430524e-01 -1.465351454258652319e+00 -3.653352318301037460e-01 -8.020663192770137728e-01 1.774593160331098818e-01 3.463096675678123404e-01 -2.584245753765438969e-01 2.216100856733803637e-01 6.868807054385138444e-02 -8.708031383500286493e-02 -5.104762410871356293e-01
-6.761425597531389720e-02 -1.493568486714332566e-01 -6.904263789497613879e-03 -3.612116792718949587e-01 9.917695917447957865e-02 1.203560271999285725e+00 3.612062155971431099e-01 -3.445034585675129657e-01 -1.680345257395289005e-01 -2.860123916412902201e-01 -5.534562536785460063e-01 -1.506671487074723592e-01 4.309934166957041235e-02 1.643661778976446053e+00 3.107478177992945567e-01 -2.872664967362949517e-01 2.944484394103735192e-01 -2.767328996537856689e-01 1.837598015126643003e-01 -1.971946343149100500e-01 1.908509847909590496e-01 -6.690545112440885456e-01 -2.050381373270358798e-01 9.402262721400334033e-01 9.401401890712089704e-02 -2.462791021940088920e-01 5.630742238968010349e-02 4.552040229987104336e-01 -2.548914355759999140e-01 -1.573499227198678074e-01 -4.007790517789604490e-01 -1.058126210036367087e+00 -1.436259485067655495e-01 2.561417012778685609e-01 8.520092139911390472e-01 -3.684624628929586976e-01 -2.899127211204987620e-01 -1.384008131954390097e-01 -2.423859204914803056e-01 3.701885370601181724e-01 -1.321919248346073716e-01 -4.023828182479308180e-01 -6.422582417515676489e-02 -1.997877592451788864e-01 3.657634614753746960e-01 -8.319928203135874556e-01 2.994965883902136472e-01 -2.798654005234766373e-01 3.878166826571066705e-01 -2.195308240202611116e-01 4.162578793074002137e-01 -1.813829974748650264e-01 4.050721214685393812e-01 5.506867894316712642e-01 -2.233558844019562784e-01 -3.783213240447689807e-01 6.092691779361469884e-01 -3.084951868466319636e-01 6.175955214149850825e-01 -3.568837579780707592e-01 3.209735760574403129e-01 -1.130487492189632542e-01 -1.127344499213221891e-02 3.952270483949516522e-01 3.206911518839198894e-01 -4.679157146380347188e-01 -5.693812227231727710e-03 5.284255130819075497e-01 -1.221774396312213851e+00 -3.001225595973217725e-02 1.085804438150409640e-01 -3.476988976196210279e-01 -3.316095681736041523e-01 5.021808144348811620e-01 3.537992710461655976e-01 1.136600167167206993e-01 1.410668669574542122e-01 -1.150553487562306243e+00 2.017973138684340528e-01 -3.164895567874436155e-01 6.229383654650848257e-02 8.509629622185263531e-02 -2.012695149336544420e-01 -3.928878837374601418e-01 -5.651873513804807070e-01 -4.053754502099057855e-01 3.101610616928844322e-01 5.428282726774475986e-01 -6.325712639091939093e-02 -1.317182588523956588e-01 7.815399693214052090e-02 -1.206345166673165464e-01 8.767359118714393440e-02 1.366340905933995098e-01 -5.240583190258050195e-01 3.871842240572299643e-01 3.894206071276860581e-01 4.491743907681166048e-01 -1.315568897960451844e-01 2.552480640261837741e-01 -1.908437945302057792e-01 -1.503244688027932652e-01 -4.946563975076687658e-01 1.962031288099963799e-01 2.001732106411386325e-01 -1.752626877042849696e+00 1.168411728498724156e-01 9.639742725172480153e-02 1.123962006942717806e-01 -3.636936622705699146e-02 -3.927195574251073906e-01 -6.270252496266055520e-01 -4.374331972290533277e-01 -2.023771584704754933e-01 9.981399142378959144e-02 -2.963328926224438886e-01 -1.707300013198438660e-02 -2.185927547519961045e-01 -6.065273374080983049e-02 -1.334007444415325483e-01 -2.225410364848481037e-01 5.176786938010714823e-02 5.904703052593307522e-02 -2.068954568749047929e-01 -1.136760049960812147e+00 5.477159291315353284e-01 4.292289049963789460e-01 2.758673797006466755e-01 -2.797843616251621257e-01 1.942187929342641395e+00 5.555270695679799253e-01 -1.135348239308541896e+00 -1.936465380393330438e-01 -2.956987686805753190e-01 1.264168581409038206e+00 -1.329505718644232282e+00 -7.779397839023334260e-01 5.986562360957266987e-02 6.175557859196598720e-01 -1.000756573736679478e+00 3.470592635630682654e-01 -4.415180231093616126e-01 9.102234562403223317e-02 4.805799760959216793e-01 -1.576705564206352661e-01 4.147946143129510044e-01 5.450956669218034456e-01 8.562218276684441243e-01 -3.619044270875582114e-01 8.962369055425276065e-02 -1.147867732992758016e+00 -1.119509585759390635e-01 -2.538815375837713550e-01 -2.868998463188779935e-01 1.795330838821758146e-01 2.220187519845950308e-01 2.635887592672142565e-01 -4.463924175657473792e-01 2.066564682150300036e-01 7.257525941259002078e-01 5.289360828671568759e-01 -3.851260361615293504e-01 -4.033671341685822753e-01 -2.820261808076615084e-01 6.875071540969309725e-01 -3.415396168754846751e-01 1.764159354990437745e-01 -5.370180626464780005e-01 1.228012930914931661e-01 -1.677870893729876134e-01 1.469769841509174224e+00 -2.245446092721143094e-01 8.676480888411358672e-02 5.758094115820916459e-01 4.259693545010114213e-01 -1.319123573192943599e+00 1.748358144405365300e-01 1.504337789874841957e-01 3.695725629807419810e-01 5.196481398897455639e-01 -3.688597565399564515e-01 -3.976612599872553777e-01 -1.618104078548109614e-01 -2.128474923794105023e-01 -3.399665918174644280e-02 -2.477749374154817052e-01 -7.898553249756518069e-02 -1.448417068259492790e+00 -2.132352225970922943e-01 -1.066085439978676080e-01 4.672821345193973186e-01 2.278933432921941352e-02 -7.090996580464568044e-01 5.307308975323489220e-01 -1.693937215221367754e-01 -3.450266840771503696e-01 -3.310755922141605523e-01 -5.752759266134679916e-02 -3.253547526662206035e-01 2.356477483786435234e-01 -3.759884299429357424e-01 -1.140335714764030423e-01 8.163632251709067311e-02 -2.539011736879860370e-01 3.453529359519050268e-01 3.073365451204949084e-01 -1.735848727805181790e-01 1.820235708914160755e-01 -2.467304172556327446e-01 3.102795400648901691e-01 2.673016856389551221e-01 -4.036855818663787066e-01 4.083079177920023728e-01 4.790212837135132129e-01 -4.153739791297921813e-01 3.320430365607827672e-01 2.408045579878926590e-01 3.303276675283404740e-01 -9.581860783158667461e-02 -2.688892367869413214e-01 -8.510244749736751713e-01 4.497882261496635725e-01 -3.657881122650841199e-01 -1.414550337365815501e-02 -9.439621675165167647e-02 5.304889686384777203e-01 1.284121460735723197e+00 -5.008415488873775301e-01 1.575085497715459582e+00 2.676805464700910409e-01 -2.273249830166278740e-01 3.373994923041213068e-01 7.177681356078412234e-02 1.027665102478307335e-01 -1.721264441619508312e-01 -4.816384939212772776e-01 -1.002613223181122587e-01 -4.047084480552533281e-02 3.887227600875624023e-01 -3.322752105726139993e-02 -3.583705953422026136e-01 3.397847079386467906e-01 1.701821195393639075e-01 4.585449351203767510e-01 -4.459824961272813165e-02 2.951084706389506818e-01 7.814771608139966519e-01 -8.241673537406244421e-01 -7.592455111484122665e-02 4.517444964715189859e-01 7.562688250451456151e-02 -6.615881544884959498e-01 8.678099972706715404e-01 1.121025948747587098e-01 2.625971721623477362e-01 -1.607098363261781071e-01
-6.311629541344695449e-01 7.972947707602294487e-02 1.438576951588692865e-01 -4.409352031899514412e-01 2.027247980214243878e-02 1.207993678108186808e+00 8.698773025301176354e-02 4.197786977409040388e-01 1.046132690306774832e-01 -2.841784486458264758e-01 3.120388713688035942e-01 2.689345990865852909e-01 3.638753609771763764e-01 -4.812023647893409750e-01 -2.890408702082415404e-01 -4.806370803577035555e-02 -1.555914653362365984e-03 -2.194572684191591072e-01 3.190113908819828259e-01 3.495011620676414243e-01 -3.410851433279704636e-01 -9.286131573752244572e-02 -8.630862347812406909e-02 -3.436741485976095856e-01 2.639732493596108065e-01 -2.013308891494982877e-01 -2.636901677133283717e-01 5.117324763818179578e-01 -4.718899348311301756e-01 -1.309892853667794510e-01 -1.558374950844434448e-01 -3.109282670526863218e-02 -5.896282572527798971e-01 -6.157613579957389727e-02 8.196275936336417933e-01 5.274483778687035773e-01 3.953469670999472108e-01 -1.941598999943030257e-01 8.603538917070441272e-02 -1.442848724720534603e-01 -4.054588183192600614e-02 -4.575268024932140354e-01 4.690890747288879448e-01 -1.719922279596228232e-01 2.314847730681583171e-01 3.872202391734244631e-01 -3.729952722814275368e-01 -9.009217466848447320e-02 3.036294393426698379e-01 2.480191702240520935e-01 3.414851162683768537e-01 -3.563613768242958613e-01 -1.278268663060032062e-01 2.706994905220941883e-01 2.900296351719168671e-03 1.790698643427793002e-01 1.457359729634628842e-01 -3.128260940794526657e-01 1.588040482622601890e-01 5.603555991195152686e-02 3.870247104792299830e-01 9.896969633661030497e-02 -1.985284869364069560e-01 6.542397156899826260e-01 -6.073163287404740318e-01 -6.976199314113383787e-01 -9.897600502171283177e-02 2.128003175717132350e-02 -1.386346634334171268e+00 -4.039862786955383811e-01 -8.977188071845174644e-01 -1.719042382112558887e-01 1.168007578417516873e-01 1.131385235284353419e-01 5.600531527955654454e-01 -2.516266556514779595e-01 1.957755078159566925e-02 1.037894325181200728e+00 -5.466554970219140303e-02 -1.154718636865096765e-01 5.638874287246230244e-02 -2.047755399472374893e-01 2.442118116173060474e-02 -4.020766447628347229e-01 4.753569314144548419e-01 -1.782965591501054492e-01 -1.233572741431672865e-01 9.932943984957735839e-02 -4.350763137585150209e-01 -2.029943603573796940e-01 6.437053125128627817e-03 -2.428727398535291404e-01 3.164435426753772207e-01 -3.128809165818514093e-01 5.091619066278377792e-01 1.130195771241337271e-01 -1.612604206514919591e-01 1.517520524392818315e-01 5.264959134308747624e-01 1.551187209669244171e-01 -5.384390289756959547e-01 3.359202624349981736e-01 6.505555593492929889e-01 1.236606308215930927e-01 3.247397612837095160e-01 4.495758547730577259e-01 -2.735897517931705214e-01 4.593184238204722214e-01 -5.033190641108932217e-01 4.188752309809148366e-01 6.093543817422343301e-01 -1.869622004895856171e-01 5.199454558357119449e-01 -1.267587486227891025e-01 4.074291449247727237e-01 4.452879703889652263e-01 5.954933483297157881e-01 -4.163650740932450245e-01 -2.479681475273151914e-01 3.618008442700132998e-01 -5.978516645944886854e-02 1.851056961391397693e-01 8.983606715757835870e-01 -3.263992345623190627e-01 -1.280753657344823271e+00 -1.287287640554050372e-01 2.083781334326985923e-01 -4.245175017412534113e-01 1.555640668275611593e-01 9.251202593497006577e-01 2.315740206326691863e-01 5.785490311779118572e-02 1.333605030351919518e-01 2.736288022281996857e-01 -4.411838114634933916e-01 -5.604294800287313860e-01 6.592538190783429064e-01 -1.422690194139643871e-01 2.599082508213588216e-01 -4.752122341737453071e-01 3.799844585897299010e-01 -3.754293688617717506e-01 -8.599180545326270964e-02 1.938728158363726140e-01 -1.188239656835464036e-01 -4.610936319354037027e-01 3.032870433503311314e-01 5.931790795523927962e-01 5.188766572335163918e-01 -3.814602672967429275e-01 6.287998249603847511e-02 1.444508044581997892e-02 4.953762040675481759e-01 -3.225670704899856189e-01 1.071410415185015674e-01 1.065244884337381709e-01 -3.633714514664093120e-01 1.586941104875009556e-01 -5.642966207580910609e-01 -1.368016349843219903e-01 -4.606707776077433730e-02 4.270694861383839136e-01 8.008482845012172835e-02 2.295590029117940967e-01 -5.392259813404824964e-01 -1.990028941326140166e-01 8.787273346430121701e-02 -2.317510338646185108e-01 2.072215459241285029e-01 -3.434606875720529473e-01 -2.404573859448108086e-01 4.323796834263042288e-01 -2.033116228873314835e-01 -2.585094797069462658e-01 2.520870170142033295e-01 -1.960082719263059325e-01 5.827476960671490458e-02 -2.082499977938312707e-01 -4.578934424107899415e-01 -2.295370381819146488e-01 2.819429397978148732e-01 -3.764232963963995982e-01 2.364605160425597430e-01 -3.807677030947985153e-01 -5.660023370460958159e-01 -4.956402940606781660e-01 4.641618050064057199e-02 7.816518068645451622e-01 2.642188860052900323e-01 -4.937359370899846445e-02 -4.365292252959354635e-02 8.460318900920557605e-02 3.529561705687830342e-01 5.775031764423246283e-01 -3.514482990906977466e-01 -3.205315123022728918e-01 -4.937212231948107100e-01 -9.525615866246783803e-03 -1.703579910406395059e-01 4.367140375027591115e-01 -3.652865214269542804e-01 3.793117439451981210e-01 -1.177136023167465462e-01 -4.109484087721577694e-01 -7.258894659558978724e-02 -2.802053705509413573e-01 5.062997976512647602e-01 -2.869238693757519276e-01 3.357799417568594347e-01 2.525302521127425481e-01 -4.000409620153724255e-01 2.055605507472574311e-01 -5.952273643517325130e-01 -3.231943703307385007e-01 5.645558050023028462e-01 3.696348413523063425e-01 9.223446703553526971e-02 3.179789866957171696e-01 1.570756924207153751e-02 2.705272392778441115e-01 1.958642625825927075e-01 -8.023879800661352923e-02 -8.782012880273977473e-02 -4.026091517601496084e-02 -7.798932740167182631e-01 -4.349036915540146001e-03 1.849428891955300913e-01 7.189588199748246644e-02 7.092731958986314700e-01 -2.269499174585165036e-01 -2.768353405589375482e-01 3.658992282575768695e-01 2.339881493586120353e-01 4.910921629093016882e-01 -5.036538957083800359e-03 2.720614153274213409e-01 7.357864545361320063e-01 -4.600603857028243704e-01 -4.095555664061301671e-01 -3.457089623042559623e-01 8.403297939442297415e-02 3.757925566950985341e-01 5.531216013601785164e-01 6.051342922550780878e-01 -3.640786983084114969e-01 -6.097988271394588766e-01 1.558453296170117797e-01 8.723757087968768420e-02 1.296835403273789988e-01 1.406023183978963031e-01 3.137776370101742762e-02 -4.495072176207963177e-01 1.102332859364023171e-01 2.501272688523313859e-01 3.798422122357242303e-01 4.343894393266027332e-01
-4.811903750455318596e-01 5.839234789048979718e-02 4.781189269864861702e-01 -2.549941581536508406e-01 6.985986347109053585e-02 -1.606823241724922025e-01 -4.663572266034419211e-01 -3.028915563174113673e-02 -1.260647603458531663e+00 6.902100443124675744e-02 -3.868980798715916936e-01 -4.669896317925240625e-01 7.599408234080413660e-01 -2.690884054661623059e-01 1.309222090832034280e-01 -1.037825492367593500e-01 2.303812191570636658e-02 2.244764944470644674e-01 -3.487609073601794507e-01 -2.281424293113416824e-01 -4.524027647625081805e-01 -1.283274599004348593e+00 -1.520542457459370667e-01 -8.191773652300315955e-01 3.249036383221375890e-01 2.235434996365209814e-01 -5.728724699961091904e-01 1.655225629613577554e-01 3.024522900409382653e-01 8.429886194046044140e-03 1.195414832345265410e-01 4.513263390290271626e-02 -2.218447281634821078e-01 -1.205899893287178254e-01 -1.825058077712393922e+00 -5.703416581896134652e-01 -2.190052821030510355e-01 4.366097526403274753e-01 1.190467405436423931e-01 4.007528913882017485e-01 -4.222619416693487171e-01 -7.705447295598690793e-01 1.189658577755672575e-01 -4.451516288675264055e-01 8.276463597777868053e-02 1.369666537958553199e-01 3.575457681867383886e-01 -2.215655752795025746e-01 -2.443576223450122376e-01 -3.600822406665872277e-01 -8.549010373879742386e-02 3.332044776633498739e-01 3.148868001575200193e-01 4.188111609328620810e-01 -4.686576978134433524e-01 -3.330925924231065149e-01 -1.251851323422713824e-01 7.995432588827727782e-01 2.529051864342641287e-01 -2.883955949359544579e-01 3.947035329501708545e-01 1.153770187712322391e-02 1.335779772864792436e-01 -1.165283352732214395e+00 4.544905240570307203e-01 1.088117022514509591e+00 3.120797108052692503e-01 2.186109669229305552e-01 -1.352344683048354090e+00 -2.280941845427286729e-01 -1.610460565424510493e-01 -2.670014288331180596e-01 1.950721269255897283e-01 -4.931709945071363621e-01 -1.177081651105870375e+00 3.675043826457853324e-01 3.095395744500431534e-01 -7.924581052005604809e-01 2.123767733737314811e-01 4.317128514821576002e-01 -5.285125421940387591e-01 -1.313529194726598404e-01 -4.227544071147740223e-01 2.694398671590139127e-01 4.425848088651351819e-01 2.202184852643535307e-01 -2.417318400968720304e+00 3.454818606889076826e-01 1.258982161710037739e-01 -3.660057651167615556e-02 -1.899108948901585825e-01 2.142923884354767938e-01 -4.286209319779781812e-01 3.167659195809760520e-01 3.988403676482885629e-01 -6.851707654752611232e-01 2.081253270553753143e-01 -7.015624324658031874e-01 -2.459174068673136149e-01 -4.281104360611686643e-01 -5.953167099813962970e-01 -3.142550458328213780e-02 -1.783129604772429877e-01 2.109151795106291027e-01 -1.601935920518621562e-02 -1.083533921954517865e-01 1.417274032348558865e-01 -2.289292737849761006e-01 5.909860769648689338e-01 2.242863698075792389e-01 2.474814136785305763e-01 -3.463231113984203136e-01 -1.057039956681883469e-01 5.586498937478180660e-02 3.310067339346727255e-01 -5.292073901510178091e-01 -3.007388731479302413e-01 -5.678788195051472920e-01 -4.650758737399940945e-01 3.641082460349833738e-01 -7.072698086570328169e-01 -1.034183326051738294e-01 -7.827141067451478529e-01 3.194387087848342410e-02 -1.136331232605889141e-01 -1.855448910631846138e-01 3.053006092170469921e-01 -3.398812183514419161e-01 9.241100463812827737e-02 -1.752895552787515632e+00 -1.671288934304436813e-01 -5.215457657084844323e-01 -2.295429566312051362e-01 -2.001668441750118765e-01 -4.485052902427580923e-01 2.529085685525908622e-02 -2.799195662712999910e-01 -3.409060244501500025e-01 -8.131522823311381210e-01 -5.043899302418536346e-01 -2.212000319611401589e-01 4.680258672215034665e-01 -1.881924552399239642e-02 6.343385436048203374e-01 -2.917481781788918149e-01 -2.876716139648968773e-01 2.161249264774947332e-01 -1.234049457694568197e+00 1.234063184929155010e-01 1.970655530836971925e-01 -8.329423442953486356e-01 4.987071981515930341e-01 5.455971440617546353e-01 2.418712100566091927e-01 -6.712799423820129396e-01 1.056672119739821447e+00 -4.570811509674364559e-01 -4.109802286605783450e-02 2.491404874542564249e-02 -3.920582969422731767e-01 -1.808806246189103573e-01 -9.605030060358387134e-01 1.020979059613711243e-01 3.280342289178520554e-01 7.969905138150300550e-01 7.995371872473935881e-02 -2.029329887845854608e-01 1.390134745715492504e-01 2.773615271378006009e-01 -8.058491870648879507e-01 8.916247260370685490e-02 -3.199474989264621261e-01 2.366958573389217890e-01 -9.115007298986355089e-01 -5.371960108461036887e-01 9.188647582836177719e-02 -7.122379009293180463e-01 2.465157385102124121e-01 -4.111264203302463227e-01 4.107320318899623235e-01 9.020339527240353594e-02 -2.493142067036571707e-01 -3.915366037794753007e-01 1.083313768042080544e-01 2.299698817765848807e-02 9.093956425974357438e-02 2.497095273261374648e-01 3.194611459534130171e-01 1.659898104441093203e-01 -2.256686953642150217e-01 -4.725347704346508602e-03 -4.326268518691983589e-02 -8.612839217405772463e-02 2.060098662780813494e-01 -1.480506881013813336e-01 4.421511706413850940e-01 7.476757871309848424e-02 -1.905766208706764775e-01 2.902869205261298102e-01 -4.572402498338806048e-02 2.542224033074911294e-01 2.977127344846322021e-01 5.045723044037756511e-01 2.486210435648711636e-01 5.445843732446168373e-01 -1.243861491121209806e+00 -4.352192877882009592e-01 5.461884066807107807e-01 -5.516181412375157356e-01 -1.182324601823502297e+00 -6.947620792295167158e-02 -4.337988368744614687e-01 5.211372217898997405e-01 3.522206341322227652e-01 -3.442708035086491231e-02 -1.364345394536909672e-01 1.137020732150308550e-01 -6.491347086811172229e-01 -2.822642470491981692e-01 -2.516230399108029814e-01 -1.090557647924352974e-01 -4.619663401027185867e-01 -5.900192973458915358e-01 3.283676773749889810e-02 -3.882861206855429126e-01 -1.991675590738126167e-01 -3.344181751199085673e-01 3.032716382990078841e-01 5.778558898806736982e-02 -5.218376061849705483e-01 -1.349138219361244451e-01 5.440251062001590088e-02 -8.812857245182326160e-02 3.168430524612611456e-03 -2.493441863147003446e-01 3.278698470469965098e-01 2.572126380623652175e-01 1.682959873456254807e-01 6.725314769869648879e-02 -1.590065195638470652e-01 -1.337470409592725895e-01 6.179917425017219523e-01 1.866922673828044221e-01 -2.344392938917654323e-01 2.600162256955588225e-01 -4.785174514964714992e-02 1.259649527812218395e+00 -4.720044879992453257e-01 1.253692731849291933e-02 -2.693144990253105164e-01 -5.103304877500935283e-02 -2.017576194033458559e-01 -3.285815705387772900e-01 1.509165874755712677e-01 3.429170168763123194e-01 4.400195449053639352e-01
9.085552373377483448e-01 4.117651581220300727e-01 4.272827887847050476e-01 -3.244524883064247439e-02 -6.588612482070089760e-01 6.894122433889819934e-01 -3.652139918809383934e-01 -5.227870331056978619e-03 -1.339207746918438469e+00 2.156284943309718857e-02 9.963391968913622998e-01 -4.554220622761995935e-02 9.083726732338945897e-01 1.394799345918819267e+00 -1.484930857915348623e-01 -9.322435991096680863e-02 -3.681616187940209839e-01 -2.539035244276557357e-01 2.945549120096271345e-01 -5.305363742008145644e-01 3.597360547896987781e-01 -1.571417657127579248e-01 -1.268038888997487512e-01 5.155086191947456653e-01 9.085798481213681888e-02 -1.263530115960608824e-01 1.642101083619703361e-01 5.419494558783026772e-01 1.526572149291348379e-01 1.064929568496921330e+00 1.952300728856694312e-01 7.471997285986351489e-01 -5.295311610862111218e-01 -7.475313065019409398e-02 -1.428173996001433632e-01 3.954459894562837863e-01 -5.400776666181179575e-01 2.907244217993310564e-01 -1.201790354555554025e-01 1.967462264131341343e-01 -1.604690350440960145e-01 -6.739164908086708872e-01 -1.036591129826088583e-03 -3.063461522520635194e-01 -3.859645323589256938e-01 -5.754053284350817421e-01 -3.013406069682353916e-01 2.047401557394158689e-01 -9.606584612368865850e-01 1.334539184126386502e-01 1.141839513528568884e-01 -1.347372574545670609e+00 -1.079576979999294084e-01 6.300159889382103695e-02 -2.791440827432923807e-02 2.511083002064602998e-01 -3.711476616757434788e-01 7.241815301545635464e-01 -4.081975674775801255e-01 3.835140955275008756e-01 1.617011193616939846e-01 -7.328278754382458460e-02 -5.403768636630476019e-01 5.162478514192974099e-01 7.625461300075933035e-01 1.610356334713724191e+00 -3.874861353517523033e-01 -1.983701846317244277e-01 4.445155964834941464e-01 5.218194479949576081e-01 -6.265475092562797776e-01 -4.106366256412104510e-01 3.873774132734427722e-01 1.681838916295120834e-01 -2.366255488857529343e-01 -2.934737868926120541e-01 5.958988398203449166e-02 1.858297027117213673e+00 -6.575703355737592126e-01 -3.641750940355285571e-01 8.305911362570893297e-02 -5.156999286000593097e-01 -6.858144699977881953e-02 -3.188960255638848551e-01 -6.113210813880797234e-01 1.343602012574936777e-01 -1.434057829394010053e+00 8.346444948125066876e-01 -5.390876043768239034e-01 2.737967242344425678e-01 -6.094766756578374745e-01 -1.454294811749902439e-02 -5.075010955268250551e-02 3.041485447750559845e-01 2.977808374126728053e-01 5.941996400927737065e-01 -3.232758397643689663e-01 -3.275080856109178207e-01 3.866606548948967048e-01 -7.458769417463385620e-01 -5.648455042303835993e-01 -8.526262974647826065e-02 6.553896581008383793e-02 -5.172037126106494576e-01 -4.990127036554990736e-02 -4.937610948644301501e-01 1.243946646347578733e-01 -7.130003233948338792e-01 -8.190902822284139295e-02 2.199226112984014603e-01 2.971817728440863116e-01 1.544478305760443870e-02 3.034280947495338610e-01 2.038033984091071893e-01 4.217131455557794339e-01 3.507644899299864893e-01 1.146132341027603085e-01 -2.274347116961085713e-01 -1.225756177688922394e-01 -3.913192644476517490e-01 2.524686094878526021e-01 3.721451555015672496e-03 -3.650971164080719089e-01 -4.595393809871716195e-01 -5.709169941477574284e-01 -1.668959781293346822e-01 -1.984893512322013220e-01 1.263367867860250571e-01 -4.366696393579240776e-01 -1.239527802024224190e+00 -2.669050712864278196e-01 5.038608193091793641e-01 4.792547732907343483e-01 1.294963917052249780e-01 6.218698444725947461e-01 1.585729376999112539e+00 7.917532675763605532e-01 6.342820048385910958e-02 -6.472001222619719329e-02 -9.759143461905734895e-01 3.528930992321533955e-01 1.625763260275257527e-01 2.770849337585202243e-01 -4.034442722379094071e-01 3.318799414408178661e-02 1.736040632673015172e-01 2.952489483148024174e-01 3.610311075183285645e-01 2.086948389638077772e-01 -3.670446525070104049e-01 -1.406839755183740825e+00 -5.869031916493461926e-02 -7.944845088860190419e-02 -3.548685719642337699e-01 -2.843912218853462681e-01 1.331527280367374555e+00 1.411823149727205740e-01 -1.815164290201143893e-01 5.732361307447445542e-01 2.005555501267445098e-02 -1.559890601591015891e+00 -4.233754909900108720e-01 -2.177156313343494576e-01 -3.802760755884845856e-02 6.254823878535265003e-01 3.927949238788256414e-01 2.247302534053190748e-01 -1.051131163235580063e-01 -2.866652040068518592e-01 -1.377217307062080343e+00 -8.882962734326077525e-01 1.634953134570913402e-01 1.812899622557918172e-02 1.037298275490371041e-01 1.277383367585618601e-01 -9.660430617174485812e-01 3.712496633942310997e-01 4.744527802601495314e-01 -2.123919074837887222e-01 -1.829043737172334205e-01 3.197862117378318797e-02 4.669333740104560926e-01 -1.947698225854088694e-01 -8.617254203734500684e-02 3.583279574334769513e-01 -2.942738622599307824e-02 -3.652875717496685826e-01 -1.230385724145973914e+00 1.164899628312123930e-01 4.109612173711742478e-01 6.877541784541452152e-02 2.799063550953685003e-02 1.046385230028197055e+00 5.033322763906715736e-01 5.092545331169481132e-02 -3.365293563538174215e-02 -1.556224044339713231e-01 -2.390312535637950653e-01 -3.066618544947771752e-01 3.347725931408068734e-01 1.769948745965079229e-01 2.980190236672066173e-01 5.608433340717996485e-01 -2.706329763308543829e-02 6.171277224358717728e-01 -1.001382430043490590e+00 -5.979106138138372550e-01 6.945413713205068895e-02 -2.799619136670052910e-01 -4.800763131128776839e-01 -1.307443923690480327e-02 -3.946643833728403217e-01 6.973156237622528675e-01 4.824371862072034806e-02 1.015186735095084114e-01 -4.491959826086495272e-02 -1.320659643230814861e-01 -3.366600892894436869e-01 -1.826828020208449976e-02 5.526821501238291662e-02 7.647203702543803328e-01 6.348179742034047723e-03 -4.582031832580255593e-01 8.592463475640170489e-02 -4.835825329407910100e-01 4.385542270642295987e-02 -1.281897865925335944e+00 3.463858729608401688e-01 -5.972152254334268662e-01 -1.523584533832316457e-01 3.510781763210277934e-02 8.530026466110544880e-02 -2.758928435327769879e-01 3.856262300918640307e-01 2.512774230358300609e-01 -3.101814039769849596e-01 -1.172961981909201867e-01 1.879062294167942529e-02 -3.621027364341766752e-01 -4.876187247203501163e-01 -2.690974306967530705e-01 3.410668969506835402e-01 3.996569685674051797e-01 4.345116496231481440e-01 1.712970076255045104e-02 1.665427377681645282e-01 9.769138924362023024e-01 -4.508050081580447510e-01 -7.402936022719323050e-01 3.851807600376931928e-01 -3.770172379794507478e-01 3.171888027414911382e-01 2.648764897198021551e-01 3.913333248940549236e-01 -1.925413828718731957e-01 2.395834007952088451e-01
1.635856544685113378e-01 -3.181769202296456656e-01 2.270150736411281067e-01 -3.144110051458465782e-01 -4.615910301064194976e-01 -5.116705862355699352e-01 -5.663962729361482484e-01 -5.544752197737305710e-02 -1.370528560385979810e+00 -2.824782135260341387e-01 -6.554814290591529646e-01 2.254641128220715718e-01 1.407847553405565000e+00 -7.583405159479430502e-01 -4.966393741166914566e-01 -1.933293670451191881e-01 1.697696043692489276e-01 1.954029949557943013e-01 -2.668411431274998469e-01 3.622638076419431585e-01 -2.876130550576494471e-01 -9.797285419503173887e-02 -2.154850451868053907e-01 7.422000466728830015e-02 1.531209146082833650e-01 4.434004605614145778e-01 -4.376803478204565612e-01 -1.402002695297083906e-02 -2.633806080452681386e-01 1.725976653845415210e-01 -8.751307544198156929e-01 -9.932262697453797529e-01 1.675963464736079933e-01 2.480138911609256203e-01 -1.746914039055395662e+00 -6.846834038319230542e-01 2.281733762135319532e-01 -3.134625934891275278e-01 -2.812808384925147287e-01 -3.415488011842586213e-01 4.229514282075735321e-01 -8.411484869809265907e-01 3.439317952795445943e-01 5.030125730266202799e-01 -1.316709575144108246e-01 -2.823035247732019193e-01 1.095798245049954267e-01 -4.449964714058860515e-01 -5.557916664542923435e-01 -2.849548534768104879e-01 -2.028251789151979123e-01 1.015861798144370276e+00 -4.545924086002717246e-01 -5.835462216148835646e-01 -8.943302511136973221e-02 -7.229160338557194532e-03 4.412264831018848366e-01 1.090836037724224328e+00 6.297723188771947589e-01 -5.880240003864184439e-01 2.717100487426353239e-01 3.491468717484103035e-01 3.543582576360377462e-02 -1.910075203089935392e-01 7.822064324760860110e-01 4.897096758947771522e-01 2.131996419818037447e-01 -3.498835360590102916e-01 1.007825216403384072e+00 1.224036342623954915e-01 1.020960543336400184e+00 2.716420043449264132e-01 3.681235660405429155e-01 -3.852426222219712537e-01 -3.168144022484457173e-02 2.632347604432297983e-01 4.909918604603795700e-01 -5.472310557215162019e-01 2.878217710843282151e-01 1.455246892707532380e-01 1.340348013187687374e-03 -2.545521958110357752e-01 -3.706445569102908011e-01 -8.887678099475153359e-02 -1.009651508740685988e-01 -3.344238022608698180e-01 -1.735782592132258717e+00 1.115894245349549202e-01 3.736496401656980715e-01 -2.395009196558203213e-01 -5.301560266407570610e-02 1.760473420388151966e-01 2.194451708053763161e-01 -1.631264021696754163e-01 -6.721152268002407448e-02 -4.336807805186949083e-01 2.918991989167155632e-01 5.788742603903383743e-02 -6.150491417889943913e-01 1.286733341499454841e+00 1.125847304661495019e-01 -3.871747078631506134e-01 -9.788574199864708003e-01 -3.518645318049810206e-02 6.061870696578507411e-01 -9.599378096605820643e-01 3.527276179882715135e-01 -4.417997643924959084e-01 4.734547129363173013e-02 -4.034114032415190843e-01 2.516234350587932544e-01 3.324879050720410123e-01 -2.545829721789578115e-01 -1.472848869770176095e-01 -4.672802042087870755e-01 2.284658136163735531e-01 -2.467672814064108822e-01 -2.415416940156113641e-03 -3.972204065925079020e-01 -5.186518332748863980e-01 -2.882780703395333363e-02 -5.051512193070185619e-01 5.289250331808179606e-01 2.530615010517848762e-01 1.280295010832279257e+00 5.041191643690631219e-01 -2.467345572180376090e-01 -1.883611164520698766e-02 3.271107569474127064e-01 -2.655351658869176124e+00 6.167410414612938263e-01 -6.870913959126766501e-01 4.234199766443243473e-01 1.077881111895081373e-01 -8.995685812108403789e-01 4.969372952131279053e-01 -6.580988692922095096e-01 4.389797037532073287e-01 -3.771285702193065692e-01 1.252553595252086927e-01 -1.328353653854831284e-01 -4.474017716322957194e-01 -1.402377478496025232e-01 -4.170725958733020322e-01 -3.897662271186553840e-01 -3.505965186745468309e-01 -6.565467582017849024e-02 2.190352357439130301e-02 -3.808739509502162557e-01 -2.866571909339116209e-01 -6.196775947115712446e-01 -2.020178427203229987e-01 -4.806105968625430380e-01 6.267663658113760139e-01 -7.725146814921719507e-01 -8.008359642824743052e-02 -6.885602702044178736e-02 -2.402387418141245512e-01 5.963801591609426689e-01 -3.483147741288202259e-01 -3.069192150974672795e-02 9.329749533522412042e-02 -1.296075121102755745e-01 1.420073264906938637e-01 -5.283566139405884154e-01 3.473997520976735975e-01 9.539214578610587247e-02 7.763985094746690685e-02 1.447911213582857570e-01 -7.281145570696458992e-03 1.220777636177142966e+00 -5.593767487087124568e-01 3.754103093494646770e-01 -8.245442280977705041e-01 -4.318314817354531043e-01 5.597420557699763766e-01 -1.312204612455276864e+00 -4.003747030140172858e-01 1.242006990172613151e-01 2.445374355676367406e-01 2.691402029669959228e-01 -1.610259484727123436e-01 3.948288683295015922e-01 -2.548224077017306466e-01 2.038625730596581309e-01 -4.483699447876622335e-01 6.901318408463021914e-01 6.425888128294900137e-02 -4.725573027449022634e-01 6.595087594793294095e-01 -4.523017336294849478e-01 3.329305681823302443e-01 -8.900425820974845470e-01 -2.104366992755472496e-02 5.156013411391134893e-01 3.515869906923399513e-01 4.915053781604237781e-01 -1.363827194762382011e-01 4.465086790011874585e-01 3.047125331253092706e-01 3.075015357763399293e-01 3.666844666669942798e-01 -2.179484999880215712e-01 1.176008766818602835e-01 -7.198434040900431041e-02 -1.230345903260916751e+00 -2.934272831513338176e-01 -5.139834524052345754e-01 5.617550491974683258e-01 -5.975292977815412909e-01 -1.273608814018989677e-01 -2.158024037320681876e-01 -3.199136719656274774e-01 2.716910050433453128e-01 -2.670995765574699088e-01 -2.219437850178875016e-01 -4.378500569314222601e-01 -3.340646101509611721e-01 -3.595832479290593242e-01 -1.519093814239957929e-01 5.752390904424448115e-01 6.289458616165479743e-01 -9.648512663737223161e-01 -1.891509480773987673e-01 -3.081871520431842537e-01 6.750208300187182653e-02 1.003110626697966135e+00 3.014655098670129471e-02 2.696486337589817234e-02 5.754764074273273355e-02 2.482059902694236930e-01 -3.098176606361128793e-01 5.294575427851003768e-01 -6.136866751180503066e-01 -5.929212136557693302e-01 3.660109098335857791e-02 -2.239470423758956330e-01 1.987136641449140373e-01 6.337759799954680862e-01 -1.041198306680699848e-01 -2.373633494131743293e-01 -1.450258020365095823e-01 -3.690586530639631269e-01 -3.689321431925335348e-01 5.343281009277057736e-01 3.972206845584966839e-01 -2.178555792173191730e+00 -4.285084805563927901e-01 6.583409173365517564e-01 3.657611020053401774e-01 4.939008263785665265e-01 4.938878971322073208e-01 2.433120768226868999e-02 -3.610021590101228361e-01 4.848919176802069519e-01 -2.748816875145757566e-01
7.136506579318621091e-01 3.591929063753054319e-01 6.045099948478084573e-02 2.088912870834753188e-01 -3.746011410340787107e-01 -8.949211492966367976e-01 3.445242226620288672e-01 -7.333620269202294206e-02 -8.671780269080171522e-01 1.758389764945803707e-02 -1.465730791353705431e-01 1.579022032522122143e-01 7.593844687821447170e-01 -4.853308181256613119e-02 -1.908255346379341966e-01 2.742503773313094695e-01 3.526969262822093887e-01 -5.244670120249281808e-01 -2.556462400414418606e-02 -2.284461509266212387e-01 6.177328226582914222e-02 -8.647679279172391098e-01 6.207603510240954775e-02 1.650156620332879909e-01 1.029793400569642831e-01 2.776556186944479365e-01 2.815020640860805834e-01 -5.121028471633314316e-01 3.111945437605698750e-01 4.386377121339380403e-01 2.707937786663880408e-01 -4.928571000266545044e-01 -5.672293470519781389e-01 -4.940295601958734073e-01 -3.407949461334304764e-01 4.938354179330454174e-01 3.491711492267118300e-01 -5.156891214922397770e-01 -2.188757750955017678e-01 -1.849327126617670292e-01 9.166545238832944642e-02 -4.802932238065193427e-01 -2.206531869966916193e-01 6.204048523886893651e-01 -2.101762211419233306e-01 5.401117471897901590e-01 -5.931911042168781789e-02 -1.338296173486571428e-01 2.595120339060965481e-02 5.452903709270938704e-01 4.046702525344212376e-01 7.756278512604591890e-01 1.191087688503781883e-01 2.208257297324639490e-01 3.198678237133898428e-01 1.019525335953058026e-01 1.857875631778603542e-01 3.912395628852449181e-01 4.018376907605294424e-01 4.147005400759232741e-01 -8.775980259050578103e-02 -2.068812095474093227e-01 5.054623833612269246e-02 -3.268572836441508978e-01 -1.218295681503353656e+00 2.378848281546428023e+00 2.253397105447865478e-01 4.263815528520185638e-01 6.482085881065460242e-01 -2.721604206825355976e-01 -3.885507908594293403e-01 -1.440474061249333027e-01 4.237850447476027571e-01 -2.602903888555729850e-02 -2.005954466224546817e-01 -4.268716764845558731e-01 1.237229424229508018e-01 -8.600717084292583969e-01 4.741543677186626504e-01 -3.233107602247404788e-01 -7.355300608151681130e-02 3.159659380196621625e-01 -3.367730461424548460e-01 2.491045784277473585e-01 7.121985431525196253e-02 1.232499829966735294e-01 -8.843081291053850324e-01 -3.435008696664644812e-01 1.294722958598873430e-01 4.891294236178140853e-01 -4.576965098775998553e-01 9.139175755159005890e-03 1.152952224601830750e-01 3.375094758449138921e-02 1.075799784675843251e-01 3.502052186998540484e-01 -2.214756674107175027e-01 -1.617249700793686740e-01 -3.244485742296386865e-01 -8.054323454605364363e-01 2.551180621266596060e-01 -4.542243600222337085e-01 4.638278002510256015e-01 -4.338425506319078528e-01 -1.146481586534485592e-01 -7.542904295900719480e-02 1.959158934311573397e-01 8.534726872647100393e-01 -3.224456672213770192e-01 4.479225586602490483e-01 3.030388373978061545e-02 -1.100688786817262226e-02 -3.127938671030536244e-01 -3.987889903166750849e-01 -1.612723072011219838e-01 3.916347735125778051e-01 3.692103701729225751e-01 -7.649780090971550206e-02 -4.459515746281350057e-01 6.408566064901573267e-02 -3.381916683210957064e-01 4.503746166737839229e-01 8.260598980636180144e-01 7.841626720339489598e-02 3.188847403910076150e-01 2.497896061479150942e-01 -8.540471524748648180e-02 4.273293031254010166e-01 -9.163417413227130381e-02 -1.698047212885691826e+00 -1.492782208272829814e-01 -1.330746174923047032e-01 -1.694579319927876360e-01 3.177499221001395258e-01 3.207028382025706170e-01 -1.631105360583571529e-01 -6.561931337952485732e-01 -5.188152851077498795e-01 6.312466122540282276e-01 -8.481396163369738783e-01 1.405461918592685044e-01 1.001259033950452487e-01 2.674534533190762731e-01 -7.960572282630966334e-02 -1.424815396916356003e-01 -2.659965297536499018e-01 1.983626219678550906e-01 -2.125448135706803909e-01 3.056305091067741397e-01 -4.359975852414885861e-02 -2.631265796929736500e-01 -5.270393975315410540e-01 4.316736635525165733e-01 5.156722511964782069e-02 -1.146452995434129374e+00 8.327775087823168221e-01 -2.324784274023581065e-01 2.012127761221067512e-01 -2.846595742363999815e-01 3.318793420814303285e-01 2.365720696595751682e-01 7.405470890377013893e-01 1.591582522588137205e-01 -2.716005999358936385e-01 -4.385095837993613910e-01 -4.287370197631849567e-01 -1.375439217167027384e-01 -4.571622227490989010e-01 -9.485982866681046122e-02 -3.224469429137348242e-01 -2.396094374187623111e-01 1.684300312315878401e-01 -9.267181331142598788e-02 2.564319225492801557e-01 -2.725524736881274751e-02 5.177168442773593116e-01 -7.904833506042741043e-01 -4.451801613096192378e-01 5.319553798515308518e-01 -2.217423486830825408e-01 9.891749397051001480e-02 -1.363873293998568367e-02 -5.070661289825889595e-01 -2.929858171003088541e-02 -5.800348515351252399e-01 4.701490596131308597e-01 5.736255218241551601e-01 2.010847251318079454e-01 1.801614811977098607e-01 8.083901983430851201e-01 -3.763546938978720169e-01 1.489413660103827419e-01 -8.322591274844012843e-02 -4.399107994524253940e-01 5.305905002879891530e-01 -1.512303768304182894e-01 -1.714937880150671501e-01 1.020659609103527210e-01 2.187425791575957623e-01 -5.515042342493988725e-01 -2.990529655688907162e-01 -5.262207597832176953e-01 -1.216705489338211210e-01 -7.648724789683511438e-02 -3.080981008199696891e-01 -7.848532362912719051e-01 1.146879863844238456e-01 1.293862564260701287e-01 -1.903543954573817532e-01 -4.003431162042452862e-01 1.540718793460960911e-01 4.075902254381086887e-01 -9.989981048453691059e-01 -1.999842213924729953e-02 9.089640871247398057e-02 -1.174262384476131363e-02 -3.978451791846476238e-01 -6.719888029936061935e-01 3.305877121239829686e-01 3.767853150407238227e-01 -2.185291545208331854e-01 -1.025120507506027123e-01 -5.786948043651414172e-03 3.875192858421603881e-01 6.084472940503388161e-01 3.433845440470991162e-01 3.714487991223581198e-01 -2.738820456799077041e-01 2.548640411992302290e-01 -2.289852705422595336e-01 -1.744590230450500934e-01 1.568127031586299958e-01 4.420885810262007998e-01 -1.563132192920244079e-01 -4.559457064505936796e-01 -6.072341652652338828e-01 1.464767287448903998e-01 5.228385170378405666e-01 -1.122543224354393687e-01 4.156944293836910553e-01 -3.915187596645932078e-01 -9.962238354757818604e-02 7.381792797022126984e-02 -2.809294238413929667e-01 -1.203502874055321969e+00 -1.477182861359823407e-01 9.391625712863763686e-01 1.025658024744817987e-01 1.246896623196654258e-01 2.391698728407753993e-01 -1.153638635637165982e-01 -1.344880952394938989e+00 -4.027536507988588310e-01 -2.584541644962856655e-01 3.743105238109645239e-01 -3.380987750213584886e-01
-4.916915902045850828e-01 3.401413220712143914e-01 -9.984406104489766676e-02 2.452033111947925503e-01 -2.755987260093959446e-01 5.520191253456148139e-01 3.532806820039967044e-01 -1.461968533428026074e-01 2.677438956262971903e-01 -3.376152954823480878e-01 3.035747179023381981e-01 4.349001665810321021e-02 1.362960855366145696e-01 1.447888975055168892e+00 2.443287856209612197e-01 4.200415431295705382e-01 1.552375471646093574e-01 -4.857699477140702271e-01 -4.281853850125275085e-01 -8.953031987760089183e-02 8.612826424534536507e-02 -1.009070067035463758e+00 -3.181010605416079717e-01 -1.749245167070072882e-01 -6.706099554892054337e-01 -5.523128163413163483e-01 1.315633374504903141e+00 -2.139532561926090204e-01 3.834145839909253728e-01 4.512766133968020288e-01 -5.908281866731633636e-02 -2.593142064876798880e-01 2.454292019173513750e-01 -2.774599540414339760e-01 -1.540302440995800284e-02 1.612877143834703583e-02 9.703180095024565022e-01 -6.457151617802225907e-02 -4.405630152733875371e-01 3.622258637691087579e-01 -1.201820784995193819e-01 -4.716271658312445880e-01 3.380237842680905436e-01 -9.179812689909047640e-02 3.821488391853158917e-01 -4.400338630236095838e-01 1.824270755125195764e-01 -4.182211009477920793e-01 2.699581575487480789e-01 4.764492409464813893e-01 2.565361213011693176e-01 3.116579780397514265e-01 4.301921501584594631e-01 2.840200923325646998e-01 -1.495663155705251324e-01 -4.234207492018114000e-02 3.630286199651459600e-01 1.612240287424499874e+00 5.209555256472682763e-03 -4.878590555305570842e-01 4.519373951040345783e-01 -6.958133715842016453e-01 1.976549247029724676e-01 -9.763750241723286871e-01 6.443554621098633861e-01 -4.899927199824509749e-01 3.429599272263154641e-01 -3.339461758008446246e-01 -8.333538311644736463e-02 -1.368822719351613267e-02 1.050367340442725395e+00 -1.535063185550821219e-01 8.765296918897380607e-02 -4.374649961914764962e-01 -8.177338930117531435e-01 -5.185742206854021541e-01 3.396200782967880305e-01 -1.337351901094503970e-01 -7.691470261144548425e-03 6.364632132679295951e-02 -2.042649511382617356e-01 7.065481248662099090e-02 -2.970200095443492616e-01 2.833190652850278157e-01 -2.661988046954932852e-01 -2.451274405364531339e-01 9.605997531720272820e-01 1.266084527149579364e-01 1.585812735338764656e-01 -4.431759800549400774e-01 -3.312793077183487367e-01 -2.804940507935343441e-01 -4.771171404987023523e-02 -9.002738946405447473e-02 2.880072701933686918e-01 7.045461718336137880e-01 -5.148602770260096023e-02 -8.094687881193505241e-01 3.602711010285172127e-02 -4.291252170272695787e-01 2.301451940762783421e-01 -4.399513943088518841e-01 -4.038281899094744443e-01 -2.869233362213040595e-01 -2.991128779991951703e-01 7.922189633838043754e-01 1.147603466470211164e-01 -5.551942547379636883e-01 -5.553009303995969370e-01 5.476343698048300596e-02 -5.119123862541412606e-01 2.654965356901646811e-01 -3.885995604644239543e-01 -2.212220450786237262e-04 -4.736836625962903558e-01 -4.633133678547229906e-01 -3.566424880301405365e-01 -3.565739155637983049e-01 4.625218427814576372e-01 -6.519693416475964842e-02 -3.392626658371405979e-01 2.389984996527023953e-01 1.427549664813866914e-01 4.646891342011544301e-02 -7.084080862442313498e-01 3.034608042700763231e-01 1.351736879407775815e-01 -4.021631328983507614e-01 -1.609902191263607729e-01 4.161498799257764003e-01 1.563022396636432054e-01 4.599998461656840121e-01 3.043276529381678808e-01 -6.294706560102900084e-02 4.724100814686704175e-01 1.960024392558761819e-01 1.531178264768228159e-01 -5.237098832516445118e-02 -4.131763335058852848e-01 -6.387030422885489056e-01 6.828802795996367914e-02 -4.066037932387682741e-01 -5.992999410535108096e-01 3.088226605785204804e-01 3.362358380600414254e-01 -3.297846710199148906e-02 4.995506248212394640e-02 -8.081741595780639331e-01 -2.363056074625548009e-01 -2.434719460629663768e-01 -3.828334907112311836e-01 2.416857282504309978e-01 -6.728641115885891644e-02 2.868530994172646675e-01 4.864288819701975686e-01 -6.436762335294859971e-01 -1.246335248699254050e-01 -2.564292056417986077e-01 6.971319224256250502e-01 4.122598334433799083e-01 1.184735908814570221e-01 -1.840475977148484654e-01 -2.588556010675132080e-01 -1.348209063896879112e-01 3.240691955769047783e-01 1.870794724465628389e-01 -4.294879656841897875e-01 -1.190067933047626175e-01 -1.086334368000299172e-01 -7.682489736963434845e-01 1.091915361833612486e-01 -3.542979828821478105e-01 -1.185731891380453901e-01 -2.233763915502561676e-02 4.639521884461448309e-01 -6.026986711808147712e-01 -7.060851611360544622e-01 -2.213971977330627672e-01 -1.375256204318809905e-01 -3.124810098614855813e-01 1.320271843394213718e-01 1.623060752333714274e-01 -2.649540926501628979e-01 -8.497383712483781715e-02 2.636040401111364728e-01 4.364034955556764239e-01 4.694559202932729880e-01 -4.322060162470721112e-01 -2.781924076833327542e-01 1.370572210564195981e-01 -3.044148321707039195e-01 -2.173228642962641843e-01 -1.956951260276672266e-01 -4.180615567963439916e-01 2.084085483399107930e-01 7.434504169323060685e-01 4.789570398507508875e-01 4.179739102753749491e-01 -3.612043911086091352e-01 -3.439965410214274599e-01 -4.678338616787463544e-01 2.350381484839082213e-01 1.266926955472497951e-01 7.062165931628598681e-02 5.032358802815276588e-01 6.181701938764583293e-01 -8.934484304584423553e-01 -2.986008828279612115e-01 -1.018866486122321557e+00 2.238009313519765398e-01 2.636783813697226586e-01 1.519559862309668996e-01 -1.051572842414368186e-01 4.447557463817616297e-01 -3.825876257932430691e-01 4.721296485493062245e-02 -3.668330346269341180e-01 -2.834375094763199598e-01 -3.266805517057513875e-01 1.681349340305720308e-01 8.317528907828458662e-02 -1.344119457018167207e-01 7.272052457632099953e-01 1.718846398229536554e-01 4.762682938018206746e-01 1.936740264382597054e-01 -3.596259726592610645e-02 2.039650929358324816e-01 -9.280155564707651683e-01 -1.369238432539366668e-01 -2.390938756183920710e-01 -3.246529594725744428e-02 5.163418214643396009e-01 -5.044337754476486690e-01 3.046858129624955835e-01 3.432081778374240777e-01 -6.812906855381203330e-01 2.124577088842203032e-01 -3.462881039566507169e-01 -4.992651196444045786e-02 3.623773643319448956e-01 3.353439322232832920e-01 1.979165317284914405e-01 -3.247506357407327071e-01 -5.764431340455326014e-01 8.482582304418860852e-01 2.179052102489892687e-02 4.954836804043894621e-02 -1.291612739008942135e-01 -7.882411802518718424e-02 2.239525504840379211e-01 -6.684044573257060841e-03 7.132218880057974442e-01 1.320666774544383970e-01 -1.094197370231328112e-03 -2.321400038563997403e-01
-5.635806638748228764e-02 2.128965537101559224e-01 -2.576959192851893676e-01 1.791268228484802494e-01 -7.433000943263027294e-01 1.766263944161551580e-01 -3.540464092439780108e-01 -7.555647222895039983e-02 1.951071042615570017e-01 2.702115199061052575e-01 6.642837568957753458e-01 -1.119907230493078498e-01 -7.933100796626479934e-01 5.746777955761346313e-01 -4.031671585537203173e-01 4.430633235741004428e-01 1.921565756032896921e-01 8.982174889556805431e-01 5.151292592787017760e-02 -1.320608735305693338e-01 -5.317935560337041512e-01 -1.356326517136146881e-01 -4.361854680455577449e-01 4.224134564533972291e-01 2.206019916799997482e-01 6.896504049656133895e-02 3.103810435605518503e-01 -2.687566769323502247e-01 -3.546382214960632773e-01 1.072655189487514704e+00 -2.556938766749731196e-01 -5.257822279905273177e-01 5.235778690208592323e-01 -2.186513056265470267e-01 9.231084213245923653e-01 -2.702553466950500805e-01 -4.414367377618503285e-01 -4.628998257683057393e-01 -1.444743889963432393e-01 4.324878510239177909e-01 -5.049099228147422291e-01 1.699753750448651235e-01 4.519713311852264354e-02 -6.971881414030391966e-01 2.155166668101706484e-01 -2.345554031278924978e-01 8.769278331473821797e-02 2.940657364636865001e-01 -5.693611172205006454e-01 2.175256763051260922e-01 -4.032041162558497871e-01 7.145236957731022631e-01 4.145351632501625416e-01 3.430256752609460169e-01 -4.732224713217911272e-01 -3.767576873154552253e-01 5.542630387168540063e-01 -3.158758260061022560e-01 5.215099353735638127e-02 2.198513248873261786e-02 4.016134602961611288e-01 2.260051958809412287e-01 4.216598841289968119e-02 4.754633878872775443e-01 7.248946817427954770e-01 -6.249655806405783887e-01 4.037448115379058677e-01 -8.685977819634702057e-02 4.564181155960960190e-01 -1.888595100458837772e-01 2.664415389527539091e-01 4.689511612946272168e-01 -1.005253598467378551e-01 -3.909920082574149802e-01 -2.954426945438283214e-01 -1.952225304635750724e-01 -2.119077215831093042e-01 -1.824320794603307427e-01 -5.261283480130303225e-01 4.274953300124002126e-02 -4.251199810833024562e-01 7.515115572162145430e-02 4.876032385727108731e-01 2.741753223012571294e-01 -3.816922381879619408e-01 4.173948431296702899e-01 -5.532388174654931934e-01 -5.991691713918606554e-02 -2.451909295754055862e-01 -3.475706507405342260e-01 -2.101272376828145494e-01 8.497371386041296937e-02 -4.189583386616301253e-01 -4.158288145616136910e-01 2.123858231264975915e-02 2.034602985118809104e-01 1.523741800837508931e-01 -8.013557171185338168e-01 8.476678715955808796e-01 -6.762479383502236763e-01 2.386029449865351149e-01 -4.085232685559175292e-01 -4.240561651514374586e-01 3.926643328476082939e-02 3.756395133313844559e-01 7.625175780769537504e-01 1.166559731159819285e-01 3.918270271004424266e-01 2.166867400298357893e-01 -4.200473824752435914e-01 3.770607715773135471e-01 7.573778198402847384e-02 6.202322947576515560e-02 2.361642750536072644e-01 -3.854562972293982398e-02 -3.131810731678943971e-01 9.175350660420170112e-02 -7.451181831579430093e-02 -5.384563557764593389e-01 -3.114112817341546102e-01 1.349646983640303277e-01 3.994442990958125272e-01 8.223472026983078553e-01 -6.259382057640198171e-01 -9.939905526619088327e-01 -4.743626424504981953e-02 -1.969211262200391555e-01 -4.754252254998956873e-01 2.190952223006099597e-01 2.174770886738270348e-01 1.923594835950881710e-01 9.740701276874933479e-01 2.244073537140698904e-01 1.949499200764844009e-01 -2.370469637427569942e-01 1.207642369993760845e+00 1.210738558400345388e+00 -3.793269628174197328e-01 1.615615953891434975e-01 -1.066587896310579736e-01 1.334994329494691157e-01 6.803310828513062236e-02 -3.482122217582516721e-01 -1.404102066121293013e-01 -7.638594798881560843e-02 4.791927104383434943e-01 -9.686186141155317744e-03 2.133369362869849406e-01 4.224968271277703136e-01 1.366646095792721505e-01 -2.891766343703183750e-01 -2.727867565322283361e-01 -1.716282395318083909e-01 -8.007352048258152555e-02 -2.413644405005460347e-01 9.855472969199232658e-01 -3.428387602397450218e-01 -3.929193289313885895e-01 3.828122558287835875e-01 2.022182631016658794e-01 -8.480620384516682764e-01 -2.085730526190135437e-01 -3.119574668320332714e-02 -1.617985648276767663e-01 -3.386435995126499399e-01 2.152225019750041712e-01 -4.859744164019931256e-01 -1.874555115004964412e-01 -3.192491249251412921e-01 9.887628181403976813e-01 -1.853443576640727633e-02 -3.545434359305106864e-01 1.266602991261282785e-01 2.635415451287842492e-01 1.699484903600860519e-01 2.836330436885091677e-01 4.131733403968834151e-01 7.111236593914744830e-01 -3.570190361026964743e-01 -4.065491534839350551e-01 -1.451373477128444778e-01 3.921678572842134947e-01 -5.774575239100263602e-01 2.185389727593747278e-01 3.837476004559001175e-01 -2.967386146760002050e-02 -6.240785329660196723e-01 -7.175932376381430888e-01 2.455904700456746914e-01 -1.672365755339671745e-01 1.895582273605861123e-01 -3.640821114184662061e-02 1.249977517389444515e+00 2.961307162367190493e-01 6.115990391166206130e-01 -1.094860548838735709e-01 2.901573045825175945e-01 9.641784101091092907e-02 3.385943752605989343e-01 5.448829268362032074e-01 -2.183503916889113772e-01 1.442482730775341282e-01 1.569334946126884137e-02 -3.544617080153107946e-01 -4.322951455821845146e-01 7.636151654161192973e-03 -5.042668906677474916e-02 -6.186438359551126309e-01 -5.055099776900068287e-01 4.466833769963024503e-01 -3.540112850435107039e-01 -2.169347870709718018e-01 -1.309179148068869980e-01 -5.046041825507034950e-01 -4.587832995182390405e-01 4.515769933501409539e-02 -4.297594631053967135e-02 -2.428036256206434484e-01 4.187139500172404882e-01 -2.665244583583394333e-01 -3.272332811689766530e-01 4.861403514680046611e-01 1.201838033603173983e+00 -4.120550631721746071e-01 -6.459005554252481573e-01 4.464361282934453667e-01 -5.587105313539372092e-02 -4.823276108187089517e-01 -4.324218457467736698e-01 3.198293961728393160e-03 -6.105319362536378858e-01 -2.241514940724615434e-01 -2.489739618279541988e-01 -1.421021461021838850e-01 -2.974237499035488064e-01 2.771024528545661947e-01 1.690469057745311587e-01 -1.838505842205553631e-01 5.525163041474837611e-01 -4.329840575672574965e-01 -2.653594668882054697e-02 2.303247781592670518e-01 -1.669835335125919584e-01 4.235356905287292473e-01 7.561895224555813533e-01 8.453462185761336789e-01 -8.190919762802706394e-01 2.814766586438216533e-01 7.988989190870418033e-01 -5.477371425988524223e-01 2.618098388077059677e-02 5.335911097055566765e-01 3.911701123976272371e-02 2.731736869513521349e-01 -3.374189295898108454e-01 2.569175725860114445e-01
-3.726357051861448749e-02 -9.972489332241633864e-02 -3.803470026511679425e-01 -4.411394577801109468e-02 -5.469072303296539372e-01 1.215027329959158381e-01 2.187174914171466922e-01 -1.949287764649612342e-01 3.610966104983535097e-01 -8.784056497138084674e-02 -1.707922939106912008e-01 2.766061944462854250e-01 1.859819702741022374e-01 1.561478394231909442e-02 2.751274385521080834e-01 1.024836705582494040e-01 3.975221979988887711e-01 1.220247934171052040e-01 2.708438310623371703e-01 2.334790712744806152e-01 5.066988493945314698e-01 -3.065287113272591180e-01 8.783449924901612360e-02 2.740280543502141564e-01 1.453069813077809691e-01 2.799613423003874391e-01 6.704644635617263981e-01 4.688630561019234699e-01 3.494672752733194998e-01 -4.024209010634758887e-01 -5.256987698285144894e-01 -6.744425870148859081e-01 -1.500102098386770777e-01 4.341796317528151539e-02 3.220025910503340194e-01 5.772762225484712184e-01 5.286051374173491579e-01 4.814600156938342868e-01 -1.992742973707154752e-01 3.736972004823210791e-01 -4.062838291324267215e-01 4.098432605402149154e-01 -5.692550040861766858e-01 -4.098757679238969609e-01 2.051101824996149348e-01 1.495048613686490724e-01 -8.073361524529808209e-02 5.054070236296825946e-01 3.120707126535648412e-01 -8.230911601742075812e-01 -4.172398157002494279e-01 1.676374894682491901e-01 -4.446313722571668126e-01 2.172292413604774430e-01 3.990286759613106415e-01 -2.192098920751158753e-01 -5.276361751381514198e-02 -3.911226445640881288e-01 -7.189166908288948700e-03 -2.507699834323422472e-01 -1.251983266041192533e-01 -9.704176542433227970e-02 1.658735502081892521e-01 4.291571234784158917e-01 5.741983858468618918e-01 -6.996453616717163149e-01 -1.501969706897917922e-01 -4.084573016102440723e-01 2.609052199637509895e-01 -6.277330757784398418e-01 -3.215947476363149593e-01 4.261013903092363275e-01 2.551941082285392182e-01 -1.656758508976400868e-01 -7.099907496726245992e-02 -8.958118314286590833e-02 1.205586125105440921e-02 -2.837743711422851534e-01 -2.981983092217475595e-01 -2.452597091524026662e-01 -1.228634646469084907e-01 4.605410978438841396e-01 -1.416693679890454471e-01 1.297910724680833294e-01 -2.506533935996083651e-01 -2.320181359059952375e-01 4.702001397121977622e-01 -1.365413460288049385e-01 -2.963044692556995874e-01 -3.446705263842197997e-01 -5.688529893084020017e-01 3.060120442841446908e-01 3.639776835549810019e-01 -1.304926847937805945e-01 -4.039286574372899508e-02 -1.107654210380787894e-02 2.963481246994428275e-01 -2.663410427448278384e-01 1.137593775922660644e+00 -9.149782642016600631e-01 -1.633604020120653089e-01 -1.967991204963099316e-01 8.854525620794072571e-01 5.074311747782233040e-01 1.721286478814666385e-02 4.368478414189483350e-01 6.222999904385091013e-02 -5.251504051696562758e-01 -1.000952730087281278e-01 2.972631622517314387e-01 3.216661651505531294e-01 -5.960055857451332928e-01 -1.340367203509480187e-01 -2.591396775980688294e-01 -1.495667903441233737e-01 8.805132941603337204e-02 -3.429351180243667141e-01 -1.537361886500262786e-01 -3.527554050793182405e-01 3.536693978445348274e-01 -3.111880931729820166e-01 -3.388971449651750206e-02 7.736748763135339324e-01 8.250030885753080467e-02 -2.146000426315670256e-02 -1.333954885163231019e-01 6.471827927204085174e-02 -4.678536063693911617e-01 5.385150987537697942e-01 -4.993104816739207252e-01 5.090346086872601372e-01 7.930903214559295034e-01 -3.816865357654981028e-01 5.128273433180889906e-01 2.431262401508064996e-02 5.642189691531683815e-01 4.640183530266204226e-01 -8.744082989688067853e-02 -1.580060487049992357e-01 -2.415585548531395954e-01 5.327129326713217483e-02 -3.113239952556962065e-01 2.766386847915683345e-01 -5.001608233606515963e-01 4.065227721437241759e-01 5.272687782750850038e-01 5.394004310322052520e-01 -1.530764150802350620e-01 2.222298967469879538e-01 4.891830229440022326e-01 6.675681509870254882e-01 5.261014997858574072e-01 -5.052334729469016850e-01 2.562016660594549355e-01 1.093206185677064041e-01 -4.602029473142948968e-01 3.075887532396503476e-01 -2.749071987650623661e-01 -6.474494109264311570e-02 1.768868243349395186e-01 -1.251231531778842776e-01 2.420807979453340475e-01 -1.053340376719982263e-01 6.508477925255544694e-01 -5.256424024722861077e-01 1.387620708110722245e-01 -2.802611309337987300e-01 3.271592117101046471e-01 -3.345591718287613953e-02 3.669442531453034895e-01 1.682055083095289616e+00 3.242366003348824688e-02 -4.527776646661663129e-01 4.126274813970382677e-02 -3.812969823139932685e-02 1.018366694823384377e-01 -6.283987845035722275e-01 -4.160400676191282066e-01 -1.764516763869708738e-01 -4.213271689687388827e-02 3.554031312317299518e-01 4.840385538129936549e-01 -3.990747770426137930e-01 -4.055337994973315374e-02 -2.566779257986959162e-01 -3.155343581659834917e-02 -3.980687337970520434e-02 -4.366334261237941883e-02 1.994026770290613926e-01 7.865250391082463655e-02 -4.629160494412314364e-01 4.270455778469365860e-01 6.634702386896569326e-01 -3.135570552110428233e-01 4.245135539063796815e-01 2.229317100673982310e-01 -4.497881006248767299e-01 -1.498331374080290324e-01 1.524054456791769652e-01 2.525584865355140485e-02 2.656330685672647629e-01 -1.844740689098677833e-01 1.095445591683592429e-01 2.125640240012310195e-02 1.205281361212754559e-01 5.389128315363455046e-01 1.261159486062238266e-01 6.676853698555859085e-01 -4.191295128187085273e-01 -3.424236718356296616e-01 -1.406161017413195269e-01 4.950074689207746292e-01 5.768954509759658400e-01 -1.629756222298515966e-01 -2.816568939445512343e-01 2.284381121518213875e-01 3.205965421830889728e-01 1.458652430638587294e-01 6.052454086173943149e-02 2.367231725402122178e-01 -7.968639940293075208e-01 8.196035980127169829e-01 1.234735789619419988e+00 3.123966753477357416e-01 8.399177317180445829e-03 -7.639555961885817481e-02 8.334788964745842854e-01 5.537048944103775986e-04 3.501391074958707383e-01 -7.916003190303157189e-02 -3.322072420980280993e-01 4.449562378220450198e-01 2.515541115963825236e-01 5.331521693026725073e-01 -4.314911345627051587e-01 -7.623392573815269968e-02 -3.302245094240650602e-01 4.531897664101323109e-01 2.039599964882991001e-01 -4.380755044069895576e-01 -2.730297525551323989e-01 9.396729500925508904e-02 1.236437848113929039e-01 -3.190313774017952686e-01 4.088432514187061995e-01 5.056319039724935793e-01 -8.293831223935562713e-01 5.130060662702523588e-01 -1.136335801153013844e-02 2.107502406281495377e-01 -2.074685992169739146e-02 3.443347174788162490e-02 1.172622858228489495e-01 -1.661931297335566549e-01 4.324369998411943250e-01 3.613033352349349636e-01
