-2.819014412404769132e+00 -8.273313416633717443e-01 9.737724485197090107e-01 3.458638941338751938e+00 2.250713322587859722e+00 3.897691840841255306e+00 3.130561394304202327e+00 1.718326086031507716e+00 -4.378710146128055314e+00 2.045659250571724819e+00 4.399010092335974065e+00 -3.489901465299833916e+00 3.381126965325249589e+00 1.441191987705950694e+00 -6.538116429999687895e+00 -5.760838524966130691e+00 4.534524921554702104e+00 2.151260621061310552e+00 -8.267161019467721417e+00 6.318368676439965803e+00 7.250461347627682462e-01 2.115428458214420271e+00 1.320258501619957281e+00 -8.489374485100521284e+00 -7.690903202793742288e+00 -4.695053463353232814e+00 3.055010143219299312e+00 1.001384343594574844e+00 1.137671319710030327e+00 3.782960101134046571e+00 -3.092754950696571914e+00 -3.243323943842510104e+00 4.912550186900949356e+00 -5.235860024241894450e+00 5.453426165063532061e+00 -5.203381837526553255e+00 6.210398940041834237e+00 1.603586161151538125e-01 6.584108205516990608e+00 2.084873914992961375e+00 -3.987966591967544439e+00 6.389635289368452042e+00 3.068524422379201866e+00 1.623111285114952507e+00 -5.805153123999351905e+00 -5.338767659579342073e+00 -2.601041576936859556e+00 3.618451061887792974e+00 -5.857111288509150526e+00 -1.217523141089202809e+01 -5.900512915474118714e+00 4.483279176717593906e+00 4.787956471633020961e+00 6.133116903979408896e+00 1.471208232504259417e-01 -5.789641152187792628e+00 -4.758717567588816699e+00 -6.071414239518611922e+00 2.120119183531443685e+00 2.772888337799448877e+00 -3.228350309643461369e+00 9.705131880178190507e-01 -3.983122279305547409e+00 -4.205951801276859747e+00
1.634923903255645905e-01 5.308202940366790301e+00 2.001873795837054271e+00 1.461543574513946675e+00 4.525136322202130135e-01 4.086989885706993064e+00 4.212708864243043472e+00 -9.063069305387777774e+00 -1.647867931280130871e-01 1.074411960262696558e-01 6.831390714311483814e-01 7.096400376574488078e+00 -2.875411289233022138e+00 -2.353319531318168512e+00 5.301060143278712111e+00 -7.025151019079208581e+00 1.080720161126473428e-01 -6.406355610062155925e+00 9.918237283270769922e+00 -5.044783766098825950e-01 5.926966607695478562e-01 5.175084620102059496e+00 -1.752264249126071372e+00 -4.893856435851293263e+00 1.884661744573449926e+00 1.077996067883860576e+01 1.613458876427348587e-01 -2.277314478279814924e+00 -1.072566630848815761e+00 -3.120555318060146965e-01 -7.927464367781229981e+00 -5.676327962268609362e+00 2.721334056715237981e+00 9.981255369399224975e+00 -9.367163248719833080e-01 -1.095608963327997953e+00 -5.494264286638657069e+00 3.178164154488452908e+00 -2.131333334479391439e+00 -2.482413629519033549e+00 8.136925325612525128e+00 5.088802514544319422e+00 1.363494102325678303e-01 -1.329895600483767204e+00 7.381698649239863741e+00 1.185340552802479586e+01 -1.140448636189481313e+01 -5.793146923118698055e+00 -7.898946793957940748e+00 6.527752891553729064e+00 -3.286229493613328945e+00 -2.992050148109488550e+00 -1.840793456524366656e+00 -4.218784524817384973e-01 -3.604870629428431172e+00 4.002432539860380167e+00 6.595782418618198584e+00 2.281466499781437562e+00 -2.248792297482621549e+00 1.088471208620052311e+00 5.263224036249448901e+00 1.339798593502398605e+00 -3.366107624373090523e+00 -1.530732372555843046e+00
-2.620563562337822727e+00 6.445720960147087730e+00 3.017612326483927188e+00 -3.703841712535266950e+00 1.289931764319724339e+00 -5.920282441029890208e+00 4.783646633935370929e+00 2.198244693891616919e+00 5.000342442772315543e+00 4.368715726803985566e-01 1.181660059904220894e+01 2.936547783010590162e+00 -3.878646397395988821e+00 -1.112210606783014394e-01 3.837884931599136351e+00 -8.022757618627988307e+00 -9.183616440812734538e+00 -2.299684184480126348e+00 1.095041041310055974e+01 8.054543746643174629e+00 2.861075812220337689e+00 -2.569186162734393708e+00 -3.036015863557274264e-01 -3.947652627169073725e+00 1.712062782428337981e-01 6.604466363493001424e+00 9.242131675881534170e-01 -3.880249210516852454e+00 7.351494736903955995e-02 -5.549143833594368580e+00 -4.306590400531632667e+00 5.791922450470056383e+00 4.116293662435658973e+00 8.531778642930888168e+00 -5.625997774637611082e-01 -2.059850463371899476e+00 1.091419461981363881e+01 5.402698772596947308e+00 -2.060399127999007263e+00 -4.283479983200384922e+00 5.378244051279715165e+00 2.731569787807316629e+00 -2.253740417391905115e+00 -1.653015191166077980e+00 6.735250473757384171e+00 8.622316685026058636e+00 -1.204583205826866621e+00 4.507695274392426454e-01 2.565964388272464980e+00 3.138228440491099391e+00 -6.621683304526943203e+00 -3.559524182333215769e+00 -1.003265144306142442e-01 3.813683640414905707e+00 1.382433329514024312e+00 5.368824952981475107e+00 6.249458336828529248e+00 3.486905338201397253e+00 -4.123607857020445522e+00 -2.897326304430491994e+00 4.512416046238647560e+00 -1.447652581809347083e+00 -1.667843179561105282e+00 -4.267447221420478165e+00
-1.416880553622409389e+00 7.337761272201980489e+00 3.968983329718331898e+00 9.909923788300696756e+00 -2.475105679069534492e+00 -5.355474896916629035e+00 4.312258953107063419e+00 6.016265089933649612e+00 5.031594906256482425e+00 -1.145765082355065134e+00 -3.842250818001641921e+00 2.820959777167298399e-01 -3.502318368106415392e+00 -1.598511906404306071e+00 4.935744349423656807e+00 -9.597877142240763604e+00 3.665273192758327525e+00 -2.944587568234961150e+00 5.824675228222933043e+00 -1.125098673309424591e+01 -2.039377782558505103e+00 -2.062031249767715568e+00 8.866287313069689535e-01 -4.206463424705399134e+00 -2.152646605643063982e+00 5.237973723440147111e+00 -2.429200210734199672e+00 -3.594381607468845719e+00 -6.594186825457858392e-01 1.510233714069640243e+00 -3.147696560487009076e+00 -3.943058601943551622e+00 -7.892736667709946197e+00 8.515714382692181061e+00 -1.556195806681138993e+00 -2.059038160718435151e+00 -3.309287839618010540e+00 4.100563873453849872e+00 -2.075949638190139446e+00 -3.412730376962659129e+00 7.370604551141298089e+00 -5.409710025467802108e-01 9.067229140573809687e+00 5.008195461480895005e+00 9.703598985153954359e+00 7.865400367537374038e+00 -2.097309975927504233e+00 5.117244009058209642e+00 -2.554815435909819077e-01 6.173814969313500711e+00 -9.595283789773506600e-01 4.125344962542923710e+00 7.975538847686597377e-01 -3.427657472439109121e+00 7.356131444616487158e-01 5.416269075049989112e+00 7.473343932522647393e+00 3.370103503897741160e+00 6.392189667810402653e+00 1.093613188988988760e+01 6.992969132486539507e+00 1.122527268631352326e+00 -2.710770963276710521e+00 5.271012562347225927e-01
1.047676766134385495e+01 -6.451046719369962545e+00 8.251783969976894673e-01 -1.108254540000954913e+00 -1.678876659756594059e+00 -6.930178651302352222e+00 -2.422552495436939776e-02 -1.694990369332153579e-01 6.632068060582803959e+00 -3.857904947108097837e-01 -1.576587900065773651e+00 -6.349105489256519519e+00 4.769973852641297141e-01 1.357880193139453517e+00 -4.457378975347435102e+00 2.816996557833821857e+00 -2.530261628792239925e+00 4.314444457818931156e-01 2.151990476814080455e-01 5.455627444240331414e+00 5.766570352111534126e-01 3.144502469290691438e-01 -2.150774982451780559e+00 3.908449423030872616e+00 7.477146545050343818e+00 2.519402415909737680e+00 -1.768866082357628100e+00 1.633730824594520570e+00 -4.347675340027057911e-01 8.565051933886033808e+00 8.660532384908639969e+00 9.105284242875818279e+00 5.247476023472661844e+00 -1.012076393773571475e-01 -2.560222582949006398e+00 1.384141579372729325e+01 -2.861339337405753191e+00 4.122480400816511015e+00 -3.229463233118126997e+00 -2.486583765084379394e+00 -3.007221619215046715e+00 -3.149289875292093033e+00 -1.649558808435485746e+00 1.411149102069893857e+00 -1.741235337216570533e+00 -4.717474203139500333e-02 -3.340797970545076101e+00 -2.193391298006549750e+00 7.900189701453812496e+00 3.934522366569684682e+00 -1.310966966417513202e+00 -1.263684073458161361e+00 1.624747848094075797e+00 -4.917847531808650530e+00 -3.123961090753655245e+00 -1.955649601448221198e+00 4.274293144529178190e-01 4.883992017823512999e-01 -3.006871228236712712e-01 -1.649663301654383130e+00 -7.179237092857625235e+00 4.070284358116370571e-01 -2.937645574695369355e+00 2.624933516521831045e+00
-9.087931442671364213e-01 -5.407815276683524353e+00 -5.105538991981639629e-01 -2.253590003708304257e-01 -3.241272725968188162e+00 6.143617959952514695e+00 -5.994273081411326309e+00 -4.047843542884476675e-01 5.428730478413503313e+00 -3.379157558989286936e-01 -1.478921190538775798e+00 -6.299409223883829789e-02 -4.675959263854568282e-01 -2.305357231182410427e+00 3.590947549097056601e+00 5.240860087725311978e+00 -4.075952869802029754e-01 -4.565598265594715599e+00 -2.560887660817105171e+00 3.211689177182459165e+00 -2.082695883806716441e+00 -4.806002778554862687e+00 -1.171822107573157856e+00 3.508767258766776198e+00 -4.841585256266768056e+00 -4.021014863028081088e+00 -3.649359113303925373e+00 1.568247174924213949e+00 -1.243982221266316301e+00 3.840817010293821721e+00 -3.892762838830358341e+00 9.818967771329560890e+00 1.667303948412383940e+00 -3.905025221970459093e+00 -2.249000292504635734e+00 -3.770143003970654494e+00 -4.469428839236534223e+00 -5.019458609269675797e+00 -2.413919324108535047e+00 -2.303952621411663237e+00 -3.923522293332321276e+00 -8.222390380260106824e+00 -1.353504346852073548e+00 2.255181435589306727e+00 -2.358447358790690007e+00 -9.255428546877611851e+00 1.089219241380272685e+01 -5.410221392493809844e+00 1.379800733082963937e+01 3.634734423279567306e+00 6.016592988284168442e+00 -4.330489708148750339e+00 -6.319503558062356419e+00 -4.318241602693152714e+00 -1.453924777924518796e+00 6.827175544375132965e+00 -2.221128089207484724e+00 2.580585260950787330e+00 -1.194442252516276559e+00 -5.902497759536896593e-01 7.527947739415482564e-01 -1.900342397668890015e+00 -6.024569296429132415e+00 6.422528238999960060e+00
7.520652422446905128e+00 -6.717971575298379072e+00 -2.994697654248756447e+00 -4.013071153960493298e+00 -2.503824739376427022e+00 -2.104278297707018908e+00 1.225204752152390419e+01 1.928004183975961849e+00 2.586618633128574984e+00 -4.651086230818576084e+00 9.350515520709780759e+00 1.503588915111270907e+00 2.902975090097725461e-02 1.335010245504798743e+00 2.933991712459150136e+00 7.090443734703462120e+00 -8.751146965012372547e+00 4.130267950888992234e-01 4.481095053680097529e+00 1.093672332964413130e+01 3.757668489105012721e+00 2.533653507035326102e-01 1.240327387672077286e+00 4.745014899879179460e+00 -7.486702047332247645e+00 -7.482265138163852747e-01 -2.405970907120799751e+00 1.346477086372833698e+00 -2.061097814259502226e+00 5.223306250004450257e-01 -3.015630127492295642e+00 6.531721150909296725e+00 7.316555161372289007e+00 -6.094345957799601754e-01 -2.787441257140689022e+00 3.988537092829509412e-01 8.539524575666728623e+00 -8.059827114446175500e+00 -2.069012030814003200e+00 -2.975624069797096372e+00 1.565771964282948181e-01 -7.923541120326568432e+00 -5.950248645777094225e+00 2.973171333927093318e+00 -6.416683903252035748e+00 2.427567708294464222e+00 1.001472982862817496e+00 6.030817432486389684e+00 6.476761756700224915e+00 7.887164796315538143e-03 4.041659714481797394e+00 -6.326745621015072985e+00 -8.806372613604651178e+00 -6.936513451475736503e+00 3.142667128346577243e+00 4.841372932308429355e+00 -1.257392682723839528e+00 4.852176645264405508e+00 7.105363843478132324e+00 -3.783926224874982758e+00 8.772754096145940483e-02 -1.089567282391899150e+00 1.313216793416122385e+01 6.118234111554130550e+00
1.090035795698412002e+01 -8.834199588455996732e+00 -5.263361501973777834e+00 8.999546229966092881e+00 -1.968823000916838151e+00 1.912160906429498652e+00 -2.874800470253275897e+00 1.452622705005420345e+00 9.290579506540669996e+00 -1.662510983224808392e+00 -3.767852582727147404e+00 -2.555693643736150822e+00 1.110378074305961027e+00 4.866939320019664228e-01 -1.019609870204982949e+00 8.033435919005766479e+00 -2.402460214800225202e+00 1.733846634598874004e-01 -5.895625507863030634e+00 -4.476317572873486084e-01 -9.655640848564841505e-01 1.664355088455769405e+00 1.147641220813863772e+00 2.451448285128575488e+00 3.220209211200055766e+00 -3.611933920199187353e-01 -1.770018655932857232e+00 -1.253576562263114980e+00 8.988656666857357536e-01 1.110487971554976028e+01 -7.791362068285906384e-01 6.996316789570246719e+00 -6.342110979712333396e+00 -2.563017971715788157e+00 -2.377065734804760133e+00 -6.174947591348414200e+00 -3.035729592508571884e+00 -1.905365579623033767e+00 -1.243780696009760822e+00 1.651383454050550981e+00 -6.463118559905943750e-01 -1.284590893711946258e+01 7.486867313825509740e+00 8.271103760116697845e-02 -1.469605917565221098e+01 3.047733111701530717e+00 5.789919074761301410e+00 3.779381046296812041e+00 6.151476661873094720e+00 2.657016106899246388e+00 2.750526506476084876e+00 3.417260116005013337e+00 5.089703856171467145e+00 -1.185284053009513805e+01 -5.400692547943551913e-01 5.775634663893244536e+00 -5.003812230525230831e+00 4.676989873741353776e+00 -2.167122968702411612e+00 8.791314892202246156e+00 -3.429857568634709253e+00 2.333453935442544314e+00 1.298954260492400370e-01 9.580157505483397173e+00
-3.993083711828548932e+00 6.449451594798673248e+00 -8.195211167931285567e-01 -2.031718478105313253e+00 -3.599009682104650221e+00 -1.712816709748502086e+00 -1.449311163284175086e+00 -5.574040754407190157e+00 -1.964424004947894042e+00 -1.386649434215953880e+00 -2.363710269952243870e+00 -5.494276470947828450e+00 -1.473703891724686743e+00 3.910934986492012211e+00 -1.604383805667931151e+00 3.677417288578079813e+00 4.683006562702971110e+00 2.340178335626318606e+00 2.143035916399718577e+00 -1.372188759259509672e+00 8.833777993795747241e-01 3.230270108237672577e+00 -2.719420050459799842e+00 5.180174016073719301e+00 5.780107485141277479e+00 2.086934178872376755e+00 -3.611027385516190513e+00 2.419794927509303362e-01 -1.843220541140070168e+00 1.782658905608464350e-01 1.176359509638012391e+01 1.236033781825250477e+00 -7.234816704578206803e+00 -1.611820887164915117e+00 -3.506175039362669832e+00 8.835182576326488402e+00 -1.651088288307547502e+00 8.121758827921986779e+00 -4.290714806431873640e+00 -3.536125481273517668e+00 1.940040202748968268e+00 1.440062145297087426e-01 -1.224657025726895609e+00 -2.794349997018426457e+00 7.115508411757884843e+00 1.675712731983414860e+00 -3.974431527339803871e+00 -1.129037945007307364e+00 -2.359953402163737834e+00 3.621536691827464960e+00 1.398887080379659142e+00 -7.700295333767424033e+00 -4.440034164056425148e+00 -4.125027745791008726e+00 -3.454045915432091718e+00 -3.892713373926288689e+00 -7.102657974158248511e-01 2.157893592777886838e+00 -3.154998271110037056e+00 -1.932384750264809048e+00 -5.484354608624494531e+00 -1.531725498819333620e+00 8.469894558080888203e-01 2.840613328388972292e+00
-4.021987942640094932e-02 1.953138476045561234e+00 9.764743694684451247e-01 -3.826660003168808721e+00 -3.994015240636571207e+00 2.485953495772745547e-01 3.865493764408747701e+00 -5.709957525869040929e+00 -4.326004454031243895e+00 -1.860302816694938466e+00 -5.954799415126071693e+00 1.550670280184609728e+00 -2.285778877083219029e+00 -5.972983228557201762e+00 1.877922802145618741e-01 5.556700739172145020e+00 2.995256475175746225e+00 -4.156769701655267824e+00 1.328300890022010350e+00 -3.252214623376696867e+00 -5.935142713398425807e-01 1.657023868539126532e+00 2.573375129850372645e-01 5.608354633898104069e+00 -5.840002373897237309e-01 -2.498385430786969064e+00 -4.349584171816468725e+00 1.366316195266996658e+00 -1.364275868270950598e+00 -2.649274638226005063e+00 -3.564410637888228095e+00 -3.660284880343420699e+00 -9.635256039292277919e+00 -6.345288784669278037e+00 -3.949414013318914840e+00 1.555903661758821777e+00 -3.967183928125042502e+00 -4.322167695013352073e+00 -4.790807299194254298e+00 5.366679382932825426e+00 -3.969680263294545597e+00 6.488421312474314639e+00 -5.476566298531522214e+00 2.815318438637873122e+00 8.684761228368463648e+00 5.823442436343145845e-01 6.574892661733418464e+00 -9.067141550499458802e+00 -1.471529511055729822e+00 6.267729097935699656e+00 8.089646935700516295e+00 -5.360929298066842819e+00 -3.856242886145232696e+00 9.771556838712938120e-01 2.841073394689162868e+00 5.926798159913401420e+00 5.600465120014060938e-01 2.709403698418222817e+00 3.344890974994579214e+00 -3.066593166316065933e+00 6.704337525067356474e+00 -2.104515843043013312e+00 1.917403326344355730e+00 -4.877545801737816156e+00
-4.071855273733224756e+00 5.855578377367574028e+00 -3.620337980053054405e+00 -3.165661852844502633e+00 -1.068853129274065950e+00 -1.006836536880225230e+00 -2.120135713277703005e+00 4.646744421264967229e-02 -5.511108139321829746e+00 -2.606088321624036919e+00 8.539952142506587407e+00 5.616631909361172958e+00 -3.245596042017859784e+00 2.906061527742993089e+00 9.850468999806375692e+00 6.462869590734577230e+00 -3.008071063460986849e+00 2.102872766091339329e+00 4.944752348928359353e+00 -2.657191281210886213e+00 3.804923769188451654e+00 -5.410565421276857911e+00 -1.502920454776400794e+00 5.611948770785160079e+00 4.686131016502450564e+00 3.287096713734945830e+00 -8.281542974876142660e-01 -1.670156585468152433e-01 -1.157929768192303754e+00 -2.074673621745135144e+00 -8.699411881510881628e+00 -1.783842592908954972e+00 -3.251352458160816639e+00 5.749636523966588086e+00 -3.513769721963258874e+00 -1.815357463720094655e+00 9.770066734499248895e+00 -8.136965977130200756e+00 -3.757327416815019472e+00 -4.234143907264131812e+00 -6.076059957791997590e+00 -1.269484421075656622e+00 -4.370149861167704763e+00 -2.525001826294356100e+00 5.230315437582389926e+00 -5.077722715856320956e-01 3.466475379987102867e-01 1.000310969064666544e+00 2.226853617571209032e+00 3.681230759388224527e+00 4.048193159644777772e+00 3.413348199714875686e-01 -2.579386293803118235e+00 3.116152137581014614e+00 6.136424820995200341e-02 3.806740476890436042e+00 -5.512735697069936158e+00 3.634518557866858401e+00 -3.116728592531702091e+00 -2.358439277615769214e+00 5.989308941785171925e+00 2.459139030675899562e+00 1.817810181851301055e+00 2.492759095403203506e+00
1.378211809325071702e+00 5.918395746139315960e+00 -8.009062963868249785e-01 1.016520997448667174e+01 -1.414622912991918557e+00 6.654272893822112067e+00 -7.269457682976756541e-01 -2.965595944952551744e+00 -4.322122657005309510e-01 -1.790059902324313335e+00 -5.367282157905639117e+00 8.559252261140043672e+00 -3.453780013561509765e+00 1.725144773426819933e+00 -4.776550695522458589e+00 1.267811830323820388e+00 2.095424495153202837e+00 4.399707742533832122e-01 1.514879952332837121e+00 -7.082113537260241731e-01 -1.599132748208188515e+00 6.334258441174004384e-01 -1.995481835629260070e+00 5.954287443202427532e+00 4.144788429989010758e+00 3.292475995944083689e+00 -1.207761840812134668e+00 -5.023912091972294602e-01 6.448978539012825140e-01 4.857188410733496164e-01 -1.085659608996180969e+00 -3.274740971130062572e+00 -7.657742719266416920e+00 5.346474985611811448e+00 -3.117929254809586048e+00 6.012259732552101887e+00 -2.605007518237627551e+00 -4.886750374197134761e+00 -3.112424650345515520e+00 2.029018220750286261e+00 4.551188795214455851e+00 -2.913725350628851185e+00 8.974124035933247256e+00 -1.195569133782409699e+00 9.074133148291124940e+00 2.725364865326878938e+00 7.947575005547196980e+00 -2.201447206789387545e-01 2.010201591822913247e+00 2.438708133380260712e+00 2.962894404791867498e+00 6.769611537278948710e+00 -1.693087659375214438e+00 -3.976582059823569715e+00 -5.610004199429195815e+00 4.183043007293623106e+00 -1.977753210583628185e+00 2.306212567697594196e+00 -2.953933364374961013e+00 8.522004149393339389e+00 6.677365750895654983e+00 5.199674547893825549e-01 5.736502182703319130e-01 3.344309710794451274e+00
-3.079918706072089840e+00 7.818699808325422218e+00 -2.092528793329418324e+00 -3.314753350237524376e+00 8.527764617073797737e+00 -8.293403131712874909e+00 -7.664467089093260022e+00 2.559841950649550668e+00 -4.766458232640441217e+00 8.282392769940097210e+00 -3.045400886144728592e+00 -6.035882998298293112e-01 6.640866847721493826e+00 -1.596017022022014897e-01 3.077332707983063020e+00 8.326869849150117631e+00 2.318586312712702213e+00 6.079202496787083909e+00 -6.609326640307627621e+00 -2.874269022517815575e+00 -1.263816253441290005e+00 -2.337432299428493288e+00 3.290294201335522750e+00 6.990113154404958173e+00 9.756263872746853139e+00 -3.170017293979198847e+00 7.566424230649750449e+00 -2.617798257292322184e+00 3.272790762614552929e+00 -1.699389076386240260e+00 9.819150898569743546e+00 -1.193898016792243499e+00 4.217917611712527659e+00 -7.555646819573802908e+00 1.021390756500749752e+01 8.133003946128154027e+00 -4.502352604928879565e+00 4.977522995634543257e+00 1.051512767471650101e+01 -3.277096613718564200e+00 4.210070418953948845e+00 5.256722931744922001e+00 2.373560010872745873e-01 1.441856279112644801e+00 9.456914484746699046e+00 2.559470381404473471e+00 -3.556550382417078549e+00 3.615802783727682268e+00 3.882663758515973118e+00 6.044007645718004973e+00 7.667969158798543239e-01 1.371582552523760823e+00 8.471729416697796111e+00 3.685072027450446264e+00 7.488950740821428420e-01 -1.312135995411021661e+01 7.225780509729747614e+00 -1.180066482544922302e+01 5.098248822032871885e+00 -3.309238879436974479e+00 -4.021166829073366422e+00 1.006687507869391984e+00 5.906181874980983793e+00 -4.491686435124940147e+00
1.856246618393187608e+00 -2.849463778652411294e-01 3.991010996861455440e-01 -2.161552145751028942e+00 9.133903276973331486e+00 -1.837802816271807416e+00 -5.988298052549930972e+00 9.070940209774496665e+00 -3.860760019172180257e+00 7.254051727935017624e+00 -1.183973689337637358e-01 4.986424608370330525e+00 8.731819518607698782e+00 -2.420942065048068859e+00 3.512032280125651162e+00 3.987747496571713235e+00 -7.663753120706099375e-01 -4.957381150761147381e+00 8.700714215245529459e+00 -3.118761385370330430e+00 -2.221350583824975855e-01 -8.694971039157119996e-01 2.873389361348433813e+00 1.571427609198293940e+00 2.193128154769133253e+00 -8.854615331022039015e+00 8.183069646834439936e+00 -2.195878453766494931e-01 3.905810130064839125e+00 -3.095904228214561460e+00 9.411265972921592393e+00 -1.588871321440397555e+00 -5.660295210528120124e-01 -3.171889998799758192e+00 9.229654130415099189e+00 7.778456567649563169e-01 -4.007976438211698245e+00 8.872588374673767930e+00 8.684197120224213862e+00 4.834297920823844130e+00 -1.716246320643468826e+00 -1.280363916901037458e+00 -7.757008246505781024e-01 -5.707998973779321306e-01 7.960053613041873533e+00 -5.733825142549698661e+00 7.164925109808479853e+00 -5.886915598268884331e+00 -6.291948856766204301e+00 -1.825299110122895918e+00 4.995559173218077298e+00 8.754903813295017656e+00 8.740466252255412627e+00 6.713680274720386087e+00 -1.167456814182256331e+00 7.071498518581548431e+00 9.798793744106102821e+00 6.455284849006980075e+00 2.132699629684202236e+00 -2.160545430253971944e+00 5.839238112717338502e+00 2.427390845370087202e+00 6.013696924717492287e+00 4.155986529133438800e+00
-5.313991877850128276e+00 7.563058582834718990e+00 -3.210495037702193688e+00 -1.055534930432739271e+00 1.074795620932321505e+01 -6.797415155223594851e+00 -5.819667832156961929e+00 2.528036344472329056e+00 3.337679166226092509e+00 9.107103147066537119e+00 1.023403425373945375e+01 5.850358498533873686e+00 -1.021749906153311116e+01 -2.927604640874212460e+00 3.172305150400275053e+00 2.830489947951198904e+00 -3.759067854735675951e+00 2.697945756416814334e+00 3.366053954813872373e-01 -1.713945759331281460e+00 2.982858138861632646e+00 -2.325075141027118875e+00 2.795473759143377812e+00 3.792255916236352054e+00 2.627013612818769772e+00 2.587644639182753892e+00 9.789442760083160167e+00 3.051268636651063737e+00 4.110760639287813767e+00 -4.832526413238626084e+00 8.014076671558798992e+00 -7.043307584388347475e-01 4.636574399334857155e+00 4.402303230528856304e+00 1.016989748295317852e+01 1.352289301819382006e+00 9.376840278965600461e+00 3.979350077248288819e+00 9.728917128091660871e+00 -4.274625385610049122e+00 -2.376823746520086100e+00 2.313503786937071816e+00 3.909099885102555128e+00 1.268507679547992595e+00 3.310061090215827839e+00 3.544358463621193778e+00 2.005195762218014544e+00 -1.252600873196491715e+00 -3.568722201637501978e-01 -1.382837836991217095e+01 7.568562878932132421e-01 8.713032585022089549e+00 4.993858383462452366e+00 4.394601565406917487e+00 -2.460409385128718540e+00 7.489705049171203832e+00 -1.529681050700411937e+00 7.209185414748343845e+00 1.476884442309842171e+00 -1.201523351052447897e+00 6.936615215314036575e+00 1.089564910597709879e+00 5.295675051845591064e+00 -3.363267705235220006e+00
-3.828897466255800186e+00 8.058799815385238929e+00 -8.281288931261711284e+00 1.021470421039441057e+01 1.125878265872566075e+01 -2.011821514672079481e+00 -3.180115758611900656e+00 5.571015943614477273e+00 -3.423015231567147598e+00 9.413203271634181135e+00 -4.191410036890522051e+00 6.332620228981046040e+00 5.008685198643172409e-01 1.388414146971354457e+00 3.322182650019890104e+00 1.154965717293445593e+01 4.164167554099811319e+00 1.280187609192201537e-01 -4.447280559687007973e+00 -3.095992210819430657e+00 -1.406201079274814303e+00 -3.613714190984790964e+00 2.958285339945180503e+00 1.116823823202352983e+01 5.256394412330921639e+00 6.619684436470286926e+00 9.725025742548602636e+00 -3.651305094166052423e-01 3.546332836836460611e+00 -1.277857252092665208e+00 1.757029948398079189e-01 -2.612541035179219762e+00 6.620661339492485142e-01 1.997069574511198375e+00 1.173982041981857805e+01 -1.646833279452287968e+00 -1.617877731995358781e+00 -5.061478673672283435e+00 1.056921901228359673e+01 5.490963145239152965e+00 3.578483915567700624e+00 -3.239117944190287979e+00 7.859881700944961302e+00 -1.047121588681789506e+00 8.767537051331309783e+00 -1.155109219020539868e+00 4.539500005643127167e+00 3.488216847258691189e+00 5.677014404390889890e-01 3.530048955344017525e+00 8.450693793196812464e+00 5.863544963913181363e+00 8.848586190644766702e+00 -6.959626693014982379e+00 3.612441559578658534e+00 6.671002149043725460e+00 2.107189732336975041e+00 4.856710839418332704e+00 1.712776021029658979e+00 9.673750922200049729e+00 4.376160314685163755e+00 6.078887948690292475e-01 5.777382201872320877e+00 -2.725608510369499804e+00
