2.529494222436858841e+00
2.956136621539515175e-01
2.425364763899480747e-01
2.409481927204362717e-01
1.078789375083717417e+00
-3.514470286831974821e+00
-3.137975057337524243e-01
2.503367832023876693e-01
3.193590866602954215e+00
1.882534701509871178e-01
-2.211706413724724651e+00
8.778373035396977997e-01
6.095897924163606874e+00
-4.301030730130571911e+00
4.871066555365566875e-01
-2.217004876063942143e-01
1.825801726696591465e-01
-1.144233035714659064e+00
-5.680792780024954830e-02
-8.644975503176025589e-01
-4.324215620800434534e-01
-4.285906151644300444e+00
-2.109212016416467383e-01
-1.367689961026473444e+00
-1.219526130722282220e+00
5.690618012357566702e-01
-2.637858781339006864e+00
-9.530044562802694186e-01
-1.145987351852288505e+00
4.087604300021348003e+00
1.583516021306184740e+00
1.878882689933047745e+00
-1.191912176931125611e+00
-2.957252929389835860e-01
3.764612856318971801e+00
-1.142865824519541329e+00
-1.934310506057465684e+00
-3.816658294051943345e-01
-5.137678037792891006e-01
5.286479262112462330e-01
6.448329941406379939e-01
1.686440946964609333e+00
-2.476487165853378802e-01
6.810584003816484433e-01
1.408860235306345632e-01
1.394259071468393119e+00
-4.452011172217110735e-01
-4.043775239377968983e-02
1.031245769663696965e+00
1.406747930684724368e+00
-8.025949094862298017e-01
-2.275232276125542796e+00
-3.289220075248929787e-01
-1.327912227633730957e+00
-1.529444076635695926e-01
-3.808160555039504791e-01
-1.117339432209147665e+00
-2.874805698392948639e+00
8.742933003608237552e-01
-8.423658840195543673e-01
-5.810379590889708235e-01
7.205983174629153609e-01
-2.337847724068503608e-01
2.523520809458892789e+00
3.492309725304331813e+00
-4.242160874054580866e+00
-6.121690033784474849e-01
9.305389230628008379e-01
4.870866639150878363e+00
6.895938924837821116e-01
-2.609980627939798570e+00
-6.476589217235866058e-02
-1.152864284844489495e-01
-4.661995254674473621e-01
1.815810469471393462e+00
5.022871874028480427e-02
1.731179076921539883e-01
3.436682964487351999e+00
8.267662335272676355e-01
6.789400406624662709e-01
4.045119982236239364e-01
2.998874205777872157e-02
-3.666003924456513047e-02
2.314989261560281286e-01
1.466819830432943617e+00
9.074742760367704442e-01
5.762485212130271428e+00
-1.160266910073885605e+00
4.836374094188093942e-01
-3.962401656718805287e-01
8.874005794968747862e-01
5.386797009326094177e-01
-3.756161429367646520e-01
5.077427578068851588e-01
-6.480578000378638404e-01
1.460587697971068577e+00
-1.475261651921349060e+00
1.496827850759059109e+00
-1.799502544933077264e+00
-4.117229796766708638e+00
5.734702668740251363e-01
-7.277050905073657594e-01
-1.827245645127000495e+00
-8.420763093687701206e-02
-6.846772061151376043e-01
-3.489838340477657841e+00
-1.207121920872141319e+00
-1.769796551791353201e+00
-8.693984481428324029e-01
-4.089991005627269249e-01
-5.802570423827825286e-01
4.768922268815916077e-01
-4.317330558941199770e-01
2.640203663158462444e-01
-1.280124944286864692e-02
-3.373890872461768886e-01
-1.705161138173128421e+00
2.842205054842672496e-01
-2.325537867978829387e-01
2.950668465562112930e-01
8.671331552134267096e-01
1.475661123883396375e-01
-2.344160128221304706e+00
9.812110075170296097e-01
3.642600774335127412e+00
-1.625824114082784044e+00
-1.002895744305875025e+00
5.914871430978988487e-01
-1.209291476188653514e+00
6.451497125283649936e+00
2.915194807256356047e-01
-2.849778555366921484e+00
-9.572548278396492138e-01
-8.465092272176369947e-01
-2.256074851564314976e+00
-4.597644673856986941e+00
-2.017703803268544593e+00
3.512869127304200645e-01
-1.694843946361271225e+00
1.519581640825891755e+00
-4.709470015834811840e-01
1.353093668632947555e+00
-9.397259656444816311e-01
5.366000238037967884e-01
-1.714961567616320737e-01
-3.444998894873720352e-01
-1.316778205330521478e+00
2.590059642960472974e+00
-4.216864095782044131e-01
-1.833370993841674512e-01
2.254699505455864283e+00
-6.185402660414457410e-01
6.568002100710108593e-01
-1.099175936689169353e+00
1.878629317663392140e+00
-2.655157105484003299e+00
-7.080934525001346680e-01
-3.321232662906818400e-01
1.651389756325879032e+00
-8.187816846553731542e-01
-2.220425307020387429e+00
-2.170465572155898304e+00
8.633079816552533536e-01
-9.526617426172081515e-01
1.574058558552589693e+00
-1.892051278345381338e-01
-2.289719492110856014e-01
-1.056708140933793949e+00
8.555115623263795932e-01
2.130511870037558264e+00
-3.940418992306983004e+00
-4.536484808492975973e-01
5.420573685135779973e-01
2.234517573163980142e+00
-9.034728491192983713e-01
3.147069926713982557e+00
3.562742483772503022e+00
-9.429150027692061453e-01
5.534189891831599040e-01
6.412264334482865591e-01
-2.047451996455134648e-01
1.488035236742323297e+00
1.349246988344999343e+00
-1.523968462180691763e-01
5.205950140702040319e-01
3.688912804752409458e-01
-1.840561262426643641e+00
2.528494767810652633e+00
-2.579638013661393336e-01
-7.605072802545770339e-01
-4.294620672376797121e-01
-5.347619572052026982e-01
-2.445577245599797056e+00
-1.061766097569474265e+00
-1.520867337810622777e+00
-6.732405706760741237e-01
-6.434177541210213125e-01
-4.786161238494199277e-01
-3.271586548241275372e-01
-4.344153539352847981e-01
-3.742216457955068742e-01
5.471703132034384520e-01
-1.049266242411288852e+00
-1.223272716780133690e-01
8.344497185180844712e-01
2.257549396631356231e+00
-2.528775967662400426e+00
-1.382495577788061425e+00
1.756762591249252381e+00
2.085068790937753214e+00
1.340794048054299581e-01
-6.676507309531224399e-01
-2.303082614486911872e+00
-1.622550758339555074e-02
-5.235560283279064864e-01
-1.536243697010691300e-01
-3.209243977314423790e-01
7.573320077136980188e-01
4.551671081718403067e-01
-2.657219836062158502e-01
1.703039541304094850e+00
-1.359943464344283370e+00
-2.671529878171648331e+00
3.276862190873695568e-01
-1.828119543453875062e+00
1.007407201427165111e+00
2.331744186530051888e+00
5.017342746041837387e-01
-2.644001133701242345e+00
4.799117481062112334e-01
6.795779795025125303e-01
-3.302810189187703194e-01
2.734783294097012929e-01
-1.529883448991255612e+00
8.002717455343879571e-01
-6.680926253464296583e-01
-1.534069582690507749e+00
-3.366704996905672820e-01
-1.376512286375194627e+00
-1.551114069193429146e-01
6.570209432726535903e-01
-1.777966817483458695e-01
-6.952752130241470763e-01
-9.904070541180628462e-01
-1.767015013420220937e+00
4.519696466118048761e+00
4.582254308560007594e+00
-1.129953123579295005e+00
-1.927588955735626941e+00
1.069481348813348331e+00
7.061225907667839641e-01
3.776668882655138670e+00
-1.533732134763212018e+00
-5.416655647111642269e-01
-8.955634190761033731e-01
1.723192542689878093e-01
