3.217031286484078323e-01 4.966654482045764762e-01 3.872963910203160443e-01 3.095433037344249572e-01 -3.645508658863049201e-01 -3.927454096471608147e-01 3.222957936746082552e-01 -1.102309765781398360e-01 -3.221724935371273468e-01 -2.419624723801848676e-01 -4.733384463603582670e-01 1.714705973672603356e-01 1.827179546237371888e-01 -3.543760209648544879e-01 2.658771167526486900e-01 4.671557636397036806e-01 1.219602882648215397e-01 3.312644166962471215e-01 2.928103801940076800e-02 -4.602025877971542833e-01 -2.672693316653850237e-01 -1.428478337444173902e-03 -2.782885767768573104e-01 -3.658915645162493790e-01 -2.234103422733517974e-01 -4.157351019482183885e-01 2.786421115924743730e-01 3.070021974254861785e-01 5.785098355429203754e-02 -1.505461025668561152e-02 -1.391145164654538080e-01 6.493528915277237135e-02 1.570750415918044374e-01 -3.107110528194257926e-01 -2.434656400749736493e-01 -6.041208534453168522e-02 4.380829557489554493e-01 3.787910593173924312e-01 -1.865183649326736248e-01 2.701283614599936378e-01 -1.118976121515984218e-01 4.746303949676952127e-01 -2.260941249094915173e-01 1.616613222313365295e-01 2.390878685906622503e-01 3.980813954252206965e-01 2.583386228871041301e-01 -1.732743373300457412e-01 4.621003414973289258e-01 3.784751286690216099e-02 -1.236636254430939219e-01 8.430971077249760359e-02 -4.930414526304746636e-01 1.720900209481826537e-01 3.804748923475229638e-01 -3.393653270820710111e-01 3.132027611841516901e-01 1.682727796302752876e-01 4.982531391262591813e-01 -3.734649448424118834e-01 2.273693110203125201e-01 -2.022134748491490885e-01 -3.034292517549283530e-01 -4.030942195724493415e-01 -2.842647429953245597e-01 3.015770640496543975e-01 -2.111245222026856827e-01 -3.904123133491112507e-01 -2.098791685093759907e-01 1.192246232558245300e-01 3.635235122762331406e-01 1.078020114703758109e-01 3.989644823612190083e-01 3.557549325963163533e-01 -2.506786656275937775e-01 1.074739401780071407e-01 -9.744705910744494437e-02 -1.921460592648922827e-01 3.057388900941608867e-01 -4.795235870234780817e-01 -1.776786161490159777e-01 -1.852503897016487544e-01 -4.371077761999879741e-01 -3.945641630242391895e-01 -2.626279993127889623e-01 -3.039584739667730573e-02 4.882051003102307052e-02 4.142528744165354694e-03 -1.893860573120295099e-01 1.363950714093762340e-01 -1.490280131244543504e-01 4.616701642099188541e-01 -4.883924731703889743e-02 -2.007967877300798620e-01 2.639432843534695872e-01 -2.858207972188837598e-01 2.052792316993480859e-01 -3.471527621331245150e-01 9.934414321256498925e-02 3.954899929563212568e-01 3.419186116066920134e-01 1.425967393160797458e-01 -4.999104825867005109e-01 2.667321782864725543e-01 -7.279808193695636032e-02 -2.716071729125097978e-01 -4.933620867801726262e-01 -2.957118312188776188e-01 -2.129636274577197813e-02 -2.488140981555148415e-02 4.920073466974688586e-02 1.273461514490587809e-01 3.995392127542447130e-02 1.122768537766987013e-01 2.675637105428198548e-01 5.127623257964705750e-02 -3.966548850946844396e-01 2.494978628603232995e-01 4.637185165008094745e-01 2.467048024091469671e-01 -2.979315300165898406e-01 1.220773739549352727e-01 9.646021657255669790e-02 5.371479432408328945e-03 -4.814553799070739881e-01 2.906450457867921777e-01 -1.612013444627398429e-01 -3.769722022987797017e-01 -3.509397323310936567e-01 -4.237523757882899478e-01 5.858038987489902483e-02 4.592663073279469876e-01 3.943263772992861571e-01 4.024817369402761691e-01 -3.039597024957860216e-03 8.364518086325192781e-02 -4.151148421358198393e-01 -3.747839088012500097e-01 4.843136053992457279e-01 -2.441671142359934654e-01 -7.069137995460024471e-02 2.341689953059507834e-01 1.002033079229535939e-01 5.601593903453482709e-02 4.269199964208531539e-01 -1.388205896081686486e-01 -3.960954060752103212e-01 -3.314863869084112014e-01 2.693880454093290910e-01 2.846645836308712152e-01 2.705410557128918800e-02 -2.041949699474706614e-01 -1.132459645020284927e-01 -2.916565092032420425e-01 8.606704859360030102e-02 -3.558014457940621433e-01 3.156600601690349728e-01 1.135722379135214871e-01 -1.818776173612046410e-01 4.563836595906112237e-01 1.843664066470034613e-01 -3.772912606885760467e-01 1.984863904359466247e-01 -1.629897003647255982e-01 4.886443314954892481e-01 4.602405261996387331e-01 -7.693615326550454214e-02 3.367664087688442831e-01 -1.611949740863299618e-01 3.072490883581443719e-02 -3.704411326169524954e-01 -1.185446514703920318e-01 -2.372445811143223116e-01 1.845757608457880283e-01 -8.366118639845246396e-02 -3.580219314621323895e-02 3.862925813359487925e-01 4.106714345974529778e-01 3.305973123906373323e-01 1.760545352599649782e-01 3.156153106374723349e-01 -1.258708526450628418e-01 -2.607633355704795375e-01 -4.629313890137257137e-01 -4.724076307516065221e-01 4.201613706413839244e-01 -4.624759160109140899e-01 1.336731889177104615e-01 -1.437104368464399706e-01 3.456027444903572721e-01 1.485620383363159547e-01 -3.844636018160839663e-01 -4.959001860223399838e-01 -3.124170009990583918e-01 3.375297694608333510e-01 -4.522936081932513730e-01 -4.513146799506695950e-01 1.562884359556310568e-02 -1.150277229731622858e-02 4.823326161891474673e-01 3.292369454463014433e-01 1.983654844366293801e-01 -3.019103105189578362e-01 -6.270195911761730634e-02 3.073957927369995735e-01 -3.848931805554664520e-01 4.816165162826938203e-04 4.828130210376980203e-01 2.587628294793709594e-01 2.724068507663652827e-01 -3.557390858916268939e-01 5.076079482842738022e-01 -2.624811137492255586e-01 3.181642864115886149e-01 -3.632487074297154339e-01 3.688293461394529515e-01 -3.545470740632584161e-01 4.939129083649568958e-02 3.593873784284161710e-01 2.172783487278730774e-01 -4.585817177315458792e-01 8.951425585166304655e-02 -5.844393289602972663e-02 -2.393360533691271108e-01 -1.399635850830332207e-01 -1.948419686716870158e-01 -3.984823993038482670e-01 1.476785298772811950e-01 1.872297964770758827e-01 3.766896120916787827e-01 -4.076428261790358554e-01 1.632154160184505834e-02 -1.193612987276607557e-01 -1.722480362365570450e-01 -4.570459936664247880e-01 9.312706635642421793e-02 -4.671819938898290614e-01 1.731284591618313662e-01 2.506894928760989849e-01 2.421594640285617828e-01 9.500897655682306528e-03 3.705229575159720706e-02 2.732251488219167301e-01 -4.336406392712766761e-02 4.105812163448444574e-01 -3.232101200835250099e-01 1.866993539214142905e-01 -2.520999495901558030e-01 -2.853903051134936142e-01 -4.079621700246681137e-01 2.899177326292637358e-01 -1.648783784731217283e-01 2.775034609456198953e-01 -4.565258191576655744e-02 -3.246084045172739074e-01 -1.343467795513743346e-01
-1.625968038276933703e-01 -3.419009358162716783e-01 4.132298488854710405e-01 -1.725455620808852009e-01 3.030466503868585737e-01 -2.435326298977801007e-01 9.372517000634023043e-02 -1.916418310662863778e-01 2.928059251474385283e-01 -4.368190969704761617e-01 4.575451523689412769e-01 1.877171473554341830e-01 -1.538463942497844128e-01 -4.349451098986237829e-01 1.120253642150063622e-01 -3.507837526841476455e-02 -1.476596910575808941e-01 -1.458758460035546600e-01 1.976862172743525936e-01 -8.364550859135707131e-03 1.543260534809161866e-01 -1.955728594011023336e-02 -2.527637283974318860e-01 -4.631905081900472010e-01 -4.634012841778794578e-01 5.704151876900780127e-02 2.708632154649315837e-01 -2.054901569306989695e-02 -7.490505495506816214e-02 -2.729297446263486693e-01 -1.315081594846070068e-01 -4.308910668699607038e-01 2.223411407431042097e-01 2.525975498650849249e-01 3.764859635609709709e-01 -2.794636570653358798e-01 4.030582041380129099e-01 -2.745804347358730135e-01 2.461724323181061977e-02 -3.929044572556411596e-02 -2.487011245478047694e-01 2.379797852946605452e-01 4.257419356089243156e-01 -1.050766329046532166e-01 -2.023898876513178513e-01 7.771955739163054211e-02 3.045565538247666515e-01 1.361269069129869003e-01 2.422554218931597947e-01 4.058673874205663834e-01 1.676793266896841328e-01 2.225575305783697999e-01 -4.275739199107309596e-01 -1.236292980794342772e-01 4.637919799044651903e-01 -3.352991586352890852e-01 3.880568644707722004e-01 5.989935913117460514e-02 3.203672500162671466e-01 -3.824745700897133616e-01 1.984826103592017554e-01 -2.658255017187062530e-02 4.991251513930997641e-01 2.165596782596908021e-01 -2.032911462953213844e-01 -1.844397242675915524e-02 4.349217546721687588e-01 -2.448241588666663082e-01 9.434329529639498557e-02 -4.876012788051974356e-01 4.484663808170937793e-01 -3.331719645233870430e-01 -2.366243723697842027e-01 -1.550506007421708077e-01 -2.627749894727955393e-01 1.414281263200330985e-01 -1.653767725383569198e-01 2.468676691125686884e-01 -1.809161815294139594e-02 1.326727113678050629e-01 -7.774162127912129239e-02 4.803512076903673211e-01 1.419632638743338962e-02 3.973237458368135133e-01 -3.729241224912746011e-01 4.446595362772848281e-01 -3.803867165950080564e-01 -2.678368758213802159e-01 -2.511140207478713693e-01 2.957317204698069468e-01 2.495514912208168234e-01 -1.657639161226944213e-01 2.891080409617381441e-01 5.949459869048816241e-02 4.458716459660622689e-01 2.882302965801772365e-01 4.844614366434734087e-01 -4.112198648242406107e-01 3.285728488076302134e-01 4.369849971909866571e-01 1.346319642906758096e-01 4.083517317705026572e-01 -3.965303643466935868e-01 2.602648996218496769e-01 2.485212805337106978e-01 -1.009596885083699352e-01 3.852269431603751459e-01 -1.895547930739066578e-01 1.281216789699046177e-01 -1.637080931805543205e-01 -3.159622746847295938e-02 -8.497651358901681107e-02 2.276443871543961384e-01 -4.784693394332384386e-01 -1.655515353878270479e-01 2.514100853883948772e-01 2.322863664986598298e-01 -4.287665173486369108e-01 5.800121688130908254e-02 3.957454374526958585e-01 2.331970748984256436e-01 -1.200599033929116016e-01 1.654660623980739875e-01 -2.958537158170983505e-01 -2.790349154983026714e-01 -4.902537241065464957e-01 3.904545619607104334e-01 4.614781228682644509e-01 4.653106943027365827e-01 -4.395999691079475191e-01 1.419038339985564945e-01 -4.842813398747797260e-01 -1.125485182037102572e-01 -1.458115547468384066e-01 -1.115964953628427736e-01 1.125860193325643266e-03 -3.848283537280919875e-01 -1.966411054247606260e-01 -3.396656819796858851e-01 -4.310810474753105637e-01 1.299761673064705070e-03 -2.617401129319244513e-01 5.322178280775963222e-02 -3.718598979132086702e-01 -1.100872552118724590e-01 -3.955320715251726127e-01 1.410864643249900852e-01 4.516599658472267853e-01 6.297628668076603320e-02 -2.175453565343859197e-01 2.252276760463277072e-01 2.104860148015436638e-01 2.434753972811550815e-01 3.299339663130069766e-01 -4.791068671919430644e-01 -4.501716332667569098e-01 -2.006704803577313567e-01 5.710885398069357605e-02 -4.147906062648996639e-01 6.281343703398171996e-02 8.610191553753511473e-02 -3.265416622395989066e-01 -4.633793006699384320e-01 3.036294987583972316e-01 -8.648106938049165970e-02 -1.320330402973892425e-01 -4.091526790188009244e-01 2.809204416125452575e-01 -5.541380623447564324e-02 -1.692559813046483619e-01 4.396056467792059941e-01 -2.621948640693385069e-01 -5.159293822547317276e-02 4.014176823659287296e-01 1.619272228798345203e-01 -1.498800103666434458e-01 4.611999494984439507e-01 -2.635600879189399226e-01 -4.999916687042239016e-01 -3.005004513357615870e-01 -4.333375855415411704e-01 -4.963645286196699535e-02 3.306941075690313925e-01 3.574756183914061247e-01 4.470224549872794939e-01 4.790867694009091626e-01 3.648855075105476159e-02 -1.842196230092344456e-01 4.923187709964896852e-01 -2.051552677203638542e-01 2.263141773369296561e-01 4.017702832040231375e-01 -4.987997361979509270e-01 -1.415027180722302769e-01 -3.973837689904144987e-01 -4.619031163803952733e-01 4.181851675480321440e-01 3.721974609078866902e-01 4.164006592666973927e-01 -4.239909263425513108e-01 -4.838904240990820615e-01 4.711851782331418215e-01 1.914223403839852289e-01 3.630160019521499470e-01 1.671640055003338343e-01 -3.848515188560460709e-01 -4.182229837333012457e-01 3.718174722746243055e-01 4.825162806453421882e-01 -9.594530629597748661e-02 -1.023923509490252265e-01 1.687596399464099672e-01 -1.913807934302086955e-01 -4.001790100584869947e-01 1.397559461129402603e-01 -2.881744454085747864e-01 1.964501686024477112e-01 -1.244980155532674632e-01 -1.583918600291242818e-01 2.110245220385456311e-01 4.098372535499432145e-01 2.403747624507101555e-01 1.967654478385842398e-01 -8.732144724867378638e-02 4.202894164106986685e-01 1.200845120543641287e-01 -4.878270569502311527e-01 2.848192414000910722e-01 7.419630312191054233e-02 2.437904628081757896e-01 -1.097471247374293829e-01 -2.513282156621472474e-01 -3.456624912558174390e-01 1.779097357402520951e-01 -3.385461528533258435e-01 2.733175407453834471e-01 -7.476918367787716013e-02 -2.072828355620504603e-01 2.118800969375051468e-01 -9.817096642083449759e-03 -2.926072924088241600e-01 3.885845436386432539e-01 2.557275440992473059e-01 -9.414656198951379396e-02 2.820029586999760474e-01 3.292867048416379255e-02 -4.921384297555935761e-01 1.671710961676245999e-01 1.958002324473924194e-01 4.835767622183825276e-01 1.455626508141983078e-01 4.871571398608607883e-01 4.264324807890320090e-01 4.593727547401604827e-01 1.065777560407091540e-01 4.675297498015584807e-01
1.994908390046400137e-01 8.706809018071760484e-03 -2.596882761690310071e-01 -1.758590461412843642e-01 2.121170605063997239e-01 -4.396663802629220408e-01 2.659062058670882966e-01 3.504960389632484352e-01 4.844874510738303997e-01 -4.684426004152432155e-01 4.533656410450517260e-01 -3.169429072705273742e-01 -4.382170800415784995e-01 3.502082991401322953e-01 8.466415496628523774e-02 2.356572099461444747e-01 -4.170238208821662740e-01 -7.170972310459253207e-02 2.900715747141652812e-01 -1.933729905019384576e-01 2.756085603229690636e-02 4.917362991343990908e-01 4.003752777295467302e-01 -3.090830759695613050e-01 -4.812594466026878237e-01 -2.108334114143076976e-01 4.310122129014797854e-01 -2.541492695137866353e-01 4.481216760311743097e-01 -4.224735534829838213e-01 3.220360301390379765e-01 -2.920779589810801324e-01 4.350422637579710039e-01 2.356062394484866596e-01 -3.078622416166717501e-01 -2.902959957853810113e-01 2.220743015200259962e-01 4.187905190001005584e-01 -2.241177367068348802e-01 -3.047821130164717340e-01 -7.158113884658316717e-02 4.876168106972955663e-01 -1.185486177478921460e-01 2.657730827953850294e-01 -4.728587930484247082e-01 -3.561183413614903981e-01 -6.272451260947341234e-02 9.645271955189400198e-03 4.121104213679845363e-01 -4.472321836641564297e-02 -8.466856384285600945e-02 4.262780120014137974e-01 2.437870050608286210e-01 2.432122945673916847e-01 -3.299204927868426007e-01 2.130625710933454486e-01 -2.713905056835670959e-01 3.880217735349905661e-01 -4.334182661602217074e-02 -9.434590281810632806e-02 7.376721067630699624e-02 3.004853966390374498e-01 -3.346176635293148238e-01 3.279348595788005860e-01 2.265347912727105062e-01 -1.790217276301920429e-02 -2.366242612639808396e-01 4.465994157149307253e-01 3.545785046420968367e-01 1.607385122158186408e-01 -3.825197372424575248e-01 3.583316244945264351e-01 8.354595643091267121e-02 -4.262949572520059460e-01 -3.330678419924636424e-01 -1.164164720484380799e-01 3.740738695520225421e-01 2.226756312007698302e-01 2.744764564859380473e-01 -1.028672297989112888e-01 -3.134906540525940200e-01 2.968959719364977143e-02 4.164780652380463688e-01 -3.131271119895977506e-01 4.098439591789511671e-01 -1.124451667375315905e-01 -4.636348360470471941e-01 -1.400554947135596029e-01 3.868386539512139177e-01 3.071372871107546643e-01 2.830400609133718604e-01 -1.682246982913813693e-01 -4.490335356325380056e-01 -3.865757761556701255e-02 -3.002808190204637184e-01 3.442149614058628154e-02 -2.641477675414108384e-01 -4.083156108533466111e-01 4.247424051855744898e-01 -1.964238372569473978e-01 3.098199475922445711e-01 -4.334048607115807972e-01 -1.509146390560244522e-01 -2.333569323624274106e-01 -1.920860423346612555e-01 7.750747041774001811e-02 -4.794454626457944069e-01 -3.003913415137903220e-01 -4.730849466367419848e-02 -2.174403180160802140e-01 -1.889376422153193347e-01 -2.476349804601167826e-01 1.548703977222258277e-01 4.999511310946318510e-01 -1.536512669595891944e-01 4.947429092340199230e-01 1.874881967217131296e-01 -3.048437099222380819e-01 1.902813789394253718e-01 -3.110444285877384529e-01 -3.914157209488624556e-01 -1.878414304928621159e-01 -9.333502564825843506e-02 2.191997291925226465e-01 -3.163841352399258677e-01 -2.269786929203303771e-01 2.735104105799218144e-01 -3.914694376051491842e-01 -1.495909894702118492e-01 -3.458806472293602385e-01 7.810611418183301125e-02 3.690508843174884479e-01 -2.324524539417140157e-01 -1.976590540714583122e-01 3.519665679673228409e-01 1.593807225160555341e-01 -3.657808947131166999e-01 3.610829710704080986e-01 -3.196642714079507841e-01 -3.557143523057927637e-02 3.920394474740736546e-01 -2.637437477337173375e-01 -2.554537611257008400e-01 2.715603101776971062e-01 2.064213747279801947e-01 6.428968837845407125e-02 -3.567659258605050954e-01 2.888954897009345796e-02 -1.138134272066301939e-01 9.354166616603629136e-02 3.519545925807380793e-01 3.679385347313732235e-01 4.430523639184884011e-01 1.024871878161788714e-02 -1.803344253583124002e-01 2.674555928133106053e-01 8.257959524373610985e-03 1.076586240789694088e-01 4.383498476003337418e-01 -3.359668077976480927e-01 4.192126662920752089e-01 1.449814845547090780e-01 1.985137989276308801e-01 -4.365088329635274933e-01 -4.706554644954987210e-01 2.906975462421402812e-01 4.918566134442252658e-01 -4.715807729099255052e-01 -8.052839612062503982e-02 3.433833364655188847e-01 -6.097830275732320920e-02 4.287153687874809549e-01 -3.419344137815351625e-01 3.309334824404909225e-01 1.674864467383652966e-01 3.021973009868375581e-01 5.828944927561215128e-02 -2.208199936664992924e-01 -4.892757681695341088e-01 4.153829416499215665e-01 4.755408475638532861e-01 -2.209814026159448164e-01 -1.478586281068347552e-01 -4.895219724820692314e-02 4.840404691406762772e-01 1.546875012763867241e-01 -4.506980311529343308e-01 -2.100600860558837768e-01 3.957786790125528142e-02 -1.787092315429802403e-01 -3.097495421313510855e-01 4.266803215956656570e-01 3.850763507887484116e-01 6.114489918715772243e-02 -8.921159653757314290e-02 7.923010093183149860e-02 -4.224694632383811932e-01 1.510420822360578064e-01 4.746190381448218143e-01 3.546041049560004765e-01 2.167342857830532876e-01 -1.548511068970413462e-01 -5.073761622073709177e-01 -4.565696290193809737e-01 -3.699000195983370709e-01 2.345886327021647899e-01 -4.938461949302542786e-01 2.205056509551651944e-01 1.814848403851968828e-01 -1.725066437421352850e-01 -2.448884612771500685e-02 -2.516308107604668942e-01 2.309363643912376030e-01 -2.013338541520874325e-01 2.002282435015992346e-01 2.487888414651831803e-01 -2.987484371356458612e-01 -3.787664056871566931e-01 3.791665887225348364e-01 -3.882831021810297101e-02 4.378592019922752931e-01 3.171055508637173892e-01 2.493488020890852197e-01 -7.436499261380966064e-02 3.886869086834008336e-01 -2.166750825703770700e-01 2.057443489702059924e-01 4.834827975025363656e-01 -1.308769072035774195e-01 2.579740510100068107e-01 4.075356066513681208e-01 -1.101313380901667305e-01 2.308658952837100431e-01 -2.425160740051566510e-01 -1.800621085840642399e-02 4.751000733790357484e-03 -1.816919513406418107e-01 -2.941009334439504408e-01 -2.595351626652045440e-01 1.660390443518072190e-01 1.476381342422430631e-01 -4.871457492419724034e-01 -3.210811443823449185e-01 -2.454748312961696766e-01 1.979967183417456200e-01 1.521840223748165966e-01 -5.981266339086546702e-02 -4.711606307182487040e-03 -3.802005707216480346e-01 4.833665531362730805e-01 1.694141893958765466e-01 1.895375002418643318e-01 4.545871793347560641e-01 2.221776684815634506e-01 4.423576591861043128e-01 -8.983685708861074981e-02
-1.474973066106147479e-01 4.793370062178242685e-01 -2.574830495310597156e-01 -3.133780346850693621e-01 -1.562261020184309290e-01 -3.288594757572251281e-01 -9.236323297502053997e-02 4.537042265145551090e-01 2.101832418143629033e-01 -4.322137594589869347e-01 -1.127092355473371249e-02 3.350986196216325097e-01 -4.445745563898617081e-01 3.906041058228488794e-01 -4.515288686190576106e-01 1.425871119051918268e-01 -7.038421774199964120e-02 1.705407178832856752e-01 4.477673318463668006e-01 -2.492367562506297152e-01 -1.347134890760149084e-01 -3.111345385138074571e-01 3.143716590604578864e-01 3.806409874677168514e-01 4.276971390987906463e-01 2.883351530083609893e-01 -4.210008852871056639e-01 -1.492071069160323948e-01 4.459963977334635565e-02 -1.901347113793261656e-01 2.588739521632975049e-01 5.026770660751337383e-01 -4.089880975542506403e-01 3.224722504641118204e-01 1.469326702000824936e-01 -4.065978063085745053e-01 1.327784771842482718e-02 -2.245408986675751506e-01 1.447308126442478915e-01 -2.642479414413155259e-01 -2.999809980548621691e-01 4.438564175826316127e-01 -1.138643703816545200e-01 1.585113465095137064e-01 3.082897084650055297e-01 1.495690000469557801e-01 -3.338501217065364401e-01 3.059200917824602128e-01 -1.255788640022982745e-02 4.095593418341049730e-01 -2.434314871921316736e-01 1.136308614080059481e-01 -1.782434785030612839e-02 4.856609606553827785e-01 2.451928676956302011e-01 -3.281306675937604722e-01 -4.817844269670231161e-01 -8.150374215831696079e-02 -2.790231388015154135e-01 -9.771929743397939072e-02 -3.370651525843318952e-01 -4.111729560986928100e-01 2.597259475283024144e-01 2.271662310086791925e-01 -3.337553502047129750e-01 -3.890777123120959802e-01 2.027840846744409509e-01 -3.695425377268663492e-01 -3.558340851835973401e-02 2.738834867241310422e-01 4.515301914466997579e-01 -6.917897162982546144e-02 7.886624995887224487e-02 -3.394704549856433218e-01 3.985469775244128154e-01 -2.893693993600945924e-01 -3.406406723705519557e-01 3.870049866846551889e-02 5.390588218486126043e-02 2.501406238435117668e-01 4.268570525149854022e-01 2.701024010995593527e-01 -3.773154062830472166e-01 1.886412314614295815e-01 -4.299734008349125336e-01 -1.548594449396941131e-01 -1.374202574092973361e-01 1.836791934774553992e-01 4.034073261002518174e-01 -4.808804606976149199e-01 3.028340147540966587e-01 -1.341857716121126198e-01 1.198318710969114020e-01 4.640124537505261881e-01 -2.316423550977406709e-01 -2.751251599817063909e-01 4.725040702577494867e-01 1.502275678835759132e-01 5.104563846426357632e-01 -1.652424950977836315e-01 -2.902064014919162327e-01 4.503389776987860166e-02 -1.249963598423746436e-01 -2.093026499148916142e-01 -1.239220452152351160e-01 5.253494415737864909e-01 1.442689763597908292e-01 -8.179844322745984803e-03 4.526818993804767599e-01 3.307975912165514454e-01 2.444344447009595966e-01 3.700670704564782976e-01 -4.490045872102144675e-01 -1.244606791960386760e-01 1.609005264837033988e-01 -3.583561316978807754e-01 1.067633712240821792e-01 -2.632636791606959847e-01 -7.516154044839808146e-02 2.709348718115813792e-01 3.502600898945481545e-01 3.570109586635540344e-01 -3.480604588738507865e-01 2.315863898524660180e-01 -1.248352209019790299e-01 4.480520124018188000e-01 -4.987540361541197287e-01 -4.294204426093248816e-01 2.964528963719324506e-01 1.728145968751870765e-01 2.814606655980157746e-02 2.433676712574152634e-01 -3.098472931257353902e-01 -4.735562043200808868e-01 -4.656693032438622981e-01 -3.642996581994503713e-01 4.771539726330668030e-01 2.156400714217134029e-01 2.009998474374364852e-01 3.213847520880968450e-02 -1.664217658642262038e-02 -2.891702080495743843e-01 -3.848951584077671684e-01 1.412511141676953408e-01 2.309517851373514008e-01 -1.938259449917368871e-01 3.377695142853063270e-01 -4.149685963196206306e-01 -1.052619003347068372e-01 2.450253841626602314e-01 -1.747638129703677767e-01 -5.299943077626133314e-02 -3.455400853997714905e-01 -4.279534616651822776e-02 -1.841331526083677672e-01 -3.349320284820355154e-01 -4.554822820737732814e-01 -8.900692968517076586e-02 -3.281651397696730976e-01 3.144201432450196010e-01 -2.319562369175987016e-01 -4.413984583719011701e-01 2.035789796601443491e-01 3.503220381945219841e-02 -1.432478464884905101e-01 2.759703727856047673e-01 3.435343429687929273e-01 -3.171052411787325664e-01 6.586201052833810798e-02 2.695165570007613809e-01 -5.259912704251565874e-01 4.968010458762614490e-01 1.507220173376463968e-01 4.264033355376157797e-01 -1.335318246696871325e-01 -1.420553675713119579e-01 -4.787042888140837782e-01 6.967943151651069533e-02 4.331214702294182151e-01 -6.262227155676615420e-02 4.053705731392658329e-01 2.022137087712199965e-01 -2.730627301661999740e-01 4.011602191540629136e-01 2.722276030322788865e-01 1.684960464753161025e-01 -2.508614044736540497e-02 -2.007896957312298516e-02 -9.037019252940323155e-02 4.197499042097388444e-01 -4.112777029558812303e-01 1.829103081601405334e-01 5.095257081754336892e-02 -4.676586033230525907e-01 3.036258842104437305e-01 -3.721008049258380246e-01 2.032495373514288106e-01 3.030286624833493092e-01 -3.751409721820075371e-01 1.835856842127317479e-01 -1.221639749881327647e-01 2.741077680493455015e-01 2.460702302330097513e-01 -1.749518204516849196e-01 4.654550820315951909e-01 -3.017929382428560237e-01 -4.859858385675566023e-02 -6.312235203899679847e-02 -4.407149752237604079e-01 4.620969431784189840e-01 5.061006422499926272e-01 -3.867258907140606050e-01 -3.218652909332099799e-01 -2.435686800908537786e-01 -5.457339849618937644e-02 1.633420480475856473e-01 -2.982319433076519033e-01 -4.620717103197299891e-01 -1.472624379246885162e-01 -2.745492603185026859e-01 2.170630054802745457e-01 -1.190644254142431691e-01 -4.746478864723293056e-01 1.045541061895678414e-01 4.208632677267793443e-01 4.726897552986317752e-01 2.542227302890889273e-01 2.728108517183528425e-01 8.731938047778355083e-02 4.064605098988584575e-01 -4.264959112387684548e-01 2.304278870064189189e-01 3.667451952256917114e-01 2.905044491233156334e-01 -1.795084791845663885e-01 6.221137091742195285e-02 2.539784659163965008e-01 3.363480886568083750e-01 4.843182881985709787e-01 7.125135012899520837e-02 -2.794945353842069879e-01 1.303324413075611365e-01 1.185386454061430755e-01 -4.666138339081247755e-01 4.642154625186600825e-01 -8.054476249224333528e-02 4.263196898637235388e-01 3.370661875538860652e-01 2.161891581877816437e-01 4.500219726708861168e-01 1.739841072300138966e-03 -3.364393240381817196e-01 2.578246814780014717e-01 2.113734535328775643e-01 4.098695421432413943e-01 6.166286779878252938e-02
-3.330545288870591369e-02 -4.936555538460062342e-01 -2.337390145105281980e-01 -2.397868498346347466e-01 -2.069059436864745249e-01 3.939892383342087356e-01 3.013552717916019863e-01 1.259837467930204243e-02 1.793977343393798052e-01 -2.478650896407730564e-01 -2.977925131627593980e-01 -4.711465908999613594e-01 1.488612028412597821e-01 3.603325729079835948e-01 -3.366005763146630581e-01 -2.541100674012939931e-01 4.360620166339151949e-01 2.038830242868108766e-01 4.623235385758376892e-01 9.453477024596389222e-02 -3.307724766727419552e-01 4.176813740882139303e-01 4.272529046803148489e-01 -4.204993598306065450e-01 1.619913699004517371e-01 -4.007793790957456248e-01 -4.769905690657570002e-02 1.101528832143115477e-01 -2.374452836447356052e-01 -2.110178222965121142e-01 4.210135241926781791e-01 3.644615866655471215e-01 -4.016721131026456115e-01 -5.119123917048368222e-01 1.705287956223007773e-01 1.900207065207730472e-01 -2.123006013488806798e-02 2.613627050142826591e-01 -3.274643497941648884e-01 -3.979431648362034557e-01 2.870915847885613936e-01 -3.032807861836996910e-01 -2.954284171775027890e-01 1.694302851820768119e-01 4.338042477640297045e-01 -4.832153797984641286e-01 1.556672264025310282e-01 1.980979742363638552e-01 -1.356320239957691798e-01 1.774750771415438133e-01 -3.091901631016429897e-01 -2.953494117406600394e-01 2.704842921527246535e-02 3.302117177647618806e-01 3.612923226544204058e-03 2.133460626519030970e-02 -1.465152139749341907e-02 5.428130212971241098e-02 4.233590466951718811e-01 -2.957660089363773337e-01 8.009059847081416439e-02 -4.790981333417829169e-01 4.190352179484695405e-01 -1.657153089328581019e-01 6.979774737896596304e-02 -9.977632104855842232e-02 -4.905797154553788453e-02 7.680382595358284381e-02 2.411189794937285691e-01 -2.831815471687343932e-01 2.137590350243822879e-01 3.416651236518466472e-01 4.108191434189749081e-01 4.153340856280247073e-01 -4.980542049931153126e-01 -1.748043983773612808e-01 2.092352289669690280e-01 -2.839415291792762863e-01 -2.059875672426589033e-01 -2.009716416072474324e-02 -3.886539003447899154e-01 -3.059282938039127875e-01 3.270340870595597749e-01 -1.808773158532737957e-01 -2.761033973979570844e-01 -3.762542877326753854e-01 4.721235528715018170e-01 7.613540266173687843e-02 -4.097484893317284160e-01 1.826324375099584729e-01 3.822552382108682645e-01 9.863182885768706498e-02 -4.157679942839362930e-01 -7.006990267139653894e-02 4.447504214832584402e-01 1.248116851051834647e-01 2.338149982547321204e-01 1.974274263566222834e-02 2.612585274795076185e-01 -1.133720523843929993e-03 3.752032629265093511e-01 1.416762586554421166e-01 -1.844529778495150318e-01 -3.329141187894331666e-01 -1.512425076253304246e-01 4.375186173981532312e-01 -4.520674413283584103e-01 -6.336834016861016272e-02 1.077409035038498636e-01 -3.756022146245048821e-01 4.172475606660173142e-01 2.025880631134124865e-01 1.242037581253486456e-01 -3.114341150005319747e-01 4.015466775976913039e-01 -4.551625885254697024e-01 7.044454984905024197e-02 3.119869578617290307e-01 -4.101760804442862729e-01 2.657726436942930981e-01 4.558565073382362942e-01 -4.872610131645267739e-02 -2.997885196344967154e-02 -5.195290355555779588e-02 2.415071151996617260e-01 -1.756803715828996193e-01 -4.526477045944105049e-01 -2.788492674663379800e-01 -5.343202033754095026e-02 -1.975177443341541994e-01 -4.003203830611052338e-01 -2.585162384191724283e-01 -7.967425591296090417e-03 -3.506076814666229113e-01 2.220438836179336739e-01 -2.952612294828211859e-01 4.222910235938499013e-01 -5.082021531674746351e-01 1.106823808371366902e-02 8.824363523582755275e-02 2.076771449172311323e-01 -2.802639053128434532e-01 -2.527380470368644771e-01 3.873874725494636517e-01 -2.120042639738521917e-01 -3.436422422395054577e-01 -2.813874067222113529e-01 -4.386720788582352815e-01 1.684147591131073263e-01 4.817916342625860882e-01 2.326383076937235950e-01 3.141089886914342211e-01 -2.741471543741326178e-01 -4.651389362002646410e-01 -9.682401877052514150e-02 6.480807519044454179e-02 -6.167538525089259066e-02 -3.374787524652772541e-01 -7.446421837441040414e-02 -2.629535167727622968e-01 -6.978252785700070349e-02 7.669039521341777799e-02 1.704747588978907102e-01 4.901632193707519125e-01 -1.173756778809830759e-01 9.061053728871865109e-02 -3.290318593292523852e-01 4.051549312904413891e-01 2.914330804732174207e-01 -4.503613476481409250e-02 -1.626819073518482872e-01 -4.683104126069897316e-02 -5.087376807515675559e-01 4.881248392569151329e-01 7.924938995047706158e-02 3.093054313159811497e-01 4.336526555241734804e-01 -2.263675238586302096e-01 -7.581451720977538944e-02 4.352348696783531756e-01 1.326746081526941623e-01 3.216928401191446185e-01 -2.107688733004053072e-01 -2.874643240504388131e-01 4.924084835413432976e-02 1.609187696715098925e-01 1.769877980510879689e-01 9.083796502832136577e-02 2.147530357071597562e-01 1.690270297422069301e-01 -9.180138215841529559e-02 3.403805220064747838e-01 -3.112223614611544370e-02 -4.110559131244993503e-01 3.826535425186791128e-01 2.098910020024499501e-01 -4.243947528585554491e-02 1.222860075662356855e-01 -3.903815526343205056e-01 -3.485927474834032425e-01 -3.528359788698211263e-02 -1.952971094343176062e-01 1.506100407527651008e-01 1.496266912877450839e-01 1.163835452337331072e-01 5.115534800574800950e-02 3.624324011859400008e-01 2.090615925659033147e-01 -3.970723029606371690e-01 -6.058618070862912099e-04 1.111686460840695945e-01 2.221317937022620342e-02 -1.756988218641243604e-01 3.128139532302690595e-01 -1.795842578610461759e-01 -2.129036372717437176e-01 2.399740316694393139e-02 4.237466393597509873e-01 2.369402885683840124e-02 3.987514923802960021e-01 1.440141753711431938e-01 9.399587905868810045e-02 -3.965412924017969187e-01 4.515594823450951312e-01 -2.423748625080881791e-01 4.745790773882198610e-01 2.991572747268407273e-01 2.770117100530626944e-02 1.303637488227001873e-01 4.440454647119612686e-01 -2.773660288636086713e-01 9.749606724437012706e-02 5.002292338512933506e-02 -8.216707935860510792e-02 -1.204083075567885658e-01 4.427606646671826685e-01 1.184241317695766543e-01 -3.397850902258570116e-01 4.156412507344449114e-01 -4.012845911586824799e-01 -3.947396832015357404e-01 -2.046865035401926672e-02 -4.577978244041969735e-01 -2.071869364574028816e-01 3.447503918452484717e-01 9.175206690237204532e-02 -7.173686608287201116e-02 2.586464219272600618e-01 -2.565408714500104770e-01 4.009770738039927229e-01 4.106302979652071694e-01 2.527019415485233789e-01 1.788984888432575415e-01 2.185451992468378235e-01 -2.375537077597292268e-01 3.167077020203201143e-01
1.559147589040801030e-01 3.607830666269111197e-01 1.190198925309488009e-01 -2.545961591280936354e-01 2.213582463908625453e-01 9.537217884229916287e-02 1.720457967685882772e-01 1.606313385942241267e-01 -2.853124946300141240e-01 -2.811942790471436693e-01 2.477289064311087308e-01 -1.516866056769953230e-01 1.797894931236734273e-01 2.707936887346908961e-01 2.722245190207645549e-01 3.497722691122880367e-01 -2.306412172791305892e-01 2.820363733675995688e-01 -1.261601746610505614e-01 -1.932259613257398742e-02 2.101685463884508595e-02 3.947921021616647153e-01 2.079446177575330623e-01 -2.794370639990305105e-01 -2.384121045301331177e-01 -3.833348343721275087e-01 -3.372229995953517356e-01 -1.388534421076281222e-01 6.672210930700536724e-02 3.233646423472091302e-01 -4.022291550722194020e-01 -7.078510134619292460e-02 -4.292315730335023449e-01 5.533045228243343820e-03 4.900563251929422881e-01 4.349536149799424489e-01 3.369799396121181956e-01 1.831848830493801594e-01 -1.366331087712183423e-01 -4.686064251886406518e-01 1.208326385107096335e-01 9.712443478035859279e-02 4.002645693732736487e-01 -2.658541642481915823e-01 -5.187055605416424076e-01 2.940199926358069704e-01 1.508776638915284296e-01 -5.636370922575268533e-02 2.662717621578231664e-01 2.891296949165176877e-01 -2.671641761367941070e-01 -1.908686216247976464e-01 4.705210650628870450e-01 3.709744318069519986e-01 2.468738205299093880e-01 -4.025034490185335767e-01 1.819753411900885409e-01 -3.319140604186282539e-01 -3.321592459107253759e-01 3.486573145892729597e-01 -2.968137858641723414e-01 -1.294080870591368393e-01 3.981208340575436155e-01 3.599717590761327135e-01 1.110896774135608917e-01 -2.829756147856609672e-01 -4.090671070647159402e-01 3.746284483203103366e-01 1.936102288685231584e-02 1.647388368461548125e-01 1.773429362245870222e-01 2.761777878461822988e-01 1.255490232866833811e-01 1.154000371250458665e-02 4.534183214328915690e-01 -4.652280169060538650e-01 -1.167433882598006012e-01 -3.492904055728308088e-01 7.343052540151552565e-02 2.707110636154885230e-01 2.893183793252136413e-02 -1.302937905899976267e-01 -2.832225280066603124e-01 4.001765907309517978e-01 -1.153961566214485313e-01 -5.123896838447170726e-02 1.883176247917628110e-01 7.759356126023632394e-02 -6.598568233060154997e-02 3.567100039660487942e-01 4.290973362114813283e-01 -1.558704487155594398e-01 2.879574394825558659e-01 3.662620864043523161e-01 -3.278914102243574158e-01 -3.154857326250875005e-01 2.892830377751067217e-01 -4.639978962676294949e-01 2.664826431813021590e-01 1.528622851590111797e-01 -1.886883060958951530e-01 7.582224126387045182e-02 -3.423260628016120410e-01 2.793071972374397971e-01 4.381501405576486707e-01 -3.726531310599302538e-01 4.607242365493490754e-01 4.147961670992385552e-01 -1.281819735553473283e-01 -1.922692487085610746e-01 5.038999162338447801e-01 -4.034001644676857984e-02 -3.904380944841058798e-01 -9.425116369391861593e-02 6.532140741740666279e-02 -3.002369529272370663e-01 -3.419900016938013931e-01 4.918276212831768635e-01 4.017425656987417826e-01 1.178961515091749568e-01 -3.436481888420842568e-01 -1.449201638368164957e-01 -2.526533763212573946e-01 2.988457417151386686e-01 3.938331448165350857e-01 -6.883496412310510792e-02 1.292846186175866385e-01 -7.956057804006567979e-02 2.403406447458260667e-02 2.362260803027830536e-01 -2.871745317223013405e-01 3.592686591785710370e-01 3.062372014500073791e-01 -4.599576969378011415e-01 -3.660298686644891109e-01 3.665802316380260550e-01 -1.713462663805086772e-01 1.116246912602473773e-01 1.665128778027661349e-01 3.982627661738860625e-01 2.657202956861208221e-01 -2.149771326509790637e-01 -3.138676408969322540e-01 3.404148384742738953e-02 4.806945984058803578e-01 1.002575836162068745e-01 2.605215741890265502e-01 -1.386204324230974616e-01 -1.258222420579892080e-02 -4.361474472109447831e-01 -3.876439748893611981e-01 1.474023704385966915e-01 -3.131004470906501025e-01 3.411504787237604752e-01 9.689422612371532961e-02 3.272459625422893259e-01 1.223574275765562658e-01 -2.815253250612881342e-01 1.029178517417275451e-01 -1.383951783849200756e-01 1.419261218007942527e-01 2.458229021219338895e-01 -4.115180551991828306e-01 -1.070497796151638065e-01 3.625064941103884469e-02 -3.708925432666106969e-01 1.432433952851591696e-01 3.965186750550470651e-01 3.383254774684276572e-02 -1.082095268980288183e-01 -5.590982943954238976e-02 3.426050241785497663e-01 -2.384922434166249772e-01 -7.919501131747634648e-02 2.844680665138901166e-01 -4.660756478052274776e-01 4.187163461459442737e-01 -3.172125282294682158e-01 -2.667758334261824960e-01 -3.270919203155311927e-01 -2.452108333489024516e-01 4.069907399416496929e-01 -3.581981920967922117e-01 1.873576729400854013e-01 -4.477695710759156955e-01 5.964789813991292627e-03 -2.875857657834537395e-01 -3.025743431424806063e-01 2.668045803499750623e-01 -2.957496727089107824e-01 -2.429028264397980197e-01 -4.700279927576888617e-01 -2.681938303098001519e-01 4.968759365875901612e-01 2.135641801015225605e-01 -3.026617523654636654e-01 -4.620866271079735466e-01 -4.616339589474658944e-01 -4.081042811724086561e-01 -2.193003968775080956e-02 5.131191998114638386e-02 -1.336926846885093112e-01 -2.671184711185708438e-01 2.630675991021083626e-01 2.072500808738318989e-01 3.447252015174970263e-02 -3.446357055312094242e-01 -2.396382103943186029e-02 4.256927472867002571e-01 2.657470459687132358e-01 -9.419619180422852955e-02 4.793209799624475465e-01 -2.610307113470442530e-01 -4.813953724780983129e-02 3.052270244696548285e-01 2.677174255136259839e-01 1.696727250079131666e-01 4.160500249727864808e-01 1.474599142861194312e-01 1.331160619104534426e-01 2.704190227014718340e-01 -1.520640370360502314e-01 1.775875225988550743e-01 -4.765732923220566963e-01 2.850516928510719028e-01 1.062618323631311090e-01 -2.398943331695693459e-01 2.843979831387098423e-01 1.630822409102057058e-01 -1.267924190304122456e-01 -1.718029002861754806e-01 -3.056095251226397802e-01 -3.187864357136844240e-01 -4.778447398125766910e-01 1.019974581654380374e-01 9.651945733981119602e-02 4.143417889630243711e-01 -2.919434567441265282e-01 -1.080554336464605164e-01 -1.508579146314207586e-01 -1.380776618063525862e-01 -2.847414818959922295e-02 4.770292052081305800e-01 1.724008486082771185e-01 -3.093579337571025767e-01 2.421675938213740664e-01 3.064896208377738684e-01 4.500056722122321440e-01 1.029004543245930076e-01 2.617568695649094557e-01 -3.070662181007944302e-01 3.607539780807247909e-01 5.037984533156416589e-01 -1.677832693303309142e-01 -2.997597051815322766e-01 -2.581272153983527051e-01
-2.445057650412004457e-01 -4.726965219520201100e-01 -3.193060325467810823e-01 2.994092921147951114e-01 -4.021773046750920511e-01 -1.630834972740241584e-01 2.453812318384963054e-01 5.049203609524333114e-01 4.042620459909703201e-01 -4.053241237906265310e-02 4.219245039296815603e-01 2.916829304935121270e-01 -6.031565747461389848e-02 -9.405491036488997092e-02 1.536202655368127667e-01 1.707455139343106998e-01 -5.631933108164090263e-02 -3.109426096017651742e-01 4.708783071766968198e-01 -2.471015895524110439e-01 -2.225055760306686448e-01 1.413197418678084905e-01 -1.749609328794610175e-01 1.385404677154303266e-01 -3.723162877836317386e-01 -3.581299316032025004e-01 1.128674863891377111e-01 1.884613679088562588e-01 4.075846168602932987e-03 1.267749422029968154e-01 1.443164290143982009e-01 -3.507904496500527936e-01 5.276819614022421751e-02 -1.514505839223491135e-01 3.530149748615745708e-01 1.499600398113526967e-01 3.751606480634736007e-01 -4.164096750896447152e-01 1.637886091671994226e-01 3.389755816782809295e-02 -3.660212603021986699e-01 3.781455882177672811e-01 4.041282113943483467e-01 3.305746660194264219e-01 2.587114855039361339e-01 3.962423868895370571e-01 4.925670014244179495e-01 3.923230588587276468e-01 -1.195185581724348828e-01 3.790916165718926090e-01 -4.742199351665339346e-01 -1.290346522275250263e-01 -4.077212508300974425e-02 2.897540120514589534e-01 -5.483928142432435704e-02 -5.111046205209483252e-03 -4.452895198480407712e-01 2.844714798220215335e-01 -2.586529622077771498e-02 6.997682643550957871e-02 -3.899073908301132207e-01 2.305720574682566526e-01 4.472946366204336166e-01 -2.085409151600744748e-01 4.271144981825339970e-01 4.100943741072451965e-01 -1.788740309091555736e-01 9.611632828277286156e-02 3.828352495083162665e-01 -2.867489118463609765e-01 -1.877373032347085524e-01 4.059263739222027101e-01 2.326886411436348279e-01 1.780132385957046703e-01 3.581059755333085293e-02 -4.197679737371432518e-01 -3.155037133586015008e-01 -4.904043245940522544e-01 1.921028839793899046e-01 1.753179170597367054e-01 -4.815006507234151356e-01 -4.208037421963611857e-01 -3.489200248237308011e-01 -3.962887305942039973e-01 -4.288661527437403476e-01 -3.808759847745719074e-01 -1.572529347206240435e-01 -2.653551600047522954e-02 7.123399629674352640e-02 -3.761968344144338561e-01 8.193544602814273325e-02 4.968498298153835591e-01 2.190866930881365526e-01 1.063177753149336102e-01 -1.442939408677460789e-01 1.210762735215094726e-01 1.895830919394080605e-01 2.833844444997529743e-01 5.585949247581971366e-02 -2.852022574448500603e-01 -4.873173134360921366e-01 1.525714082963030294e-01 3.989502697132623135e-03 3.009708539929868351e-02 -7.457597642723469422e-02 8.637131634662220669e-02 -3.625204380638055029e-02 3.098445149549369226e-01 2.910838894011266720e-01 1.329550999451557802e-01 -4.216390514563713721e-01 -1.335358751321059391e-02 2.548490496766667168e-01 -2.676337034543869661e-02 -2.083068489667441181e-01 4.451169471764796978e-03 -4.161457596654041247e-01 -4.850076749520029207e-01 -4.728299188899266481e-01 3.890866157322337565e-02 -2.606456632733587103e-02 -2.202311884677014830e-01 4.978220120627879774e-01 -5.012843322407646296e-01 -1.768287532248416782e-01 -3.675530809092297096e-02 1.729342228307538809e-01 -6.876027870665744890e-02 2.399983753468004355e-01 9.400854734493441223e-02 -1.041727434232276039e-01 -3.192213949822006458e-01 2.699326941297868765e-01 -1.772728209281802525e-01 -3.563697311583816640e-01 3.358050712800044191e-01 4.231131535373425234e-01 -4.495134908851159961e-01 3.689027651961180321e-01 -2.101321768243188948e-02 1.294943402123804044e-01 1.658381418268059793e-01 6.033655704678105025e-02 -2.178566392140040275e-01 4.920717192235833926e-01 -6.239340238066775485e-02 -2.880653369162300415e-01 4.494552218735546889e-01 -4.044436958768001800e-01 -4.214738837078124134e-01 2.445196215807886597e-01 2.456167448485125637e-01 2.123012774813897996e-01 -4.068013045603613431e-01 4.534155654702571314e-01 -4.087419805191245259e-01 4.113872940599570538e-01 4.804755748294483042e-01 2.772274792037505153e-01 4.674357300861435305e-01 -4.931384468747214700e-01 -4.464753358928587046e-01 -4.774322665903566465e-01 -2.760628028939490775e-01 -1.192136178853419465e-01 -4.429643035287869623e-01 1.238324149680157527e-01 -1.229592505995911189e-01 -4.634662125094909935e-01 -2.426093592054760495e-01 -3.242727447755812675e-01 1.549750764040243034e-01 5.266530005242674867e-02 2.805023211563539287e-01 4.911724868291129087e-01 4.472028492846987779e-01 -2.412618632467611046e-01 2.530692258590416244e-01 2.164948205750414356e-01 2.513158988857859821e-01 3.693973128357914137e-01 1.639945512980223730e-01 -3.474984165851113249e-01 -4.602714137145381135e-01 1.550498028153716734e-01 -2.368085410727051865e-01 -2.786547766865341558e-01 -4.000807657109256565e-01 -3.829074555703975702e-01 4.377532023151757823e-01 7.699875008221875039e-02 8.379291998433172073e-02 4.853002490800398250e-01 4.481217511935581960e-02 2.782898084223629498e-01 -4.063464346814913419e-01 2.180844825348496885e-01 -3.717562846190283210e-01 -1.239215526014547653e-01 -2.047025270466164004e-01 -1.380672369944326572e-01 -4.956166121632190058e-01 -2.025841805691000475e-01 -1.512775947108658259e-01 -2.641825405091727808e-01 -1.541089201256058694e-02 2.524929635996206456e-01 -4.135906699965515299e-01 3.381841493457777292e-01 2.981276140040114431e-01 -5.102409244887971124e-02 -3.569987610728223015e-01 -4.128562635610472098e-01 1.071818839724361094e-01 -4.493039846345576183e-01 -4.583469901453303685e-01 -3.120946961523566876e-01 -4.599507140488171553e-01 2.259899433271288227e-01 2.975489749811423001e-01 -2.982947095258845494e-01 1.175398486144920568e-01 3.803244218433708967e-01 -7.845140020215705945e-02 -3.805316364670655038e-01 -3.065576359494319447e-02 2.444766383375781560e-01 -3.455164063846146716e-01 4.741075478521946107e-01 -3.200250662638502441e-01 1.839095537794306623e-01 2.590670456249639098e-01 -8.457659430317356064e-02 7.682217973232870201e-02 -3.583070016636570876e-01 -4.304681847502181968e-01 3.191990203633777168e-01 -1.688528765487445626e-01 3.767225082835451988e-01 3.308398649754703547e-01 4.945065190501169439e-01 -3.302181043551383199e-01 -3.090282668843526426e-01 3.476796392437708216e-01 -3.700022061953853192e-01 -4.526110417460760260e-01 1.256396581741518748e-01 -4.777881302549282228e-01 -6.344676057051111540e-02 9.477784748058795672e-02 -4.492135769557109581e-01 -4.400882784389429370e-01 -2.535215744461531348e-02 -4.409715066923311499e-01 -3.229489285937871546e-01 2.683514830924769654e-03
-9.166379675290643736e-02 -1.064522916137369130e-01 4.385770067857548415e-01 3.287196871096663697e-01 4.487426216774780263e-01 4.729062877626115102e-01 1.619357981394778934e-01 -2.442240334905622923e-01 3.111668405814971838e-01 -2.831421556126005323e-01 3.027317410355603866e-01 3.029121643908821992e-01 -1.474588291892090230e-01 -1.865323601712690627e-01 -4.448400746135171002e-01 5.258091332699753317e-02 1.185965816516138666e-01 4.509411210933071956e-01 1.843657979781718748e-01 -1.299237565956607443e-01 2.893260089410519820e-01 -4.058972564907336288e-03 4.581808694171096152e-01 -2.991306638883894364e-01 -7.798748028257809772e-02 9.799339459814608577e-02 1.174002174491059619e-01 5.076936452301220593e-01 -2.114623998863269794e-01 -4.577050307291715137e-01 -2.899251336051333894e-02 1.301657448515675386e-01 3.008546061849287634e-01 1.708157359993253410e-01 4.981055391953536637e-01 -1.125981421435558183e-01 2.450025287579082056e-01 -1.327296682374732306e-01 -3.998412060435119209e-01 4.872026036221785428e-01 2.130756072948241375e-01 4.128654648113643244e-01 -4.316260515662160846e-01 4.407536808652821048e-01 -2.747895504714356063e-01 1.996504757863243329e-01 2.974262560959558405e-02 2.840498523596489133e-01 1.524672903071747250e-02 -1.063182380109725655e-01 -4.930395705733959799e-01 3.144069962907787286e-01 -2.353760164809232114e-01 -4.479794419096150282e-01 2.619164052411137797e-02 -8.853615790525513896e-02 -3.337962202925973676e-01 4.737737758658002174e-01 -4.635909548651840906e-01 4.895879049909435121e-01 1.395177677760144341e-01 -5.761919214540296708e-02 8.807912946494336759e-02 8.258076789171486798e-02 -2.578629781167658952e-01 -3.070242937607312594e-01 -3.101702918969078127e-01 2.818963896606608288e-01 -1.314678846318813044e-01 -1.667447745001610082e-01 -3.086010615477993158e-01 -3.030192307777311855e-01 1.483903222084909379e-01 4.618328465573505737e-01 1.658913565996161521e-01 -1.141155369248993967e-01 -3.789299834499826880e-01 2.340816434438734994e-01 1.418633758105140308e-01 -3.538217972079660822e-01 4.445366939916796656e-01 -3.919877288921517766e-01 4.187319272936605441e-01 -3.157125965044437210e-01 -2.166568529121282727e-01 -3.738553938579272651e-02 -4.503357130696882260e-01 -3.804005014042705635e-01 2.990816614352307945e-01 2.166140418789488931e-01 -3.950179721831834634e-01 -7.544789236457900838e-02 2.420202970809123555e-01 -5.346069328995201736e-02 1.694460903747819769e-01 1.138880937543867988e-01 -2.846263739588154595e-01 -5.935635663660346166e-03 -3.652614872914984878e-01 -3.982936766507795823e-01 4.195283544572259160e-01 4.397738387203141697e-01 -1.726769246484986531e-01 -3.733679506439445683e-01 2.646137616163557471e-01 1.989294364139091165e-01 3.125377788246324479e-02 -4.848446914611833636e-01 8.604735682921643702e-02 9.417215809727201570e-02 3.187377829472983759e-01 3.230827137037184382e-01 -4.107345806698328161e-01 -3.739268123933777166e-01 2.215829781070809690e-01 1.596322930326553868e-01 3.843131396343803519e-01 1.405437322905208342e-01 -4.965055002064269196e-01 -1.631634636236621236e-02 2.678084136618444355e-01 1.194517494384323211e-02 4.271279908260144365e-01 -4.911896082440210809e-01 3.165305432872737579e-01 -3.569880544662454996e-02 3.660089399222887230e-01 -4.397382649898811668e-01 -9.275876037413423314e-02 2.138782083030537629e-01 -3.505759437902241094e-01 4.436649167319057369e-02 4.490222006534263510e-01 -4.608364018984363875e-01 -2.580944273074093354e-01 -4.969242362255659184e-01 -1.780171230458870990e-01 3.904064942553006623e-01 3.293426085364807854e-01 -2.520899023092273428e-01 -4.382108389681108607e-01 -3.844829900299433223e-02 2.881295919061049315e-01 4.533881863266764900e-01 -1.245116798652642354e-01 4.710628928735589027e-01 3.203598221620919673e-01 -4.819141382975631986e-03 -1.633197902502151466e-01 1.305739592784527225e-01 -4.410677521997937722e-01 1.031932543224429732e-01 -4.610144327271979425e-01 4.421755622052889745e-01 -1.834668431403962269e-02 4.787035296702658038e-01 2.614046356995068932e-01 4.469177991454646448e-01 3.578738530277198460e-01 -3.824132381637845857e-01 4.033005072134183133e-01 2.655094980405611205e-01 1.857826383534802728e-01 -2.643955202688241801e-01 1.689035381677796988e-01 -5.236121687844719208e-01 1.334159340316799225e-01 1.950055570090022672e-01 -3.217887954221989588e-01 -1.931692012765875988e-01 -2.113110272318775851e-01 -9.671211851122869796e-02 -2.018369278117875809e-01 4.996163980504420010e-01 -1.632960174090475614e-01 4.019997754904202497e-02 -7.945151248551160506e-02 -4.073419684962696907e-01 -9.548782628150052909e-02 -4.869791491650550253e-01 -2.817558193531304322e-01 4.320330405387869943e-01 1.676689599301415812e-01 1.856775134890434609e-01 5.202162059198095490e-02 -1.957569176011028644e-01 3.169406107777978376e-01 -1.469987313190490030e-01 8.662400845040146846e-02 4.135492115258321832e-01 1.523786168300695354e-01 -3.742205289999360751e-01 2.589695821178197299e-01 3.603007856334539682e-01 -9.377542162892699151e-02 2.197278064525887836e-02 -2.290300849523502769e-01 1.012532719691475354e-02 2.935574475007811657e-01 -4.103058698840560403e-01 -4.531043457282807330e-01 2.596963802578243219e-01 2.116846994314034169e-01 -4.318366532311766481e-01 2.291571736756821409e-01 -4.495027244146538314e-01 4.219640618357104467e-01 -3.952514687112291814e-01 4.539203424451383473e-01 -3.316977024851130995e-01 2.287465760416197702e-01 -1.158449771973048409e-01 -4.751423281974089252e-01 2.425223637165051793e-01 2.468079166551510883e-01 4.645025979345488581e-02 3.854791834759370150e-01 3.386951326070329893e-01 -4.876885296321982199e-01 -8.704634491726664317e-04 -5.122448523116729380e-02 4.876842303776387499e-01 -3.735536300568312873e-01 4.242078177990755150e-01 -4.519405120403916509e-01 2.922486280982125595e-01 -4.714333863704508465e-01 1.328989005888406572e-01 -8.790221718407312257e-02 -3.567115160250974304e-01 6.514536622225301776e-02 4.674676385460795336e-01 -4.076803871355031972e-01 2.784887259518797342e-01 4.205430447508977654e-01 1.952101402921417872e-01 1.978324661599551448e-01 3.763558688243254791e-01 2.024848231995664272e-01 -1.213078936765081411e-01 1.562455390454089771e-03 -1.008867576401288602e-02 -3.368963795273896000e-01 -4.945615418884888870e-01 2.258223393723964578e-01 -2.875360165340122287e-01 -1.085103294380591332e-01 -1.761826299451133837e-01 7.335516415979449756e-02 9.777876672311323902e-02 3.542849701589521616e-01 -4.125959836757596144e-01 2.083553465561325813e-01 1.595938484929040335e-01 1.463888387098631616e-01 -4.113858630093093771e-02
2.163438406800742009e-01 -1.389438170166608193e-02 -3.718302587104805879e-01 -1.672592083918073569e-01 1.554147675542972250e-02 -2.539690975426557862e-01 4.404145104482535406e-02 -8.982852931907020499e-02 -1.453808827904710665e-01 1.658392311230384442e-01 -2.849301841802566737e-01 -3.904209376018678013e-01 -1.335331031948240599e-02 -3.781463399431426176e-01 2.466539170802411508e-03 -3.422410226146170298e-01 -2.643261100106816253e-01 4.443595402788990678e-01 -4.568884044850738957e-01 2.610915506506689132e-01 2.208079269028308256e-01 1.974033278677671810e-01 -4.576304175060381674e-01 -2.597158618104584149e-01 5.513745374488641243e-02 2.623537373533559314e-01 -5.057825964075604031e-01 -3.705894022132168453e-01 -2.622133305950053450e-01 -1.365509742781038580e-02 -1.225101134278714088e-01 -2.386483900718857631e-01 -4.826993500229986855e-01 1.602696210882563199e-01 -2.823682655417014686e-01 -9.348347098792708643e-02 -5.952324892918665206e-02 4.270963849461033024e-01 -3.323579057027868378e-01 -2.880434969930162903e-01 3.607627975094758188e-01 -2.493722822957520624e-01 -2.242484240252397981e-02 -4.368636746220957989e-01 -3.266470118028496628e-01 7.418867124428683846e-02 5.107007881631355772e-01 5.690806613667944575e-02 2.036529593543175698e-01 1.040871964742373090e-01 -5.039951188804150384e-01 -3.851638171592983162e-01 -9.826752964578455707e-02 -2.453877641010000429e-02 -1.239028088170965602e-01 -1.773175023126210281e-01 4.460812789384853150e-01 -5.032280273910317847e-01 -3.606504616388505058e-01 -3.607427906109604843e-01 1.623202926218871578e-01 1.991441190850767318e-01 7.600075993435119470e-02 -3.021089789624539779e-01 -1.603274417257916362e-01 3.750994692580004175e-01 8.701371387275508296e-02 -6.471269200949127109e-02 4.038502340913325273e-01 1.212036171792080508e-01 -7.523161344760283253e-02 -2.756162526751880781e-01 -2.393285527299866822e-01 2.643887074768888068e-01 -4.588159124516705267e-02 2.652975737338141848e-01 -1.502520543820718701e-01 3.426447152587929756e-01 2.401780296381958724e-01 5.183519548578657821e-01 2.624353312335488131e-02 4.623092231804566965e-01 -2.965085072720887172e-01 4.699654097756849058e-01 3.407129511110025821e-01 -2.514825562471354470e-01 2.641240449998786752e-02 -2.560907987227792337e-01 -5.188915168076233542e-01 3.693015579771337653e-01 -5.032873516888560772e-01 1.509925613162062426e-02 1.404864474271571573e-01 3.522033590494393351e-01 4.474096621192026890e-01 2.686816431474517985e-01 -1.869576487452992430e-01 -2.079668310836861322e-01 -3.283826740809659417e-01 -3.876873826694489655e-01 -2.279319567070897667e-01 2.882427518787564202e-01 4.520774740363157074e-01 1.624634949768910819e-01 -6.563591825430149795e-02 3.179603947840541900e-01 -4.928074243177017477e-01 3.630158373128613558e-01 1.685955383331781132e-01 4.948999023408472420e-01 -1.219722803938975558e-01 -5.658651782450443979e-02 1.372771965516341730e-01 3.146284853715483054e-01 -3.003068940016387356e-01 -2.116038688130659692e-02 -3.111710867354281970e-02 4.515006515869272041e-01 3.008461694454005464e-01 -2.194646557501419015e-01 -3.696831503046326683e-01 7.022772614100440680e-03 -4.715617684387052311e-01 2.795187390474457301e-01 3.335823540246837804e-01 1.857700111191697492e-02 4.283750270891219930e-02 4.550088635027863537e-01 -5.193132525211553718e-02 2.971255217555670014e-01 5.104650199592701831e-01 -1.696386400590924048e-01 2.918507196786570557e-01 4.792384566336588825e-01 2.427598194421261291e-01 2.945294975638542700e-01 2.507738411270984402e-01 -2.201621951195006366e-01 1.060946480309533091e-01 -4.991232024852482185e-01 7.068899418778538946e-02 -5.085587209635977768e-01 -1.648275263793135825e-01 -1.102385969936517038e-02 3.538765751810621363e-01 2.651295124024988237e-01 -2.628431604945749567e-01 -3.810561510670752994e-01 -2.853772626243318844e-01 3.501059182948889625e-01 4.892343102508853875e-02 2.411822341926615210e-01 2.315088116114904782e-01 4.163886942682406556e-01 4.491501362170481904e-01 3.783744820235330208e-01 -1.408939032490460763e-01 -1.309022279147181028e-02 1.710129016674263036e-01 -2.733756617228623731e-01 -2.323992091949566574e-01 -7.238666238945509757e-02 -1.826850039355329414e-01 4.134545675648821361e-01 2.557379459869659200e-01 3.305412765998139157e-01 -8.043774740785901434e-02 3.666542904048453733e-01 -1.623820505074957954e-01 -7.114661698809959800e-02 -3.654187158498313770e-01 4.501945431609994941e-01 -3.810519578007677821e-01 -4.074571990392212850e-01 -2.745136113221682272e-01 5.452825344386073858e-02 -3.041436149969459213e-01 1.858183927068163821e-01 -9.442471847574376853e-02 1.221920699993021414e-01 6.009152148189982751e-02 -2.707881435870097553e-01 -1.302072055115125748e-01 9.160008253030883785e-02 -3.646117568361660899e-01 -1.448953405812600792e-01 -3.431380606318478743e-01 4.113654881618070136e-02 -1.991528756722281412e-02 3.746098219736576085e-01 9.254119405191557624e-02 -4.533741752977392681e-01 -1.223978992646799907e-01 3.567162429950234692e-01 -3.379305186251638227e-01 2.668737778183766229e-01 3.184462451782297809e-01 3.397474394216856153e-01 -3.799783379921362059e-01 4.713977370312346649e-01 9.818750682161472843e-02 1.120545137287269205e-01 -5.089925717519825504e-02 3.210344884208194555e-02 -4.865405644358777870e-01 -3.150078638127466746e-02 -4.933667835989042905e-01 2.019403317384909358e-01 3.213163255441834343e-01 -3.552589517379597939e-02 4.478811484676003540e-01 3.590726591083064356e-01 -3.878774403191001530e-01 3.617765612469936998e-01 1.749421191956129773e-01 4.537162989605664776e-01 3.330740247501320916e-01 2.871092555268932034e-01 -1.670664587049598415e-01 -4.642575560034498672e-01 1.621534386924373683e-01 2.844932679168577505e-01 9.217814001301882776e-02 3.655527509617280679e-01 -5.131045702129680697e-01 -3.564424336624553158e-01 3.917630899267602884e-01 -2.786181835528755979e-01 3.745454286951194756e-01 -3.668167852256032369e-01 -1.166206559791533454e-02 9.148373275394690307e-02 -3.096134273498388212e-01 -8.608785874286563333e-02 -5.222531090133696319e-01 1.615198192566920377e-01 4.275320079121928685e-01 4.822089512953565693e-01 -3.267564614863209815e-01 -2.489890077559004933e-01 -1.657263763864618156e-01 2.143405011796730153e-01 3.418650077479620797e-01 -9.576574364013169804e-02 -4.743901836905882741e-01 2.761637011254045038e-01 -1.827907856893508376e-01 -3.559656862805191668e-01 4.375791390315784263e-02 -4.707351977871325824e-03 -1.716255180575607941e-01 -1.414869759830027773e-01 2.972196687031263829e-01 1.009138018268112141e-01 2.087103686389297497e-01 4.589396708938124347e-01
-1.283824361800736114e-01 3.389354731752897698e-01 -9.430609230743215721e-02 4.129781542834137231e-01 -3.324189405271764097e-01 -3.628436837480610855e-01 -4.224065240192908521e-01 3.266371100482809431e-01 4.614818313412427653e-01 -4.402386032938489513e-01 -2.429390877309718921e-01 2.894330830572244273e-01 -4.495577266171543740e-01 2.350500129127233995e-01 3.600471102731590649e-03 1.139838373353650181e-01 1.567269368016007414e-01 -4.888040721683249434e-01 4.780482908940927866e-01 4.469334228670317211e-03 2.757333397375311135e-01 1.655160718801806374e-01 -3.084283377393874370e-01 -1.587180721328789179e-01 -2.889310512706637635e-01 2.220651196697895347e-01 1.033886410636675329e-01 1.359233645735457296e-01 3.228429501676866042e-02 -4.345403009595976696e-01 -2.653544431183056142e-03 -4.270215390054017679e-02 -2.629068128188564168e-01 -3.193342144149317052e-01 -4.740250867159789827e-01 2.883723573337219626e-01 -4.636763639123093750e-01 -2.061495326922867244e-01 -2.452296016603738582e-01 -1.150290861202066112e-01 -3.359415250578696721e-01 -3.177000687812405744e-01 1.625071170823945768e-02 4.831376904756440882e-01 -2.337284351735213483e-01 4.384045992511020340e-01 -1.599659621417074129e-01 2.218344620769597542e-01 9.295006224351488877e-02 -4.502366244838177933e-01 -1.862881607750924706e-01 4.579390690281451293e-01 -4.555215251923893649e-01 3.527222671789413400e-01 1.321573563213606639e-01 -3.664558225305940553e-01 1.449373243587858129e-01 -7.217144907159699085e-02 -3.317998318571559468e-01 6.589025765520640024e-03 -2.443902605209666012e-01 -3.669215587732301276e-01 3.353327673431111267e-01 -4.895206848312014247e-01 -3.613928976861033315e-01 -2.753373840765763192e-01 2.073607186468989783e-01 -1.946267675775248951e-01 5.236951609756883563e-01 2.995885961598378500e-01 1.756587523538534479e-01 -5.933129616502430537e-02 -2.806005283184906940e-01 2.281853281612976625e-01 -3.789714013569653872e-01 -3.536044166672675515e-01 4.414849597238271195e-01 5.976743722954690544e-03 2.425967478136616395e-01 -6.484469747452323296e-02 -8.834323231480104011e-02 -4.822182182015349872e-02 2.142836290506862917e-01 -1.513652461790736432e-02 2.380846165062808217e-01 -3.548224757972694987e-01 -1.915324994301568495e-01 1.661252559530455308e-01 -3.547156745026168734e-01 2.728217958332090354e-01 -5.021959993380563647e-01 1.918313582564095190e-02 -4.700263909394798989e-01 4.212817164125033376e-01 4.934186770987377679e-01 4.991173521385054990e-01 -9.696075665811330901e-02 1.331192295919477863e-03 -2.905102439824673866e-01 4.137627561647462537e-02 -3.702221104988229206e-02 2.759542886302970843e-02 -1.678582596187970510e-01 2.447863800520900246e-01 1.457938326809405938e-01 1.308219223271765014e-03 -3.062535610681643150e-01 -2.984369359978037983e-01 2.665134978543451383e-01 -1.967751356883645220e-01 6.951520488398756081e-02 1.363476403568367190e-01 5.556678992369639553e-02 -2.943711404680978139e-01 -2.894579713912212027e-01 3.453972945803708838e-01 1.731939161323262644e-01 1.830421907312423102e-01 -2.546593073361962459e-02 2.393589892657086160e-01 -4.410901878366472739e-01 -8.706390472546228498e-02 3.289460008216552045e-02 2.119998516116373619e-02 -5.209007305003529043e-01 3.601954094347330493e-01 -4.367225560043651034e-01 -1.035037087666116629e-01 3.189767652726140934e-01 8.087839522482356824e-02 -3.411753321407064166e-02 1.066550061167363672e-02 -1.851652410178839525e-01 4.818220396870420696e-01 3.698396802987471421e-01 -4.226937663648848709e-01 8.820008235582332823e-02 3.467926908242435213e-01 3.212277711252706780e-01 -2.222112958390583537e-01 1.826474414285457482e-01 -4.997206829880613266e-01 -1.166172672732998794e-01 1.578236258947805911e-03 -4.239558252796789273e-02 4.449463567629339811e-01 -3.282878426108996051e-01 -2.996734878507277267e-01 -3.456821241151544766e-01 -5.556753778627960931e-03 4.083176441013537661e-02 3.035237616570155561e-01 -2.285173245246844009e-01 2.329017487998353286e-01 2.513999124307257360e-01 1.424449134933023497e-01 -4.962094669577031270e-01 2.489474332084751218e-01 2.100642331799856821e-01 -2.350883164244296775e-01 3.199520249363949076e-01 3.889431113956940966e-01 -4.607181650234485337e-01 -7.034205546632889272e-02 4.224926114078240702e-01 -3.935713944930595565e-01 1.560538255435694743e-01 1.011474145265316704e-01 7.766308542859122477e-02 -2.053235859234381344e-02 4.269951376618632000e-01 1.787342669942298401e-01 -1.818713286791287242e-01 -1.253869978456226535e-03 -2.608611744684761757e-01 -3.172288735224394474e-01 -1.902746690191831347e-01 -1.289393650466127972e-01 3.973840357698818493e-01 -3.527300961597974460e-01 -2.840347714382156497e-01 8.972123743772601745e-02 -1.578549982001336560e-01 -3.634842563689584805e-01 -3.655711901013224963e-01 -4.515036149225976070e-01 -4.131727404974830375e-01 9.385382505394766761e-02 1.547330632620051161e-01 9.491502781611582673e-02 4.882440510352086815e-01 3.878218791538308174e-01 8.586733946044136645e-02 -1.626452842806899723e-02 -1.580517102735924662e-01 -2.342807951761125829e-01 -1.982080674959818545e-02 5.044238260132845042e-01 7.719608955180903842e-02 -1.997878155072300155e-01 -3.458365787132819391e-01 3.874571362226862936e-01 -2.951912071303178231e-01 4.120467788566337108e-01 1.624377194312033035e-01 3.982996136105099727e-01 9.856351478834650404e-02 -8.647950203688681281e-02 1.704608703774937173e-01 2.676696302070650790e-01 -2.726354595174710904e-01 -3.234318244146048432e-02 1.233917998527317844e-01 -3.110858740691282986e-01 -1.911635365575798107e-01 2.901744907692129227e-01 -1.766651940540442667e-01 4.009860538922432327e-01 4.453016908739581003e-01 2.409653622983720656e-02 -4.870083179384283173e-02 4.390065845826370272e-01 3.096717889352413322e-01 -2.868688905792994917e-02 2.898256397301055554e-01 1.065703274399529693e-01 -1.344497394401175383e-01 1.972514270991413132e-01 -3.407088557564053044e-01 1.590786081707100397e-01 3.733249079747490984e-01 3.222163156609087475e-01 3.635951128342380656e-01 -3.149288877963317690e-01 -2.330509599684834898e-01 -3.052423696383784746e-01 3.104977325685194800e-01 -1.921976092311838136e-01 -4.000684502470760462e-01 -3.568920369129087167e-01 1.274583561917941310e-01 -3.041242318670240308e-01 8.343951968381704831e-02 2.882863173579612928e-02 -2.115443123573415296e-01 -2.903322864302453898e-01 2.049061524796632616e-01 -9.014456021490481474e-02 4.034472660672807076e-01 5.976854554344184639e-02 -1.307376926473739209e-01 -2.195743923247847618e-01 -1.626323618004486549e-01 -2.080716113696935154e-01 2.027478989219445860e-01 -1.348596841432376722e-02
-4.996283719963858783e-01 1.028031579037729515e-01 -1.946591605470445463e-01 2.938097954651372468e-01 3.117614621289236942e-01 -3.702505596427028700e-01 -2.802981683713485772e-01 3.731525520751457492e-01 -2.799005077356880311e-01 -1.113162033220921193e-01 -4.517369324825917798e-01 2.570684448423479207e-01 4.183260976741537407e-01 2.910955876259271324e-01 -1.125360973306050449e-01 -3.782246647931206129e-01 -4.866685526560185493e-02 -1.781018049437783080e-01 1.272074092651201693e-01 -3.720176283581996812e-01 -2.990027145444023038e-01 -1.454293511711370057e-01 -2.512882633226364015e-02 3.633394851735370912e-01 2.313312854371006311e-01 -2.757727978256723778e-01 -4.644529763722075599e-01 -1.679727595052466216e-01 4.005702711175959663e-01 -2.677141772694755506e-01 3.563427117464550431e-01 7.129762154466279256e-02 4.558960605549847722e-01 2.860627244543795245e-01 -8.754311228248055909e-02 -3.361983462900520331e-02 -5.202382542682343347e-01 -3.238314571672889497e-01 6.891563538243139497e-02 3.185613163068284348e-01 3.061257153993167668e-01 6.927359112641433281e-02 -1.828107325207068701e-01 2.369837661098658510e-01 4.808956491324103966e-01 1.266117608771248626e-01 -1.175520102462219718e-01 1.035657809068296215e-01 1.115315379408715196e-01 3.889289784430827179e-01 1.442570240695306705e-01 2.230965269429102393e-01 -4.231084598183409429e-01 1.308151564957408530e-01 2.262898699108762679e-01 4.386502269414335742e-01 -3.373579850949968706e-01 1.530838736330302581e-03 -1.259340952865538044e-01 1.961862748151716740e-01 2.616891737186764488e-01 -4.482499220726259281e-01 4.932693329297492268e-01 1.401127895492888242e-01 3.364535972417709853e-01 -3.918434649742093961e-02 7.583813067237155092e-02 -4.698032566047285474e-01 3.480120766484863237e-01 2.609817492238719616e-01 3.079327502332754873e-01 -1.187483189975404724e-01 -9.711822717111391612e-02 -2.710342357793371626e-01 3.891338305907521278e-01 3.910110393119448635e-01 1.979291560305446729e-01 8.778400250888192258e-02 4.588387075850006713e-01 1.784359611393478845e-02 3.159001117616115906e-01 -5.636513351284432038e-02 2.963754504943628687e-01 -6.366172529635820421e-02 -3.796886577025548326e-01 3.914905158095185467e-01 3.397023013400989333e-01 -3.302099283219073755e-01 3.204993746003229060e-02 -4.189000608543133608e-01 -1.600064353174626697e-02 2.719282220966613428e-01 3.939592617056232593e-02 -4.686897835219766550e-01 4.495679560492213400e-01 8.911850733599213648e-02 1.011399945000388823e-01 7.900881937175330272e-02 1.317558760744298174e-01 2.171842611714983884e-01 -4.430862944852408392e-01 1.197116901131528577e-01 -2.614699372031952240e-01 -2.310395332293318782e-01 -3.823846554864410718e-01 -4.589712612167219929e-01 3.756690745592994873e-01 3.494528257358126555e-01 3.662205549487779765e-01 -1.100858704348748329e-01 4.584791398231573001e-01 6.916441742387378910e-02 2.893285728866679674e-01 1.691699522128108438e-02 -2.582784709528881395e-01 3.398057881909603839e-02 -2.415803286984571363e-01 1.882328337578910438e-01 -1.711229134461884072e-01 4.262330818522666043e-01 -4.554906729133403331e-01 -1.546880914005769325e-01 -2.850483287939384325e-01 -3.307416528367105868e-01 -2.445048888956228850e-01 -2.837603717396597891e-01 -3.489783530448189452e-01 1.024099524130693828e-01 -1.026480681753335761e-01 2.384214334011166836e-01 -1.861055004675432889e-01 3.414840068499411796e-01 -2.497193294371443661e-01 4.541931971913074767e-02 -6.761874965622115263e-02 -3.380798908940113034e-01 2.595183873712465436e-02 -8.053968150951883176e-02 -7.269381219014220408e-02 4.313306867722191407e-01 -9.514270133812173513e-02 -2.822172842408942617e-01 3.439082852755547259e-01 -2.707442293974182679e-01 1.183789565988665887e-01 4.424570198321809977e-01 3.794612421105180156e-01 4.754273846466405273e-01 -1.128763958591308958e-01 -1.388152874373550782e-01 2.199338578884142414e-01 -4.337246451901670130e-01 -1.790513393947210374e-01 3.858865935058595764e-01 7.383174303266898386e-02 2.607550072072615799e-01 -2.703680739818895562e-01 1.259663758728766514e-01 -1.800051740914935042e-02 4.145719461528027949e-01 3.032687382104615192e-01 -3.137684850372220446e-01 -1.849367006392436952e-01 3.797141932709266476e-01 6.672674539218335921e-02 4.916909190332788282e-03 2.903442889434814100e-01 -1.510891028629844368e-01 2.480404546052745740e-01 1.676341812495612815e-01 2.905697856350820674e-01 -2.392142113918480362e-01 9.898599131291849207e-02 -5.794493802597814464e-02 -3.115816185026724083e-01 -2.039130695707988272e-01 4.176858336394700388e-01 -4.508603178185214833e-01 -7.426977481075408560e-02 -4.524528958137487566e-01 2.457307983894213288e-01 -2.110359844722261343e-03 -5.920571821858001266e-02 1.961641139112096088e-01 5.629224241029674031e-02 3.803899895226248162e-01 1.296127327138660024e-01 4.881020403563786081e-01 -2.314465699806738941e-01 -3.890899492039563978e-01 4.377951329347791742e-01 1.755062440425323930e-02 -3.513072327438314657e-01 -4.181761383794463383e-01 3.679510857484125097e-01 -1.644139732495352724e-01 7.586167620694266034e-02 2.530960624178217877e-01 1.249073077126878865e-02 2.147731960258537354e-01 3.305442230767592360e-01 -4.741798067585043519e-01 -4.063279460426567624e-01 4.513419215722099254e-01 4.221114100476044961e-01 2.644980483815783656e-01 9.270253490787212780e-02 -4.631829217520602171e-01 -3.212702146079070009e-01 -3.050206753184785402e-01 -9.398997714042077456e-02 -3.081039670851544177e-01 4.557352629966986979e-01 -3.427203593076587063e-01 1.760116111110059944e-01 -1.984518724283572955e-01 3.485716774428234549e-02 -7.825487779340974115e-02 -3.009241560251083025e-02 4.933866606340076011e-01 3.124786434642581878e-01 3.135559596615337119e-01 -3.367786209297396471e-01 -2.815206659317631144e-01 1.721767385126828365e-01 -1.081211105481504064e-01 2.542454599325337603e-03 -8.166522501677006551e-02 3.423851597475064956e-01 -8.481168741949240975e-02 -2.939216260335422715e-01 -8.052794279840630454e-02 -3.041470097769475300e-01 -2.087514849120449545e-01 3.524993044391581121e-01 -4.053323885706089369e-03 4.637720856484737753e-01 4.727557579622806427e-01 4.008865396509128654e-01 -2.791298982289805997e-01 -2.555055180111071578e-01 -2.179187969659105717e-01 -4.671044299080754914e-01 -4.429917642415091561e-01 -3.977519702253740630e-01 3.582520442313238962e-01 1.471557469294905163e-01 1.972817117869578307e-01 -4.830120751296519410e-01 3.614818379679921589e-01 -3.259434799957444673e-01 -6.913296880078924345e-02 -2.705167250238876830e-01 -9.907184160197600453e-02 4.886600115389096999e-01 4.967496347289153125e-01
-4.886195141612389992e-01 -4.806284151569207852e-01 -4.590793938508527794e-01 4.110888946448952308e-01 -4.253555072483117955e-02 1.041120039360623473e-01 1.189878714083066613e-01 2.226822829876277110e-01 4.411085650691619620e-01 -4.525435986345237582e-01 1.364488313839865852e-01 3.208678466862279755e-01 -4.018139925994833050e-01 4.185765889156934372e-01 -2.213427228604911423e-01 -4.021490194007648067e-01 -4.754942960392585238e-01 -4.689756431975010131e-01 -4.919827345103786609e-01 4.937108511623258256e-01 4.918954956288868474e-01 -9.876887315237189990e-02 4.728157758999188554e-01 4.679427172574860405e-01 4.966093147665627816e-01 5.113602790654091105e-04 2.667808585728559390e-01 9.194614032343155496e-02 -8.701629564102855707e-02 4.433714175703473148e-01 -4.690295766295464186e-01 -2.991267712024364353e-02 3.746714998686402620e-02 7.887615554641433380e-02 -1.400248642907607477e-01 3.465170188522687100e-01 3.773129988098707366e-01 1.152945035905125759e-01 -5.456400603960689932e-02 1.398163535667133750e-01 3.706159246330816837e-01 4.225651554581066893e-01 8.575612698306724069e-02 3.446172933988427278e-01 -3.919596441486280503e-01 1.261270007056671527e-01 -4.819974347615897936e-01 -9.281342913543923212e-02 2.313309691925450051e-01 1.948423062790709537e-01 -3.378455355723685161e-01 -4.297707746222202418e-01 -6.829550999988476256e-02 3.117610390079164073e-01 4.741666880087172520e-01 -9.655314096988014405e-02 1.580601507468238631e-01 2.951348868918141077e-01 -2.445037592234818591e-01 1.389131165963486680e-01 -4.633444630275967424e-01 2.703507878707342438e-01 -4.600149869167349248e-01 -3.323553112776701512e-01 1.425886123026005869e-01 4.000425154485018342e-01 2.616410334703679341e-01 -1.951124117845509376e-01 3.389680355294559522e-02 -8.176243531327051506e-02 1.544985534751263101e-01 -1.489140285760390814e-01 -6.003321541167696423e-02 -4.289218531070283502e-01 -7.727136551514607321e-02 2.476036108358942445e-01 1.648443135546425187e-01 -6.285327556739353505e-02 1.821459584928940001e-01 2.313463039989703263e-01 3.133833848726087778e-02 2.260863534140994668e-01 -4.593334662547288172e-01 -1.219611898310622861e-01 3.618926611907647972e-01 -2.545636429332738260e-01 1.921993949827072168e-02 -1.771311997961252382e-01 2.527910857028330405e-01 4.592275522288120082e-01 -3.547691308256457066e-01 -7.182425625630711741e-02 1.207279281964945966e-01 3.311241080028140549e-01 3.741892544721178160e-01 -9.599302401334845747e-02 -2.319988918955479817e-01 -1.357709202926746794e-01 -2.832689067227508063e-03 -4.322340497264282599e-01 -1.777709089976372558e-01 -1.658578785133943967e-01 2.710123645336492415e-01 -3.343519386763126877e-01 -2.452351347353954117e-02 2.007405459463660613e-01 1.393786142541779682e-01 1.669524353511486481e-01 3.804324674144319851e-01 4.016106051482332129e-01 2.401744231973904353e-01 -1.227642339103270919e-01 4.201936160807902276e-02 -4.832208218860165050e-01 6.943479595878143673e-02 -4.427824227719267536e-01 4.033940380444597101e-02 -1.748962380247987836e-01 1.398275110568058532e-01 -4.401467562639737596e-01 1.810666923954150076e-01 4.374601075560248797e-01 -4.063100974622083084e-01 -2.943049564037729729e-02 -3.457978473790079832e-01 4.613409061152516921e-01 -4.900627617863893837e-02 4.509984633560992773e-01 -4.094724983935197904e-01 -3.038253840897672253e-01 4.053022867421706144e-01 -1.334296661177394872e-01 4.286615702445153442e-01 -2.003486289189471692e-01 -1.608892640598150875e-02 2.636847432889257159e-01 1.185082382727649930e-01 -1.359709783949507589e-01 -4.655800232844404807e-01 -5.026097295752671723e-01 1.142421767325949439e-01 -3.920999943280671918e-01 2.833425224903662627e-03 -1.175701318441593757e-01 -1.806391253437491795e-01 3.520645280720108850e-01 -2.372759132002655869e-01 -3.856114972270616170e-01 3.634232849074410798e-01 -4.021491720109560131e-01 -2.867286253369030202e-01 -1.433140062195761566e-01 -2.389012364909102459e-01 3.759957106714957864e-01 1.451492340334064983e-02 -1.279731609348049581e-01 4.917254091522326731e-01 2.185445240296435276e-01 2.031301255896419689e-01 1.803806033513295215e-01 -3.267302446931686921e-01 4.968521285279197119e-01 -2.977611826185349031e-01 -2.216761550953974536e-01 3.485435846841059004e-01 -3.921362589738199844e-01 3.329305771324854724e-01 -2.995885378226039175e-01 -3.784480517247426068e-01 -3.983539256576641430e-01 4.861520732197329581e-02 1.085151745907146636e-01 -1.105648131822245944e-01 -2.014148750729825854e-01 3.190884293193930188e-01 4.516496631343461798e-01 -4.493471338496066725e-01 3.521402544511402222e-01 4.627326383265966681e-01 4.400623299590691317e-01 4.684158057515471207e-01 -2.963677977885391668e-01 -1.314181281194443107e-01 -3.873709308862802181e-01 -1.494076003213288817e-01 4.450749071109472710e-01 4.649937994058695456e-01 4.878472349697681176e-01 -4.200603439548524221e-01 -1.797617303156027468e-01 -4.320559283786671867e-01 -2.979100678685078774e-01 -3.487602373511849985e-01 3.985053010364089654e-01 5.696713725695851105e-02 -4.633368435447814959e-01 4.358520648729441449e-01 -1.082515105652056414e-01 -4.706426209302972397e-01 -6.829106540580051621e-02 -3.765704264080287356e-01 4.834488651220123501e-01 -2.766942525603861749e-03 -4.071472956629346163e-01 3.119818168950805881e-01 4.115066063643185168e-01 3.230623358800741585e-01 8.793047350409986807e-02 8.486383778645259501e-02 3.941065375854028718e-01 3.335189172500567234e-01 -9.030853105331020092e-02 -4.279053665819355229e-02 2.225338618010727076e-01 -1.125719131758464581e-01 4.269267877740537398e-01 -7.520859012021703649e-02 -1.840029975941074314e-01 -3.663613821001497906e-01 -4.623653566110586532e-01 -8.944590953912294473e-02 3.866111985534754769e-01 4.404309945396875370e-01 1.896230191801506204e-01 1.112772303598706485e-02 -2.659076047468501569e-01 -2.071091424959973781e-01 -1.673934912854780632e-01 -2.462290962727737599e-04 -4.339101408903356938e-01 2.138403405231215637e-01 1.266579712645651556e-01 -4.589482199911213423e-01 3.412167863420035308e-01 -4.141654154380563502e-01 -2.877949510759378882e-01 -1.620297052074416988e-01 -4.292909759379232582e-01 4.563148206550783348e-01 -3.497011135372136148e-01 -2.730399328171580296e-03 4.144915299402078257e-01 3.692745834455974929e-01 -3.755922572814573979e-01 7.245491438079079694e-03 -1.611593626316654149e-01 -6.556056409496614779e-02 4.941272128604164426e-01 -2.750675799913316899e-01 -3.961588169823771488e-01 -3.112961211523760166e-02 -3.025393117175737001e-01 -2.510787866029331461e-01 -1.016773770808911403e-01 1.979353177164934127e-02 -1.691735442609659246e-01
1.286416620464581884e-01 -3.192068743944218023e-01 4.029351765356045667e-02 -4.772074378694253771e-01 -5.250945837447958953e-01 -5.117114856344637253e-02 2.750365153197700807e-01 4.972948574585625003e-01 1.261199968768689783e-01 1.888531708766439179e-02 -2.485152507250447673e-01 -2.434877052939448394e-01 5.575718080481134598e-02 -9.508383976500071888e-02 -4.882346621630969663e-01 1.425860941800737858e-01 3.878799779016235405e-01 3.793022344823138714e-01 -5.312159271814086842e-02 9.161932819921311810e-02 -1.633728121861467708e-01 3.736749894757686596e-01 3.584758198964404508e-01 4.293955784771906758e-01 -4.584613888337134568e-01 -3.206888819804669666e-01 -2.550618059399883952e-01 -2.122613600554918434e-01 1.014359067878875809e-01 3.456039572140823246e-01 -1.881693501334359420e-01 3.821633955858481646e-01 -6.322163902111831157e-02 1.803475261232802664e-03 -1.834549358573966948e-02 -3.385003797474450682e-01 2.825934659136767890e-01 2.072257184025013410e-01 -2.427909452714277494e-02 8.655346240184470796e-03 3.008892600039452248e-01 1.080196074438805054e-01 -4.797486504395152840e-02 -1.008855794061253551e-02 6.552501732813703628e-02 -1.355939086813497951e-01 3.041721796182910165e-01 -2.663311400605807289e-01 4.061837774323248662e-01 -6.550751891848106967e-02 -1.852903391976101211e-01 -4.597468407006774505e-01 2.730975312268453803e-01 -1.371375356917315380e-01 1.312380914122948106e-01 1.908624515250655906e-01 2.245843353385560889e-02 1.201383473771057558e-01 -3.777459260375378158e-01 3.254784590476978434e-01 -2.954955783085850274e-01 -2.445133109313864794e-01 4.224947722988450782e-01 -2.280033874775964364e-01 7.039117817007459199e-02 2.964094957045398382e-01 1.624975889090595205e-01 -2.005944811544215223e-01 4.552646489822665399e-01 4.227808949837483232e-01 1.587544843808360029e-01 -1.105196176446012341e-01 3.963785846504028765e-01 2.638776597858750739e-01 -3.357031375442832699e-01 -2.649035162331707730e-02 -2.586645921254647762e-01 1.013924342414092294e-01 -4.172407302245741412e-01 -5.326202909111495964e-01 3.198771872985462505e-01 6.040309199520974698e-02 -4.575986968201652960e-01 5.451428714281968818e-02 -1.912214333819211784e-02 5.138546362065510298e-02 1.694605310799959241e-01 6.959479763011214293e-03 -4.174930707987135614e-01 -4.353575236086485445e-01 1.257562366672173859e-01 -4.181223934452369395e-01 -4.588324437352988006e-01 -1.686339080555585290e-01 4.620553225310048973e-01 7.187941673773490248e-02 9.686641989735197966e-02 -1.685133325454044317e-01 4.503370641714860012e-01 3.090810264323024664e-02 -2.532943828034350461e-02 -4.505046033509068071e-01 -2.380859880845684617e-01 2.801874416568592152e-01 -2.331115715768205532e-01 -4.141556890698397386e-01 7.339863025325069068e-02 3.745267142132172739e-02 2.058332327891961855e-01 -4.223165380583844830e-01 1.720004264516325834e-02 -3.308346848411535257e-01 -4.576648306918451592e-01 3.199685761248182714e-01 -2.446276236720408837e-01 6.078629699414950932e-02 3.276528671100267798e-01 -3.720285955386873344e-01 -2.570844630792450403e-01 -3.897237249598213826e-01 -2.011660084502754076e-01 4.856091857052020899e-02 1.067552505449615718e-01 -2.280176086870128738e-01 -3.748229834610925515e-01 6.197461581237634007e-03 -1.554703749771544075e-01 3.511260724736069982e-01 -3.277402879384984646e-01 4.522955983278835190e-01 -3.358315915114876149e-02 -1.160480712662756257e-02 4.132237238683726943e-01 -9.597148045962156093e-02 -4.815214134554026693e-01 1.938689132259492076e-01 4.688341040444614638e-01 1.447702547911566551e-01 -1.019597252125003239e-01 -4.666787450891018429e-01 4.646725875824405660e-01 1.192679610309175797e-01 -5.617544811412174266e-02 -3.119972557538685382e-02 -3.713815673773246950e-01 -1.494153492294068020e-01 -4.330125884425926608e-01 3.067364102438576157e-01 1.218027594112770229e-01 -2.575853613594765723e-01 4.787646322668203114e-01 1.920914463708676134e-01 7.027491169946641081e-02 -1.347120910140067185e-01 -3.638966803612854184e-01 3.551650232843292510e-01 9.778493889863928978e-02 1.295121078749183197e-01 -5.153464442660707912e-01 -4.474659650500866226e-01 -2.326502760555315685e-01 -1.987556166075087893e-01 -3.685456640484356949e-01 -1.755149581115797996e-01 -3.315264598040797983e-01 4.453749217605575406e-01 1.104932753761541653e-01 -3.967014002876893429e-04 2.404984673778901016e-01 4.661061584798379398e-01 -5.155019441429481430e-01 2.622114243674039669e-01 -4.075367178180840932e-01 -2.502884289045054222e-01 4.881317116596702033e-02 -3.107401471871246712e-01 3.839164131104678135e-01 3.057760847622308931e-01 -2.021028555303358010e-01 4.670260584606790721e-01 -3.637821163399176244e-02 -4.489761285905549681e-01 -1.288558073853677821e-01 4.191500863953087075e-01 3.624286372394758260e-02 5.459845428022058050e-02 -4.504941759985475747e-02 1.138543707168087893e-01 -4.675773493912605550e-01 2.916713987583542389e-01 2.700167380358571290e-01 4.093601890341113103e-01 3.499729819960974431e-01 2.627851864082908495e-01 -3.158454614725665355e-01 1.832531558865578281e-01 2.456257471201113984e-01 2.392899536988793707e-01 -2.693723659890963629e-01 3.821742386796851965e-01 -5.399314263418031334e-02 4.769642626529203566e-01 4.090938513199249837e-01 4.040907605188078788e-01 -5.967576332573365505e-02 2.093788601152651863e-01 -4.307019566070428573e-01 4.618358964935869171e-01 1.150995981737211876e-01 -4.461664302809571492e-01 2.572590764821300890e-01 -2.382412892321161269e-01 -3.949432475281746124e-01 7.218350657979995255e-02 -1.781687777553955798e-02 -1.453293600829496934e-01 2.052744010516570905e-01 4.214435610192744930e-01 -9.310649776895950358e-02 -2.756161692431340904e-01 -5.662666976741983355e-02 2.150401743490060469e-01 -9.639989509520063837e-02 -2.832149789256478423e-01 2.541506262944998040e-01 1.823826518541903086e-01 4.640326982057887406e-01 3.888798620375303883e-01 2.311846333875276494e-01 4.464950973289338876e-01 -1.453624864099773428e-01 2.749309801815749132e-01 3.856545463977065769e-01 -2.193070707070753425e-02 -4.438529924500189128e-01 -4.482978442503384175e-01 -1.840293129811376993e-01 3.961854191616523413e-01 2.549645379482654572e-01 -4.876814427741086623e-03 2.836280776283598426e-01 -7.504301745131414236e-02 -2.320141536168394414e-01 -5.618194047124711044e-02 4.609820442598246415e-01 -1.458978340397433793e-01 4.833573821347427434e-03 -2.129619438035646600e-02 -2.403354941585097992e-01 -4.991441112369158772e-01 -1.108947422711209635e-01 -2.595636759607883315e-01 -2.932769114544460098e-01 -3.337460933978338984e-01 4.325917213721303667e-01 -3.916454046468997308e-01
3.608601039452611903e-01 5.680680434017839481e-02 3.480414710138803325e-01 -2.568901618192813152e-01 4.320438952487357653e-01 1.214471987696730676e-01 4.299110659514590038e-01 9.423496613398009425e-02 -3.286864449688469136e-01 -1.872497818010987747e-01 -1.762128584676234122e-01 -3.759971216016962936e-01 2.197967231899346785e-01 -3.931093837412035219e-01 7.417277857957985110e-02 -1.121340852314600331e-02 -2.841742347300540428e-01 -2.456121478625044319e-01 1.787236467388979289e-01 -1.002256311391528931e-01 -3.407501602745537095e-02 -1.899160778906457958e-01 -4.732976009591505773e-01 -1.514505717421931741e-01 -3.275677824292508311e-01 3.053460394039201331e-01 5.142040662044038424e-01 1.182883396102545337e-01 1.059321433367031717e-03 -4.443873920513489728e-01 1.328394054993587703e-01 -3.999191409970354605e-01 -2.231007062814805986e-01 -1.495636086056470193e-01 -3.528824658253632007e-01 -1.917525567683313059e-01 1.162473459423570138e-01 2.106858893611482722e-02 -2.477073455451935524e-01 -4.732359601658604059e-02 -3.919354123652600830e-01 -3.704780980590792194e-01 -4.156552418979020946e-01 3.352593662811305386e-02 8.353642926320993534e-03 2.564851367938925097e-01 -3.273503986510651886e-01 -8.533120597854430833e-03 1.933044810979379358e-01 1.921476306159396880e-02 -1.447078940942216063e-01 -4.470471191109832154e-01 -2.412203052775973577e-01 -4.634030638630837751e-01 1.215556145885152012e-01 2.471709783751254164e-01 1.714064445818488658e-01 -4.193399250846749915e-01 -4.682256741259009369e-01 -1.713885103773345187e-02 2.442232399866922088e-01 -2.273137006828571394e-01 4.162312978002141173e-01 -4.206579369324867090e-01 -2.919094954661595187e-01 -2.328125719799603310e-01 3.127208710855794438e-01 -3.944279236941591882e-02 5.531967555942561565e-02 4.544126072841412345e-01 1.747474697423160583e-01 -1.884753948926620737e-01 3.920214248339525254e-01 1.493575839623412574e-02 3.724666001818535688e-01 -9.242477726835390817e-02 -7.903243966377740404e-02 5.013919715025584312e-01 4.673353133286716754e-01 4.081442527157347899e-01 -1.692177721817078595e-01 2.887454368129088178e-01 -3.955735515135457847e-01 2.549364202184133399e-01 -4.205476694804871629e-01 -6.118356414985982178e-02 -4.760911026263132118e-01 1.425270710172946986e-01 6.431488045410313492e-02 4.879193988059141729e-01 5.249155779194516480e-01 -7.983355421158040699e-02 -2.055308380082676023e-01 3.003522204925877515e-01 3.417188235016863640e-01 2.393882606776062960e-01 7.943994106668293698e-02 2.644264136517123776e-01 -3.832538449533448022e-01 -1.490580593601693003e-02 -4.748904433897652155e-01 -1.367009037525572512e-01 -1.758397056284524140e-01 -3.359023551745443648e-01 -4.342219574047079811e-01 3.709280847090650757e-01 -2.935180825106754043e-01 -5.300069884478425530e-02 -1.279197226074188232e-01 2.357412953847609904e-01 -1.373056582064449693e-01 4.140944073956660809e-02 -2.876364730317288454e-01 -1.210412381491444700e-01 1.669826969763449354e-02 -4.804093428204548877e-01 -5.109589220399336496e-01 -4.549846731174850278e-01 -4.536164676984020816e-01 -2.966560591066226826e-01 4.316956318530616454e-01 1.795522788136735270e-01 2.582488579596720069e-01 2.729467678104644524e-01 2.754161894900507557e-01 -4.048853791431927251e-01 1.492204630060078308e-01 -5.189762528131725700e-02 4.302884441407689997e-01 9.554739063559368473e-02 -1.016543708114525379e-01 1.282343523097993765e-01 2.414244652803100577e-02 1.035732520196121081e-01 -1.513891162618466735e-01 -4.138230817995182109e-01 1.233599843698079956e-01 -1.665321185802915993e-01 4.393326521725458012e-01 7.627149956215024951e-02 -1.159840199795408588e-01 -4.654895659380263173e-01 2.032989256956616864e-01 3.220228281209102650e-01 -1.104107187723825934e-01 -1.077305532336556536e-02 9.758871646545462519e-02 -3.974391153506431212e-02 -1.438124104785469537e-01 -9.636010063880608156e-02 2.206302651540675008e-01 1.848145166931527139e-01 -3.544966436287481093e-01 2.828182977708114665e-01 -9.379894788918553827e-02 9.382850190514804845e-02 -3.627800670062207300e-01 5.473490955853928253e-02 -4.065007918327598335e-01 -3.663828416173267599e-01 3.117025250777620271e-01 1.166087658558154520e-03 1.705331759034932060e-01 4.694861058028583223e-01 3.602294208737999992e-01 2.005385122991595048e-01 4.521622809333242926e-02 2.613907566331026833e-01 4.270002820272550403e-01 3.339121296309744968e-01 1.857399133389161239e-01 -3.626523663815514054e-01 2.790942846944688416e-01 3.989727779724155932e-01 -3.848562942647354990e-01 2.668805018484877167e-01 3.120341142677418578e-01 4.695745716034793182e-01 -3.913818565239892688e-01 -3.257270169551760852e-01 4.143188613803795023e-02 -3.596334606546322532e-01 -9.684854063421044490e-02 1.471672987050751669e-01 1.297679632196158984e-02 -3.146494216796262844e-01 2.705991645962698700e-01 -3.499127605481236469e-01 -1.550538003604609860e-01 1.165796131928341708e-02 2.176770882646602845e-01 4.597426063825258424e-01 2.081231041606203258e-01 -2.042874665128849992e-02 4.043363036144423384e-01 3.462316801028848812e-02 -3.016862626301431219e-02 -2.547536781484880525e-02 1.647212551572290185e-01 2.533033237515975866e-01 -3.852504878005048039e-01 4.192748345232324425e-01 3.380283015432082316e-01 -2.166571221992295015e-01 -1.318477344739869550e-01 -6.120127085920139265e-02 3.351675175453837641e-01 3.884132652251565034e-03 -2.359702579862467398e-01 4.618460636608403558e-01 6.796729916820834494e-02 -3.543244298592308494e-01 2.334914668736085275e-01 9.423782681988655818e-02 3.174119818855294928e-01 2.010116912409768697e-01 -4.220074659308296061e-01 -4.102052289263184437e-01 2.875175776112095516e-01 -1.922133782238001909e-01 2.947209543208438309e-01 1.366830406834139422e-01 3.261518523328744701e-01 2.702515120651455827e-01 -5.264193783528667292e-02 -3.310730950344331625e-01 -2.041227827477898882e-01 1.785003686082621277e-01 3.955280138516863442e-01 -4.908712385569402037e-01 -6.317933744061844659e-02 -9.229757781200748079e-02 -1.561269003717255348e-02 -4.299282662240553332e-01 4.738688812916354021e-01 1.687865489726013135e-01 -3.368104225245035360e-02 4.369953207518324778e-02 -1.193459319204750839e-02 -2.029545346782196946e-01 -6.747870230085221965e-02 9.219961166110272888e-02 3.175649319500276069e-01 -4.475055279327989632e-01 -4.053250125318829111e-01 -4.175240607402180282e-01 2.884869223389578963e-01 -4.653267595393251188e-01 -2.483689805557204033e-01 1.134799559721740292e-01 -1.873214069098638745e-01 -2.121374665617273003e-01 5.943396570368700976e-02 -2.722959818115366915e-01 8.562194191933965304e-02 7.115622256292768177e-02
4.222143804964649250e-01 4.116943210881983117e-01 1.472128883785322473e-01 3.654891585276852650e-01 -3.458125493107340187e-01 1.321685995403688862e-01 -4.331807782978210758e-02 3.823034022195180848e-01 -3.486610661211883011e-01 4.717840435229872509e-01 -6.730459253772259551e-03 -3.299295347200241202e-01 -1.825997543825175207e-01 4.796419158849046793e-01 2.700450686856501956e-02 2.574804978613482453e-01 -1.041595227068345259e-01 1.565531258512245782e-01 2.798239609694422314e-02 2.669108064241806910e-01 -4.847170704240542083e-01 -4.517117372459646951e-01 3.995746756485794859e-02 -2.097338129979576249e-01 3.910267278458040563e-01 4.950285971858258138e-01 1.947592519702692482e-01 2.261977724264554179e-01 -6.072368113451151461e-02 -1.101750441214076892e-01 -2.891747628579781071e-01 -3.331244955248746087e-01 -1.812169442134573816e-01 -1.724162104373245796e-01 4.431958122808007938e-01 3.797143822866153040e-01 1.630356710149711563e-01 5.035703732964935675e-01 2.720308746044813875e-01 -2.147926151875194367e-01 2.977936128161245422e-01 3.624647321480938267e-01 3.961396027968700495e-01 -2.566695648190951418e-01 4.443618647716383041e-01 -2.311385652754102682e-01 2.405387232087295157e-01 -2.651282680069935727e-01 -4.225102758801705938e-01 3.621874770916734265e-01 1.319090574820310224e-01 4.971611513965933371e-01 -2.877566600687024301e-01 -2.165355545919545877e-01 3.975296839886703903e-01 -4.248160517393801960e-01 1.138155188439225890e-01 -2.473328000089550227e-01 -7.835554406548785045e-02 3.790606167758703987e-02 3.387866315189226873e-01 -1.080011324169772441e-02 -4.471520913105381939e-02 4.680868257012156253e-01 3.435837369817843628e-02 3.815453965265426239e-01 1.311028161943193077e-02 -4.024439672960514192e-01 -1.994792039264696726e-01 3.569894750403267980e-01 1.248288078053042677e-01 -1.561555487874242976e-01 -1.857969034905946615e-01 -1.452956533754808837e-03 -4.801624676057449359e-01 4.149141552209858474e-01 -9.041360069335623029e-02 -7.652819991487697093e-02 -2.736703484922015095e-01 -5.293299308186312502e-02 8.542374694894572240e-02 4.825894026016635530e-01 5.861210419749424139e-02 -2.743136194562433849e-01 -3.066465191891707409e-01 4.232394864689493219e-01 4.807680720166075949e-01 2.844539494862737827e-01 3.951930354688389935e-01 -2.269337087094378813e-01 -7.169540105460268931e-02 -3.106651863023938143e-01 4.935621021484935117e-02 3.778926646848769777e-01 4.609087430036536426e-01 -1.908524251645485892e-01 1.047707911952784343e-01 3.157563186701114466e-01 -2.165196694365938146e-01 1.674448707684825233e-02 2.304746830860567863e-01 3.677626037350171795e-01 6.401664303215014173e-02 -1.380876153356815073e-01 3.015709242228110654e-01 -3.112854271233671533e-01 3.776471630719033246e-01 -2.281006990325246120e-01 4.520622993458048855e-01 1.658466428605960274e-01 -4.966387655611268631e-02 8.377628805486309060e-02 2.415701529759859689e-01 -4.159779034190288494e-01 -2.334919213340351796e-01 4.052667721097780174e-01 -3.163169830603969057e-01 1.810833224683639497e-01 -1.596698290138287291e-01 2.554394198533166960e-01 3.714121899912422031e-01 4.154558308452944160e-01 -3.920496356470819510e-01 3.832543079715202694e-01 3.954382185894836366e-01 -1.932977437376614538e-01 -4.743020035596111073e-01 -4.977070301178955214e-01 1.656231316499286732e-01 -4.675729276910826071e-01 4.638286014874502539e-01 4.986769890268184513e-01 -1.001431286593986447e-01 -1.694566264994326610e-01 2.074998857108294736e-01 2.499449390390809655e-01 1.322085508869947079e-01 -1.439140191521671164e-01 1.813756308231431469e-01 3.205627556748928408e-01 4.983605986790271003e-01 2.640324026507046562e-01 1.005839980146430723e-01 3.676580083152559131e-01 -1.360970038409821670e-01 2.610655856190862156e-01 -3.846953669108199581e-01 3.992211242205204180e-01 2.845497106069578286e-01 4.145379682133966126e-01 4.692877180959615369e-01 -9.118554625766484012e-02 1.548465845914250016e-01 1.955277928139663168e-01 3.466215061480585335e-01 -2.577623316136309906e-01 3.294077475375147279e-01 -2.827320539226122476e-01 -1.469578448365171652e-01 5.425846939009958819e-02 1.665577047684703438e-02 1.955609485432415473e-01 2.017237519933409023e-02 -2.967691081498711747e-01 6.263669055295079113e-02 4.784301184077541791e-01 3.905276508401160918e-01 4.997371130518334786e-02 2.506679808336932380e-01 -2.589058206912135396e-01 -3.039519942901416916e-01 -4.907978446002624340e-01 -4.768736118248823042e-01 -2.429657625723323500e-01 -1.173881458110776349e-01 3.052205652536659763e-01 -4.111509863523524766e-01 -8.131396143165720014e-02 1.789154668951227489e-01 -4.594505168572472487e-01 -1.419573899733802824e-01 2.757423920112070034e-02 3.446751336701281976e-01 4.399038751013672477e-01 -3.901815234295777923e-01 1.243107250658400526e-02 1.202077932161330770e-01 -7.613591314015151490e-02 -4.189870897573725883e-01 -2.250474035846603549e-01 -1.121766349400792895e-01 -1.683892674211136531e-01 -7.890762693552572093e-02 2.760582878668900730e-01 -2.034306187284211365e-01 2.945445076433831910e-01 2.856104526242255193e-01 4.109873091634391740e-01 2.476464476715584673e-01 7.924987801617885963e-02 -3.474648496295973388e-01 3.571448278903133766e-01 -9.705919831156785416e-02 3.946295273370172274e-01 -2.554952371605384021e-01 3.805612692715352186e-01 4.630128330600277731e-01 -3.044515934404196100e-01 -2.592879606474328136e-01 -7.756078791984197252e-02 -2.796505261531508357e-01 -9.977062889153569258e-02 -3.089007176055840742e-01 3.987385062488907339e-01 3.856119444716691325e-01 4.313806791044401678e-01 2.843605299087789140e-01 1.896305772953505997e-01 -6.872005323710976554e-02 -4.482663187030670460e-01 -7.888109556044017867e-02 -2.730177192680979803e-01 3.627593449118237112e-01 -1.104640217433680016e-01 3.225482901979533773e-02 -2.062940600346326592e-01 1.066634871703932008e-01 -4.589727807391322800e-01 -9.448047415016362638e-02 -1.098909106776055911e-01 2.665325504922672062e-01 2.209219616171357869e-01 -1.097953233637761206e-01 -2.701472245085553836e-01 -1.859727177132408926e-01 -2.215575633979254833e-01 1.986528452926020205e-02 -2.483173625647990546e-01 -4.045172328477319446e-01 -1.338402070261273391e-01 -3.596165169251981375e-01 2.645603452696082547e-01 4.311322141334754665e-01 1.520391780278956828e-01 1.694892332984698213e-01 2.412212969982927280e-01 -4.870343681614217601e-01 1.896160657409970696e-01 1.759731840868887509e-01 4.300640372101023345e-01 -4.265193600179681965e-01 4.672109170600313166e-01 2.253439072006120369e-01 -3.066327715619238670e-01 3.117320262289104416e-01 -3.559854330716247794e-01
