2.728898327822425696e+00
2.933669548356145351e-01
2.653605433731432983e-01
2.604450016834331527e-01
1.139165119048039188e+00
-3.588930547829737527e+00
-3.132112975220645579e-01
2.615855083294591488e-01
3.244843765511359113e+00
1.611766594840267075e-01
-2.270389684400641261e+00
9.094791960657941932e-01
6.298545724560722370e+00
-4.410498642170648687e+00
4.994752570208818021e-01
-2.107286062702725671e-01
1.633441588168263736e-01
-1.205026771326386692e+00
-5.034311465903437005e-02
-8.591325111721985763e-01
-4.199127989801016980e-01
-4.463585864600759123e+00
-1.667941875561290421e-01
-1.383168684099296497e+00
-1.249600386107955208e+00
6.516594191885747289e-01
-2.620337226346474147e+00
-9.691734506199914945e-01
-1.188815779254078331e+00
4.296639935898264540e+00
1.682764775066437624e+00
2.034196351266434721e+00
-1.213911327591520317e+00
-2.696985911254969892e-01
4.132908389406275695e+00
-1.129416337889928457e+00
-1.981118928287141756e+00
-4.197560998924159681e-01
-5.173038540067333990e-01
5.567735141161681556e-01
6.930607465127073263e-01
1.742156422311224473e+00
-3.019270468340193303e-01
6.941147516330695710e-01
1.259892019519471829e-01
1.430417649847353534e+00
-4.279265200876801734e-01
3.655479686916072307e-02
1.078086526421113023e+00
1.442665489490592146e+00
-8.293107144676240550e-01
-2.371479353793813249e+00
-3.093993149711931068e-01
-1.377797475087144674e+00
-1.872320498634793273e-01
-3.916072398001851917e-01
-1.184684526529939497e+00
-3.021607533443565252e+00
8.620215358197620414e-01
-8.865077864749929537e-01
-6.052872919954243036e-01
7.544111712118717339e-01
-2.662765932028948734e-01
3.002160443188498284e+00
3.914130362163042776e+00
-4.414140920181094607e+00
-6.387944713598380231e-01
9.706875498314126993e-01
5.067075623534599060e+00
6.803104852348199616e-01
-2.640777982682738667e+00
-1.197181064994853744e-01
-1.297933395473827300e-01
-4.406029566221664751e-01
1.934754092955346838e+00
7.878292932978869789e-02
1.332087313276529295e-01
3.439087085675489153e+00
8.738831207382822264e-01
6.985109638872573079e-01
3.549340868152872641e-01
2.656188000500105811e-02
-3.160836582581486726e-02
2.633667481187815795e-01
1.398284517547323746e+00
9.420943847965150830e-01
5.897658940601881561e+00
-1.119204041984256826e+00
5.045547233172731350e-01
-4.207790847772283627e-01
9.388027029313469329e-01
5.576957274773569617e-01
-4.063498064162439083e-01
5.908719628109500022e-01
-6.521255695444695411e-01
1.505280031881021108e+00
-1.460477981067149544e+00
1.584271565052756348e+00
-1.897836263824030700e+00
-4.108149011974750131e+00
6.341408287348944128e-01
-7.610466341169322968e-01
-1.886677198457997751e+00
-6.538368795893402530e-02
-7.144969287705200678e-01
-3.528103146856236716e+00
-1.206190933706767776e+00
-2.035863594953275513e+00
-8.486246626246751745e-01
-4.309337123381017931e-01
-6.020996991818143851e-01
4.978754757862532965e-01
-4.236884744382189982e-01
2.539156561137675960e-01
3.551476050276732022e-02
-3.360561481956311214e-01
-1.857751490899859359e+00
2.912600841053282763e-01
-2.518322746793394962e-01
2.926541215380299987e-01
8.933226934119818941e-01
1.581912578529876545e-01
-2.553977248633176433e+00
1.085938044437250838e+00
3.770179993336147284e+00
-1.617000858782569495e+00
-1.068956096418215429e+00
6.258392709897024897e-01
-1.202595695819458355e+00
6.435989554399794699e+00
2.632685418353451490e-01
-2.935512761096645828e+00
-9.808757044343098253e-01
-8.746174306963765410e-01
-2.299120351144281482e+00
-4.880732760033817286e+00
-2.244879341007456564e+00
3.759218417822089986e-01
-1.823664986550928013e+00
1.546305280886204780e+00
-4.778742961724039562e-01
1.414854475613425588e+00
-9.864761862133765158e-01
5.017504280451683396e-01
-1.743800693440877014e-01
-3.357561379070911900e-01
-1.402892838960321020e+00
3.096542751183713804e+00
-4.552743327098066617e-01
-1.876962140340578955e-01
2.324351115652380173e+00
-6.523086416609824578e-01
6.582503303588242982e-01
-1.059581490244499768e+00
2.022661056905719512e+00
-3.090274214340904990e+00
-7.438902762350282361e-01
-3.426684848982162745e-01
1.913623833720099476e+00
-8.222537345993929936e-01
-2.201127840499254695e+00
-2.240918660036909316e+00
8.924296136291229864e-01
-9.540095189538646547e-01
1.748326676820331604e+00
-1.667934367866067413e-01
-2.290709704997520579e-01
-1.046127576113117685e+00
8.251112261396329473e-01
2.338028199176174660e+00
-4.194749190830285634e+00
-4.404417416256440898e-01
5.595773312559546575e-01
2.274245326775254039e+00
-9.202945795214411140e-01
3.251198935004198542e+00
3.893345621064876472e+00
-9.790127203330939443e-01
5.695668583536186436e-01
6.851500184320997722e-01
-2.032009162778580513e-01
1.612720519437949696e+00
1.476170405678808750e+00
-1.826369118554819482e-01
5.935164036149341849e-01
3.704759502161434903e-01
-2.020853011996832649e+00
2.652544379370690208e+00
-3.019776959653192594e-01
-7.952555589404712855e-01
-4.198955539360124667e-01
-5.656234327807614370e-01
-2.718749026930003421e+00
-1.135497318775855469e+00
-1.549612377853355261e+00
-6.540858075982001196e-01
-6.518701573534723126e-01
-4.668369674802670399e-01
-3.321866048502370994e-01
-4.514639148344071207e-01
-3.779055098712844618e-01
5.517180638815409877e-01
-1.096636397865685231e+00
-1.470194564265229209e-01
8.668544774455215762e-01
2.251318550466879564e+00
-2.685432784865784406e+00
-1.444742827992927525e+00
1.706429653985761519e+00
2.176552358862556602e+00
1.331687457848552969e-01
-6.911720674136397902e-01
-2.242900529885393901e+00
1.857666804549427952e-02
-5.644187825111611767e-01
-1.434824062759950669e-01
-2.766474319782595837e-01
7.993566604572430734e-01
4.642017365123992656e-01
-2.600511453351561086e-01
1.722898384118492165e+00
-1.436864338445055012e+00
-2.978576454904561466e+00
3.977017818089602641e-01
-1.984482351710854076e+00
1.033549059275447934e+00
2.372684911703741850e+00
4.653253637041246393e-01
-2.814799073411752062e+00
4.511325110562265928e-01
6.951456190727549611e-01
-3.483010927041628735e-01
2.613736161701783467e-01
-1.616046661791790129e+00
7.747913674940555273e-01
-6.120268171469330776e-01
-1.613556867908474191e+00
-3.781828388182382761e-01
-1.498922392768539780e+00
-1.648522588149754498e-01
6.586950256193302433e-01
-2.021900553309150250e-01
-7.219225414208699787e-01
-1.082575371376435447e+00
-1.840051404518764810e+00
4.654236971031139980e+00
4.699666281434406123e+00
-1.172046893056869932e+00
-2.008745545679102573e+00
1.119462773972912384e+00
7.207090390739592234e-01
3.918118505680100228e+00
-1.513813056109995392e+00
-5.310969139665960848e-01
-9.278833373477178847e-01
2.510758592621456509e-01
