2.332105741748250249e+00
2.709224961942236498e-01
2.374742503341378819e-01
2.508477083361770887e-01
1.040357160419078886e+00
-3.484013701613091651e+00
-3.379786319513675696e-01
2.410575829192370123e-01
3.016251047730353907e+00
2.218909526436082802e-01
-2.131062981398673450e+00
8.105775469624846297e-01
5.902206263940491304e+00
-4.040231652925086792e+00
4.729407019951542557e-01
-2.175803955162600722e-01
1.138754623034371471e-01
-1.136171166860007631e+00
-4.382372816240389518e-02
-8.011998446451281675e-01
-4.395165923153601661e-01
-4.220322828818448890e+00
-2.329874708101211389e-01
-1.312139293091708625e+00
-1.196167372825164721e+00
4.868214828966029306e-01
-2.338635379141336568e+00
-8.883945186578235953e-01
-9.914358191775424212e-01
3.929751150743119759e+00
1.529585166539351171e+00
1.752279769547950172e+00
-1.179543519177222333e+00
-3.164340751139872454e-01
3.402968516726475823e+00
-1.093772455023286350e+00
-1.877995630688917839e+00
-3.266106569475701882e-01
-4.677456001936849406e-01
4.647203818104542750e-01
6.450708885734480758e-01
1.629370945530160819e+00
-1.806321937586406468e-01
6.549395535269779689e-01
1.283671431632863458e-01
1.235113144983507549e+00
-3.991510029064030407e-01
-8.936986779540014025e-02
1.003849091952724537e+00
1.315498360845431813e+00
-7.735986680595775544e-01
-2.207519315385600311e+00
-3.186908906241083805e-01
-1.280625865391800566e+00
-1.295365168631204544e-01
-3.641878298089604726e-01
-1.119444729257675686e+00
-2.650726078461803414e+00
7.688454658586280077e-01
-7.850337571739355313e-01
-5.907508841286449597e-01
6.543935189661650442e-01
-2.498336605388477849e-01
2.051314547101320773e+00
2.994252634824206449e+00
-3.978124023654996400e+00
-5.752954382321898708e-01
8.857434954557773521e-01
4.591745162765882071e+00
6.640958021221591290e-01
-2.597301129748632142e+00
-8.180543578165525020e-02
-1.422536769541595802e-01
-4.247432961278241326e-01
1.705114243157356713e+00
2.501835584712424482e-02
1.858674116171264434e-01
3.406175581611752712e+00
8.045922105975493732e-01
6.472019270490657616e-01
4.172923131329924207e-01
1.801011620488590995e-02
-1.707215233403058460e-02
1.703500624252801687e-01
1.468980846158368880e+00
8.834170072084919223e-01
5.537980235564998743e+00
-1.105113021656664696e+00
4.566879777269061691e-01
-3.813542088722317591e-01
8.744036848523403238e-01
4.994124429608519655e-01
-3.420735237459185396e-01
4.726382051831717335e-01
-5.984313683747001233e-01
1.431923844445412097e+00
-1.448232807200988015e+00
1.405425851626321165e+00
-1.646488981658848161e+00
-3.959962028264798484e+00
5.368841869468424788e-01
-7.384283016015160683e-01
-1.778426540186639038e+00
-6.527750817503179259e-02
-6.918421115077429961e-01
-3.401186448639316851e+00
-1.214270362034788553e+00
-1.320856412708519168e+00
-8.003622025639097748e-01
-4.069927687654062987e-01
-6.279990355820164183e-01
4.943901246771525426e-01
-3.996518010044180502e-01
3.029515752285776298e-01
-3.723809062370481843e-02
-4.124157675661963562e-01
-1.539898295224388702e+00
2.847414375966688671e-01
-2.085799097633858346e-01
3.128454736887313903e-01
8.532735977000449612e-01
1.210339180866440018e-01
-2.087359811400173903e+00
9.774763044731004102e-01
3.617110891178235033e+00
-1.634265146788295597e+00
-9.169510544780947736e-01
5.836591283708534306e-01
-1.138911856007088108e+00
6.489685977587971166e+00
3.174000620196324451e-01
-2.630575885027154115e+00
-9.220301590668020797e-01
-8.503417576005777301e-01
-2.211563262263757323e+00
-4.382737335320838312e+00
-1.921142403027835677e+00
3.256005555135493834e-01
-1.527523412302103312e+00
1.535743237682035911e+00
-4.599329354391613611e-01
1.321205595988670378e+00
-8.652473959695117234e-01
5.424296665706439535e-01
-1.664065741653080743e-01
-4.107747973574515377e-01
-1.281124371676294782e+00
2.150375134484396877e+00
-4.188809813827935602e-01
-1.606865848081049375e-01
2.044363626926360755e+00
-5.505190316951921181e-01
6.136390603884785966e-01
-1.064949463996958112e+00
1.787463249317621683e+00
-2.403121030630572363e+00
-6.861311235894338445e-01
-2.884884039947250289e-01
1.444591165062818705e+00
-7.843238830244018134e-01
-2.234688181486691683e+00
-2.056216784704924194e+00
8.356068104525105067e-01
-9.754891134939184250e-01
1.337907282092215100e+00
-1.918242241477842169e-01
-2.220754291477745057e-01
-1.075090053608345642e+00
8.237807635161952247e-01
2.047957459487259158e+00
-3.679114011437727871e+00
-4.760125702687703075e-01
4.810114722083696503e-01
2.084982170793912459e+00
-9.053356412518299701e-01
2.847180185093939109e+00
3.390168139689339277e+00
-9.149309441715748337e-01
5.496848681667981795e-01
6.126186229233104852e-01
-2.397721457309796855e-01
1.369298854835788282e+00
1.346174390578982916e+00
-1.563778099720370685e-01
4.714093533374111300e-01
3.269809209125190130e-01
-1.709176560274164425e+00
2.386801283786789352e+00
-2.883594972931396438e-01
-7.917316085462465791e-01
-4.248455251466982108e-01
-5.435949156700060625e-01
-2.200191245912147320e+00
-9.934683901103565917e-01
-1.507273482497026418e+00
-6.736705924205845797e-01
-5.792715865858593105e-01
-4.910461239539081202e-01
-3.293573882127210362e-01
-3.833039476305496462e-01
-3.447922362696651533e-01
5.332625015477112651e-01
-1.039346382564179549e+00
-1.135748245353899594e-01
8.097568982841053531e-01
2.172413337735637828e+00
-2.473456502511607535e+00
-1.358457221519680624e+00
1.632739760682288210e+00
2.020093486847446496e+00
1.420299798041945172e-01
-6.955065268958808833e-01
-2.344575641745610728e+00
8.448699139290560475e-03
-4.521648659477452981e-01
-1.686731701230084479e-01
-2.892184956747307356e-01
7.283359128137398830e-01
4.222177454274440578e-01
-2.559413238862706108e-01
1.639970965011306570e+00
-1.319704017804875562e+00
-2.350110834804773674e+00
2.696629052779984104e-01
-1.634894823095331740e+00
9.389846648283328712e-01
2.300453940105370521e+00
5.148424088601158966e-01
-2.432978769562114785e+00
4.647497793479010153e-01
6.752638393824177410e-01
-2.984401758442233321e-01
2.895873881709783437e-01
-1.443507354234553341e+00
7.921622362097883174e-01
-6.807306811907148925e-01
-1.464703375862936641e+00
-3.448475232824704806e-01
-1.445602406413443175e+00
-9.405296229293141907e-02
5.965568046146377812e-01
-1.589770465335304805e-01
-6.902784440541092081e-01
-9.088130417611581802e-01
-1.813767111395570897e+00
4.444882006776950334e+00
4.377379987056972510e+00
-1.055697458119634113e+00
-1.911874786476762011e+00
9.949859366387550086e-01
6.825622555718587892e-01
3.633617191713524264e+00
-1.544067748718561228e+00
-5.320870976499465499e-01
-9.291608663775471344e-01
1.414994339844024285e-01
