2.257102316430478872e+00
2.226287044682794258e-01
2.489548537657225447e-01
2.897733687647254808e-01
9.734332409099490935e-01
-3.103271265744263374e+00
-3.280750646927498293e-01
2.087125069863316751e-01
2.605191475221930286e+00
2.051726424041947494e-01
-1.974212716261527722e+00
7.055699498182612661e-01
5.733912591963122196e+00
-3.733857470116952015e+00
4.655488102671984096e-01
-1.811032898701344651e-01
2.026902043769256145e-02
-1.157385800441345536e+00
-1.638687804757498617e-02
-7.032130163339551654e-01
-3.222257639236483229e-01
-4.374827240482515478e+00
-1.862455719416090394e-01
-1.275645333839054540e+00
-1.185660449248065573e+00
4.358627911840061153e-01
-2.086489395239927269e+00
-8.611671816894365117e-01
-9.227467095003093478e-01
3.803766769073817944e+00
1.455977265689482492e+00
1.640869249359629967e+00
-1.168358432260815150e+00
-3.094155480142850023e-01
3.136566433572169910e+00
-1.022778873499585961e+00
-1.874449464591987580e+00
-2.874362328293733615e-01
-4.061116443420487165e-01
3.332739956450676000e-01
7.818158757879952736e-01
1.439821120784028574e+00
-1.544975429365390562e-01
6.318596035029475644e-01
1.287058750638999660e-01
1.238286655523400004e+00
-4.589163181560708682e-01
-6.888897668728599655e-02
9.092698189390853170e-01
1.274464188866259340e+00
-7.273961732825706683e-01
-2.162372731136500636e+00
-3.875603503957759099e-01
-1.248423461121852984e+00
-9.927225479177066714e-02
-3.161825859582471643e-01
-1.085594598742840367e+00
-2.337854903885092206e+00
6.944133714564537652e-01
-6.087291737421907101e-01
-6.085116620742213600e-01
6.370512368356785471e-01
-2.412305416902771338e-01
1.466083699192438417e+00
2.440167185614950274e+00
-3.261674234237022407e+00
-5.906107906463929913e-01
8.327198354385185741e-01
3.980340335478028013e+00
6.000329504262797986e-01
-2.566846405070417614e+00
-7.968647424663341527e-02
-1.970157378858521380e-01
-3.261297475042373994e-01
1.757261329764014945e+00
2.184626351614319187e-02
2.083615870707535012e-01
3.480988408016876257e+00
7.722793806951636642e-01
6.099174891942680254e-01
3.723111362330583374e-01
-1.088673753642167494e-02
1.205031177681178435e-02
1.305809678655023287e-01
1.401877373138099125e+00
7.910335092894354991e-01
5.069098285448461638e+00
-1.031963324629715961e+00
3.691544505246602270e-01
-3.142234452112071530e-01
7.922786499979276309e-01
4.930349651033150149e-01
-3.329994965312614297e-01
4.707372522100413126e-01
-5.401524183996254669e-01
1.420611648615325073e+00
-1.390471777454441282e+00
1.374339251848449628e+00
-1.400173933000121718e+00
-3.464529045457632961e+00
5.107810618292917271e-01
-6.911656454963079899e-01
-1.618933985028979450e+00
-5.858800781096376586e-02
-6.317994894411341766e-01
-3.129963301108198426e+00
-1.117767728507892633e+00
-8.706074436419325435e-01
-7.835708175276625553e-01
-3.631567222142546014e-01
-6.095096354502598235e-01
5.377212860700647523e-01
-4.099511663478046519e-01
2.952594860238834662e-01
-1.668473385172257462e-02
-3.314382227406859616e-01
-1.410388024014857855e+00
2.835730009728434919e-01
-2.014495020046286611e-01
2.633699961843740667e-01
8.486179534249688183e-01
1.256884521446377245e-01
-1.857727945523407254e+00
8.799477603588510277e-01
3.451389656461287370e+00
-1.481012734040025425e+00
-7.282657001489188930e-01
6.742938328474081811e-01
-1.071639556837659768e+00
6.273113690858757252e+00
3.078437030522527262e-01
-2.453926921376150538e+00
-8.422744338767639283e-01
-8.752724386857403394e-01
-2.116695052222277162e+00
-4.158179977816880424e+00
-1.803345714492269769e+00
2.675323737279046155e-01
-1.247183088921935523e+00
1.450908646867419050e+00
-4.387784907779909704e-01
1.356803409029409657e+00
-8.170476594727172914e-01
5.172745088309504968e-01
-1.960864519289995944e-01
-5.031070349861378466e-01
-1.221688041007325864e+00
1.546707725328647420e+00
-4.088077120598310743e-01
-1.387082728907318152e-01
1.791474269831545341e+00
-4.849406879920904467e-01
5.506999455527610277e-01
-1.043187578558116169e+00
1.540050524721854774e+00
-1.977526176838659611e+00
-5.511138418561686292e-01
-2.619760946309880878e-01
1.218483318590821263e+00
-7.773723903786620149e-01
-2.239069021769008572e+00
-1.854972520387171642e+00
7.519799693842910138e-01
-9.514532200576095722e-01
1.086206635880668125e+00
-2.071461102918832620e-01
-1.915086051817926627e-01
-1.099340138640359399e+00
7.028909483643411837e-01
1.940652720279264498e+00
-3.246107788578241671e+00
-4.580885540497810493e-01
3.940874580756833501e-01
1.980914636044864618e+00
-9.009273472626784240e-01
2.389944022771002263e+00
3.132168500953977919e+00
-8.244599506920183840e-01
5.271758370500130297e-01
5.984946983998177261e-01
-2.232022206978664935e-01
1.275257321062594373e+00
1.255444584376481654e+00
-2.023851451569100290e-01
4.415281818363045452e-01
2.589520651510707761e-01
-1.428912568338116085e+00
2.294611153997156094e+00
-2.357641297233995514e-01
-6.635757743983221602e-01
-3.500236823184238455e-01
-5.283962419272122402e-01
-1.859417632400216958e+00
-8.287378952767993079e-01
-1.335547059828420036e+00
-6.457992425546581483e-01
-5.295441386359450719e-01
-3.931895325217321657e-01
-2.518324370375465970e-01
-3.399929818161195327e-01
-3.328612739881825489e-01
5.336962684774835264e-01
-9.559179068026180115e-01
-4.610380425659003911e-02
6.895457753893016184e-01
1.830835754461339171e+00
-2.292990135419112896e+00
-1.332591762279752956e+00
1.471275927166329378e+00
1.743557608109860269e+00
1.396814351669641296e-01
-6.633827612364576742e-01
-2.342194304067640953e+00
-4.012505299632457278e-02
-3.833774131764380311e-01
-1.173369680724853925e-01
-3.200819611645840945e-01
6.551538123142186532e-01
4.335144808469220123e-01
-2.346043429308918848e-01
1.503064288873307008e+00
-1.186403787033626811e+00
-1.899289437848034501e+00
2.286798982122940915e-01
-1.422099450003200038e+00
9.053946109103392370e-01
2.142631034738462059e+00
5.010828049136133444e-01
-2.038831456856215585e+00
3.847996503138969016e-01
6.379626883017770478e-01
-2.398304007812549488e-01
2.832087324292059671e-01
-1.271982727555850179e+00
8.086517156264840800e-01
-8.162124412006388496e-01
-1.344099621024101410e+00
-2.888372310447648306e-01
-1.490635119899242911e+00
-1.073931419739608262e-01
4.922097183923318520e-01
-1.101900772490682356e-01
-6.639324291248805965e-01
-8.314836153212510350e-01
-1.799501748636837650e+00
4.056846257964888736e+00
3.910534693114088522e+00
-9.811189222434375523e-01
-1.848701894221823405e+00
9.671228082052418795e-01
5.344387021001272275e-01
3.421659171828695722e+00
-1.609404046429472102e+00
-6.226579041981632479e-01
-8.934901486672804927e-01
1.489659825669072957e-01
